svm_type c_svc
kernel_type rbf
gamma 0.000488
nr_class 2
total_sv 8
rho 0.346081
label 6 5
nr_sv 4 4
SV
2.655963596840053 3:-0.818125 12:11.010875 26:13.687875 29:-4.148125 30:-2.134125 37:1.937875 137:12.871875 192:-2.505125 193:-2.003125 291:16.072875 
0.1745441865135506 3:0.045 12:10.39 26:13.602 29:-3.993 30:-2.183 37:1.272 137:40 192:-2.414 193:-1.614 291:13.475 
4 3:1.215875 12:4.552875 26:40 29:-2.656125 30:-1.111125 37:2.152875 137:10.019875 192:1.313875 193:0.121875 291:9.808875 
4 3:3.1415 12:11.0735 26:40 29:-1.4225 30:-2.0785 37:1.2985 137:11.1645 192:-0.1805 193:1.6535 291:10.8875 
-1.3194143095309 3:5.362125 12:8.999125 26:40 29:0.813125 30:2.202125 37:-0.294875 137:9.780125 192:2.473125 193:3.765125 291:40 
-1.511093473822703 3:3.259 12:4.184 26:40 29:-0.144 30:2.221 37:0.127 137:4.666 192:3.112 193:3.014 291:11.221 
-4 3:2.18725 12:8.04325 26:40 29:-2.97375 30:-3.30775 37:1.03625 137:12.97325 192:-2.04575 193:0.55925 291:8.45825 
-4 3:2.724375 12:3.216375 26:40 29:-1.541625 30:0.436375 37:0.564375 137:3.612375 192:1.350375 193:1.536375 291:9.600375 
