svm_type c_svc
kernel_type rbf
gamma 0.000488
nr_class 2
total_sv 7
rho -1.0164
label 6 1
nr_sv 3 4
SV
256 24:0.822875 29:-2.656125 30:-1.111125 49:6.861875 144:-1.678125 160:2.311875 192:1.313875 209:-1.226125 311:4.908875 379:7.007875 
4.425997120615576 24:13.487875 29:-4.148125 30:-2.134125 49:40 144:-0.303125 160:6.988875 192:-2.505125 209:18.218875 311:40 379:13.275875 
0.03496713962272056 24:13.936 29:-3.993 30:-2.183 49:40 144:0.434 160:40 192:-2.414 209:15.245 311:40 379:40 
-1.217872534960351 24:2.5335 29:-2.7745 30:-0.3105 49:8.9545 144:-2.2695 160:2.0585 192:-1.1025 209:7.2055 311:5.1925 379:40 
-166.7191128427031 24:0.558125 29:-1.493875 30:-0.156875 49:8.204125 144:-2.486875 160:2.550125 192:1.502125 209:-1.877875 311:5.693125 379:6.006125 
-16.55042484746287 24:0.487 29:-0.67 30:1.461 49:8.839 144:-1.814 160:2.856 192:1.124 209:8.399 311:5.062 379:4.078 
-75.97355403511197 24:1.074875 29:-2.152125 30:-0.200125 49:7.200875 144:-2.883125 160:3.128875 192:0.613875 209:-2.193125 311:6.209875 379:10.151875 
