svm_type c_svc
kernel_type rbf
gamma 0.03125
nr_class 2
total_sv 9
rho -0.0904108
label 3 6
nr_sv 5 4
SV
0.05800762280336425 3:3.80475 37:-0.19925 53:5.24675 101:0.95875 176:-0.26425 267:40 273:40 311:8.32975 326:7.93475 368:11.80175 
0.09091243392626651 3:4.916875 37:0.188875 53:4.323875 101:0.264875 176:0.622875 267:40 273:40 311:7.278875 326:8.509875 368:11.093875 
0.7289153380952128 3:1.8685 37:1.2055 53:5.6485 101:1.1355 176:-1.4525 267:40 273:40 311:5.1895 326:7.6515 368:9.2425 
1 3:3.436375 37:0.179375 53:4.856375 101:0.787375 176:-0.293625 267:40 273:14.003375 311:5.994375 326:6.470375 368:9.844375 
0.6990196395246451 3:5.140625 37:-0.662375 53:4.979625 101:1.386625 176:1.357625 267:40 273:40 311:9.588625 326:10.962625 368:11.601625 
-0.6803387865424035 3:3.1415 37:1.2985 53:4.8635 101:1.7175 176:-2.3605 267:15.4545 273:11.8385 311:40 326:40 368:40 
-0.4373309780372449 3:0.045 37:1.272 53:2.225 101:1.363 176:-1.25 267:13.094 273:12.975 311:40 326:40 368:40 
-1 3:1.215875 37:2.152875 53:2.324875 101:2.064875 176:-2.773125 267:40 273:10.364875 311:4.908875 326:7.362875 368:8.524875 
-0.45918526976984 3:-0.818125 37:1.937875 53:2.419875 101:1.859875 176:-0.992125 267:14.936875 273:10.788875 311:40 326:40 368:40 
