svm_type c_svc
kernel_type rbf
gamma 0.000488
nr_class 2
total_sv 27
rho -0.0667182
label 4 5
nr_sv 14 13
SV
0.598271026353193 64:11.391875 66:4.978875 77:8.879875 139:9.975875 232:40 234:16.436875 284:40 312:40 345:12.777875 354:40 
1 64:40 66:8.42225 77:9.31925 139:40 232:40 234:40 284:40 312:40 345:6.92325 354:40 
0.4573954006068424 64:40 66:5.434 77:9.492 139:7.072 232:40 234:6.467 284:40 312:40 345:5.828 354:40 
1 64:40 66:5.175625 77:5.404625 139:40 232:40 234:5.863625 284:40 312:40 345:7.609625 354:40 
1 64:40 66:3.908125 77:11.550125 139:40 232:40 234:40 284:40 312:40 345:13.959125 354:40 
0.5181565321671081 64:10.092 66:4.045 77:8.245 139:18.761 232:10.621 234:40 284:40 312:40 345:9.045 354:11.143 
1 64:40 66:3.129875 77:4.090875 139:5.928875 232:10.214875 234:40 284:40 312:40 345:4.025875 354:40 
1 64:11.54175 66:2.22975 77:9.82975 139:40 232:40 234:40 284:40 312:40 345:11.81375 354:40 
0.375072144245977 64:15.43975 66:2.20775 77:8.27175 139:9.48075 232:16.08575 234:40 284:40 312:15.86075 345:5.64475 354:40 
1 64:11.478875 66:2.487875 77:40 139:40 232:40 234:40 284:40 312:40 345:40 354:40 
1 64:13.976875 66:4.585875 77:6.841875 139:9.279875 232:40 234:40 284:40 312:40 345:5.455875 354:40 
0.3696408034514763 64:13.35325 66:3.13625 77:4.32625 139:11.77525 232:40 234:8.30325 284:40 312:9.90025 345:4.28525 354:10.48725 
1 64:11.13275 66:5.20775 77:8.25375 139:40 232:40 234:40 284:40 312:40 345:12.49975 354:40 
0.1909625845807292 64:13.93775 66:-0.62925 77:2.74775 139:9.57975 232:10.58975 234:40 284:40 312:9.62175 345:1.23975 354:8.92675 
-1 64:10.028 66:0.425 77:7.506 139:40 232:40 234:40 284:15.056 312:40 345:4.298 354:40 
-1 64:7.795875 66:3.659875 77:5.324875 139:40 232:40 234:40 284:40 312:40 345:10.513875 354:40 
-0.9036553479111359 64:40 66:1.667 77:5.485 139:40 232:40 234:40 284:40 312:40 345:40 354:40 
-0.9613631681619391 64:40 66:2.75225 77:40 139:40 232:40 234:40 284:40 312:40 345:40 354:40 
-0.4450926663510978 64:40 66:5.440125 77:7.638125 139:40 232:40 234:40 284:14.890125 312:40 345:9.619125 354:40 
-1 64:40 66:4.3475 77:10.0115 139:40 232:40 234:40 284:40 312:40 345:7.7335 354:40 
-0.001079287157164617 64:40 66:40 77:40 139:40 232:40 234:40 284:40 312:40 345:40 354:40 
-1 64:14.234375 66:-0.355625 77:5.808375 139:7.942375 232:40 234:40 284:40 312:40 345:4.665375 354:40 
-1 64:40 66:3.59075 77:9.58275 139:9.16075 232:40 234:40 284:40 312:40 345:9.99175 354:40 
-0.8587950155362974 64:40 66:40 77:40 139:40 232:40 234:40 284:40 312:40 345:6.05225 354:40 
-1 64:40 66:2.650625 77:12.864625 139:40 232:40 234:40 284:40 312:40 345:12.984625 354:40 
-1 64:10.77725 66:-0.49975 77:3.61225 139:40 232:40 234:40 284:40 312:40 345:4.90725 354:40 
-0.3395130062876908 64:40 66:40 77:40 139:40 232:40 234:40 284:40 312:40 345:40 354:40 
