svm_type c_svc
kernel_type rbf
gamma 0.001953
nr_class 2
total_sv 9
rho -0.8
label 3 6
nr_sv 5 4
SV
0.19921875 1:7.63875 2:5.13975 3:3.80475 4:6.58675 5:40 6:2.18575 7:9.94275 8:40 9:6.42575 10:7.95775 11:6.55575 12:6.22875 13:9.22575 14:0.61675 15:-6.78725 16:-5.51125 17:2.33575 18:12.02375 19:-0.85625 20:-6.52725 21:-5.52825 22:-1.87125 23:-1.40525 24:3.13275 25:16.86375 26:40 27:-5.20725 28:-3.24725 29:-0.13525 30:0.81975 31:-2.62825 32:-0.19825 33:1.00675 34:2.15575 35:7.08875 36:6.36575 37:-0.19925 38:8.33675 39:4.20175 40:-0.76525 41:-1.02925 42:7.44975 43:8.17375 44:40 45:-0.29925 46:40 47:-4.55825 48:-2.98925 49:9.17575 50:40 51:40 52:13.71575 53:5.24675 54:9.08675 55:1.70375 56:3.35375 57:40 58:-5.73625 59:40 60:-2.70125 61:40 62:-0.01925 63:40 64:16.90375 65:7.20675 66:3.57275 67:-4.86825 68:2.66775 69:40 70:3.74975 71:40 72:40 73:-0.85425 74:2.65375 75:1.59675 76:3.23875 77:10.60375 78:8.82875 79:6.96975 80:40 81:15.84475 82:40 83:9.39075 84:6.64775 85:0.42375 86:4.49075 87:1.18675 88:8.34875 89:-1.45025 90:4.21175 91:3.40375 92:6.08675 93:-5.44525 94:40 95:-1.39325 96:40 97:1.56375 98:4.27775 99:40 100:-4.73625 101:0.95875 102:40 103:40 104:6.22975 105:13.51975 106:40 107:8.55275 108:15.75075 109:5.49775 110:0.02575 111:-0.10925 112:40 113:40 114:11.85875 115:-4.40625 116:1.77775 117:18.81475 118:4.07175 119:3.90075 120:1.63075 121:2.71775 122:10.60475 123:2.61175 124:40 125:6.38275 126:-2.19025 127:12.42375 128:40 129:11.72275 130:7.77675 131:15.79775 132:4.95675 133:7.93375 134:9.36475 135:40 136:7.18875 137:8.31175 138:15.21075 139:40 140:40 141:40 142:5.42875 143:40 144:-2.14925 145:-2.05325 146:-10.01325 147:2.81975 148:40 149:9.04375 150:40 151:40 152:3.48675 153:7.40775 154:6.95975 155:-2.47725 156:7.66375 157:9.52675 158:-3.21725 159:7.59775 160:2.60775 161:1.22375 162:18.15075 163:-0.55425 164:13.13975 165:9.27975 166:40 167:0.67575 168:10.97575 169:1.09175 170:7.57375 171:14.33075 172:4.21775 173:10.19275 174:1.70275 175:4.15375 176:-0.26425 177:-0.53225 178:15.94775 179:2.51675 180:4.13075 181:6.91975 182:40 183:4.40375 184:10.53475 185:6.53875 186:17.45875 187:18.21675 188:4.77875 189:40 190:8.34475 191:17.37275 192:1.31575 193:2.13175 194:5.00475 195:2.89475 196:40 197:11.27175 198:12.67275 199:40 200:10.56875 201:4.01275 202:40 203:40 204:4.94475 205:6.87775 206:12.27275 207:3.04375 208:13.22775 209:4.68475 210:13.54975 211:15.09875 212:6.99275 213:19.27075 214:19.54575 215:40 216:40 217:40 218:-7.18825 219:9.30375 220:40 221:5.12075 222:40 223:40 224:0.61375 225:-4.48925 226:12.26775 227:40 228:4.96975 229:4.17375 230:17.79275 231:8.84575 232:40 233:40 234:40 235:40 236:8.17375 237:13.79675 238:8.29875 239:4.89475 240:16.05675 241:40 242:40 243:7.57975 244:14.98475 245:10.09275 246:8.02975 247:14.99675 248:40 249:40 250:5.93075 251:40 252:40 253:40 254:40 255:40 256:17.44775 257:40 258:40 259:40 260:40 261:40 262:40 263:40 264:40 265:40 266:40 267:40 268:40 269:40 270:40 271:40 272:3.48675 273:40 274:40 275:40 276:40 277:40 278:40 279:40 280:40 281:40 282:7.04375 283:40 284:40 285:40 286:40 287:4.17475 288:0.70675 289:7.35475 290:40 291:40 292:40 293:18.05475 294:6.99175 295:18.02375 296:40 297:40 298:40 299:13.47275 300:18.72675 301:40 302:40 303:6.85575 304:18.32975 305:40 306:40 307:40 308:0.80475 309:8.36875 310:40 311:8.32975 312:40 313:40 314:40 315:0.38175 316:7.53275 317:3.60375 318:40 319:40 320:9.21775 321:2.85375 322:40 323:8.28375 324:12.71575 325:9.54675 326:7.93475 327:16.88075 328:5.71275 329:13.01975 330:1.25375 331:40 332:14.18975 333:9.88675 334:16.10675 335:0.30075 336:7.28875 337:40 338:40 339:40 340:1.26275 341:40 342:40 343:40 344:40 345:14.79775 346:40 347:40 348:40 349:40 350:2.47075 351:8.77075 352:5.25775 353:40 354:12.44075 355:8.15175 356:40 357:18.77975 358:40 359:40 360:17.33575 361:5.16175 362:40 363:11.41075 364:40 365:40 366:40 367:40 368:11.80175 369:40 370:40 371:40 372:2.84575 373:40 374:40 375:40 376:40 377:40 378:40 379:5.35075 380:40 381:40 382:40 384:8.45775 
0.2001953125 1:14.586875 2:6.012875 3:4.916875 4:9.156875 5:40 6:3.646875 7:7.509875 8:40 9:7.206875 10:13.366875 11:7.797875 12:8.034875 13:8.603875 14:1.251875 15:-3.440125 16:-4.893125 17:3.113875 18:14.949875 19:-0.390125 20:-6.163125 21:-4.033125 22:-0.055125 23:-2.093125 24:2.484875 25:10.975875 26:40 27:-5.443125 28:-2.056125 29:0.380875 30:3.516875 31:-2.869125 32:0.015875 33:-0.209125 34:2.826875 35:8.059875 36:7.912875 37:0.188875 38:14.205875 39:4.337875 40:-0.098125 41:-0.377125 42:9.430875 43:9.946875 44:40 45:1.838875 46:40 47:-4.360125 48:-2.185125 49:40 50:40 51:40 52:15.473875 53:4.323875 54:7.986875 55:3.677875 56:4.650875 57:40 58:-5.338125 59:40 60:-1.867125 61:40 62:1.576875 63:40 64:10.442875 65:7.987875 66:3.669875 67:-4.081125 68:-0.425125 69:40 70:2.946875 71:40 72:40 73:-1.987125 74:1.089875 75:1.310875 76:-0.095125 77:7.379875 78:4.598875 79:9.717875 80:17.460875 81:18.074875 82:40 83:6.658875 84:5.007875 85:0.944875 86:5.754875 87:0.552875 88:8.267875 89:-0.413125 90:5.568875 91:2.344875 92:4.931875 93:-5.675125 94:8.975875 95:-0.860125 96:40 97:0.727875 98:3.096875 99:40 100:-2.415125 101:0.264875 102:40 103:7.118875 104:5.713875 105:13.616875 106:40 107:8.707875 108:40 109:5.056875 110:0.582875 111:-0.515125 112:40 113:40 114:40 115:-4.806125 116:3.567875 117:40 118:4.473875 119:4.179875 120:2.814875 121:4.694875 122:13.403875 123:2.666875 124:40 125:5.646875 126:-1.458125 127:10.644875 128:40 129:13.085875 130:11.530875 131:12.277875 132:7.249875 133:8.555875 134:9.010875 135:40 136:3.854875 137:10.536875 138:11.600875 139:40 140:40 141:40 142:5.659875 143:40 144:-3.033125 145:-3.216125 146:-9.060125 147:1.688875 148:40 149:9.120875 150:40 151:40 152:3.307875 153:8.270875 154:8.464875 155:-3.139125 156:12.542875 157:11.058875 158:-5.047125 159:4.397875 160:2.802875 161:0.636875 162:16.739875 163:-1.768125 164:11.288875 165:10.395875 166:40 167:0.590875 168:14.594875 169:0.945875 170:5.077875 171:40 172:3.032875 173:11.463875 174:2.786875 175:4.134875 176:0.622875 177:-0.354125 178:40 179:0.630875 180:4.106875 181:7.814875 182:15.660875 183:8.342875 184:15.076875 185:10.181875 186:40 187:16.957875 188:2.539875 189:40 190:10.106875 191:40 192:3.134875 193:3.545875 194:3.295875 195:0.904875 196:11.589875 197:40 198:10.896875 199:40 200:40 201:0.890875 202:40 203:11.997875 204:3.370875 205:4.951875 206:7.385875 207:2.237875 208:40 209:4.170875 210:40 211:9.264875 212:3.107875 213:40 214:40 215:40 216:40 217:40 218:-4.362125 219:7.602875 220:40 221:6.772875 222:15.145875 223:40 224:-0.496125 225:-5.727125 226:7.955875 227:18.629875 228:6.301875 229:6.803875 230:40 231:6.841875 232:40 233:40 234:40 235:40 236:6.147875 237:8.586875 238:6.133875 239:4.791875 240:16.447875 241:40 242:14.409875 243:11.370875 244:40 245:40 246:8.454875 247:40 248:40 249:40 250:7.779875 251:40 252:40 253:40 254:14.001875 255:40 256:40 257:40 258:40 259:40 260:40 261:40 262:40 263:16.203875 264:40 265:40 266:40 267:40 268:40 269:40 270:40 271:40 272:40 273:40 274:40 275:40 276:40 277:40 278:40 279:40 280:40 281:40 282:9.507875 283:40 284:40 285:40 286:40 287:4.661875 288:1.189875 289:3.532875 290:40 291:40 292:18.259875 293:40 294:7.309875 295:9.938875 296:40 297:40 298:40 299:40 300:40 301:40 302:40 303:11.177875 304:40 305:40 306:40 307:40 308:1.440875 309:5.768875 310:40 311:7.278875 312:40 313:40 314:40 315:0.549875 316:6.436875 317:3.610875 318:40 319:40 320:17.981875 321:4.747875 322:40 323:11.021875 324:40 325:10.907875 326:8.509875 327:40 328:6.690875 329:40 330:1.503875 331:40 332:10.179875 333:11.012875 334:40 335:1.165875 336:6.919875 337:40 338:40 339:40 340:0.589875 341:40 342:40 343:40 344:40 345:12.716875 346:40 347:40 348:40 349:40 350:3.241875 351:15.869875 352:7.784875 353:40 354:40 355:5.803875 356:40 357:40 358:40 359:40 360:17.443875 361:4.438875 362:40 363:8.555875 364:40 365:40 366:40 367:40 368:11.093875 369:40 370:40 371:40 372:0.404875 373:40 374:40 375:40 376:40 377:40 378:40 379:6.230875 380:40 381:40 382:40 384:10.170875 
0.2001953125 1:11.0675 2:2.9925 3:1.8685 4:1.2405 5:40 6:0.6195 7:3.9675 8:12.0545 9:4.9615 10:18.6945 11:10.1815 12:9.9235 13:14.9175 14:0.3175 15:-2.4755 16:-6.3685 17:0.3695 18:6.0485 19:-3.2235 20:-7.6485 21:-5.3815 22:-2.1365 23:-2.9025 24:3.0895 25:6.5905 26:40 27:-6.2515 28:-0.8615 29:-2.5325 30:-1.6725 31:-1.5455 32:-0.6215 33:2.1075 34:3.9795 35:9.7815 36:9.9605 37:1.2055 38:40 39:3.9665 40:0.5905 41:-0.7995 42:9.4615 43:6.3175 44:40 45:3.5695 46:40 47:-1.7825 48:-2.9915 49:8.1875 50:40 51:40 52:7.1805 53:5.6485 54:5.8255 55:1.9965 56:1.8885 57:40 58:-6.3955 59:40 60:-0.9805 61:14.0435 62:-1.2845 63:40 64:9.3015 65:3.1435 66:3.1405 67:-6.4995 68:-0.8855 69:40 70:2.0095 71:9.3695 72:40 73:-0.4655 74:1.4835 75:0.0195 76:-0.3935 77:4.6365 78:1.2555 79:10.3575 80:12.1885 81:17.3275 82:40 83:6.3625 84:2.6665 85:-0.2785 86:4.5235 87:-1.9175 88:14.9755 89:-2.0945 90:2.9895 91:1.6645 92:0.6935 93:-7.2985 94:8.7655 95:-3.4925 96:40 97:0.3925 98:2.7355 99:40 100:-1.9805 101:1.1355 102:40 103:15.4425 104:5.3355 105:9.1545 106:15.3705 107:40 108:11.5995 109:15.3425 110:-0.0795 111:-1.9155 112:16.0065 113:40 114:10.1835 115:-7.1325 116:0.0605 117:40 118:4.8975 119:3.7805 120:6.8885 121:2.0735 122:7.8905 123:0.8935 124:40 125:5.1745 126:-2.3735 127:5.4005 128:40 129:6.2475 130:4.8355 131:15.2505 132:5.2845 133:5.9045 134:9.8415 135:40 136:3.7955 137:8.2615 138:8.5175 139:40 140:40 141:40 142:5.6675 143:40 144:-1.1545 145:-3.4155 146:-9.7055 147:2.7115 148:40 149:7.5555 150:40 151:40 152:1.7855 153:4.3775 154:40 155:-3.1555 156:40 157:40 158:-1.1285 159:5.5855 160:5.6605 161:1.5535 162:40 163:1.3735 164:8.3815 165:8.6815 166:40 167:3.8985 168:13.2165 169:-0.4585 170:4.2995 171:8.2925 172:2.7515 173:14.6075 174:0.2315 175:3.7035 176:-1.4525 177:1.9905 178:12.0795 179:2.8945 180:1.9235 181:6.1555 182:9.9625 183:7.4365 184:7.5015 185:40 186:9.2295 187:11.3905 188:1.8905 189:40 190:40 191:40 192:-1.3875 193:-0.4285 194:5.4895 195:-0.7535 196:15.9265 197:10.1965 198:3.9775 199:40 200:9.2735 201:0.7395 202:40 203:11.0315 204:3.4575 205:4.5545 206:8.8395 207:2.1935 208:10.3385 209:14.6615 210:7.0535 211:5.3775 212:2.6295 213:8.3525 214:40 215:14.9175 216:40 217:40 218:-4.7875 219:5.8585 220:40 221:1.8575 222:40 223:12.6565 224:0.8195 225:-4.3265 226:9.4365 227:13.8305 228:7.6845 229:3.6505 230:10.6935 231:3.6865 232:40 233:13.6395 234:40 235:40 236:4.3065 237:6.4775 238:2.9725 239:0.3055 240:10.2575 241:40 242:40 243:10.1265 244:9.5655 245:8.9975 246:7.2635 247:40 248:40 249:40 250:6.5805 251:40 252:40 253:40 254:40 255:40 256:40 257:40 258:40 259:14.5305 260:40 261:40 262:40 263:40 264:17.1425 265:40 266:40 267:40 268:40 269:12.5675 270:40 271:40 272:16.4875 273:40 274:40 275:40 276:40 277:40 278:40 279:40 280:40 281:40 282:40 283:40 284:40 285:40 286:40 287:3.7225 288:1.0045 289:0.4585 290:13.3285 291:13.0335 292:12.6125 293:40 294:7.4425 295:9.3275 296:11.4235 297:40 298:40 299:40 300:40 301:11.7275 302:40 303:10.5745 304:40 305:40 306:40 307:40 308:-0.0395 309:5.8335 310:40 311:5.1895 312:40 313:40 314:40 315:1.2905 316:7.4685 317:2.1635 318:40 319:40 320:9.8605 321:40 322:40 323:6.0855 324:10.9985 325:5.3605 326:7.6515 327:7.9265 328:8.6235 329:40 330:1.1855 331:40 332:6.9735 333:8.6125 334:4.8665 335:-0.0375 336:4.4115 337:40 338:40 339:40 340:0.3065 341:12.4815 342:40 343:40 344:40 345:11.5445 346:40 347:40 348:40 349:40 350:3.6235 351:14.2835 352:4.0685 353:40 354:40 355:4.0645 356:40 357:14.2595 358:40 359:40 360:40 361:40 362:17.5505 363:5.5615 364:10.8115 365:40 366:40 367:40 368:9.2425 369:40 370:40 371:40 372:-1.0355 373:40 374:40 375:40 376:40 377:40 378:40 379:8.7755 380:40 381:40 382:40 384:40 
0.2001953125 1:7.034375 2:5.398375 3:3.436375 4:3.563375 5:40 6:2.075375 7:7.956375 8:40 9:7.508375 10:13.900375 11:8.046375 12:8.051375 13:9.077375 14:1.988375 15:-3.671625 16:-6.848625 17:1.454375 18:8.616375 19:-2.306625 20:-6.946625 21:-5.626625 22:-1.853625 23:-1.886625 24:2.665375 25:8.817375 26:40 27:-5.390625 28:-1.454625 29:-1.229625 30:0.213375 31:-0.782625 32:1.178375 33:1.541375 34:3.667375 35:8.049375 36:7.918375 37:0.179375 38:15.026375 39:3.472375 40:0.691375 41:-0.290625 42:6.980375 43:8.527375 44:40 45:3.470375 46:17.182375 47:-3.224625 48:-3.489625 49:10.313375 50:40 51:40 52:10.342375 53:4.856375 54:6.304375 55:2.490375 56:2.989375 57:40 58:-6.796625 59:40 60:-1.477625 61:10.227375 62:-1.090625 63:40 64:10.070375 65:3.412375 66:3.880375 67:-5.276625 68:1.386375 69:40 70:2.847375 71:40 72:40 73:0.236375 74:1.879375 75:0.536375 76:1.636375 77:8.123375 78:2.867375 79:8.324375 80:10.679375 81:40 82:40 83:7.749375 84:2.447375 85:-0.607625 86:4.014375 87:-0.536625 88:10.522375 89:-1.937625 90:3.249375 91:3.055375 92:2.530375 93:-7.665625 94:8.565375 95:-2.640625 96:40 97:0.694375 98:4.072375 99:40 100:-1.695625 101:0.787375 102:40 103:40 104:5.877375 105:12.288375 106:11.575375 107:40 108:11.993375 109:4.874375 110:-0.197625 111:-3.341625 112:40 113:40 114:8.177375 115:-6.625625 116:0.455375 117:40 118:2.829375 119:2.133375 120:5.545375 121:1.698375 122:7.680375 123:0.868375 124:40 125:5.324375 126:-0.954625 127:6.469375 128:8.640375 129:7.610375 130:6.126375 131:10.428375 132:5.425375 133:4.943375 134:40 135:40 136:2.457375 137:7.749375 138:11.013375 139:40 140:40 141:40 142:4.818375 143:11.503375 144:-2.483625 145:-4.586625 146:-9.129625 147:2.667375 148:40 149:6.681375 150:40 151:40 152:2.690375 153:5.054375 154:40 155:-3.803625 156:40 157:40 158:-2.786625 159:9.422375 160:2.329375 161:1.221375 162:17.946375 163:-0.243625 164:7.520375 165:8.263375 166:40 167:2.261375 168:40 169:1.115375 170:7.391375 171:7.451375 172:0.836375 173:10.238375 174:1.865375 175:2.252375 176:-0.293625 177:-0.656625 178:9.168375 179:1.195375 180:2.923375 181:7.575375 182:7.555375 183:6.586375 184:11.069375 185:40 186:11.388375 187:40 188:3.189375 189:40 190:40 191:40 192:1.121375 193:0.679375 194:4.534375 195:1.951375 196:40 197:40 198:7.838375 199:40 200:13.145375 201:3.210375 202:40 203:8.552375 204:5.099375 205:6.776375 206:7.297375 207:2.391375 208:8.891375 209:6.721375 210:8.643375 211:11.050375 212:3.469375 213:40 214:40 215:40 216:40 217:40 218:-4.200625 219:9.504375 220:40 221:2.832375 222:40 223:9.407375 224:-0.876625 225:-5.640625 226:16.447375 227:40 228:9.619375 229:2.871375 230:40 231:7.064375 232:40 233:40 234:14.705375 235:40 236:3.140375 237:8.480375 238:7.767375 239:4.243375 240:40 241:40 242:40 243:6.431375 244:40 245:8.416375 246:6.302375 247:8.843375 248:40 249:40 250:6.056375 251:40 252:40 253:40 254:40 255:40 256:15.154375 257:40 258:40 259:12.433375 260:40 261:40 262:40 263:11.027375 264:12.695375 265:40 266:40 267:40 268:40 269:16.999375 270:40 271:40 272:14.049375 273:14.003375 274:11.971375 275:40 276:40 277:40 278:40 279:40 280:40 281:40 282:16.225375 283:40 284:40 285:40 286:40 287:4.299375 288:1.313375 289:3.730375 290:40 291:9.136375 292:40 293:40 294:7.697375 295:11.347375 296:40 297:40 298:40 299:40 300:40 301:40 302:11.737375 303:40 304:40 305:40 306:40 307:40 308:-1.996625 309:6.572375 310:40 311:5.994375 312:40 313:40 314:40 315:-0.196625 316:8.111375 317:3.106375 318:40 319:40 320:40 321:13.113375 322:40 323:4.754375 324:12.262375 325:4.662375 326:6.470375 327:8.994375 328:6.735375 329:40 330:0.604375 331:40 332:40 333:13.350375 334:10.045375 335:0.819375 336:4.389375 337:40 338:40 339:10.721375 340:0.300375 341:8.909375 342:40 343:40 344:40 345:8.619375 346:40 347:40 348:40 349:40 350:5.356375 351:8.277375 352:4.457375 353:40 354:40 355:6.914375 356:40 357:11.323375 358:40 359:40 360:40 361:40 362:11.453375 363:6.604375 364:12.970375 365:40 366:40 367:40 368:9.844375 369:40 370:40 371:40 372:1.016375 373:40 374:40 375:40 376:40 377:40 378:40 379:7.959375 380:40 381:40 382:40 384:40 
0.2001953125 1:40 2:8.748625 3:5.140625 4:4.758625 5:40 6:1.966625 7:9.136625 8:40 9:12.645625 10:40 11:5.582625 12:5.712625 13:40 14:4.490625 15:-2.265375 16:-6.417375 17:2.051625 18:9.584625 19:0.054625 20:-5.719375 21:-2.646375 22:-1.337375 23:-0.088375 24:40 25:9.804625 26:40 27:-6.411375 28:1.603625 29:1.285625 30:2.951625 31:0.441625 32:3.448625 33:-0.244375 34:3.069625 35:5.484625 36:6.038625 37:-0.662375 38:40 39:3.533625 40:3.402625 41:2.276625 42:8.956625 43:40 44:40 45:6.975625 46:40 47:-1.425375 48:-2.039375 49:40 50:40 51:40 52:40 53:4.979625 54:40 55:40 56:1.792625 57:40 58:-6.583375 59:40 60:-0.764375 61:6.150625 62:-0.933375 63:40 64:40 65:1.804625 66:40 67:-6.817375 68:3.806625 69:40 70:4.019625 71:40 72:40 73:1.065625 74:1.473625 75:2.270625 76:-0.466375 77:9.843625 78:1.161625 79:9.978625 80:40 81:12.141625 82:40 83:6.305625 84:1.077625 85:0.191625 86:4.047625 87:-1.328375 88:40 89:0.745625 90:6.049625 91:40 92:4.988625 93:-7.261375 94:40 95:-2.632375 96:40 97:2.464625 98:8.428625 99:40 100:-2.059375 101:1.386625 102:40 103:40 104:8.586625 105:40 106:40 107:8.081625 108:40 109:3.001625 110:-0.043375 111:-1.945375 112:40 113:40 114:40 115:-7.821375 116:-0.896375 117:40 118:3.329625 119:-0.453375 120:2.862625 121:4.109625 122:40 123:0.915625 124:40 125:40 126:-1.002375 127:40 128:11.601625 129:8.352625 130:5.902625 131:40 132:6.614625 133:40 134:40 135:40 136:1.107625 137:40 138:9.253625 139:40 140:40 141:40 142:4.747625 143:40 144:-0.984375 145:-5.819375 146:-8.058375 147:5.255625 148:40 149:9.756625 150:40 151:40 152:2.685625 153:5.330625 154:40 155:-0.719375 156:40 157:40 158:-4.090375 159:10.375625 160:1.773625 161:2.711625 162:40 163:0.978625 164:40 165:7.874625 166:40 167:-0.193375 168:40 169:2.411625 170:40 171:40 172:-0.446375 173:40 174:3.549625 175:0.974625 176:1.357625 177:-1.306375 178:40 179:0.345625 180:7.020625 181:40 182:40 183:40 184:8.552625 185:40 186:40 187:40 188:5.072625 189:40 190:40 191:40 192:1.737625 193:1.272625 194:4.174625 195:3.670625 196:40 197:40 198:40 199:40 200:40 201:6.373625 202:40 203:6.625625 204:5.329625 205:6.568625 206:7.659625 207:2.541625 208:40 209:1.481625 210:8.245625 211:40 212:4.243625 213:40 214:40 215:40 216:40 217:40 218:-0.517375 219:6.908625 220:40 221:1.187625 222:40 223:40 224:-4.160375 225:-7.696375 226:40 227:40 228:10.007625 229:2.753625 230:40 231:6.390625 232:40 233:40 234:40 235:40 236:1.716625 237:9.803625 238:40 239:40 240:40 241:40 242:40 243:40 244:40 245:8.364625 246:5.646625 247:40 248:40 249:40 250:8.291625 251:40 252:40 253:40 254:40 255:40 256:40 257:40 258:40 259:40 260:40 261:40 262:40 263:40 264:40 265:40 266:40 267:40 268:40 269:40 270:40 271:40 272:11.691625 273:40 274:40 275:40 276:40 277:40 278:40 279:40 280:40 281:40 282:9.294625 283:40 284:40 285:40 286:40 287:5.963625 288:3.689625 289:2.099625 290:40 291:40 292:8.699625 293:40 294:40 295:6.601625 296:40 297:40 298:40 299:13.137625 300:40 301:40 302:40 303:40 304:40 305:40 306:40 307:40 308:-2.939375 309:40 310:40 311:9.588625 312:40 313:40 314:40 315:1.741625 316:40 317:4.732625 318:40 319:40 320:12.953625 321:9.016625 322:40 323:4.509625 324:40 325:2.848625 326:10.962625 327:5.238625 328:6.043625 329:40 330:0.152625 331:40 332:40 333:40 334:40 335:2.110625 336:5.925625 337:40 338:40 339:40 340:-1.606375 341:40 342:40 343:40 344:40 345:7.456625 346:40 347:40 348:40 349:40 350:1.960625 351:8.764625 352:2.406625 353:40 354:40 355:8.531625 356:40 357:40 358:40 359:40 360:40 361:15.061625 362:8.095625 363:5.210625 364:40 365:40 366:40 367:40 368:11.601625 369:40 370:40 371:40 372:2.698625 373:40 374:40 375:40 376:40 377:40 378:40 379:40 380:40 381:40 382:40 384:40 
-0.25 1:15.0715 2:2.8645 3:3.1415 4:6.3285 5:40 6:3.1245 7:7.9095 8:40 9:6.9495 10:40 11:11.1795 12:11.0735 13:40 14:5.1615 15:-3.8705 16:-7.1755 17:1.3535 18:13.6025 19:-3.2685 20:-7.7685 21:-6.3785 22:-2.6025 23:-1.5155 24:14.3785 25:40 26:40 27:-5.4035 28:-2.9085 29:-1.4225 30:-2.0785 31:-1.2825 32:-0.1605 33:1.4365 34:5.3985 35:10.7915 36:10.4445 37:1.2985 38:40 39:3.6335 40:1.0835 41:-0.5975 42:10.0555 43:13.2695 44:40 45:5.2085 46:40 47:-3.9105 48:-3.6755 49:40 50:40 51:40 52:14.9415 53:4.8635 54:7.4695 55:0.8505 56:4.5285 57:40 58:-7.1675 59:40 60:-1.8945 61:40 62:-2.5065 63:40 64:14.6785 65:5.1095 66:4.1415 67:-5.4415 68:0.8595 69:40 70:3.7085 71:40 72:40 73:0.7415 74:2.7955 75:0.3095 76:2.2665 77:15.3975 78:3.0215 79:14.2275 80:14.7505 81:40 82:40 83:5.9285 84:2.8715 85:-0.1775 86:2.8815 87:-0.7295 88:14.8295 89:-1.2815 90:3.8625 91:4.2415 92:3.4025 93:-7.2705 94:9.6425 95:-2.4955 96:40 97:1.0595 98:3.5125 99:40 100:-2.3835 101:1.7175 102:40 103:40 104:8.1275 105:13.8625 106:40 107:8.7165 108:10.2325 109:6.1965 110:-0.9075 111:-2.3315 112:40 113:40 114:12.9955 115:-6.3095 116:-1.4815 117:40 118:4.3035 119:2.1605 120:6.7925 121:0.8455 122:40 123:1.1715 124:40 125:7.0355 126:-0.3125 127:6.9895 128:40 129:13.5235 130:8.1735 131:11.5265 132:6.2775 133:40 134:14.4235 135:40 136:3.7955 137:11.1645 138:14.0925 139:40 140:40 141:40 142:5.5555 143:40 144:0.5235 145:-3.8785 146:-9.5985 147:4.1505 148:40 149:6.1605 150:40 151:40 152:3.1425 153:4.3335 154:11.7235 155:-3.8235 156:40 157:40 158:-2.4765 159:6.7885 160:5.3675 161:1.8855 162:40 163:0.2665 164:7.5875 165:14.0975 166:40 167:4.4945 168:40 169:1.2705 170:10.0575 171:40 172:3.8145 173:40 174:1.6575 175:4.0645 176:-2.3605 177:1.1515 178:14.7785 179:2.1815 180:3.1175 181:7.3315 182:14.3715 183:5.1595 184:6.3975 185:40 186:40 187:40 188:2.2895 189:40 190:40 191:13.2195 192:-0.1805 193:1.6535 194:4.5905 195:-0.3025 196:40 197:40 198:6.3545 199:40 200:7.8725 201:2.1175 202:40 203:9.5305 204:4.0295 205:5.4725 206:8.7195 207:2.6835 208:40 209:40 210:9.7485 211:9.0515 212:2.4925 213:15.9835 214:40 215:40 216:40 217:40 218:-7.0075 219:8.9785 220:40 221:1.2655 222:9.7625 223:13.6155 224:-0.7025 225:-6.1565 226:13.8805 227:40 228:5.6885 229:-0.0745 230:40 231:6.0875 232:40 233:9.8025 234:40 235:40 236:4.4425 237:15.3215 238:5.5045 239:3.1165 240:11.6285 241:40 242:40 243:40 244:40 245:14.4645 246:6.0575 247:40 248:40 249:40 250:11.1645 251:40 252:40 253:40 254:40 255:40 256:40 257:40 258:40 259:40 260:40 261:40 262:40 263:40 264:11.3115 265:40 266:40 267:15.4545 268:40 269:12.6885 270:40 271:40 272:40 273:11.8385 274:40 275:40 276:40 277:40 278:40 279:40 280:40 281:40 282:11.8135 283:40 284:40 285:40 286:40 287:4.1775 288:2.2385 289:1.3395 290:40 291:10.8875 292:40 293:40 294:7.5555 295:10.2295 296:40 297:40 298:40 299:40 300:15.0925 301:40 302:11.7785 303:8.3575 304:40 305:40 306:40 307:15.6535 308:0.2885 309:6.8685 310:40 311:40 312:40 313:40 314:40 315:1.1095 316:7.7165 317:3.3995 318:40 319:40 320:40 321:10.5535 322:40 323:7.5415 324:14.4095 325:6.5375 326:40 327:7.6105 328:7.5775 329:40 330:2.4225 331:40 332:9.6365 333:40 334:6.6615 335:-0.8745 336:5.2035 337:40 338:40 339:14.7765 340:1.4435 341:11.6535 342:40 343:40 344:40 345:17.7085 346:40 347:40 348:40 349:40 350:2.2055 351:9.7905 352:3.6775 353:40 354:40 355:6.2315 356:40 357:40 358:40 359:40 360:40 361:40 362:16.1275 363:8.0695 364:40 365:40 366:40 367:40 368:40 369:40 370:40 371:40 372:0.2745 373:40 374:40 375:40 376:40 377:40 378:40 379:40 380:40 381:40 382:17.2085 384:14.8115 
-0.25 1:4.989 2:2.684 3:0.045 4:-1.717 5:40 6:0.004 7:5.827 8:40 9:7.89 10:40 11:10.374 12:10.39 13:40 14:1.629 15:-3.412 16:-6.73 17:1.481 18:12.657 19:-2.285 20:-7.342 21:-5.429 22:-2.453 23:-1.163 24:13.936 25:40 26:13.602 27:-5.827 28:-1.194 29:-3.993 30:-2.183 31:-0.848 32:0.23 33:1.53 34:3.232 35:10.172 36:9.997 37:1.272 38:10.22 39:4.204 40:0.297 41:-2.544 42:9.969 43:7.599 44:40 45:4.492 46:40 47:-2.07 48:-2.558 49:40 50:40 51:40 52:10.426 53:2.225 54:8.85 55:1.507 56:-0.381 57:40 58:-6.84 59:40 60:-1.596 61:11.655 62:-0.115 63:40 64:40 65:1.936 66:4.54 67:-6.606 68:1.507 69:40 70:4.278 71:40 72:40 73:0.096 74:2.78 75:1.029 76:0.514 77:40 78:6.805 79:12.283 80:40 81:40 82:40 83:5.312 84:2.147 85:-1.846 86:3.695 87:0.054 88:40 89:-3.684 90:3.077 91:11.434 92:0.716 93:-7.269 94:40 95:-3.794 96:40 97:1.75 98:2.664 99:40 100:-2.502 101:1.363 102:40 103:40 104:4.146 105:9.559 106:12.327 107:11.055 108:13.912 109:6.683 110:-0.171 111:-2.189 112:40 113:40 114:6.616 115:-8.072 116:-0.394 117:40 118:12.011 119:3.942 120:4.652 121:1.885 122:40 123:0.982 124:14.407 125:7.877 126:-1.187 127:6.261 128:40 129:15.225 130:3.554 131:40 132:7.936 133:6.355 134:40 135:40 136:4.798 137:40 138:14.995 139:40 140:40 141:40 142:7.267 143:40 144:0.434 145:-3.665 146:-10.141 147:3.011 148:40 149:8.017 150:40 151:40 152:2.107 153:4.346 154:7.1 155:-2.166 156:40 157:40 158:-2.473 159:13.229 160:40 161:2.249 162:40 163:0.129 164:16.447 165:40 166:40 167:2.575 168:40 169:0.591 170:40 171:40 172:3.216 173:13.89 174:0.795 175:1.824 176:-1.25 177:1.112 178:40 179:2.928 180:7.326 181:9.758 182:12.169 183:5.431 184:9.318 185:40 186:40 187:40 188:4.768 189:40 190:9.342 191:40 192:-2.414 193:-1.614 194:6.867 195:0.69 196:40 197:40 198:7.474 199:40 200:40 201:7.701 202:40 203:40 204:7.357 205:4.523 206:10.247 207:2.897 208:40 209:15.245 210:7.634 211:15.561 212:5.158 213:40 214:40 215:40 216:40 217:40 218:-5.97 219:6.506 220:40 221:-0.072 222:40 223:40 224:0.854 225:-6.377 226:10.803 227:40 228:12.17 229:1.896 230:40 231:7.633 232:40 233:15.932 234:40 235:15.825 236:3.851 237:40 238:4.228 239:4.027 240:40 241:40 242:40 243:40 244:16.756 245:40 246:7.658 247:40 248:40 249:40 250:40 251:40 252:40 253:40 254:40 255:40 256:40 257:40 258:40 259:40 260:40 261:40 262:40 263:13.727 264:15.374 265:16.133 266:40 267:13.094 268:40 269:40 270:40 271:40 272:16.501 273:12.975 274:40 275:40 276:40 277:40 278:40 279:40 280:9.696 281:13.883 282:6.775 283:40 284:40 285:40 286:40 287:4.643 288:7.476 289:2.029 290:40 291:13.475 292:40 293:40 294:15.436 295:10.495 296:40 297:40 298:40 299:40 300:40 301:40 302:40 303:14.631 304:40 305:40 306:40 307:40 308:0.506 309:8.668 310:40 311:40 312:40 313:40 314:40 315:1.199 316:7.898 317:4.326 318:40 319:40 320:40 321:9.788 322:40 323:7.327 324:12.532 325:4.516 326:40 327:12.053 328:10.875 329:40 330:1.874 331:40 332:40 333:40 334:8.638 335:0.219 336:6.214 337:40 338:40 339:14.08 340:0.197 341:13.166 342:40 343:40 344:40 345:40 346:40 347:40 348:40 349:40 350:6.796 351:16.493 352:4.378 353:40 354:40 355:11.369 356:40 357:40 358:40 359:40 360:40 361:40 362:40 363:11.612 364:40 365:40 366:40 367:40 368:40 369:40 370:40 371:40 372:2.648 373:40 374:40 375:40 376:40 377:40 378:40 379:40 380:40 381:11.65 382:40 384:40 
-0.25 1:2.382875 2:3.314875 3:1.215875 4:0.296875 5:40 6:0.514875 7:5.300875 8:7.997875 9:4.836875 10:9.863875 11:4.843875 12:4.552875 13:4.954875 14:-0.286125 15:-6.132125 16:-5.161125 17:0.875875 18:5.767875 19:-1.676125 20:-7.233125 21:-4.663125 22:-1.051125 23:-3.723125 24:0.822875 25:1.418875 26:40 27:-4.614125 28:-1.717125 29:-2.656125 30:-1.111125 31:-0.713125 32:0.382875 33:0.655875 34:2.700875 35:4.807875 36:4.735875 37:2.152875 38:6.836875 39:5.048875 40:-2.075125 41:-1.510125 42:4.538875 43:6.737875 44:40 45:3.938875 46:40 47:-3.924125 48:-2.315125 49:6.861875 50:40 51:5.123875 52:4.080875 53:2.324875 54:4.030875 55:1.811875 56:-0.783125 57:40 58:-5.099125 59:40 60:-2.211125 61:6.268875 62:0.024875 63:40 64:13.390875 65:5.358875 66:2.832875 67:-5.145125 68:2.188875 69:10.348875 70:2.985875 71:12.660875 72:40 73:-0.265125 74:0.364875 75:2.271875 76:1.918875 77:4.874875 78:3.103875 79:7.485875 80:12.601875 81:13.329875 82:40 83:6.619875 84:2.867875 85:0.618875 86:3.267875 87:-0.115125 88:6.709875 89:-1.711125 90:1.822875 91:2.132875 92:-0.373125 93:-3.827125 94:7.899875 95:-1.175125 96:40 97:1.529875 98:4.111875 99:40 100:-2.860125 101:2.064875 102:40 103:9.962875 104:2.144875 105:8.045875 106:10.323875 107:10.168875 108:6.432875 109:6.923875 110:0.822875 111:0.750875 112:40 113:40 114:9.492875 115:-4.364125 116:2.611875 117:11.043875 118:3.221875 119:3.639875 120:4.532875 121:0.234875 122:10.052875 123:-0.664125 124:40 125:3.883875 126:-2.226125 127:5.879875 128:5.855875 129:4.977875 130:3.298875 131:7.279875 132:6.559875 133:4.250875 134:12.018875 135:40 136:1.091875 137:10.019875 138:1.795875 139:40 140:9.221875 141:40 142:7.161875 143:9.430875 144:-1.678125 145:-2.796125 146:-9.296125 147:2.837875 148:40 149:3.690875 150:40 151:40 152:1.838875 153:5.832875 154:3.939875 155:-5.358125 156:40 157:40 158:-2.692125 159:3.840875 160:2.311875 161:1.711875 162:8.936875 163:-1.462125 164:7.751875 165:4.954875 166:40 167:-0.230125 168:9.435875 169:0.804875 170:4.939875 171:6.164875 172:7.089875 173:4.430875 174:2.129875 175:4.235875 176:-2.773125 177:-2.125125 178:9.268875 179:2.172875 180:4.051875 181:6.892875 182:10.515875 183:5.579875 184:12.623875 185:40 186:12.934875 187:9.821875 188:2.238875 189:40 190:40 191:12.949875 192:1.313875 193:0.121875 194:2.318875 195:2.551875 196:40 197:40 198:3.924875 199:40 200:8.336875 201:1.786875 202:40 203:7.331875 204:5.759875 205:5.074875 206:10.997875 207:2.247875 208:8.484875 209:-1.226125 210:8.604875 211:7.363875 212:3.826875 213:10.421875 214:11.875875 215:40 216:40 217:40 218:-7.456125 219:6.693875 220:40 221:2.562875 222:9.450875 223:40 224:3.110875 225:-4.687125 226:4.084875 227:40 228:2.858875 229:-1.623125 230:7.776875 231:6.121875 232:40 233:8.164875 234:40 235:40 236:4.590875 237:7.418875 238:5.128875 239:2.879875 240:10.566875 241:40 242:9.036875 243:5.429875 244:40 245:5.224875 246:6.819875 247:8.825875 248:40 249:40 250:4.975875 251:40 252:12.457875 253:40 254:14.468875 255:40 256:9.511875 257:40 258:40 259:40 260:40 261:40 262:40 263:8.213875 264:9.324875 265:40 266:40 267:40 268:40 269:40 270:40 271:40 272:8.451875 273:10.364875 274:11.169875 275:40 276:12.938875 277:40 278:40 279:40 280:40 281:40 282:5.630875 283:40 284:11.760875 285:40 286:40 287:3.660875 288:0.059875 289:4.265875 290:40 291:9.808875 292:40 293:40 294:6.182875 295:10.475875 296:40 297:40 298:15.033875 299:40 300:9.100875 301:40 302:13.303875 303:40 304:40 305:40 306:40 307:40 308:0.678875 309:7.301875 310:7.737875 311:4.908875 312:40 313:40 314:8.486875 315:1.906875 316:7.128875 317:4.092875 318:40 319:40 320:40 321:13.281875 322:40 323:5.520875 324:40 325:6.992875 326:7.362875 327:6.424875 328:6.929875 329:11.231875 330:0.457875 331:40 332:10.303875 333:8.028875 334:6.200875 335:-0.447125 336:5.415875 337:40 338:40 339:40 340:1.980875 341:40 342:40 343:40 344:40 345:5.896875 346:40 347:40 348:40 349:40 350:2.202875 351:8.568875 352:5.579875 353:40 354:40 355:5.125875 356:40 357:11.984875 358:40 359:40 360:12.422875 361:40 362:40 363:7.535875 364:40 365:40 366:40 367:40 368:8.524875 369:40 370:40 371:40 372:1.226875 373:40 374:40 375:40 376:40 377:40 378:40 379:7.007875 380:40 381:40 382:40 384:40 
-0.25 1:1.326875 2:3.572875 3:-0.818125 4:-2.927125 5:12.883875 6:-0.113125 7:4.490875 8:18.205875 9:5.622875 10:40 11:10.546875 12:11.010875 13:13.103875 14:-0.567125 15:-2.302125 16:-6.430125 17:0.901875 18:11.044875 19:-2.519125 20:-6.760125 21:-5.258125 22:-1.877125 23:-1.458125 24:13.487875 25:40 26:13.687875 27:-6.090125 28:-0.736125 29:-4.148125 30:-2.134125 31:-1.245125 32:0.295875 33:0.956875 34:2.620875 35:10.920875 36:10.618875 37:1.937875 38:8.757875 39:5.283875 40:-1.709125 41:-3.344125 42:9.302875 43:7.125875 44:15.027875 45:7.573875 46:40 47:-1.806125 48:-2.479125 49:40 50:40 51:40 52:10.841875 53:2.419875 54:6.397875 55:2.287875 56:-0.709125 57:40 58:-6.476125 59:40 60:-1.065125 61:8.025875 62:-1.352125 63:40 64:14.661875 65:2.020875 66:3.727875 67:-6.490125 68:-0.039125 69:40 70:2.849875 71:40 72:40 73:-0.056125 74:2.477875 75:-0.038125 76:-0.790125 77:5.720875 78:2.299875 79:9.077875 80:12.149875 81:17.906875 82:40 83:7.163875 84:2.035875 85:-2.074125 86:4.767875 87:-0.594125 88:15.634875 89:-3.996125 90:2.925875 91:3.704875 92:-0.348125 93:-6.940125 94:13.252875 95:-3.145125 96:40 97:1.957875 98:3.166875 99:40 100:-2.065125 101:1.859875 102:40 103:40 104:4.281875 105:10.310875 106:11.541875 107:13.506875 108:13.236875 109:6.433875 110:0.269875 111:-1.768125 112:40 113:40 114:8.094875 115:-7.926125 116:0.077875 117:40 118:6.388875 119:2.710875 120:4.912875 121:2.014875 122:11.777875 123:1.046875 124:11.527875 125:5.431875 126:-1.369125 127:5.507875 128:40 129:14.667875 130:3.918875 131:40 132:2.892875 133:9.304875 134:40 135:40 136:6.325875 137:12.871875 138:11.008875 139:40 140:40 141:40 142:10.707875 143:40 144:-0.303125 145:-4.040125 146:-9.905125 147:2.345875 148:40 149:9.115875 150:40 151:40 152:2.208875 153:3.275875 154:14.714875 155:-1.628125 156:40 157:40 158:-1.006125 159:7.592875 160:6.988875 161:2.271875 162:40 163:-0.284125 164:7.692875 165:11.751875 166:40 167:2.161875 168:15.739875 169:0.132875 170:11.927875 171:9.183875 172:2.942875 173:7.582875 174:1.254875 175:2.748875 176:-0.992125 177:1.536875 178:18.358875 179:2.966875 180:3.136875 181:7.834875 182:9.443875 183:8.715875 184:7.194875 185:40 186:40 187:15.265875 188:1.474875 189:40 190:40 191:40 192:-2.505125 193:-2.003125 194:5.140875 195:-0.373125 196:14.631875 197:40 198:2.880875 199:40 200:10.655875 201:5.647875 202:40 203:9.281875 204:4.092875 205:2.778875 206:8.047875 207:3.272875 208:18.460875 209:18.218875 210:9.454875 211:5.401875 212:2.977875 213:13.650875 214:40 215:40 216:40 217:40 218:-4.033125 219:5.922875 220:40 221:0.672875 222:13.944875 223:14.948875 224:1.098875 225:-6.216125 226:7.032875 227:40 228:11.639875 229:3.842875 230:40 231:4.337875 232:40 233:40 234:40 235:40 236:3.545875 237:10.991875 238:3.236875 239:0.639875 240:9.872875 241:40 242:40 243:40 244:40 245:40 246:9.091875 247:40 248:40 249:40 250:11.056875 251:40 252:40 253:40 254:40 255:40 256:14.492875 257:40 258:40 259:40 260:40 261:40 262:40 263:40 264:10.629875 265:40 266:40 267:14.936875 268:40 269:17.928875 270:40 271:40 272:40 273:10.788875 274:40 275:40 276:40 277:40 278:40 279:40 280:40 281:40 282:11.889875 283:40 284:40 285:40 286:40 287:3.354875 288:3.962875 289:0.164875 290:40 291:16.072875 292:40 293:40 294:8.072875 295:9.435875 296:40 297:40 298:40 299:40 300:15.386875 301:11.979875 302:14.872875 303:8.452875 304:40 305:40 306:40 307:40 308:-0.001125 309:7.627875 310:40 311:40 312:40 313:40 314:13.818875 315:1.479875 316:8.012875 317:3.057875 318:40 319:40 320:9.810875 321:12.406875 322:40 323:6.922875 324:14.985875 325:5.189875 326:40 327:10.759875 328:10.345875 329:40 330:2.012875 331:40 332:9.228875 333:10.973875 334:7.295875 335:1.156875 336:3.810875 337:40 338:40 339:15.210875 340:-0.031125 341:5.910875 342:40 343:40 344:40 345:40 346:40 347:40 348:40 349:40 350:2.044875 351:13.928875 352:4.602875 353:40 354:40 355:5.804875 356:40 357:40 358:40 359:40 360:40 361:40 362:12.708875 363:7.829875 364:40 365:40 366:40 367:40 368:40 369:40 370:40 371:40 372:0.905875 373:40 374:40 375:40 376:40 377:40 378:40 379:13.275875 380:40 381:40 382:16.136875 384:40 
