svm_type c_svc
kernel_type rbf
gamma 0.000488
nr_class 2
total_sv 13
rho -0.187205
label 1 3
nr_sv 8 5
SV
0.5906744322964586 38:13.1135 66:4.0565 117:17.4535 132:3.8615 154:15.1125 155:-3.6635 259:40 310:40 317:3.6795 340:0.8325 
1.662475578560145 38:7.091875 66:3.850875 117:13.795875 132:2.845875 154:8.150875 155:-2.630125 259:40 310:40 317:6.403875 340:1.278875 
1.162057044502818 38:6.5005 66:2.2615 117:40 132:5.8885 154:15.8505 155:-3.2035 259:16.0835 310:8.4445 317:2.7875 340:-1.1005 
1.812170264814728 38:6.833625 66:3.131625 117:40 132:3.706625 154:11.827625 155:-4.288375 259:40 310:40 317:4.855625 340:1.366625 
1.483202842495165 38:40 66:3.83375 117:15.83675 132:3.80875 154:7.95675 155:-6.14625 259:40 310:40 317:4.08475 340:1.23275 
4 38:10.164 66:2.808 117:40 132:2.159 154:13.047 155:-3.619 259:40 310:40 317:4.629 340:0.414 
0.7082202042198619 38:8.164125 66:4.729125 117:14.129125 132:4.099125 154:16.769125 155:-3.948875 259:40 310:40 317:4.441125 340:1.671125 
0.4294662178415586 38:7.67125 66:3.97625 117:14.81425 132:4.33925 154:40 155:-4.25975 259:40 310:9.65725 317:6.65425 340:1.00625 
-2.464159451196085 38:15.026375 66:3.880375 117:40 132:5.425375 154:40 155:-3.803625 259:12.433375 310:40 317:3.106375 340:0.300375 
-1.221871384034831 38:40 66:40 117:40 132:6.614625 154:40 155:-0.719375 259:40 310:40 317:4.732625 340:-1.606375 
-4 38:8.33675 66:3.57275 117:18.81475 132:4.95675 154:6.95975 155:-2.47725 259:40 310:40 317:3.60375 340:1.26275 
-0.1622357494998186 38:40 66:3.1405 117:40 132:5.2845 154:40 155:-3.1555 259:14.5305 310:40 317:2.1635 340:0.3065 
-4 38:14.205875 66:3.669875 117:40 132:7.249875 154:8.464875 155:-3.139125 259:40 310:40 317:3.610875 340:0.589875 
