svm_type c_svc
kernel_type rbf
gamma 0.000488
nr_class 2
total_sv 15
rho -0.0145728
label 2 3
nr_sv 10 5
SV
0.7170311623918827 79:40 186:40 196:40 197:40 229:2.738 233:40 250:3.39 259:40 326:6.248 364:40 
0.1423322144481582 79:9.0545 186:40 196:40 197:40 229:-2.8985 233:10.3015 250:4.3635 259:40 326:4.8105 364:40 
2.759859591007147 79:6.875 186:40 196:40 197:40 229:8.056 233:40 250:6.504 259:40 326:11.226 364:19.734 
1.551056171421537 79:11.651875 186:9.540875 196:40 197:40 229:1.233875 233:7.845875 250:6.148875 259:40 326:11.339875 364:40 
0.28463939557111 79:12.018875 186:40 196:40 197:40 229:2.145875 233:14.778875 250:40 259:40 326:40 364:40 
4 79:11.14925 186:40 196:40 197:40 229:3.31025 233:40 250:8.30925 259:40 326:10.15525 364:40 
0.05228338358147696 79:40 186:40 196:40 197:40 229:-0.992625 233:7.015375 250:40 259:40 326:4.014375 364:40 
0.3406190549462091 79:40 186:40 196:40 197:40 229:-1.663375 233:40 250:40 259:40 326:5.992625 364:40 
0.310138780780405 79:40 186:40 196:40 197:40 229:0.086875 233:40 250:40 259:40 326:40 364:40 
0.2213142512670694 79:40 186:40 196:40 197:40 229:-1.838375 233:4.236625 250:40 259:40 326:40 364:40 
-0.5689100536337293 79:10.3575 186:9.2295 196:15.9265 197:10.1965 229:3.6505 233:13.6395 250:6.5805 259:14.5305 326:7.6515 364:10.8115 
-1.638835515473742 79:6.96975 186:17.45875 196:40 197:11.27175 229:4.17375 233:40 250:5.93075 259:40 326:7.93475 364:40 
-4 79:9.978625 186:40 196:40 197:40 229:2.753625 233:40 250:8.291625 259:40 326:10.962625 364:40 
-1.689381944627799 79:8.324375 186:11.388375 196:40 197:40 229:2.871375 233:40 250:6.056375 259:12.433375 326:6.470375 364:12.970375 
-2.482146491679725 79:9.717875 186:40 196:11.589875 197:40 229:6.803875 233:40 250:7.779875 259:40 326:8.509875 364:40 
