svm_type c_svc
kernel_type rbf
gamma 0.03125
nr_class 2
total_sv 29
rho 0.766667
label 4 5
nr_sv 14 15
SV
0.25 1:3.474875 2:5.917875 3:0.889875 4:0.880875 5:17.226875 6:-0.182125 7:7.376875 8:40 9:7.604875 10:40 11:8.361875 12:8.428875 13:5.108875 14:-0.046125 15:-3.484125 16:-6.312125 17:1.029875 18:10.285875 19:-1.785125 20:-6.576125 21:-5.261125 22:-1.972125 23:-1.429125 24:5.804875 25:9.962875 26:17.301875 27:-5.574125 28:0.257875 29:-2.347125 30:-0.779125 31:-1.065125 32:0.407875 33:1.443875 34:1.727875 35:8.239875 36:8.258875 37:0.486875 38:12.271875 39:5.664875 40:1.224875 41:0.549875 42:40 43:7.300875 44:40 45:4.053875 46:40 47:-1.929125 48:-2.986125 49:40 50:40 51:13.562875 52:40 53:5.765875 54:11.179875 55:2.692875 56:1.332875 57:40 58:-6.518125 59:40 60:-0.655125 61:11.710875 62:1.832875 63:40 64:11.391875 65:1.533875 66:4.978875 67:-6.216125 68:2.005875 69:40 70:4.066875 71:40 72:40 73:1.250875 74:3.239875 75:0.419875 76:2.675875 77:8.879875 78:3.253875 79:8.927875 80:14.864875 81:17.676875 82:40 83:10.416875 84:2.368875 85:-1.379125 86:5.197875 87:-1.545125 88:11.713875 89:-2.819125 90:3.204875 91:3.904875 92:1.936875 93:-6.976125 94:7.869875 95:-2.930125 96:40 97:1.850875 98:3.577875 99:40 100:-0.117125 101:1.256875 102:13.133875 103:16.247875 104:6.549875 105:11.350875 106:11.568875 107:40 108:13.194875 109:8.303875 110:-0.419125 111:-1.744125 112:40 113:40 114:15.723875 115:-6.918125 116:2.267875 117:40 118:9.006875 119:4.750875 120:4.110875 121:2.311875 122:8.640875 123:1.810875 124:40 125:6.237875 126:-1.817125 127:8.457875 128:15.795875 129:11.472875 130:4.670875 131:40 132:7.455875 133:6.325875 134:11.176875 135:40 136:6.271875 137:9.888875 138:12.910875 139:9.975875 140:40 141:40 142:13.483875 143:40 144:-1.204125 145:-4.258125 146:-10.051125 147:1.883875 148:40 149:9.620875 150:40 151:40 152:2.166875 153:4.986875 154:40 155:-2.090125 156:40 157:40 158:-1.463125 159:10.997875 160:3.353875 161:2.049875 162:40 163:1.831875 164:9.064875 165:9.875875 166:11.084875 167:1.748875 168:10.600875 169:1.992875 170:8.100875 171:9.905875 172:2.122875 173:12.672875 174:1.773875 175:0.880875 176:-0.897125 177:-0.017125 178:40 179:2.338875 180:3.637875 181:6.939875 182:12.137875 183:6.020875 184:11.894875 185:40 186:40 187:40 188:3.605875 189:40 190:40 191:40 192:-0.582125 193:-0.536125 194:6.336875 195:2.517875 196:40 197:40 198:6.148875 199:40 200:12.424875 201:7.002875 202:40 203:40 204:6.445875 205:4.890875 206:9.452875 207:2.772875 208:7.964875 209:7.266875 210:9.045875 211:10.504875 212:4.680875 213:8.735875 214:40 215:10.011875 216:40 217:40 218:-4.766125 219:5.376875 220:40 221:0.570875 222:40 223:12.072875 224:1.215875 225:-5.681125 226:10.495875 227:40 228:15.982875 229:4.302875 230:40 231:5.984875 232:40 233:13.534875 234:16.436875 235:40 236:3.775875 237:8.810875 238:4.902875 239:3.332875 240:40 241:40 242:40 243:40 244:40 245:10.111875 246:8.723875 247:40 248:40 249:40 250:14.716875 251:40 252:40 253:40 254:40 255:40 256:40 257:40 258:40 259:40 260:40 261:40 262:40 263:40 264:40 265:40 266:40 267:40 268:40 269:40 270:40 271:40 272:40 273:40 274:40 275:40 276:40 277:40 278:40 279:40 280:40 281:40 282:12.113875 283:40 284:40 285:40 286:40 287:4.497875 288:3.333875 289:2.952875 290:40 291:40 292:15.193875 293:40 294:9.116875 295:9.875875 296:40 297:40 298:40 299:40 300:40 301:40 302:40 303:40 304:40 305:40 306:40 307:11.032875 308:-1.043125 309:7.132875 310:18.473875 311:40 312:40 313:40 314:40 315:0.785875 316:9.193875 317:4.211875 318:40 319:40 320:12.186875 321:8.893875 322:40 323:4.799875 324:40 325:3.601875 326:40 327:8.610875 328:9.524875 329:40 330:-0.044125 331:40 332:9.947875 333:18.004875 334:9.166875 335:1.397875 336:4.693875 337:40 338:40 339:40 340:-0.693125 341:40 342:40 343:40 344:40 345:12.777875 346:40 347:40 348:40 349:40 350:6.180875 351:10.691875 352:5.038875 353:40 354:40 355:8.362875 356:40 357:40 358:40 359:40 360:40 361:40 362:40 363:11.036875 364:40 365:40 366:40 367:40 368:40 369:40 370:40 371:40 372:2.974875 373:40 374:40 375:40 376:40 377:40 378:40 379:6.881875 380:40 381:40 382:40 384:40 
0.25 1:40 2:7.39925 3:5.02825 4:7.49025 5:40 6:2.27725 7:8.67325 8:40 9:40 10:40 11:4.54525 12:4.32525 13:40 14:3.75625 15:-4.06475 16:-6.12175 17:4.83525 18:40 19:-0.50175 20:-5.95275 21:-2.96075 22:0.12025 23:0.39225 24:40 25:8.93825 26:40 27:-1.93175 28:-0.83875 29:-0.70275 30:1.05425 31:-0.62375 32:1.24125 33:0.71725 34:5.00025 35:4.60425 36:4.54825 37:-0.39675 38:40 39:5.27825 40:-0.18875 41:-1.14875 42:40 43:40 44:40 45:40 46:40 47:-3.47675 48:-0.93075 49:40 50:40 51:40 52:40 53:6.87025 54:40 55:1.92725 56:6.34325 57:40 58:-6.57375 59:40 60:-0.31075 61:40 62:-1.40775 63:40 64:40 65:1.40025 66:8.42225 67:-5.84475 68:40 69:40 70:8.49825 71:40 72:40 73:0.43525 74:4.14225 75:0.92025 76:-0.62475 77:9.31925 78:2.72325 79:40 80:40 81:40 82:40 83:40 84:3.46225 85:-1.41075 86:2.30925 87:-0.89975 88:40 89:-1.31375 90:3.90925 91:3.55325 92:3.23125 93:-8.65675 94:40 95:-3.68875 96:40 97:1.94225 98:5.45825 99:40 100:-3.39575 101:0.73025 102:40 103:40 104:6.97525 105:40 106:9.85925 107:40 108:40 109:40 110:0.30325 111:-3.66575 112:40 113:40 114:40 115:-9.44975 116:0.30625 117:40 118:6.59525 119:0.77025 120:12.03025 121:1.57625 122:6.04925 123:0.87525 124:40 125:40 126:0.07125 127:40 128:40 129:40 130:40 131:40 132:40 133:4.27225 134:40 135:40 136:5.91325 137:40 138:40 139:40 140:40 141:40 142:40 143:40 144:-0.51775 145:-5.91175 146:-10.24975 147:2.57225 148:40 149:40 150:40 151:40 152:6.20625 153:7.90525 154:40 155:-3.97275 156:40 157:40 158:-4.20375 159:40 160:4.06225 161:2.58825 162:40 163:0.37825 164:40 165:40 166:40 167:1.64425 168:40 169:0.99225 170:40 171:40 172:-0.62175 173:40 174:3.59125 175:0.57825 176:2.03825 177:-2.01375 178:40 179:1.80025 180:8.21125 181:40 182:6.67225 183:40 184:12.07125 185:40 186:40 187:40 188:3.35725 189:40 190:40 191:40 192:0.79325 193:1.22925 194:2.86025 195:3.48825 196:40 197:40 198:40 199:40 200:40 201:12.79425 202:40 203:40 204:40 205:40 206:5.31325 207:4.51025 208:40 209:5.32125 210:40 211:40 212:40 213:5.48025 214:40 215:40 216:40 217:40 218:-3.74375 219:6.59325 220:40 221:0.13025 222:40 223:40 224:-4.02075 225:-7.26075 226:11.55725 227:40 228:40 229:-0.04275 230:40 231:40 232:40 233:40 234:40 235:40 236:3.82825 237:3.98925 238:40 239:40 240:40 241:40 242:40 243:40 244:40 245:40 246:8.04325 247:40 248:40 249:40 250:40 251:40 252:40 253:40 254:40 255:40 256:40 257:40 258:40 259:40 260:40 261:40 262:40 263:40 264:40 265:40 266:40 267:40 268:40 269:40 270:40 271:40 272:40 273:40 274:40 275:40 276:40 277:40 278:13.50025 279:40 280:40 281:40 282:40 283:40 284:40 285:40 286:40 287:3.69725 288:4.24825 289:40 290:40 291:40 292:40 293:40 294:40 295:5.31025 296:40 297:40 298:40 299:40 300:40 301:40 302:40 303:40 304:40 305:40 306:40 307:40 308:-3.29875 309:40 310:40 311:40 312:40 313:40 314:40 315:-0.25275 316:40 317:40 318:40 319:40 320:40 321:40 322:40 323:40 324:40 325:2.87625 326:40 327:8.99725 328:40 329:40 330:5.36125 331:40 332:40 333:40 334:40 335:1.23725 336:1.85825 337:40 338:40 339:40 340:1.65025 341:40 342:40 343:40 344:40 345:6.92325 346:40 347:40 348:40 349:40 350:0.70125 351:40 352:40 353:40 354:40 355:40 356:40 357:40 358:40 359:40 360:40 361:40 362:40 363:4.42425 364:40 365:40 366:40 367:40 368:40 369:40 370:40 371:40 372:1.73725 373:40 374:40 375:40 376:40 377:40 378:40 379:40 380:40 381:40 382:40 384:40 
0.25 1:40 2:13.587 3:12.076 4:40 5:40 6:14.725 7:40 8:40 9:4.444 10:40 11:7.308 12:7.447 13:40 14:40 15:-4.277 16:-5.716 17:3.54 18:40 19:0.403 20:-5.996 21:-2.323 22:-0.718 23:1.817 24:40 25:40 26:40 27:-4.726 28:-0.995 29:4.719 30:10.188 31:0.084 32:3.102 33:-1.107 34:40 35:7.373 36:7.237 37:-0.55 38:40 39:5.017 40:1.888 41:1.815 42:40 43:6.566 44:40 45:12.531 46:40 47:-3.295 48:-1.812 49:40 50:40 51:40 52:13.887 53:40 54:5.881 55:2.919 56:3.466 57:40 58:-6.021 59:40 60:-0.571 61:40 62:0.95 63:8.139 64:40 65:6.259 66:5.434 67:-4.887 68:1.892 69:40 70:40 71:40 72:40 73:2.125 74:2.619 75:6.022 76:-0.665 77:9.492 78:2.254 79:40 80:5.829 81:14.567 82:40 83:40 84:4.039 85:2.425 86:2.334 87:0.631 88:40 89:1.541 90:40 91:6.529 92:6.375 93:-5.526 94:40 95:-0.152 96:40 97:7.644 98:9.379 99:40 100:-3.623 101:1.714 102:40 103:40 104:40 105:40 106:40 107:4.547 108:40 109:2.058 110:-0.939 111:-1.392 112:40 113:40 114:40 115:-5.149 116:1.126 117:40 118:3.388 119:0.827 120:8.034 121:3.738 122:40 123:0.075 124:40 125:40 126:-0.09 127:40 128:40 129:40 130:6.118 131:7.096 132:40 133:40 134:40 135:40 136:2.207 137:5.439 138:40 139:7.072 140:40 141:40 142:4.396 143:40 144:0.941 145:-6.218 146:-7.174 147:3.422 148:40 149:9.213 150:40 151:40 152:5.299 153:40 154:40 155:-2.721 156:40 157:40 158:-6.538 159:12.906 160:1.295 161:2.519 162:40 163:-0.039 164:40 165:8.375 166:40 167:1.03 168:40 169:5.524 170:4.989 171:40 172:1.715 173:40 174:4.928 175:2.54 176:3.868 177:-1.156 178:40 179:-0.218 180:40 181:40 182:40 183:40 184:8.764 185:40 186:40 187:40 188:1.42 189:40 190:7.895 191:40 192:4.14 193:3.841 194:3.43 195:3.12 196:40 197:40 198:3.963 199:40 200:40 201:9.555 202:40 203:40 204:9.816 205:8.735 206:40 207:1.973 208:40 209:-0.892 210:40 211:40 212:2.94 213:40 214:40 215:40 216:40 217:40 218:-3.162 219:5.783 220:40 221:3.504 222:40 223:40 224:-2.162 225:-8.019 226:6.96 227:40 228:40 229:0.459 230:40 231:40 232:40 233:40 234:6.467 235:40 236:5.181 237:6.842 238:40 239:8.641 240:40 241:40 242:40 243:40 244:40 245:40 246:6.054 247:40 248:40 249:40 250:40 251:40 252:40 253:40 254:40 255:40 256:40 257:40 258:40 259:40 260:40 261:40 262:40 263:40 264:40 265:40 266:40 267:40 268:40 269:12.044 270:40 271:40 272:10.356 273:40 274:40 275:40 276:40 277:40 278:8.379 279:40 280:40 281:40 282:9.175 283:40 284:40 285:40 286:40 287:3.178 288:3.271 289:2.689 290:40 291:40 292:40 293:40 294:40 295:3.492 296:40 297:40 298:40 299:7.33 300:40 301:40 302:40 303:40 304:40 305:40 306:40 307:40 308:-1.497 309:40 310:40 311:40 312:40 313:40 314:40 315:3.628 316:40 317:40 318:40 319:40 320:40 321:9.666 322:40 323:8.96 324:7.232 325:6.589 326:40 327:40 328:40 329:40 330:2.444 331:40 332:40 333:40 334:40 335:-0.331 336:40 337:40 338:40 339:40 340:0.92 341:40 342:40 343:40 344:40 345:5.828 346:40 347:40 348:40 349:40 350:5.628 351:5.073 352:4.004 353:40 354:40 355:40 356:40 357:40 358:40 359:40 360:40 361:40 362:40 363:5.056 364:40 365:40 366:40 367:40 368:40 369:40 370:40 371:40 372:2.296 373:40 374:40 375:40 376:40 377:40 378:40 379:40 380:40 381:40 382:11.26 384:40 
0.25 1:12.909625 2:6.613625 3:3.550625 4:4.128625 5:40 6:2.888625 7:4.222625 8:40 9:40 10:40 11:5.336625 12:5.266625 13:40 14:4.004625 15:-4.675375 16:-6.581375 17:2.758625 18:11.730625 19:-2.853375 20:-7.772375 21:-4.978375 22:-2.064375 23:-1.535375 24:12.819625 25:40 26:40 27:-6.654375 28:-1.379375 29:0.574625 30:0.720625 31:-0.126375 32:1.088625 33:2.000625 34:6.597625 35:5.291625 36:5.125625 37:0.230625 38:40 39:4.581625 40:0.606625 41:0.560625 42:40 43:40 44:40 45:4.409625 46:40 47:-3.786375 48:-3.111375 49:40 50:40 51:40 52:40 53:11.133625 54:40 55:2.438625 56:5.257625 57:40 58:-6.649375 59:40 60:-0.341375 61:40 62:-0.555375 63:40 64:40 65:3.092625 66:5.175625 67:-5.888375 68:1.502625 69:40 70:4.778625 71:40 72:40 73:2.325625 74:3.803625 75:1.229625 76:-0.821375 77:5.404625 78:0.183625 79:40 80:40 81:40 82:40 83:40 84:2.545625 85:0.627625 86:3.031625 87:-1.795375 88:40 89:0.143625 90:8.436625 91:3.740625 92:5.815625 93:-7.978375 94:40 95:-3.179375 96:40 97:0.275625 98:2.665625 99:40 100:-2.216375 101:0.565625 102:40 103:40 104:40 105:40 106:40 107:40 108:9.655625 109:40 110:0.033625 111:-3.710375 112:40 113:40 114:40 115:-7.387375 116:0.881625 117:40 118:6.728625 119:5.099625 120:40 121:0.891625 122:5.273625 123:0.570625 124:40 125:3.859625 126:-1.399375 127:4.999625 128:40 129:11.323625 130:40 131:40 132:4.547625 133:40 134:40 135:40 136:5.067625 137:4.850625 138:40 139:40 140:40 141:40 142:6.018625 143:40 144:-2.148375 145:-5.652375 146:-10.509375 147:2.666625 148:40 149:6.467625 150:40 151:40 152:3.696625 153:10.995625 154:40 155:-3.800375 156:40 157:40 158:-3.902375 159:5.963625 160:2.468625 161:3.495625 162:40 163:0.021625 164:40 165:10.236625 166:40 167:3.654625 168:40 169:-0.030375 170:40 171:40 172:-0.179375 173:40 174:1.997625 175:1.397625 176:0.302625 177:-1.868375 178:40 179:0.791625 180:3.473625 181:40 182:40 183:40 184:9.231625 185:40 186:40 187:40 188:7.945625 189:40 190:40 191:40 192:2.541625 193:1.363625 194:2.593625 195:0.244625 196:40 197:40 198:40 199:40 200:3.919625 201:4.625625 202:40 203:40 204:4.177625 205:7.223625 206:5.865625 207:1.740625 208:40 209:2.747625 210:6.601625 211:10.260625 212:1.352625 213:40 214:40 215:40 216:40 217:40 218:-4.441375 219:40 220:40 221:1.577625 222:40 223:40 224:-2.547375 225:-6.829375 226:40 227:40 228:8.892625 229:0.264625 230:40 231:4.332625 232:40 233:40 234:5.863625 235:40 236:3.761625 237:40 238:40 239:1.542625 240:40 241:40 242:40 243:40 244:40 245:40 246:6.072625 247:40 248:40 249:40 250:40 251:40 252:40 253:40 254:40 255:40 256:40 257:40 258:40 259:40 260:40 261:40 262:40 263:40 264:40 265:40 266:40 267:40 268:40 269:8.033625 270:40 271:40 272:40 273:40 274:40 275:40 276:40 277:40 278:13.146625 279:40 280:40 281:40 282:40 283:40 284:40 285:40 286:40 287:40 288:2.144625 289:2.460625 290:40 291:40 292:40 293:40 294:40 295:6.684625 296:40 297:40 298:40 299:40 300:40 301:40 302:40 303:40 304:40 305:40 306:40 307:40 308:-3.294375 309:40 310:40 311:4.639625 312:40 313:40 314:40 315:-0.183375 316:40 317:2.031625 318:40 319:40 320:7.409625 321:40 322:40 323:8.830625 324:40 325:3.442625 326:40 327:40 328:40 329:40 330:1.248625 331:40 332:40 333:40 334:7.321625 335:0.280625 336:5.444625 337:40 338:40 339:40 340:1.434625 341:40 342:40 343:40 344:40 345:7.609625 346:40 347:40 348:40 349:40 350:4.567625 351:40 352:6.583625 353:40 354:40 355:4.931625 356:40 357:40 358:40 359:40 360:40 361:40 362:11.807625 363:8.494625 364:40 365:40 366:40 367:40 368:40 369:40 370:40 371:40 372:0.139625 373:40 374:40 375:40 376:40 377:40 378:40 379:2.919625 380:40 381:40 382:8.774625 384:40 
0.25 1:40 2:5.201125 3:5.102125 4:10.992125 5:40 6:2.130125 7:7.949125 8:40 9:40 10:40 11:6.455125 12:6.495125 13:8.449125 14:3.491125 15:-6.502875 16:-6.780875 17:4.335125 18:16.461125 19:0.157125 20:-5.635875 21:-3.407875 22:-0.712875 23:-0.162875 24:11.193125 25:9.540125 26:40 27:-6.290875 28:-1.498875 29:0.586125 30:1.564125 31:-1.329875 32:0.989125 33:-0.359875 34:5.284125 35:6.408125 36:6.287125 37:-0.483875 38:40 39:4.520125 40:0.773125 41:0.958125 42:7.000125 43:6.563125 44:40 45:-0.233875 46:40 47:-3.198875 48:-1.549875 49:8.804125 50:40 51:40 52:15.037125 53:10.208125 54:11.728125 55:3.034125 56:3.317125 57:40 58:-6.935875 59:40 60:-1.193875 61:40 62:0.559125 63:40 64:40 65:4.538125 66:3.908125 67:-6.511875 68:4.744125 69:40 70:7.094125 71:40 72:40 73:0.652125 74:4.771125 75:2.143125 76:-0.239875 77:11.550125 78:5.833125 79:40 80:40 81:15.803125 82:40 83:6.677125 84:3.038125 85:-1.731875 86:2.782125 87:0.896125 88:40 89:1.458125 90:5.873125 91:2.493125 92:6.400125 93:-7.529875 94:40 95:-2.826875 96:40 97:2.234125 98:4.616125 99:40 100:-4.593875 101:1.339125 102:40 103:40 104:10.208125 105:40 106:40 107:9.121125 108:16.436125 109:5.751125 110:0.368125 111:-2.745875 112:40 113:40 114:40 115:-7.276875 116:1.680125 117:40 118:6.247125 119:1.977125 120:1.360125 121:1.752125 122:8.517125 123:0.448125 124:40 125:7.052125 126:-1.086875 127:11.657125 128:40 129:40 130:13.024125 131:40 132:10.769125 133:5.644125 134:9.628125 135:40 136:5.239125 137:6.781125 138:12.184125 139:40 140:40 141:40 142:5.231125 143:40 144:-0.920875 145:-5.578875 146:-10.521875 147:2.382125 148:40 149:15.823125 150:40 151:40 152:5.692125 153:6.673125 154:8.098125 155:-3.021875 156:9.579125 157:14.220125 158:-5.631875 159:6.930125 160:2.854125 161:3.519125 162:40 163:1.205125 164:40 165:12.354125 166:40 167:0.349125 168:6.639125 169:2.555125 170:40 171:8.035125 172:0.147125 173:40 174:3.031125 175:-0.962875 176:0.978125 177:-2.085875 178:40 179:0.323125 180:4.879125 181:40 182:40 183:5.999125 184:16.321125 185:7.149125 186:40 187:40 188:5.979125 189:40 190:14.538125 191:40 192:2.095125 193:1.287125 194:4.974125 195:2.151125 196:40 197:40 198:40 199:40 200:40 201:7.990125 202:40 203:40 204:4.649125 205:6.646125 206:40 207:4.493125 208:40 209:2.300125 210:11.184125 211:13.224125 212:5.859125 213:40 214:40 215:40 216:40 217:40 218:-4.854875 219:17.606125 220:40 221:1.127125 222:40 223:40 224:-2.536875 225:-7.223875 226:10.869125 227:40 228:5.705125 229:1.590125 230:40 231:8.570125 232:40 233:13.105125 234:40 235:40 236:7.203125 237:8.361125 238:8.066125 239:7.347125 240:9.726125 241:40 242:40 243:16.332125 244:11.515125 245:40 246:9.325125 247:40 248:40 249:40 250:5.473125 251:40 252:40 253:40 254:10.980125 255:40 256:40 257:40 258:40 259:40 260:40 261:40 262:40 263:40 264:40 265:40 266:40 267:40 268:40 269:40 270:40 271:40 272:3.933125 273:40 274:40 275:40 276:40 277:40 278:40 279:40 280:40 281:40 282:4.707125 283:40 284:40 285:40 286:40 287:6.409125 288:3.266125 289:4.004125 290:40 291:40 292:40 293:40 294:8.447125 295:40 296:40 297:40 298:40 299:40 300:40 301:40 302:40 303:40 304:40 305:40 306:40 307:40 308:-2.547875 309:9.925125 310:11.443125 311:9.489125 312:40 313:40 314:40 315:-0.283875 316:8.685125 317:5.347125 318:40 319:40 320:40 321:-0.474875 322:40 323:10.908125 324:40 325:2.050125 326:8.737125 327:6.576125 328:40 329:40 330:1.650125 331:40 332:40 333:40 334:40 335:1.193125 336:8.273125 337:40 338:40 339:40 340:0.934125 341:40 342:40 343:40 344:40 345:13.959125 346:40 347:40 348:40 349:40 350:1.818125 351:40 352:5.685125 353:40 354:40 355:9.218125 356:40 357:40 358:40 359:40 360:16.463125 361:1.477125 362:40 363:10.511125 364:40 365:40 366:40 367:40 368:40 369:40 370:40 371:40 372:1.914125 373:40 374:40 375:40 376:40 377:40 378:40 379:6.391125 380:40 381:40 382:40 384:40 
0.25 1:40 2:6.493 3:6.419 4:8.992 5:40 6:5.435 7:8.528 8:40 9:5.655 10:40 11:9.335 12:8.958 13:14.554 14:3.856 15:-4.414 16:-4.496 17:3.21 18:14.863 19:-0.496 20:-5.945 21:-3.334 22:0.833 23:-1.28 24:4.961 25:12.906 26:40 27:-4.886 28:-2.174 29:2.282 30:2.727 31:-1.835 32:0.137 33:0.807 34:4.29 35:9.071 36:9.004 37:0.275 38:10.859 39:4.082 40:1.008 41:-0.244 42:7.553 43:9.119 44:40 45:3.106 46:40 47:-4.291 48:-2.091 49:9.633 50:40 51:40 52:14.998 53:6.705 54:8.61 55:2.595 56:9.186 57:40 58:-4.869 59:40 60:-0.988 61:40 62:-1.294 63:11.95 64:10.092 65:8.45 66:4.045 67:-3.94 68:2.012 69:40 70:3.642 71:40 72:40 73:-0.522 74:2.005 75:0.81 76:0.878 77:8.245 78:6.17 79:40 80:40 81:40 82:40 83:7.343 84:3.928 85:0.641 86:4.497 87:0.289 88:8.509 89:0.369 90:6.083 91:2.342 92:5.285 93:-5.308 94:8.604 95:-0.131 96:40 97:2.356 98:3.945 99:40 100:-2.758 101:0.206 102:40 103:13.079 104:8.619 105:15.25 106:40 107:11.009 108:40 109:4.418 110:0.647 111:0.681 112:40 113:40 114:40 115:-3.236 116:0.363 117:40 118:2.976 119:2.243 120:6.79 121:3.699 122:40 123:1.921 124:40 125:6.078 126:-1.301 127:10.591 128:18.489 129:11.12 130:13.391 131:10.15 132:5.626 133:7.043 134:40 135:40 136:4.282 137:10.239 138:10.591 139:18.761 140:40 141:40 142:4.566 143:16.129 144:-1.902 145:-2.421 146:-8.639 147:2.989 148:40 149:8.471 150:40 151:40 152:4.495 153:7.047 154:14.375 155:-2.685 156:40 157:40 158:-4.101 159:7.255 160:2.592 161:0.927 162:17.616 163:-1.149 164:11.691 165:10.172 166:40 167:1.485 168:18.27 169:1.616 170:7.415 171:11.987 172:3.206 173:14.653 174:3.54 175:6.288 176:3.168 177:2.02 178:17.061 179:1.218 180:3.942 181:8.274 182:10.827 183:15.404 184:7.192 185:40 186:40 187:15.346 188:3.922 189:40 190:40 191:40 192:4.038 193:5.416 194:2.867 195:3.028 196:11.087 197:40 198:40 199:40 200:17.644 201:3.306 202:40 203:15.538 204:4.962 205:7.692 206:10.448 207:2.791 208:11.508 209:3.205 210:10.445 211:18.632 212:4.499 213:10.465 214:12.094 215:11.947 216:40 217:40 218:-5.291 219:8.077 220:40 221:6.541 222:40 223:40 224:1.24 225:-4.914 226:11.827 227:40 228:8.277 229:2.988 230:40 231:8.023 232:10.621 233:10.061 234:40 235:40 236:6.516 237:9.237 238:6.886 239:5.03 240:40 241:40 242:40 243:40 244:40 245:40 246:8.389 247:40 248:40 249:40 250:6.604 251:40 252:40 253:40 254:40 255:40 256:40 257:40 258:40 259:40 260:40 261:40 262:40 263:14.885 264:16.334 265:40 266:40 267:40 268:40 269:40 270:40 271:40 272:18.479 273:40 274:40 275:40 276:40 277:40 278:40 279:40 280:40 281:40 282:15.382 283:40 284:40 285:40 286:40 287:5.726 288:2.053 289:4.75 290:40 291:8.113 292:40 293:40 294:15.324 295:11.781 296:40 297:40 298:40 299:14.13 300:40 301:10.21 302:40 303:40 304:40 305:40 306:40 307:11.456 308:0.906 309:7.886 310:17.082 311:8.438 312:40 313:40 314:40 315:1.254 316:8.041 317:4.495 318:40 319:40 320:40 321:13.044 322:40 323:8.87 324:15.292 325:11.551 326:10.047 327:8.215 328:7.099 329:40 330:2.112 331:40 332:14.827 333:15.18 334:10.793 335:-0.209 336:6.869 337:40 338:40 339:40 340:1.441 341:17.372 342:40 343:40 344:40 345:9.045 346:40 347:40 348:40 349:40 350:0.949 351:8.753 352:6.87 353:40 354:11.143 355:7.18 356:40 357:13.916 358:40 359:40 360:40 361:40 362:16.322 363:7.221 364:15.264 365:40 366:40 367:40 368:40 369:40 370:40 371:40 372:2.171 373:40 374:40 375:40 376:40 377:40 378:40 379:6.857 380:40 381:40 382:17.851 384:40 
0.25 1:40 2:8.122875 3:4.951875 4:9.370875 5:40 6:3.667875 7:12.199875 8:40 9:7.638875 10:40 11:3.956875 12:3.904875 13:5.568875 14:3.982875 15:-4.635125 16:-4.471125 17:4.897875 18:7.517875 19:-0.873125 20:-6.834125 21:-1.782125 22:1.646875 23:-1.767125 24:3.751875 25:3.647875 26:40 27:-6.345125 28:-0.387125 29:0.739875 30:3.430875 31:1.648875 32:1.951875 33:-0.945125 34:4.507875 35:3.985875 36:3.912875 37:0.096875 38:40 39:6.012875 40:1.060875 41:-0.078125 42:5.656875 43:40 44:40 45:4.242875 46:40 47:-3.635125 48:-0.709125 49:40 50:9.102875 51:40 52:9.066875 53:3.567875 54:5.286875 55:3.676875 56:1.156875 57:40 58:-4.636125 59:40 60:-0.678125 61:40 62:1.326875 63:40 64:40 65:3.047875 66:3.129875 67:-5.421125 68:3.166875 69:40 70:4.241875 71:40 72:40 73:0.916875 74:0.899875 75:4.981875 76:-1.411125 77:4.090875 78:0.230875 79:7.461875 80:10.764875 81:40 82:40 83:40 84:0.956875 85:-0.886125 86:0.803875 87:1.433875 88:6.153875 89:0.076875 90:4.022875 91:2.578875 92:3.062875 93:-7.403125 94:40 95:-2.324125 96:40 97:4.761875 98:3.975875 99:40 100:-3.481125 101:2.313875 102:40 103:40 104:2.528875 105:10.288875 106:11.555875 107:40 108:6.264875 109:4.805875 110:-0.088125 111:-1.529125 112:40 113:40 114:40 115:-6.547125 116:1.898875 117:40 118:3.467875 119:1.364875 120:8.564875 121:3.826875 122:8.134875 123:-2.167125 124:40 125:40 126:0.012875 127:40 128:40 129:40 130:2.191875 131:7.349875 132:4.501875 133:5.776875 134:40 135:8.674875 136:-0.386125 137:6.840875 138:5.537875 139:5.928875 140:40 141:40 142:6.340875 143:40 144:-0.556125 145:-3.655125 146:-9.362125 147:3.812875 148:40 149:8.088875 150:40 151:40 152:3.342875 153:7.134875 154:5.893875 155:-5.143125 156:40 157:12.273875 158:-5.181125 159:4.040875 160:1.306875 161:2.821875 162:11.071875 163:0.202875 164:10.899875 165:4.698875 166:11.586875 167:-0.176125 168:6.390875 169:3.101875 170:5.486875 171:40 172:-0.188125 173:9.004875 174:5.262875 175:1.226875 176:-1.762125 177:-2.249125 178:40 179:0.915875 180:5.261875 181:40 182:11.262875 183:5.592875 184:7.711875 185:7.160875 186:40 187:12.172875 188:0.862875 189:40 190:40 191:40 192:4.094875 193:2.464875 194:4.019875 195:1.065875 196:40 197:40 198:4.539875 199:40 200:40 201:1.866875 202:40 203:10.170875 204:5.657875 205:6.947875 206:7.394875 207:2.678875 208:40 209:-2.571125 210:10.892875 211:11.754875 212:4.138875 213:40 214:40 215:40 216:40 217:6.803875 218:-4.688125 219:4.878875 220:40 221:4.173875 222:40 223:40 224:1.152875 225:-6.422125 226:6.046875 227:40 228:5.147875 229:0.181875 230:40 231:7.190875 232:10.214875 233:6.894875 234:40 235:6.064875 236:5.336875 237:7.235875 238:7.754875 239:4.166875 240:40 241:40 242:40 243:40 244:5.346875 245:6.987875 246:14.537875 247:40 248:40 249:40 250:40 251:40 252:40 253:40 254:40 255:40 256:40 257:40 258:10.840875 259:40 260:40 261:40 262:40 263:40 264:14.182875 265:12.944875 266:40 267:11.720875 268:40 269:40 270:40 271:40 272:3.808875 273:11.085875 274:9.120875 275:40 276:40 277:40 278:40 279:40 280:14.510875 281:40 282:12.506875 283:40 284:40 285:40 286:40 287:3.901875 288:2.867875 289:3.577875 290:40 291:40 292:40 293:40 294:9.736875 295:7.942875 296:40 297:40 298:40 299:40 300:40 301:40 302:40 303:40 304:40 305:40 306:40 307:40 308:-1.671125 309:11.107875 310:5.926875 311:40 312:40 313:40 314:40 315:3.117875 316:6.599875 317:4.616875 318:40 319:40 320:40 321:4.580875 322:40 323:4.891875 324:12.553875 325:9.950875 326:5.140875 327:4.712875 328:40 329:40 330:1.887875 331:40 332:11.285875 333:8.092875 334:11.990875 335:0.172875 336:6.087875 337:40 338:40 339:40 340:1.523875 341:40 342:40 343:40 344:40 345:4.025875 346:40 347:40 348:40 349:40 350:2.605875 351:7.371875 352:2.511875 353:40 354:40 355:6.136875 356:40 357:6.338875 358:40 359:40 360:40 361:6.210875 362:40 363:7.076875 364:40 365:40 366:40 367:40 368:40 369:40 370:40 371:40 372:0.877875 373:40 374:40 375:40 376:40 377:40 378:40 379:7.646875 380:40 381:10.183875 382:10.827875 384:40 
0.25 1:40 2:4.58175 3:4.89675 4:13.56575 5:40 6:0.99275 7:8.27875 8:40 9:6.87175 10:40 11:6.24875 12:6.22775 13:13.61975 14:2.66375 15:-8.50725 16:-7.83225 17:1.85475 18:11.25575 19:-2.22025 20:-8.03325 21:-6.95825 22:-3.65125 23:-1.20425 24:8.01475 25:12.37075 26:40 27:-4.71225 28:-4.15625 29:-0.20225 30:-1.81225 31:-1.20925 32:1.14975 33:0.68175 34:3.10475 35:6.34975 36:6.28475 37:0.17575 38:40 39:4.17575 40:-0.51425 41:0.41475 42:40 43:11.99775 44:40 45:-0.33925 46:40 47:-5.90125 48:-4.14625 49:7.66775 50:40 51:40 52:13.52875 53:6.67175 54:7.39375 55:0.62875 56:2.90675 57:40 58:-8.03325 59:40 60:-3.59425 61:40 62:-1.67225 63:40 64:11.54175 65:5.37275 66:2.22975 67:-5.79625 68:3.10075 69:40 70:4.26575 71:40 72:40 73:0.64175 74:4.12175 75:1.63875 76:0.80975 77:9.82975 78:10.30675 79:5.96075 80:40 81:16.72275 82:40 83:13.30475 84:6.20675 85:0.60375 86:1.78575 87:0.38075 88:8.68975 89:-0.52825 90:4.22375 91:2.58575 92:5.79975 93:-4.76625 94:40 95:-2.14425 96:40 97:1.64375 98:4.20975 99:40 100:-4.89325 101:1.39375 102:40 103:40 104:7.20575 105:16.94075 106:12.69275 107:9.12575 108:10.49775 109:3.17575 110:-1.33625 111:-1.90125 112:40 113:40 114:40 115:-5.65825 116:-0.47125 117:40 118:3.77675 119:1.36775 120:0.03675 121:0.42975 122:11.91175 123:1.97775 124:40 125:7.09175 126:-0.55025 127:13.18775 128:40 129:9.90075 130:12.03775 131:40 132:3.30475 133:6.68575 134:3.71175 135:40 136:3.80375 137:8.06375 138:9.71275 139:40 140:40 141:40 142:-0.20725 143:40 144:-0.48225 145:-4.99425 146:-9.37025 147:4.99475 148:40 149:6.95775 150:40 151:40 152:2.67475 153:6.39975 154:6.88175 155:-4.95325 156:9.99975 157:10.01675 158:-5.26225 159:10.96475 160:1.52175 161:2.14475 162:40 163:0.63975 164:15.16675 165:11.78275 166:40 167:0.50975 168:9.95575 169:1.81175 170:8.38475 171:13.47775 172:3.84075 173:40 174:3.63975 175:0.70175 176:-2.25725 177:-1.43825 178:13.96875 179:2.26775 180:7.90375 181:6.17475 182:40 183:4.82575 184:9.69175 185:7.41175 186:40 187:40 188:8.53975 189:40 190:11.25675 191:40 192:0.23375 193:1.29275 194:3.38475 195:3.36875 196:40 197:40 198:40 199:40 200:15.84575 201:8.31075 202:40 203:40 204:5.50975 205:17.15575 206:40 207:3.31975 208:12.70175 209:3.49375 210:12.24575 211:40 212:8.09875 213:40 214:40 215:40 216:40 217:40 218:-8.33225 219:12.13975 220:40 221:0.39875 222:40 223:40 224:-1.61425 225:-6.56925 226:40 227:40 228:7.03775 229:2.07775 230:13.05975 231:14.38575 232:40 233:11.14775 234:40 235:40 236:8.23875 237:11.15375 238:10.16075 239:6.84975 240:40 241:40 242:10.10875 243:5.55875 244:40 245:8.00375 246:9.15375 247:12.22575 248:40 249:40 250:5.77775 251:40 252:40 253:40 254:40 255:40 256:40 257:40 258:40 259:40 260:40 261:40 262:40 263:40 264:40 265:40 266:40 267:40 268:40 269:40 270:40 271:40 272:5.31375 273:40 274:40 275:40 276:40 277:40 278:40 279:40 280:40 281:40 282:6.29275 283:40 284:40 285:40 286:40 287:3.30875 288:0.04975 289:7.33775 290:40 291:40 292:40 293:40 294:9.39275 295:15.55375 296:40 297:40 298:40 299:13.79675 300:40 301:40 302:40 303:10.07475 304:40 305:40 306:40 307:40 308:-0.95225 309:13.78075 310:40 311:6.61875 312:40 313:40 314:40 315:-0.12025 316:40 317:3.87375 318:40 319:40 320:40 321:-1.13925 322:40 323:13.56775 324:40 325:6.19575 326:10.05475 327:5.55475 328:6.89775 329:40 330:1.48675 331:40 332:40 333:40 334:40 335:-0.59525 336:6.66375 337:40 338:40 339:40 340:2.47675 341:40 342:40 343:40 344:40 345:11.81375 346:40 347:40 348:40 349:40 350:0.78075 351:40 352:4.08175 353:40 354:40 355:9.67675 356:40 357:40 358:40 359:40 360:16.17475 361:2.57975 362:40 363:11.84375 364:40 365:40 366:40 367:40 368:13.43375 369:40 370:40 371:40 372:3.21975 373:40 374:40 375:40 376:40 377:40 378:40 379:6.47975 380:40 381:40 382:40 384:14.86775 
0.25 1:4.92075 2:3.31275 3:3.11475 4:1.81375 5:40 6:-0.52825 7:10.45175 8:11.37675 9:5.22575 10:10.74075 11:4.54775 12:4.75175 13:3.62775 14:0.70075 15:-9.27125 16:-6.90325 17:0.45275 18:2.07575 19:-3.13325 20:-9.12925 21:-6.91725 22:-2.70025 23:-3.94725 24:0.02075 25:7.44075 26:40 27:-4.50725 28:-4.92925 29:-0.90725 30:-1.59425 31:0.04175 32:1.38475 33:1.95275 34:3.13475 35:4.08075 36:4.13175 37:2.19175 38:7.81775 39:3.97875 40:-2.64725 41:-2.71725 42:6.90475 43:6.74075 44:40 45:6.12875 46:40 47:-6.98625 48:-4.35325 49:12.03175 50:40 51:11.31475 52:9.83475 53:1.35175 54:8.03975 55:-0.80825 56:-2.20725 57:40 58:-7.41625 59:40 60:-4.93525 61:5.14975 62:-0.16225 63:10.04575 64:15.43975 65:6.81975 66:2.20775 67:-5.67525 68:3.24175 69:40 70:3.64075 71:40 72:40 73:-0.64325 74:0.84775 75:2.14475 76:3.27375 77:8.27175 78:6.25175 79:6.50775 80:40 81:15.36475 82:40 83:9.46675 84:3.73375 85:0.61875 86:0.25675 87:0.48175 88:8.25875 89:-2.02725 90:3.10775 91:3.60375 92:2.49575 93:-3.20625 94:9.74875 95:-0.91725 96:40 97:2.25275 98:3.87675 99:40 100:-3.11325 101:1.98675 102:40 103:40 104:2.02375 105:9.49475 106:9.60775 107:9.04575 108:5.20975 109:7.29775 110:-2.30625 111:-0.13225 112:40 113:40 114:9.99475 115:-5.49125 116:0.12375 117:14.17075 118:4.25275 119:2.86175 120:1.93475 121:1.57275 122:9.40375 123:0.70275 124:13.62975 125:6.61975 126:-0.20525 127:8.77375 128:40 129:8.07675 130:4.79975 131:11.92975 132:4.50475 133:6.58575 134:6.28075 135:40 136:-1.16825 137:5.68475 138:3.01075 139:9.48075 140:10.60175 141:40 142:5.21875 143:14.75275 144:-0.83325 145:-2.46425 146:-8.38125 147:5.23775 148:40 149:2.07875 150:40 151:40 152:1.67775 153:8.30775 154:2.68075 155:-5.18525 156:-1.32925 157:8.09775 158:-4.70525 159:7.13875 160:0.16475 161:0.59975 162:15.61975 163:-0.69125 164:11.21575 165:4.82875 166:13.64975 167:-0.96725 168:12.45075 169:3.20875 170:8.42575 171:10.37675 172:4.29075 173:3.78175 174:5.20875 175:5.76475 176:-4.46125 177:-0.78225 178:9.90375 179:2.87375 180:6.86575 181:6.27175 182:7.85575 183:1.47275 184:6.75875 185:2.02675 186:40 187:17.23875 188:2.89075 189:40 190:16.13075 191:40 192:0.29275 193:1.87575 194:5.26675 195:3.72875 196:40 197:15.37975 198:7.81675 199:40 200:10.77475 201:3.94475 202:13.42375 203:10.73075 204:7.10575 205:7.27175 206:10.39775 207:1.18375 208:10.92975 209:-2.89425 210:16.36475 211:9.95475 212:8.60775 213:14.76275 214:15.10275 215:40 216:40 217:14.31075 218:-9.85825 219:10.15275 220:40 221:2.44275 222:9.96975 223:14.20075 224:4.88875 225:-5.85025 226:7.13575 227:40 228:3.31975 229:-2.96225 230:12.33375 231:8.94175 232:16.08575 233:40 234:40 235:40 236:7.26675 237:11.52875 238:9.43675 239:5.52275 240:40 241:40 242:11.35575 243:4.71675 244:7.22575 245:4.21075 246:4.81375 247:9.87675 248:40 249:9.91275 250:6.11475 251:40 252:40 253:40 254:11.76975 255:40 256:40 257:40 258:40 259:17.83775 260:40 261:40 262:40 263:40 264:12.88375 265:40 266:40 267:40 268:40 269:40 270:40 271:14.73975 272:14.03675 273:12.16175 274:40 275:40 276:40 277:40 278:40 279:40 280:40 281:14.70975 282:9.67575 283:40 284:40 285:40 286:40 287:1.83375 288:-0.75225 289:7.87275 290:40 291:11.56175 292:40 293:10.35975 294:7.03475 295:13.81975 296:40 297:40 298:40 299:12.72175 300:14.70575 301:12.95275 302:17.26075 303:9.00075 304:40 305:15.82375 306:40 307:12.77175 308:0.84375 309:8.34375 310:8.74975 311:5.86775 312:15.86075 313:40 314:11.73475 315:0.34475 316:10.34775 317:4.88175 318:40 319:40 320:9.29075 321:-3.60125 322:40 323:7.74275 324:40 325:10.86975 326:6.02975 327:6.32675 328:6.87675 329:40 330:-0.61625 331:40 332:15.39175 333:8.30675 334:14.11775 335:-2.04225 336:7.90975 337:40 338:40 339:40 340:2.45075 341:10.45575 342:40 343:40 344:40 345:5.64475 346:40 347:40 348:40 349:40 350:1.21875 351:8.14975 352:5.21075 353:40 354:40 355:8.56375 356:40 357:15.43875 358:40 359:40 360:11.45475 361:-2.92925 362:12.04275 363:10.07375 364:12.60875 365:40 366:40 367:40 368:10.27775 369:40 370:40 371:40 372:3.41975 373:40 374:40 375:40 376:40 377:40 378:40 379:8.17075 380:40 381:40 382:40 384:7.39575 
0.25 1:40 2:6.928875 3:12.629875 4:40 5:40 6:8.493875 7:40 8:40 9:8.840875 10:40 11:5.582875 12:5.339875 13:40 14:7.940875 15:-4.228125 16:-7.014125 17:2.828875 18:40 19:-2.326125 20:-7.363125 21:-5.535125 22:-0.908125 23:-1.467125 24:40 25:40 26:40 27:-5.244125 28:-3.554125 29:0.525875 30:0.682875 31:-0.750125 32:-0.505125 33:0.158875 34:7.545875 35:5.609875 36:5.407875 37:-0.183125 38:40 39:2.844875 40:2.287875 41:1.328875 42:5.668875 43:40 44:40 45:2.460875 46:40 47:-5.386125 48:-3.561125 49:40 50:40 51:40 52:14.186875 53:6.756875 54:5.468875 55:0.884875 56:12.586875 57:40 58:-7.021125 59:40 60:-2.432125 61:40 62:-2.751125 63:40 64:11.478875 65:5.062875 66:2.487875 67:-5.023125 68:0.522875 69:40 70:5.321875 71:40 72:40 73:0.009875 74:1.792875 75:1.193875 76:0.775875 77:40 78:0.607875 79:40 80:40 81:40 82:40 83:6.165875 84:3.591875 85:-0.100125 86:2.791875 87:0.641875 88:9.480875 89:-0.359125 90:5.158875 91:6.475875 92:4.316875 93:-8.052125 94:40 95:-2.288125 96:40 97:1.621875 98:3.559875 99:40 100:-4.384125 101:-0.003125 102:8.983875 103:40 104:6.268875 105:40 106:40 107:40 108:40 109:1.928875 110:-0.846125 111:-3.628125 112:40 113:40 114:40 115:-6.551125 116:-0.620125 117:8.127875 118:2.140875 119:0.570875 120:14.185875 121:1.154875 122:40 123:0.666875 124:40 125:40 126:1.362875 127:40 128:40 129:40 130:40 131:7.761875 132:2.706875 133:4.625875 134:40 135:40 136:3.999875 137:10.866875 138:7.863875 139:40 140:40 141:40 142:4.114875 143:40 144:-2.285125 145:-4.887125 146:-9.275125 147:1.810875 148:40 149:7.670875 150:40 151:40 152:4.820875 153:6.745875 154:12.511875 155:-5.313125 156:40 157:40 158:-4.744125 159:40 160:1.041875 161:0.365875 162:40 163:-1.467125 164:40 165:40 166:40 167:1.984875 168:40 169:0.901875 170:40 171:40 172:0.594875 173:40 174:3.632875 175:3.573875 176:1.253875 177:-1.981125 178:40 179:0.261875 180:4.314875 181:40 182:40 183:7.185875 184:7.059875 185:40 186:40 187:40 188:7.435875 189:40 190:11.299875 191:12.996875 192:2.341875 193:9.280875 194:4.324875 195:-0.473125 196:40 197:40 198:40 199:40 200:4.389875 201:4.872875 202:40 203:40 204:3.481875 205:7.390875 206:5.196875 207:2.843875 208:40 209:40 210:40 211:40 212:3.262875 213:40 214:40 215:40 216:40 217:40 218:-5.847125 219:40 220:40 221:4.182875 222:40 223:5.543875 224:-2.947125 225:-6.850125 226:40 227:40 228:40 229:1.663875 230:40 231:12.588875 232:40 233:40 234:40 235:40 236:2.455875 237:40 238:40 239:40 240:40 241:40 242:40 243:40 244:40 245:40 246:9.290875 247:40 248:40 249:40 250:40 251:40 252:40 253:40 254:40 255:40 256:40 257:40 258:40 259:40 260:40 261:40 262:40 263:40 264:12.793875 265:40 266:40 267:12.949875 268:40 269:40 270:40 271:9.403875 272:40 273:12.926875 274:40 275:40 276:40 277:40 278:40 279:40 280:40 281:40 282:10.047875 283:40 284:40 285:40 286:40 287:3.478875 288:3.779875 289:2.754875 290:40 291:40 292:40 293:40 294:10.161875 295:7.015875 296:40 297:40 298:40 299:40 300:40 301:40 302:40 303:11.161875 304:40 305:40 306:40 307:40 308:-0.956125 309:12.473875 310:40 311:7.571875 312:40 313:40 314:40 315:-0.071125 316:3.941875 317:6.446875 318:40 319:40 320:40 321:7.836875 322:40 323:8.676875 324:13.808875 325:6.510875 326:40 327:40 328:4.185875 329:40 330:0.773875 331:40 332:40 333:40 334:14.239875 335:0.432875 336:8.296875 337:40 338:40 339:40 340:0.143875 341:40 342:40 343:40 344:40 345:40 346:40 347:40 348:40 349:40 350:10.055875 351:5.778875 352:7.613875 353:40 354:40 355:40 356:40 357:40 358:40 359:40 360:40 361:40 362:40 363:40 364:40 365:40 366:40 367:40 368:40 369:40 370:40 371:40 372:0.588875 373:40 374:40 375:40 376:40 377:40 378:40 379:11.716875 380:40 381:40 382:40 384:40 
0.25 1:6.921875 2:5.540875 3:4.555875 4:1.908875 5:40 6:1.977875 7:8.210875 8:9.709875 9:7.011875 10:14.178875 11:1.419875 12:1.044875 13:3.330875 14:1.242875 15:-6.276125 16:-5.546125 17:4.059875 18:5.937875 19:-0.689125 20:-6.423125 21:-3.907125 22:0.074875 23:-2.131125 24:1.105875 25:4.387875 26:40 27:-6.252125 28:-0.812125 29:-0.458125 30:2.113875 31:-0.136125 32:0.901875 33:-0.213125 34:2.824875 35:0.987875 36:0.964875 37:0.361875 38:9.636875 39:5.510875 40:-0.658125 41:-0.954125 42:6.162875 43:6.792875 44:40 45:6.219875 46:40 47:-3.272125 48:-1.115125 49:10.213875 50:40 51:40 52:8.452875 53:1.951875 54:6.799875 55:3.150875 56:0.696875 57:40 58:-5.791125 59:40 60:-0.488125 61:6.966875 62:0.566875 63:40 64:13.976875 65:3.174875 66:4.585875 67:-6.937125 68:4.069875 69:40 70:4.494875 71:40 72:40 73:0.130875 74:1.654875 75:3.162875 76:-0.003125 77:6.841875 78:3.206875 79:40 80:40 81:9.882875 82:40 83:9.775875 84:1.441875 85:-1.479125 86:1.491875 87:1.110875 88:10.020875 89:-0.924125 90:3.867875 91:2.130875 92:3.130875 93:-6.925125 94:6.641875 95:-3.096125 96:40 97:3.517875 98:3.807875 99:40 100:-5.384125 101:1.597875 102:40 103:40 104:3.210875 105:10.723875 106:40 107:6.647875 108:11.842875 109:6.078875 110:0.242875 111:-1.140125 112:8.136875 113:40 114:40 115:-6.738125 116:3.091875 117:40 118:5.178875 119:1.939875 120:6.237875 121:4.321875 122:7.086875 123:-0.983125 124:40 125:5.989875 126:-1.376125 127:9.902875 128:7.638875 129:6.589875 130:3.275875 131:10.519875 132:6.865875 133:7.071875 134:7.990875 135:40 136:0.441875 137:9.656875 138:4.611875 139:9.279875 140:40 141:40 142:6.632875 143:40 144:-1.183125 145:-4.076125 146:-10.176125 147:2.919875 148:40 149:6.603875 150:40 151:40 152:3.100875 153:6.471875 154:1.792875 155:-4.526125 156:3.872875 157:8.465875 158:-4.421125 159:5.283875 160:2.087875 161:1.967875 162:13.055875 163:0.074875 164:17.005875 165:4.329875 166:40 167:-0.455125 168:8.266875 169:3.153875 170:8.089875 171:7.036875 172:0.294875 173:3.264875 174:4.053875 175:1.282875 176:-2.029125 177:-3.805125 178:6.503875 179:0.805875 180:5.548875 181:11.176875 182:11.185875 183:6.345875 184:7.636875 185:1.829875 186:40 187:14.870875 188:3.202875 189:40 190:7.438875 191:40 192:2.318875 193:1.269875 194:6.249875 195:2.384875 196:40 197:3.818875 198:7.185875 199:40 200:10.546875 201:4.253875 202:40 203:40 204:6.204875 205:8.006875 206:13.942875 207:2.997875 208:9.575875 209:-1.669125 210:13.618875 211:9.802875 212:6.747875 213:12.227875 214:14.925875 215:10.449875 216:40 217:40 218:-4.457125 219:7.800875 220:40 221:3.405875 222:40 223:40 224:2.128875 225:-5.819125 226:7.823875 227:40 228:5.073875 229:0.139875 230:40 231:7.145875 232:40 233:7.631875 234:40 235:40 236:5.911875 237:8.724875 238:7.712875 239:5.202875 240:12.326875 241:40 242:40 243:9.946875 244:40 245:6.377875 246:8.683875 247:40 248:40 249:40 250:5.445875 251:40 252:40 253:40 254:40 255:40 256:8.826875 257:40 258:40 259:40 260:40 261:40 262:40 263:40 264:40 265:40 266:40 267:13.577875 268:40 269:40 270:40 271:40 272:-3.678125 273:40 274:40 275:40 276:40 277:40 278:40 279:40 280:18.753875 281:40 282:6.007875 283:40 284:40 285:40 286:40 287:4.155875 288:2.627875 289:5.508875 290:40 291:8.606875 292:11.055875 293:8.905875 294:7.343875 295:10.934875 296:40 297:40 298:40 299:40 300:40 301:40 302:16.211875 303:8.220875 304:40 305:40 306:40 307:40 308:-1.106125 309:8.993875 310:40 311:6.898875 312:40 313:40 314:8.861875 315:0.752875 316:10.329875 317:4.957875 318:40 319:40 320:8.745875 321:-4.314125 322:40 323:6.199875 324:12.639875 325:7.433875 326:6.695875 327:6.414875 328:8.671875 329:40 330:1.457875 331:40 332:40 333:13.170875 334:9.333875 335:1.277875 336:6.221875 337:40 338:40 339:40 340:1.413875 341:10.498875 342:40 343:40 344:40 345:5.455875 346:40 347:40 348:40 349:40 350:1.539875 351:10.051875 352:3.247875 353:40 354:40 355:7.932875 356:40 357:40 358:40 359:40 360:10.738875 361:-1.389125 362:10.328875 363:7.670875 364:40 365:40 366:40 367:40 368:40 369:40 370:40 371:40 372:1.608875 373:40 374:40 375:40 376:40 377:40 378:40 379:7.740875 380:40 381:40 382:9.362875 384:8.113875 
0.25 1:2.54225 2:3.73525 3:1.94025 4:0.38125 5:40 6:1.29425 7:5.83425 8:11.50325 9:4.67425 10:4.08825 11:4.55425 12:4.74925 13:2.76625 14:0.21525 15:-5.33275 16:-5.23575 17:1.41625 18:5.88525 19:-1.79175 20:-6.78575 21:-4.32175 22:-0.77975 23:-2.91775 24:-0.72675 25:1.98725 26:40 27:-4.90275 28:-0.76975 29:-1.87875 30:0.27525 31:-0.22175 32:0.99625 33:0.29525 34:2.82925 35:4.56625 36:4.55725 37:1.24725 38:6.80825 39:5.91725 40:-0.65175 41:-1.02875 42:7.57825 43:7.52325 44:40 45:3.59925 46:40 47:-2.84275 48:-2.42175 49:6.93225 50:40 51:40 52:4.75125 53:2.11225 54:4.69025 55:3.26425 56:0.12425 57:40 58:-5.25775 59:40 60:-0.89975 61:7.82725 62:-1.64375 63:9.92725 64:13.35325 65:3.80225 66:3.13625 67:-5.72375 68:2.25525 69:40 70:2.92825 71:40 72:40 73:-0.30375 74:0.30825 75:1.55525 76:1.22125 77:4.32625 78:1.46925 79:6.86525 80:13.31925 81:40 82:40 83:9.42025 84:2.10725 85:0.26625 86:2.90725 87:-0.81875 88:7.82325 89:-1.81475 90:2.47525 91:3.27625 92:1.45825 93:-4.66475 94:10.34625 95:-1.73075 96:40 97:1.47825 98:3.14825 99:40 100:-2.61075 101:2.01425 102:40 103:8.07825 104:3.31925 105:9.48125 106:40 107:10.86725 108:7.69725 109:6.26125 110:0.06625 111:-0.46275 112:11.30225 113:40 114:13.34025 115:-5.03675 116:3.53825 117:12.16325 118:2.26925 119:2.29025 120:6.61425 121:1.35125 122:10.10125 123:-1.11475 124:40 125:4.32625 126:-1.20375 127:6.50425 128:6.13725 129:4.26825 130:3.80725 131:7.87625 132:7.83025 133:4.75125 134:7.50925 135:40 136:0.64525 137:7.73825 138:2.46725 139:11.77525 140:10.25525 141:40 142:9.44025 143:40 144:-1.83375 145:-3.80075 146:-9.55775 147:2.71125 148:40 149:5.46725 150:40 151:40 152:1.64125 153:5.87225 154:6.73825 155:-5.85675 156:40 157:40 158:-2.87675 159:4.23225 160:2.07725 161:1.79625 162:8.27525 163:-0.84575 164:8.24025 165:5.36225 166:40 167:0.24525 168:6.40025 169:2.15525 170:5.82325 171:5.31125 172:5.27825 173:4.76625 174:2.26525 175:3.21225 176:-2.66475 177:-1.94375 178:10.70625 179:1.20125 180:4.46425 181:7.95625 182:11.63625 183:8.17325 184:11.87225 185:40 186:40 187:40 188:1.56725 189:40 190:40 191:40 192:1.80025 193:0.28825 194:3.61625 195:2.01925 196:40 197:40 198:4.09225 199:40 200:40 201:2.63625 202:40 203:7.82425 204:5.84225 205:6.21125 206:9.18225 207:2.23825 208:7.45225 209:-1.28675 210:10.65125 211:6.54225 212:3.73825 213:11.07625 214:10.42625 215:8.74925 216:40 217:40 218:-5.87475 219:8.05025 220:40 221:2.60525 222:40 223:9.29725 224:1.58725 225:-5.20975 226:4.19925 227:40 228:3.90325 229:-0.86075 230:8.94625 231:6.36125 232:40 233:9.44525 234:8.30325 235:40 236:4.82725 237:7.13225 238:5.45225 239:4.05825 240:40 241:40 242:11.51225 243:5.70725 244:10.30325 245:6.83125 246:7.14025 247:8.26425 248:40 249:40 250:6.20225 251:40 252:40 253:40 254:40 255:40 256:8.56025 257:40 258:40 259:40 260:40 261:40 262:40 263:7.84325 264:7.88125 265:40 266:40 267:10.73325 268:40 269:40 270:40 271:40 272:8.01825 273:9.18025 274:40 275:40 276:40 277:40 278:40 279:40 280:40 281:12.47225 282:4.98725 283:40 284:40 285:40 286:40 287:3.69425 288:0.79925 289:4.02325 290:40 291:9.45925 292:13.03025 293:40 294:7.18525 295:11.72425 296:40 297:40 298:40 299:40 300:12.84525 301:40 302:40 303:9.17825 304:40 305:40 306:40 307:10.08125 308:-0.94075 309:7.47425 310:9.83625 311:5.56825 312:9.90025 313:40 314:8.81925 315:1.72925 316:7.27825 317:4.21825 318:40 319:40 320:40 321:8.96525 322:40 323:4.94125 324:11.07125 325:6.09025 326:5.63225 327:6.29425 328:6.65425 329:40 330:0.21025 331:40 332:9.97325 333:8.20025 334:7.43925 335:0.99325 336:4.93525 337:8.35125 338:40 339:40 340:1.59325 341:40 342:40 343:40 344:40 345:4.28525 346:40 347:40 348:40 349:40 350:1.59225 351:6.16025 352:4.69925 353:40 354:10.48725 355:7.12025 356:40 357:13.01525 358:40 359:40 360:40 361:40 362:11.23225 363:7.37625 364:9.02425 365:40 366:40 367:40 368:6.84925 369:40 370:10.23225 371:40 372:0.82525 373:40 374:40 375:40 376:40 377:40 378:40 379:6.78625 380:40 381:40 382:12.51125 384:40 
0.25 1:9.29675 2:3.59875 3:2.73875 4:3.73975 5:40 6:2.60275 7:8.43875 8:40 9:6.46475 10:14.78875 11:8.36975 12:8.53175 13:40 14:2.90975 15:-2.54325 16:-6.33725 17:1.52975 18:10.13775 19:-2.16025 20:-7.05525 21:-5.89425 22:-1.45125 23:-0.67725 24:12.82675 25:11.00275 26:40 27:-5.58225 28:-2.03725 29:-1.38925 30:-1.47025 31:-1.19825 32:0.52975 33:0.53775 34:3.65875 35:8.63875 36:8.19075 37:0.99575 38:12.11375 39:3.18675 40:-0.55825 41:-1.66725 42:7.89275 43:11.91875 44:40 45:4.89475 46:40 47:-3.36725 48:-2.48025 49:13.25275 50:40 51:40 52:9.87075 53:4.73875 54:7.17875 55:2.33975 56:2.66175 57:40 58:-6.44925 59:40 60:-1.21725 61:40 62:-0.63225 63:40 64:11.13275 65:4.63875 66:5.20775 67:-5.37725 68:4.13175 69:40 70:3.73675 71:40 72:40 73:0.50975 74:3.09475 75:-0.00125 76:1.45275 77:8.25375 78:4.78475 79:10.93575 80:13.16775 81:16.44075 82:40 83:6.84675 84:2.70875 85:-0.46225 86:4.01175 87:-0.82825 88:9.34475 89:-1.34925 90:4.15375 91:3.54675 92:2.95275 93:-7.17625 94:9.90475 95:-2.14525 96:40 97:1.98175 98:3.86775 99:40 100:-3.55125 101:2.45475 102:40 103:40 104:6.74075 105:14.15175 106:14.93975 107:10.94375 108:11.38675 109:5.00875 110:-0.47025 111:-1.73325 112:40 113:40 114:9.30875 115:-6.30725 116:-0.65025 117:40 118:3.54475 119:2.99675 120:5.77375 121:2.25275 122:12.25875 123:0.94375 124:40 125:6.88375 126:-0.40225 127:7.94675 128:17.59975 129:12.60575 130:6.29575 131:15.56675 132:4.62875 133:4.91575 134:13.95475 135:40 136:3.92475 137:8.81675 138:11.14475 139:40 140:40 141:40 142:9.93675 143:40 144:-0.52325 145:-3.96325 146:-9.51625 147:5.21475 148:40 149:6.44875 150:40 151:40 152:3.12975 153:5.20475 154:13.24475 155:-3.12125 156:40 157:40 158:-1.46925 159:8.92875 160:5.08875 161:2.16475 162:40 163:0.53475 164:13.22975 165:11.15675 166:40 167:3.89575 168:15.40375 169:1.68975 170:16.56675 171:11.19975 172:3.31275 173:16.75475 174:2.21475 175:2.97775 176:-0.94625 177:0.30975 178:14.18875 179:2.64075 180:3.25575 181:7.44075 182:10.37075 183:5.69675 184:7.47575 185:40 186:40 187:40 188:5.93975 189:40 190:12.06575 191:16.83675 192:0.25975 193:1.00975 194:5.85775 195:2.43275 196:40 197:40 198:40 199:40 200:40 201:7.08875 202:40 203:11.63975 204:8.27975 205:14.58675 206:10.36075 207:3.00175 208:40 209:13.83875 210:8.91275 211:16.98575 212:6.65275 213:12.77175 214:40 215:10.30475 216:40 217:40 218:-5.94225 219:14.47575 220:40 221:1.08875 222:40 223:40 224:-0.21825 225:-5.43625 226:40 227:40 228:4.30775 229:-0.14225 230:40 231:9.53975 232:40 233:9.35975 234:40 235:40 236:4.33575 237:40 238:9.18675 239:8.11375 240:40 241:40 242:40 243:40 244:9.90775 245:10.45175 246:7.03275 247:40 248:40 249:40 250:9.77075 251:40 252:40 253:40 254:40 255:40 256:9.18875 257:40 258:40 259:11.11575 260:15.39675 261:40 262:40 263:11.57175 264:10.25275 265:40 266:40 267:40 268:40 269:13.05875 270:40 271:10.96075 272:17.16375 273:40 274:40 275:40 276:40 277:40 278:40 279:40 280:40 281:40 282:10.69575 283:40 284:40 285:40 286:40 287:5.10575 288:2.55175 289:4.64275 290:40 291:40 292:40 293:40 294:10.10275 295:9.37575 296:40 297:40 298:40 299:40 300:17.80375 301:40 302:40 303:40 304:40 305:40 306:40 307:40 308:-0.60425 309:9.47575 310:40 311:40 312:40 313:40 314:40 315:1.64075 316:9.33975 317:3.51475 318:40 319:40 320:13.50075 321:11.75075 322:40 323:7.79175 324:40 325:5.43175 326:40 327:7.23975 328:7.90975 329:40 330:3.12575 331:40 332:40 333:40 334:9.74675 335:0.09475 336:5.93575 337:40 338:40 339:18.22475 340:0.45075 341:40 342:40 343:40 344:40 345:12.49975 346:40 347:40 348:40 349:40 350:3.37675 351:9.33975 352:4.51575 353:40 354:40 355:9.25675 356:40 357:40 358:40 359:40 360:40 361:40 362:17.93675 363:5.56575 364:40 365:40 366:40 367:40 368:14.84675 369:40 370:40 371:40 372:3.44475 373:40 374:40 375:40 376:40 377:40 378:40 379:7.55375 380:40 381:40 382:14.77775 384:40 
0.25 1:3.78375 2:3.28275 3:3.00275 4:1.69575 5:40 6:2.21375 7:5.58975 8:10.53175 9:4.32275 10:11.59675 11:6.19575 12:6.62075 13:6.13575 14:2.58375 15:-4.58525 16:-3.93425 17:2.20075 18:9.66075 19:0.43975 20:-6.87725 21:-3.26925 22:0.29175 23:-4.32525 24:-1.60325 25:1.58375 26:40 27:-4.80125 28:-1.35525 29:-0.14625 30:1.47675 31:-0.16525 32:0.41075 33:0.72875 34:4.12875 35:6.61575 36:6.38375 37:-0.19125 38:6.24675 39:3.58775 40:-1.24225 41:-0.84525 42:5.43975 43:8.28975 44:40 45:1.27975 46:11.16775 47:-2.70425 48:-1.82925 49:5.14875 50:40 51:40 52:3.08975 53:2.06775 54:3.02575 55:1.66575 56:0.14375 57:40 58:-4.04425 59:40 60:-0.70625 61:5.36975 62:-5.53925 63:40 64:13.93775 65:5.69075 66:-0.62925 67:-4.18425 68:1.05375 69:8.67075 70:2.89975 71:40 72:40 73:-0.39825 74:0.66075 75:1.02675 76:0.12675 77:2.74775 78:1.74575 79:12.28175 80:10.58775 81:40 82:40 83:6.65875 84:2.57375 85:1.06275 86:3.69475 87:0.65975 88:5.53475 89:-2.01925 90:3.32775 91:-0.47525 92:0.05075 93:-3.10125 94:7.56175 95:-0.35725 96:40 97:-0.81125 98:3.62975 99:40 100:-1.84125 101:1.11975 102:40 103:7.18075 104:2.23775 105:7.57475 106:40 107:7.57575 108:9.23375 109:5.10575 110:-0.02125 111:1.04575 112:4.51275 113:40 114:12.11475 115:-2.69125 116:-0.95025 117:9.76275 118:0.08675 119:-0.99525 120:4.68275 121:1.19075 122:40 123:-0.09925 124:9.24675 125:4.43875 126:-0.89125 127:6.06075 128:2.67275 129:3.99475 130:4.41675 131:6.25075 132:5.25875 133:3.20475 134:5.70175 135:40 136:-0.98225 137:0.88475 138:0.97975 139:9.57975 140:7.68575 141:40 142:3.15275 143:9.17975 144:-1.35825 145:-3.04425 146:-7.70725 147:1.96475 148:40 149:4.29075 150:12.33275 151:40 152:3.49375 153:7.20575 154:3.28475 155:-6.96325 156:40 157:40 158:-2.42925 159:4.06675 160:2.39175 161:2.04175 162:9.53675 163:-0.97825 164:8.08275 165:4.78775 166:40 167:1.14775 168:7.29775 169:2.74675 170:4.85375 171:5.91775 172:6.96375 173:4.02875 174:3.85975 175:5.22075 176:-1.80525 177:-0.86225 178:10.38975 179:1.68075 180:3.88075 181:7.87375 182:10.95675 183:7.10075 184:4.87275 185:12.49075 186:8.20375 187:11.99475 188:2.05175 189:40 190:14.74875 191:40 192:4.26575 193:2.37175 194:0.93775 195:2.21175 196:6.78575 197:40 198:4.38375 199:40 200:7.08075 201:0.02975 202:6.17475 203:7.24375 204:4.11275 205:5.07375 206:7.19475 207:1.79575 208:8.47475 209:-0.92125 210:8.16475 211:6.81975 212:3.18375 213:40 214:40 215:7.79875 216:40 217:40 218:-6.09625 219:5.42375 220:9.77975 221:5.65975 222:7.24975 223:5.81275 224:0.06375 225:-4.32325 226:2.79175 227:10.34375 228:3.84775 229:-0.48125 230:7.75975 231:7.13775 232:10.58975 233:40 234:40 235:40 236:5.58575 237:6.68075 238:6.69275 239:5.13075 240:8.58775 241:40 242:7.81875 243:6.36575 244:40 245:40 246:7.02075 247:40 248:40 249:40 250:3.60975 251:40 252:40 253:40 254:40 255:40 256:40 257:40 258:40 259:40 260:40 261:40 262:40 263:9.02075 264:11.12475 265:40 266:12.02175 267:40 268:40 269:40 270:40 271:40 272:8.74375 273:9.59575 274:40 275:40 276:40 277:40 278:40 279:40 280:40 281:40 282:4.04475 283:40 284:40 285:40 286:40 287:4.96875 288:0.57175 289:3.44175 290:40 291:9.36375 292:10.72575 293:40 294:8.97575 295:9.97075 296:40 297:40 298:12.25775 299:9.63775 300:10.00275 301:40 302:9.88575 303:40 304:40 305:40 306:40 307:40 308:-0.05725 309:7.58175 310:40 311:5.41875 312:9.62175 313:40 314:40 315:2.31375 316:6.73175 317:4.44975 318:40 319:40 320:40 321:5.69075 322:40 323:5.84975 324:40 325:9.07275 326:5.65975 327:6.14775 328:6.45875 329:40 330:1.90975 331:40 332:8.81075 333:40 334:6.15275 335:-0.36925 336:6.35475 337:40 338:40 339:40 340:2.26575 341:6.17475 342:40 343:40 344:40 345:1.23975 346:40 347:40 348:40 349:40 350:-1.54225 351:4.52175 352:5.95475 353:40 354:8.92675 355:6.00575 356:40 357:40 358:40 359:40 360:40 361:40 362:8.70075 363:7.21775 364:40 365:40 366:40 367:40 368:7.70875 369:40 370:40 371:40 372:0.88075 373:40 374:40 375:40 376:40 377:40 378:40 379:4.72575 380:40 381:40 382:40 384:11.53175 
-0.2333984375 1:1.443 2:3.975 3:3.259 4:1.515 5:40 6:2.548 7:13.787 8:7.585 9:3.952 10:6.297 11:4.002 12:4.184 13:3.36 14:1.154 15:-5.385 16:-4.655 17:2.793 18:4.41 19:-0.937 20:-6.306 21:-4.272 22:0.458 23:-3.673 24:-0.879 25:2.186 26:40 27:-4.83 28:-2.518 29:-0.144 30:2.221 31:-1.055 32:0.003 33:0.407 34:2.251 35:4.113 36:4.132 37:0.127 38:6.286 39:4.797 40:-1.938 41:-2.205 42:4.391 43:8.915 44:40 45:3.651 46:40 47:-5.128 48:-1.916 49:5.792 50:40 51:40 52:5.758 53:-0.023 54:4.207 55:2.664 56:-0.044 57:40 58:-4.889 59:40 60:-1.723 61:5.275 62:-4.012 63:7.719 64:10.028 65:4.78 66:0.425 67:-4.914 68:0.178 69:10.064 70:3.298 71:10.677 72:40 73:-0.631 74:0.822 75:2.026 76:2.909 77:7.506 78:3.075 79:6.162 80:9.641 81:11.898 82:4.007 83:9.013 84:2.26 85:0.215 86:2.909 87:1.163 88:6.181 89:-2.805 90:3.282 91:3.208 92:1.224 93:-4.779 94:7.341 95:-1.1 96:40 97:0.694 98:3.983 99:40 100:-4.282 101:1.536 102:40 103:7.217 104:1.704 105:7.12 106:12.876 107:6.949 108:8.167 109:5.737 110:0.085 111:1.516 112:40 113:40 114:10.688 115:-4.821 116:-0.012 117:11.433 118:1.859 119:-0.868 120:4.285 121:5.292 122:7.508 123:-1.306 124:40 125:4.546 126:-0.636 127:8.056 128:3.866 129:6.006 130:3.9 131:9.172 132:4.96 133:5.02 134:4.948 135:40 136:-0.585 137:4.666 138:1.851 139:40 140:40 141:40 142:5.176 143:11.205 144:-1.458 145:-1.716 146:-8.575 147:4.198 148:40 149:4.871 150:40 151:40 152:2.828 153:7.507 154:13.543 155:-5.971 156:16.375 157:4.986 158:-3.423 159:4.634 160:2.361 161:0.943 162:11.053 163:-2.012 164:8.159 165:4.471 166:11.265 167:-0.51 168:9.402 169:3.564 170:4.973 171:7.823 172:3.845 173:3.12 174:5.192 175:3.486 176:-1.68 177:-2.485 178:6.566 179:1.95 180:4.758 181:8.666 182:8.116 183:4.901 184:4.029 185:1.269 186:15.513 187:11.254 188:0.864 189:40 190:5.952 191:7.303 192:3.112 193:3.014 194:0.468 195:2.26 196:40 197:9.901 198:5.151 199:40 200:9.303 201:1.084 202:8.137 203:8.281 204:4.938 205:6.119 206:9.912 207:1.779 208:10.229 209:-1.693 210:10.862 211:9.163 212:4.81 213:12.933 214:40 215:11.231 216:40 217:40 218:-7.133 219:9.63 220:40 221:6.424 222:7.475 223:8.756 224:0.652 225:-5.394 226:4.725 227:40 228:5.575 229:0.079 230:9.106 231:6.732 232:40 233:9.06 234:40 235:40 236:6.443 237:7.993 238:7.097 239:3.996 240:11.907 241:40 242:8.843 243:10.208 244:7.765 245:7.182 246:8.259 247:40 248:40 249:40 250:4.098 251:40 252:40 253:40 254:40 255:40 256:40 257:40 258:40 259:40 260:40 261:40 262:40 263:40 264:11.137 265:40 266:40 267:10.236 268:40 269:40 270:40 271:40 272:0.173 273:10.453 274:40 275:10.116 276:14.115 277:40 278:40 279:40 280:16.426 281:40 282:13.776 283:40 284:15.056 285:40 286:40 287:3.268 288:1.125 289:4.8 290:40 291:11.221 292:40 293:9.436 294:7.68 295:12.673 296:40 297:40 298:40 299:40 300:11.512 301:40 302:9.406 303:6.501 304:40 305:40 306:40 307:12.504 308:-0.196 309:6.585 310:6.948 311:5.923 312:40 313:40 314:12.123 315:3.479 316:8.187 317:5.094 318:40 319:40 320:8.401 321:-4.371 322:40 323:8.001 324:40 325:13.048 326:5.019 327:7.623 328:6.135 329:12.052 330:1.122 331:14.677 332:10.671 333:6.783 334:11.867 335:0.651 336:5.874 337:40 338:40 339:9.372 340:1.8 341:8.342 342:40 343:40 344:13.637 345:4.298 346:40 347:40 348:40 349:40 350:-1.915 351:5.105 352:5.139 353:40 354:40 355:6.551 356:40 357:10.915 358:40 359:40 360:12.686 361:-1.771 362:8.09 363:8.004 364:40 365:40 366:40 367:40 368:6.664 369:40 370:40 371:40 372:1.429 373:40 374:40 375:40 376:40 377:40 378:40 379:5.22 380:40 381:13.624 382:9.526 384:8.085 
-0.2333984375 1:16.686875 2:3.622875 3:5.063875 4:10.201875 5:40 6:5.367875 7:5.160875 8:40 9:8.474875 10:17.705875 11:9.165875 12:8.660875 13:40 14:3.600875 15:-2.998125 16:-6.687125 17:1.499875 18:9.837875 19:-2.761125 20:-7.455125 21:-6.257125 22:-1.799125 23:-1.608125 24:6.283875 25:12.216875 26:40 27:-5.788125 28:-2.366125 29:0.301875 30:-0.434125 31:-1.433125 32:0.257875 33:1.202875 34:5.732875 35:8.819875 36:8.638875 37:0.967875 38:40 39:3.373875 40:1.067875 41:-0.151125 42:12.150875 43:7.383875 44:40 45:3.288875 46:40 47:-3.751125 48:-3.006125 49:10.287875 50:40 51:40 52:10.459875 53:6.726875 54:6.509875 55:1.982875 56:8.145875 57:40 58:-6.684125 59:40 60:-0.963125 61:40 62:-2.316125 63:40 64:7.795875 65:6.427875 66:3.659875 67:-5.439125 68:0.891875 69:40 70:3.206875 71:40 72:40 73:0.211875 74:2.722875 75:-0.583125 76:-0.593125 77:5.324875 78:1.647875 79:10.517875 80:14.443875 81:15.516875 82:40 83:7.786875 84:2.497875 85:0.065875 86:4.010875 87:-0.874125 88:12.159875 89:-0.324125 90:3.744875 91:2.109875 92:3.549875 93:-7.465125 94:10.247875 95:-1.876125 96:40 97:1.199875 98:2.959875 99:40 100:-2.764125 101:1.436875 102:40 103:40 104:7.638875 105:14.328875 106:14.325875 107:10.308875 108:13.785875 109:5.673875 110:-0.637125 111:-1.773125 112:40 113:40 114:9.815875 115:-5.543125 116:-0.790125 117:40 118:2.021875 119:2.220875 120:7.421875 121:1.914875 122:8.817875 123:0.876875 124:40 125:6.586875 126:-0.685125 127:7.260875 128:40 129:9.439875 130:8.106875 131:14.751875 132:3.914875 133:7.182875 134:7.835875 135:40 136:3.820875 137:6.848875 138:40 139:40 140:10.628875 141:40 142:5.004875 143:10.677875 144:-0.792125 145:-4.342125 146:-9.637125 147:2.363875 148:40 149:5.613875 150:40 151:40 152:4.452875 153:6.360875 154:40 155:-4.135125 156:40 157:40 158:-1.562125 159:5.822875 160:5.215875 161:1.881875 162:40 163:0.515875 164:9.516875 165:10.206875 166:40 167:5.035875 168:40 169:0.078875 170:6.690875 171:8.829875 172:3.003875 173:40 174:1.972875 175:4.127875 176:-0.556125 177:1.390875 178:14.276875 179:1.755875 180:1.918875 181:5.795875 182:40 183:6.214875 184:6.954875 185:40 186:11.290875 187:14.601875 188:2.895875 189:40 190:40 191:40 192:1.457875 193:3.432875 194:3.202875 195:-1.089125 196:40 197:40 198:5.959875 199:40 200:9.287875 201:2.800875 202:9.897875 203:9.691875 204:3.300875 205:6.276875 206:8.753875 207:3.238875 208:13.392875 209:15.709875 210:7.847875 211:8.442875 212:2.936875 213:10.280875 214:15.287875 215:10.413875 216:40 217:40 218:-5.841125 219:6.367875 220:40 221:2.802875 222:40 223:40 224:-0.808125 225:-5.245125 226:12.723875 227:40 228:5.863875 229:0.744875 230:40 231:5.905875 232:40 233:9.901875 234:40 235:40 236:5.312875 237:7.591875 238:5.031875 239:1.976875 240:8.912875 241:40 242:40 243:40 244:8.553875 245:40 246:5.863875 247:40 248:40 249:40 250:8.102875 251:40 252:40 253:40 254:40 255:40 256:10.980875 257:40 258:40 259:40 260:40 261:40 262:40 263:12.900875 264:10.325875 265:40 266:40 267:12.246875 268:40 269:12.804875 270:40 271:40 272:40 273:12.066875 274:40 275:40 276:40 277:40 278:40 279:40 280:40 281:11.924875 282:17.388875 283:40 284:40 285:40 286:40 287:3.912875 288:0.917875 289:1.849875 290:40 291:40 292:40 293:40 294:8.345875 295:9.240875 296:40 297:40 298:40 299:40 300:40 301:40 302:13.598875 303:40 304:40 305:40 306:40 307:11.357875 308:-0.649125 309:6.274875 310:17.659875 311:9.061875 312:40 313:40 314:40 315:1.169875 316:12.307875 317:3.493875 318:40 319:40 320:8.166875 321:12.035875 322:40 323:7.875875 324:11.516875 325:6.963875 326:8.027875 327:8.858875 328:6.399875 329:40 330:2.605875 331:40 332:8.069875 333:14.629875 334:7.117875 335:-0.556125 336:5.303875 337:40 338:40 339:14.313875 340:1.971875 341:40 342:40 343:40 344:40 345:10.513875 346:40 347:40 348:40 349:40 350:1.742875 351:10.601875 352:3.272875 353:40 354:40 355:5.825875 356:40 357:40 358:40 359:40 360:40 361:40 362:12.459875 363:5.496875 364:40 365:40 366:40 367:40 368:12.200875 369:40 370:40 371:40 372:-0.115125 373:40 374:40 375:40 376:40 377:40 378:40 379:6.749875 380:14.415875 381:40 382:16.067875 384:40 
-0.2333984375 1:12.866 2:5.558 3:5.903 4:9.244 5:40 6:3.607 7:11.775 8:40 9:4.371 10:40 11:5.91 12:5.588 13:40 14:5.004 15:-8.07 16:-6.575 17:2.949 18:16.603 19:-1.948 20:-7.919 21:-6.379 22:-2.52 23:-1.99 24:4.719 25:14.595 26:40 27:-4.654 28:-4.661 29:1.73 30:0.097 31:-1.291 32:0.351 33:1.917 34:4.093 35:6.205 36:5.351 37:0.56 38:11.289 39:4.287 40:0.454 41:-0.476 42:8.946 43:15.18 44:40 45:-1.29 46:40 47:-6.138 48:-4.141 49:7.151 50:40 51:40 52:9.016 53:4.537 54:4.717 55:0.365 56:12.557 57:40 58:-6.983 59:40 60:-3.223 61:40 62:-2.937 63:6.703 64:40 65:6.146 66:1.667 67:-5.051 68:2.811 69:40 70:3.778 71:40 72:40 73:0.029 74:2.695 75:0.661 76:-1.96 77:5.485 78:10.16 79:11.924 80:40 81:40 82:40 83:6.736 84:6.415 85:-0.079 86:2.401 87:0.232 88:10.09 89:-0.802 90:6.434 91:2.968 92:7.357 93:-4.621 94:40 95:-1.359 96:40 97:1.544 98:4.313 99:10.986 100:-4.597 101:0.23 102:40 103:40 104:7.673 105:40 106:13.521 107:4.788 108:13.661 109:-1.767 110:-1.036 111:-1.543 112:40 113:40 114:40 115:-4.061 116:-0.527 117:15.34 118:2.949 119:1.365 120:-0.016 121:1.125 122:40 123:3.109 124:40 125:6.378 126:-0.091 127:14.791 128:14.395 129:10.189 130:11.504 131:11.297 132:2.741 133:8.815 134:3.025 135:40 136:2.995 137:7.4 138:7.9 139:40 140:40 141:40 142:3.954 143:7.095 144:-1.098 145:-4.067 146:-8.532 147:2.85 148:40 149:7.054 150:40 151:40 152:4.014 153:8.722 154:5.941 155:-5.614 156:7.406 157:8.319 158:-5.378 159:9.043 160:1.146 161:1.5 162:40 163:0.215 164:40 165:14.067 166:40 167:1.121 168:40 169:3.384 170:40 171:40 172:4.094 173:13.206 174:4.564 175:2.712 176:-0.762 177:-0.211 178:14.571 179:1.417 180:10.58 181:9.342 182:40 183:5.345 184:7.825 185:6.188 186:40 187:40 188:7.33 189:40 190:8.668 191:16.166 192:2.332 193:3.836 194:1.223 195:4.193 196:40 197:40 198:40 199:40 200:13.939 201:8.586 202:40 203:10.612 204:6.907 205:7.917 206:13.444 207:3.37 208:40 209:4.813 210:40 211:40 212:9.204 213:40 214:40 215:40 216:40 217:40 218:-8.63 219:9.17 220:40 221:2.688 222:40 223:10.769 224:-3.404 225:-6.175 226:40 227:40 228:5.832 229:1.952 230:40 231:10.295 232:40 233:11.798 234:40 235:40 236:8.105 237:15.233 238:10.721 239:7.52 240:40 241:40 242:12.049 243:7.028 244:40 245:13.576 246:7.922 247:12.455 248:40 249:40 250:5.747 251:40 252:40 253:40 254:40 255:40 256:40 257:40 258:40 259:40 260:40 261:40 262:40 263:40 264:40 265:40 266:40 267:10.379 268:40 269:40 270:40 271:40 272:3.478 273:40 274:15.929 275:40 276:40 277:40 278:40 279:40 280:40 281:40 282:6.487 283:40 284:40 285:40 286:40 287:4.264 288:-0.276 289:7.529 290:40 291:40 292:40 293:40 294:7.452 295:12.859 296:40 297:40 298:40 299:16.291 300:40 301:40 302:40 303:10.678 304:40 305:40 306:40 307:40 308:0.536 309:5.85 310:40 311:7.458 312:40 313:40 314:40 315:-0.151 316:8.315 317:5.528 318:40 319:40 320:40 321:-2.589 322:40 323:9.515 324:40 325:9.57 326:6.883 327:12.721 328:40 329:40 330:2.795 331:40 332:40 333:40 334:40 335:-1.718 336:5.903 337:40 338:40 339:40 340:2.532 341:40 342:40 343:40 344:40 345:40 346:40 347:40 348:40 349:40 350:-1.081 351:11.44 352:6.109 353:40 354:40 355:7.738 356:40 357:40 358:40 359:40 360:16.586 361:3.858 362:14.572 363:9.947 364:14.559 365:40 366:40 367:40 368:11.901 369:40 370:40 371:40 372:3.784 373:40 374:40 375:40 376:40 377:40 378:40 379:4.533 380:40 381:40 382:40 384:11.561 
-0.2333984375 1:14.77625 2:1.76925 3:2.18725 4:4.31425 5:40 6:0.56825 7:7.29125 8:40 9:9.61425 10:40 11:8.31625 12:8.04325 13:40 14:8.45225 15:-4.81775 16:-7.90975 17:0.03325 18:11.57325 19:-3.96075 20:-8.88475 21:-7.46575 22:-3.79775 23:-1.86675 24:40 25:40 26:40 27:-4.94675 28:-3.62075 29:-2.97375 30:-3.30775 31:-0.73775 32:0.86225 33:3.50725 34:4.56925 35:7.97425 36:7.83425 37:1.03625 38:12.66025 39:3.90925 40:0.90025 41:-1.94975 42:14.01825 43:6.97625 44:40 45:5.74225 46:40 47:-4.19475 48:-4.44975 49:40 50:40 51:40 52:15.46725 53:5.58725 54:7.54725 55:-0.19475 56:1.46025 57:40 58:-7.95475 59:40 60:-3.06175 61:40 62:-1.77075 63:40 64:40 65:5.63025 66:2.75225 67:-5.48575 68:1.69525 69:40 70:4.64725 71:40 72:40 73:2.57025 74:3.46125 75:0.44325 76:2.88025 77:40 78:6.35725 79:13.07525 80:40 81:40 82:40 83:5.26425 84:3.56325 85:-0.76175 86:2.45225 87:-0.46275 88:40 89:-2.65475 90:3.44125 91:6.73525 92:1.30625 93:-6.34675 94:40 95:-2.85675 96:40 97:0.55325 98:3.10225 99:40 100:-4.00575 101:1.98925 102:40 103:40 104:9.85125 105:40 106:40 107:40 108:15.47625 109:3.87425 110:-1.23375 111:-2.32275 112:40 113:40 114:8.35425 115:-6.97375 116:-2.32875 117:40 118:9.66525 119:2.54125 120:3.22225 121:-0.69775 122:40 123:2.34625 124:15.46225 125:40 126:-0.54975 127:14.04225 128:40 129:40 130:6.79725 131:12.47925 132:7.03825 133:9.58325 134:40 135:40 136:3.82325 137:12.97325 138:11.94025 139:40 140:40 141:40 142:7.57425 143:40 144:1.83425 145:-3.74975 146:-8.74575 147:6.96925 148:40 149:4.53725 150:40 151:40 152:1.80625 153:4.15525 154:5.09725 155:-4.55675 156:40 157:40 158:-2.44275 159:9.79225 160:12.30525 161:1.93925 162:40 163:0.23825 164:8.09325 165:40 166:40 167:3.88825 168:40 169:0.43725 170:40 171:40 172:4.12325 173:40 174:1.49625 175:4.24825 176:-3.63775 177:1.25225 178:40 179:2.78625 180:10.46525 181:6.95825 182:13.44725 183:4.26025 184:5.63525 185:12.62325 186:40 187:40 188:10.15625 189:40 190:40 191:14.99525 192:-2.04575 193:0.55925 194:9.38725 195:0.29225 196:40 197:40 198:40 199:40 200:13.72225 201:9.12125 202:40 203:40 204:5.21925 205:6.41825 206:6.83425 207:3.15825 208:40 209:40 210:40 211:40 212:5.25425 213:40 214:40 215:40 216:40 217:40 218:-8.52275 219:10.91625 220:40 221:-0.94975 222:40 223:40 224:0.52925 225:-6.78075 226:11.00125 227:40 228:7.32525 229:0.58025 230:40 231:8.86825 232:40 233:14.88825 234:40 235:40 236:4.42625 237:40 238:3.82125 239:3.22725 240:40 241:40 242:40 243:40 244:40 245:15.22825 246:6.67225 247:40 248:40 249:40 250:40 251:40 252:40 253:40 254:40 255:40 256:40 257:40 258:40 259:40 260:40 261:40 262:40 263:16.36425 264:10.05425 265:14.64025 266:40 267:12.27225 268:40 269:40 270:40 271:40 272:12.14025 273:15.39125 274:40 275:40 276:40 277:40 278:40 279:40 280:10.85425 281:15.46325 282:5.76725 283:40 284:40 285:16.43625 286:40 287:3.43725 288:5.01725 289:4.01425 290:40 291:8.45825 292:40 293:40 294:40 295:13.95225 296:40 297:40 298:40 299:40 300:40 301:12.81725 302:40 303:11.07125 304:40 305:40 306:40 307:40 308:0.75325 309:6.80425 310:40 311:40 312:40 313:40 314:40 315:1.04025 316:11.89825 317:4.26025 318:16.70225 319:40 320:40 321:6.93825 322:40 323:7.24025 324:12.26125 325:6.31525 326:40 327:8.27225 328:7.61325 329:40 330:1.80625 331:40 332:40 333:40 334:6.32025 335:-1.77375 336:12.83325 337:40 338:40 339:12.39325 340:1.41925 341:40 342:40 343:40 344:40 345:40 346:40 347:40 348:40 349:40 350:5.29125 351:10.56325 352:2.95225 353:40 354:40 355:13.28525 356:40 357:40 358:40 359:40 360:40 361:40 362:40 363:15.63725 364:40 365:14.23125 366:40 367:40 368:40 369:40 370:40 371:40 372:6.18925 373:40 374:40 375:40 376:40 377:40 378:40 379:40 380:40 381:8.82825 382:40 384:40 
-0.2333984375 1:40 2:9.877125 3:5.362125 4:11.040125 5:40 6:3.015125 7:9.923125 8:40 9:6.600125 10:40 11:9.040125 12:8.999125 13:10.604125 14:2.762125 15:-4.082875 16:-5.499875 17:3.110125 18:13.355125 19:-0.387875 20:-6.352875 21:-2.587875 22:0.411125 23:-0.672875 24:6.468125 25:10.885125 26:40 27:-5.542875 28:-1.388875 29:0.813125 30:2.202125 31:-0.639875 32:0.755125 33:-0.578875 34:4.320125 35:8.884125 36:8.712125 37:-0.294875 38:12.560125 39:5.061125 40:1.729125 41:1.026125 42:8.494125 43:12.618125 44:40 45:16.498125 46:40 47:-3.562875 48:-2.006875 49:40 50:40 51:40 52:40 53:5.780125 54:8.735125 55:2.880125 56:3.915125 57:40 58:-5.681875 59:40 60:-1.193875 61:40 62:0.033125 63:40 64:40 65:3.882125 66:5.440125 67:-4.918875 68:1.215125 69:40 70:4.091125 71:40 72:40 73:0.300125 74:2.700125 75:1.003125 76:0.006125 77:7.638125 78:1.979125 79:40 80:40 81:40 82:40 83:9.261125 84:5.044125 85:1.382125 86:3.675125 87:-0.246875 88:40 89:0.433125 90:4.184125 91:2.483125 92:4.343125 93:-7.026875 94:40 95:-2.274875 96:40 97:2.797125 98:4.268125 99:40 100:-2.262875 101:0.995125 102:40 103:40 104:6.786125 105:14.774125 106:40 107:8.539125 108:40 109:4.616125 110:-0.325875 111:-1.627875 112:40 113:40 114:16.642125 115:-5.869875 116:1.204125 117:40 118:6.169125 119:2.484125 120:7.420125 121:4.165125 122:40 123:1.176125 124:40 125:5.478125 126:-0.826875 127:8.860125 128:40 129:15.788125 130:8.522125 131:12.537125 132:6.044125 133:8.044125 134:8.699125 135:40 136:3.778125 137:9.780125 138:9.919125 139:40 140:40 141:40 142:7.677125 143:40 144:-1.494875 145:-4.696875 146:-9.430875 147:2.993125 148:40 149:9.425125 150:40 151:40 152:3.330125 153:6.619125 154:16.029125 155:-3.418875 156:40 157:40 158:-4.370875 159:5.911125 160:1.897125 161:1.611125 162:40 163:0.221125 164:7.255125 165:9.542125 166:40 167:0.199125 168:16.956125 169:2.676125 170:5.649125 171:10.104125 172:1.284125 173:40 174:3.099125 175:3.483125 176:1.499125 177:-0.482875 178:17.184125 179:0.930125 180:5.399125 181:7.033125 182:8.773125 183:9.591125 184:9.860125 185:40 186:40 187:13.836125 188:2.376125 189:15.929125 190:40 191:40 192:2.473125 193:3.765125 194:4.393125 195:0.660125 196:17.186125 197:40 198:6.651125 199:40 200:40 201:2.363125 202:40 203:10.135125 204:4.528125 205:5.222125 206:10.279125 207:3.004125 208:40 209:1.724125 210:10.420125 211:7.596125 212:2.572125 213:10.834125 214:40 215:40 216:40 217:40 218:-4.858875 219:6.845125 220:40 221:3.401125 222:40 223:40 224:0.377125 225:-6.908875 226:6.997125 227:15.878125 228:10.249125 229:1.852125 230:8.934125 231:6.557125 232:40 233:13.417125 234:40 235:40 236:4.226125 237:6.281125 238:4.749125 239:3.484125 240:40 241:40 242:40 243:40 244:40 245:12.541125 246:8.320125 247:40 248:40 249:40 250:15.519125 251:40 252:40 253:40 254:40 255:40 256:40 257:40 258:40 259:40 260:40 261:40 262:40 263:40 264:40 265:13.063125 266:40 267:40 268:40 269:40 270:40 271:40 272:40 273:40 274:40 275:40 276:40 277:40 278:40 279:40 280:40 281:40 282:13.885125 283:40 284:14.890125 285:40 286:40 287:5.389125 288:2.602125 289:1.888125 290:40 291:40 292:12.457125 293:40 294:7.251125 295:13.455125 296:40 297:40 298:40 299:40 300:40 301:40 302:40 303:10.879125 304:40 305:40 306:40 307:40 308:-1.046875 309:7.668125 310:40 311:8.198125 312:40 313:40 314:40 315:1.348125 316:9.664125 317:4.659125 318:40 319:40 320:40 321:10.635125 322:40 323:10.227125 324:40 325:5.523125 326:12.895125 327:9.337125 328:40 329:40 330:1.530125 331:40 332:9.167125 333:10.296125 334:10.003125 335:0.670125 336:4.648125 337:40 338:40 339:40 340:0.282125 341:11.831125 342:40 343:40 344:40 345:9.619125 346:40 347:40 348:40 349:40 350:2.317125 351:40 352:4.958125 353:40 354:40 355:7.565125 356:40 357:40 358:40 359:40 360:40 361:40 362:15.681125 363:14.123125 364:40 365:40 366:40 367:40 368:40 369:40 370:40 371:40 372:0.947125 373:40 374:40 375:40 376:40 377:40 378:40 379:7.558125 380:40 381:16.985125 382:40 384:13.860125 
-0.2333984375 1:15.4885 2:5.9615 3:4.2545 4:4.3145 5:40 6:3.2245 7:6.9275 8:40 9:6.3615 10:40 11:5.4275 12:5.2275 13:12.4905 14:3.1695 15:-3.4295 16:-6.0955 17:1.7415 18:10.1085 19:-2.0555 20:-6.7135 21:-5.5655 22:-1.4515 23:-2.2465 24:4.2465 25:11.9145 26:40 27:-5.0705 28:-2.1335 29:-0.6615 30:0.7375 31:-0.6845 32:0.3775 33:1.3055 34:3.6075 35:5.3635 36:5.3095 37:0.2055 38:40 39:3.7375 40:0.8875 41:-0.1075 42:8.1985 43:8.8915 44:40 45:1.6285 46:40 47:-3.9645 48:-3.3275 49:9.3695 50:40 51:40 52:11.2455 53:5.6105 54:6.1935 55:2.3215 56:4.6235 57:40 58:-6.3775 59:40 60:-1.2395 61:40 62:-2.8795 63:40 64:40 65:5.8985 66:4.3475 67:-5.4765 68:1.6615 69:40 70:2.6445 71:9.8415 72:40 73:0.0415 74:1.0925 75:0.2385 76:2.0035 77:10.0115 78:4.5155 79:10.6035 80:11.7425 81:40 82:40 83:6.1085 84:2.5925 85:-0.3705 86:3.9055 87:-0.0975 88:9.7905 89:-1.6965 90:4.2595 91:2.4355 92:2.9165 93:-7.5385 94:6.2265 95:-1.6935 96:40 97:2.1895 98:3.5995 99:40 100:-1.4975 101:0.2535 102:40 103:40 104:4.8995 105:11.3905 106:40 107:40 108:15.5025 109:40 110:-0.7285 111:-3.0945 112:40 113:40 114:40 115:-5.9275 116:-0.6535 117:11.8265 118:0.9975 119:1.4255 120:5.3035 121:1.3145 122:9.5245 123:0.3005 124:40 125:13.1505 126:0.0735 127:40 128:15.7545 129:9.9525 130:9.8205 131:40 132:5.7475 133:10.3915 134:40 135:40 136:3.2245 137:10.6475 138:14.6705 139:40 140:40 141:40 142:4.4195 143:40 144:-2.6405 145:-3.9055 146:-9.1185 147:0.3625 148:40 149:6.4325 150:40 151:40 152:3.2565 153:9.3255 154:40 155:-5.6965 156:40 157:40 158:-3.0765 159:11.6975 160:2.5925 161:1.0035 162:40 163:-0.7045 164:11.4535 165:8.4715 166:40 167:2.2045 168:40 169:0.8795 170:7.7665 171:10.5495 172:0.9665 173:40 174:2.2455 175:2.5325 176:-0.1355 177:-0.1585 178:14.1535 179:0.9115 180:2.5225 181:6.4985 182:8.8765 183:7.6925 184:8.1175 185:40 186:40 187:40 188:7.2905 189:40 190:40 191:40 192:1.8995 193:3.3255 194:2.1975 195:2.5305 196:40 197:40 198:40 199:40 200:40 201:8.5295 202:40 203:40 204:7.9065 205:40 206:5.7695 207:2.9135 208:6.0465 209:4.1935 210:40 211:40 212:4.2395 213:40 214:40 215:8.2765 216:40 217:40 218:-4.6015 219:11.2605 220:40 221:4.4255 222:40 223:7.4645 224:-2.1425 225:-6.1105 226:9.9815 227:40 228:13.4995 229:2.2155 230:40 231:8.3905 232:40 233:10.6795 234:40 235:40 236:3.6405 237:40 238:8.0635 239:6.0895 240:40 241:40 242:40 243:11.6235 244:15.5835 245:7.6965 246:6.9995 247:40 248:40 249:40 250:5.7055 251:40 252:40 253:40 254:40 255:40 256:40 257:40 258:40 259:40 260:40 261:40 262:40 263:40 264:40 265:40 266:40 267:40 268:40 269:15.4455 270:40 271:8.9345 272:8.7425 273:11.5115 274:40 275:40 276:40 277:40 278:40 279:40 280:40 281:40 282:11.6895 283:40 284:40 285:40 286:40 287:4.6845 288:1.2075 289:7.8625 290:40 291:40 292:40 293:40 294:5.0615 295:11.5185 296:40 297:40 298:40 299:40 300:40 301:40 302:40 303:40 304:40 305:40 306:40 307:40 308:-0.9775 309:5.8845 310:40 311:6.2815 312:40 313:40 314:40 315:-0.0285 316:7.3655 317:3.1945 318:40 319:40 320:13.6915 321:11.8775 322:40 323:4.9415 324:40 325:6.9075 326:9.3775 327:7.7865 328:7.4655 329:40 330:0.8295 331:40 332:40 333:40 334:11.7915 335:0.3165 336:4.6085 337:40 338:40 339:40 340:0.4225 341:8.9005 342:40 343:40 344:40 345:7.7335 346:40 347:40 348:40 349:40 350:2.6675 351:9.2565 352:3.7405 353:40 354:40 355:8.6855 356:40 357:40 358:40 359:40 360:40 361:40 362:6.8855 363:6.1205 364:40 365:40 366:40 367:40 368:15.6035 369:40 370:40 371:40 372:2.0625 373:40 374:40 375:40 376:40 377:40 378:40 379:7.7835 380:40 381:40 382:40 384:40 
-0.2333984375 1:40 2:40 3:5.04325 4:3.83925 5:40 6:2.80425 7:8.91925 8:40 9:40 10:40 11:3.66525 12:4.12725 13:40 14:2.82925 15:-5.77475 16:-6.78975 17:3.57925 18:12.12525 19:-0.33675 20:-6.41875 21:-1.37575 22:-0.30475 23:-0.31675 24:40 25:7.04025 26:40 27:-7.31375 28:-0.32775 29:-0.92475 30:1.02325 31:-0.84775 32:4.13425 33:0.16225 34:4.02725 35:4.00325 36:3.85625 37:-1.16175 38:40 39:4.85925 40:0.46225 41:-0.66075 42:40 43:40 44:40 45:9.32625 46:40 47:-3.39675 48:-1.74675 49:40 50:40 51:40 52:40 53:5.92625 54:40 55:3.75825 56:4.55025 57:40 58:-6.99675 59:40 60:-1.23275 61:40 62:-0.48175 63:40 64:40 65:1.76425 66:40 67:-7.30675 68:40 69:40 70:40 71:40 72:40 73:1.85125 74:2.26425 75:-0.27875 76:-1.73575 77:40 78:0.52725 79:40 80:40 81:40 82:40 83:40 84:1.17025 85:-1.62175 86:0.88925 87:-0.23975 88:7.16025 89:0.33225 90:4.13325 91:40 92:3.80025 93:-8.39875 94:40 95:-5.01175 96:40 97:2.18425 98:3.62425 99:40 100:-4.06575 101:5.56625 102:40 103:40 104:5.37625 105:40 106:40 107:40 108:40 109:40 110:-0.25575 111:-4.23875 112:40 113:40 114:40 115:-9.87475 116:-0.30575 117:40 118:40 119:1.18425 120:3.12525 121:0.71225 122:7.16925 123:0.90925 124:5.02925 125:40 126:-1.19675 127:40 128:40 129:11.00525 130:3.41625 131:40 132:40 133:40 134:40 135:40 136:5.73825 137:8.68825 138:40 139:40 140:40 141:40 142:40 143:40 144:1.06125 145:-5.37975 146:-10.04075 147:9.51425 148:40 149:40 150:40 151:40 152:3.59125 153:40 154:40 155:-2.35275 156:40 157:40 158:-4.83375 159:7.49025 160:1.63625 161:40 162:40 163:3.54525 164:40 165:8.35425 166:40 167:0.66725 168:6.07925 169:2.77625 170:40 171:40 172:-1.56775 173:40 174:1.80125 175:-1.40375 176:0.53525 177:-2.61075 178:40 179:-0.70075 180:40 181:40 182:40 183:40 184:40 185:40 186:40 187:40 188:3.19225 189:40 190:40 191:40 192:0.48825 193:-0.22175 194:40 195:-0.59375 196:40 197:40 198:40 199:40 200:40 201:3.68425 202:40 203:40 204:3.69225 205:2.45625 206:40 207:2.07225 208:40 209:3.67325 210:40 211:3.48025 212:3.43025 213:40 214:40 215:40 216:40 217:40 218:-4.32875 219:40 220:40 221:-0.93175 222:40 223:40 224:-4.24375 225:-7.36675 226:40 227:40 228:5.99025 229:-1.00975 230:40 231:3.85025 232:40 233:5.24125 234:40 235:40 236:7.20425 237:4.75925 238:4.96925 239:40 240:40 241:40 242:40 243:40 244:5.28625 245:40 246:40 247:40 248:40 249:40 250:40 251:40 252:40 253:40 254:40 255:40 256:40 257:40 258:40 259:40 260:40 261:40 262:40 263:40 264:40 265:40 266:40 267:40 268:40 269:10.05025 270:40 271:40 272:40 273:40 274:40 275:40 276:40 277:40 278:40 279:40 280:40 281:40 282:40 283:40 284:40 285:40 286:40 287:1.94925 288:1.01125 289:40 290:40 291:40 292:40 293:40 294:9.03025 295:7.08225 296:40 297:40 298:40 299:40 300:40 301:40 302:40 303:40 304:40 305:40 306:40 307:40 308:-4.76875 309:40 310:40 311:40 312:40 313:40 314:40 315:-0.31075 316:40 317:2.82625 318:40 319:40 320:6.95925 321:12.58425 322:40 323:5.73525 324:40 325:3.47225 326:40 327:5.95325 328:40 329:40 330:0.53025 331:40 332:40 333:40 334:7.44425 335:0.76825 336:40 337:40 338:40 339:40 340:-0.14875 341:40 342:40 343:40 344:40 345:40 346:40 347:40 348:40 349:40 350:1.49325 351:40 352:2.35225 353:40 354:40 355:40 356:40 357:40 358:40 359:40 360:40 361:40 362:40 363:2.15825 364:40 365:40 366:40 367:40 368:40 369:40 370:40 371:40 372:-0.96975 373:40 374:40 375:40 376:40 377:40 378:40 379:7.16625 380:40 381:40 382:40 384:40 
-0.2333984375 1:0.729375 2:2.742375 3:2.724375 4:-0.112625 5:4.287375 6:1.248375 7:6.951375 8:8.465375 9:4.330375 10:7.776375 11:3.526375 12:3.216375 13:3.625375 14:0.152375 15:-6.284625 16:-4.747625 17:2.646375 18:3.881375 19:-1.240625 20:-6.804625 21:-4.669625 22:-0.014625 23:-3.307625 24:0.764375 25:3.609375 26:40 27:-5.075625 28:-2.510625 29:-1.541625 30:0.436375 31:-1.354625 32:-0.342625 33:1.429375 34:2.020375 35:2.902375 36:3.058375 37:0.564375 38:7.223375 39:5.732375 40:-2.816625 41:-2.945625 42:5.424375 43:5.907375 44:40 45:3.716375 46:7.090375 47:-5.183625 48:-2.019625 49:8.580375 50:40 51:40 52:6.270375 53:0.508375 54:4.713375 55:2.350375 56:-0.751625 57:40 58:-5.074625 59:40 60:-2.374625 61:4.976375 62:-0.839625 63:7.653375 64:14.234375 65:5.527375 66:-0.355625 67:-5.378625 68:3.637375 69:40 70:3.878375 71:40 72:40 73:0.965375 74:1.440375 75:2.871375 76:1.743375 77:5.808375 78:6.770375 79:7.028375 80:13.110375 81:13.589375 82:40 83:6.623375 84:1.620375 85:-0.812625 86:3.164375 87:1.742375 88:6.551375 89:-2.733625 90:3.619375 91:0.844375 92:0.682375 93:-4.389625 94:9.040375 95:-0.989625 96:40 97:2.318375 98:3.902375 99:4.778375 100:-4.203625 101:2.053375 102:40 103:40 104:1.561375 105:5.712375 106:14.369375 107:6.794375 108:8.910375 109:5.517375 110:0.142375 111:1.701375 112:11.050375 113:40 114:13.015375 115:-4.827625 116:2.353375 117:13.809375 118:3.657375 119:0.580375 120:4.940375 121:4.391375 122:9.899375 123:-0.756625 124:40 125:4.915375 126:-1.386625 127:7.686375 128:3.300375 129:6.166375 130:3.089375 131:9.878375 132:4.622375 133:4.443375 134:4.728375 135:40 136:0.576375 137:3.612375 138:4.445375 139:7.942375 140:12.352375 141:40 142:3.228375 143:40 144:-1.922625 145:-1.110625 146:-9.400625 147:3.042375 148:40 149:3.951375 150:40 151:40 152:2.174375 153:6.133375 154:2.450375 155:-6.647625 156:4.465375 157:5.621375 158:-3.051625 159:6.837375 160:2.931375 161:0.472375 162:13.388375 163:-1.749625 164:11.178375 165:3.636375 166:40 167:-0.502625 168:8.206375 169:1.721375 170:8.046375 171:11.168375 172:4.271375 173:3.160375 174:3.758375 175:5.165375 176:-1.568625 177:-1.120625 178:5.512375 179:2.663375 180:5.139375 181:8.001375 182:9.824375 183:2.819375 184:4.197375 185:1.466375 186:40 187:14.351375 188:3.644375 189:40 190:5.333375 191:9.280375 192:1.350375 193:1.536375 194:3.079375 195:4.720375 196:7.027375 197:40 198:7.824375 199:40 200:10.407375 201:3.871375 202:13.354375 203:12.475375 204:7.274375 205:7.702375 206:9.148375 207:2.589375 208:11.272375 209:-1.793625 210:9.511375 211:12.568375 212:7.465375 213:14.646375 214:40 215:10.224375 216:40 217:40 218:-7.467625 219:7.905375 220:40 221:6.171375 222:10.988375 223:11.162375 224:3.691375 225:-4.704625 226:8.026375 227:40 228:5.692375 229:0.450375 230:40 231:8.020375 232:40 233:10.732375 234:40 235:40 236:7.723375 237:13.848375 238:8.943375 239:5.597375 240:40 241:40 242:40 243:7.392375 244:9.373375 245:5.494375 246:6.951375 247:9.458375 248:40 249:40 250:4.317375 251:40 252:40 253:40 254:9.078375 255:40 256:11.941375 257:40 258:40 259:40 260:40 261:40 262:40 263:8.838375 264:11.693375 265:40 266:40 267:40 268:40 269:40 270:40 271:40 272:0.836375 273:9.798375 274:10.786375 275:40 276:40 277:40 278:10.279375 279:40 280:40 281:40 282:4.138375 283:40 284:40 285:40 286:40 287:3.618375 288:1.172375 289:8.567375 290:40 291:9.600375 292:40 293:8.031375 294:8.693375 295:12.875375 296:40 297:40 298:40 299:12.626375 300:15.877375 301:40 302:11.162375 303:7.672375 304:40 305:40 306:40 307:11.066375 308:0.498375 309:6.506375 310:6.974375 311:6.132375 312:40 313:40 314:40 315:3.140375 316:8.605375 317:5.168375 318:40 319:40 320:5.471375 321:-3.721625 322:40 323:7.919375 324:40 325:11.445375 326:7.032375 327:6.507375 328:7.485375 329:40 330:1.321375 331:40 332:14.047375 333:40 334:13.138375 335:0.070375 336:6.804375 337:40 338:40 339:40 340:1.947375 341:11.321375 342:40 343:40 344:40 345:4.665375 346:40 347:40 348:40 349:40 350:0.185375 351:5.528375 352:5.704375 353:40 354:40 355:7.088375 356:40 357:40 358:40 359:40 360:14.395375 361:-2.159625 362:10.963375 363:8.521375 364:11.789375 365:40 366:40 367:40 368:7.524375 369:40 370:40 371:40 372:3.749375 373:40 374:40 375:40 376:40 377:40 378:40 379:5.712375 380:40 381:40 382:9.649375 384:9.456375 
-0.2333984375 1:40 2:5.18975 3:5.82575 4:12.57675 5:40 6:6.07375 7:40 8:40 9:4.98475 10:40 11:7.16675 12:7.07275 13:13.30675 14:4.55875 15:-6.02125 16:-5.92925 17:3.59375 18:16.22975 19:-1.28825 20:-6.86725 21:-3.86625 22:-0.90925 23:-0.72725 24:13.78275 25:10.25875 26:40 27:-5.07125 28:-2.29725 29:2.11575 30:1.28675 31:-0.85025 32:1.45875 33:0.89275 34:5.59975 35:7.15775 36:7.24475 37:-0.37525 38:40 39:4.00775 40:1.62175 41:0.22975 42:5.83875 43:8.31375 44:14.13875 45:6.66175 46:40 47:-4.14425 48:-2.65625 49:11.22475 50:40 51:40 52:14.88675 53:6.64475 54:8.03575 55:2.06575 56:11.00975 57:40 58:-6.12025 59:40 60:-1.23725 61:40 62:1.18475 63:40 64:40 65:7.71175 66:3.59075 67:-4.72225 68:1.54275 69:40 70:4.51575 71:40 72:40 73:0.28075 74:3.58675 75:1.30875 76:1.78175 77:9.58275 78:3.30175 79:8.71775 80:40 81:15.03575 82:40 83:7.97075 84:5.62175 85:0.02875 86:2.66275 87:0.25175 88:8.17175 89:1.26775 90:5.19475 91:1.82775 92:6.23775 93:-5.72725 94:40 95:-0.86025 96:40 97:1.78975 98:3.34775 99:40 100:-3.46825 101:0.63475 102:40 103:40 104:9.52875 105:40 106:11.01375 107:7.81175 108:12.76975 109:4.09075 110:-0.25025 111:-1.45625 112:40 113:40 114:40 115:-4.61025 116:0.47375 117:40 118:4.40775 119:2.77075 120:6.70375 121:1.88575 122:40 123:2.46575 124:40 125:6.43975 126:-0.26925 127:10.26975 128:17.85075 129:9.54475 130:8.01275 131:10.16275 132:3.88775 133:8.51475 134:7.21675 135:40 136:4.71075 137:5.55675 138:17.25075 139:9.16075 140:40 141:40 142:5.48675 143:40 144:-0.31125 145:-4.14325 146:-8.80525 147:4.93575 148:40 149:8.25575 150:40 151:40 152:4.72475 153:7.79475 154:40 155:-4.46425 156:40 157:40 158:-5.27625 159:4.35575 160:2.31075 161:2.44475 162:40 163:-0.01225 164:9.57175 165:10.12875 166:40 167:2.04075 168:40 169:1.78575 170:6.62175 171:10.83775 172:2.36075 173:40 174:3.69875 175:3.34675 176:0.64075 177:-0.71825 178:40 179:0.99875 180:4.17875 181:7.09075 182:40 183:5.14575 184:8.90275 185:40 186:10.11875 187:40 188:4.09975 189:40 190:40 191:40 192:4.33575 193:5.66075 194:2.68875 195:0.55475 196:40 197:40 198:7.11875 199:40 200:7.79575 201:2.16975 202:40 203:14.22375 204:2.92375 205:6.15975 206:6.53875 207:2.98875 208:40 209:2.54475 210:40 211:12.21375 212:2.68775 213:40 214:40 215:40 216:40 217:40 218:-5.62825 219:10.17575 220:40 221:4.00975 222:40 223:40 224:1.34075 225:-5.73125 226:7.87875 227:40 228:9.54675 229:1.37575 230:15.46975 231:5.75375 232:40 233:8.93975 234:40 235:40 236:8.29575 237:6.72575 238:7.07875 239:3.75775 240:40 241:40 242:13.32075 243:12.08575 244:40 245:40 246:7.01175 247:16.51575 248:40 249:40 250:40 251:40 252:40 253:40 254:40 255:40 256:14.74075 257:40 258:40 259:40 260:40 261:40 262:40 263:14.59475 264:40 265:40 266:40 267:40 268:40 269:40 270:40 271:40 272:40 273:40 274:40 275:40 276:40 277:40 278:40 279:40 280:40 281:40 282:15.49275 283:40 284:40 285:40 286:40 287:5.60775 288:2.61975 289:1.70675 290:40 291:40 292:40 293:40 294:9.98075 295:8.07075 296:40 297:40 298:40 299:16.46075 300:40 301:40 302:40 303:40 304:40 305:40 306:40 307:40 308:0.28375 309:16.79575 310:40 311:6.80575 312:40 313:40 314:40 315:0.92375 316:7.54975 317:4.21875 318:40 319:40 320:40 321:13.62875 322:40 323:8.74975 324:40 325:9.63375 326:15.13975 327:7.74175 328:8.16875 329:40 330:3.57175 331:40 332:8.26575 333:13.26675 334:11.12275 335:-0.26625 336:6.64575 337:40 338:40 339:40 340:2.53375 341:40 342:40 343:40 344:40 345:9.99175 346:40 347:40 348:40 349:40 350:3.56875 351:7.92975 352:4.06175 353:40 354:40 355:5.53875 356:40 357:40 358:40 359:40 360:40 361:40 362:8.87875 363:5.88875 364:40 365:40 366:40 367:40 368:40 369:40 370:40 371:40 372:0.03375 373:40 374:40 375:40 376:40 377:40 378:40 379:6.15075 380:40 381:40 382:40 384:40 
-0.2333984375 1:40 2:5.00625 3:7.91325 4:9.40325 5:40 6:4.87225 7:8.59625 8:40 9:40 10:40 11:6.28025 12:6.13825 13:40 14:10.77925 15:-5.63175 16:-6.61175 17:5.00625 18:40 19:-1.94575 20:-6.80375 21:-3.74175 22:-1.06975 23:-0.81475 24:40 25:40 26:40 27:-6.65575 28:-1.01775 29:0.02825 30:0.45225 31:-0.84975 32:0.23425 33:0.78325 34:6.50225 35:6.31225 36:6.15225 37:-0.22875 38:40 39:3.65425 40:3.21425 41:1.42525 42:8.23725 43:40 44:40 45:40 46:40 47:-3.31575 48:-1.63075 49:40 50:40 51:40 52:40 53:7.15625 54:40 55:1.95325 56:8.90825 57:40 58:-6.74475 59:40 60:-0.78475 61:40 62:0.84825 63:40 64:40 65:2.51725 66:40 67:-5.81775 68:2.21025 69:40 70:5.24525 71:40 72:40 73:1.70425 74:4.32425 75:-0.60875 76:-0.82075 77:40 78:0.61725 79:40 80:40 81:13.20225 82:40 83:8.85925 84:2.29025 85:-0.95975 86:1.40625 87:-1.02275 88:40 89:0.64725 90:4.76525 91:5.36725 92:6.55225 93:-8.39975 94:40 95:-3.79575 96:40 97:2.78325 98:3.63825 99:40 100:-3.56975 101:1.37425 102:40 103:40 104:10.17925 105:40 106:40 107:40 108:40 109:3.77225 110:0.18325 111:-4.12475 112:40 113:40 114:40 115:-8.40175 116:-0.17475 117:40 118:7.49325 119:3.11825 120:12.02225 121:0.05025 122:10.95225 123:-0.17475 124:40 125:40 126:-1.27975 127:40 128:11.06325 129:40 130:4.95525 131:40 132:3.86025 133:40 134:40 135:40 136:2.60425 137:11.20525 138:13.62125 139:40 140:40 141:40 142:10.45825 143:40 144:-0.60875 145:-5.94675 146:-10.36675 147:5.59025 148:40 149:9.03125 150:40 151:40 152:40 153:7.93225 154:40 155:-2.88475 156:40 157:40 158:-4.94175 159:9.72025 160:2.58525 161:2.05425 162:40 163:1.01925 164:12.91025 165:13.77725 166:40 167:2.47625 168:11.62825 169:0.49325 170:8.58625 171:40 172:-0.96875 173:40 174:2.01025 175:-0.17475 176:0.23825 177:-3.31375 178:10.28025 179:-0.19175 180:40 181:40 182:40 183:14.54625 184:40 185:40 186:40 187:40 188:2.35425 189:40 190:40 191:40 192:1.79325 193:3.32325 194:3.85625 195:-0.35075 196:40 197:40 198:40 199:40 200:40 201:6.10225 202:40 203:40 204:4.19325 205:8.82125 206:9.10325 207:3.95025 208:40 209:2.84725 210:8.97725 211:13.30825 212:2.91825 213:40 214:40 215:40 216:40 217:40 218:-4.40375 219:4.44525 220:40 221:0.84625 222:40 223:40 224:-2.86375 225:-7.11375 226:9.39625 227:40 228:12.04525 229:-0.93575 230:40 231:4.56025 232:40 233:40 234:40 235:40 236:8.11325 237:40 238:40 239:8.62225 240:40 241:40 242:40 243:40 244:40 245:40 246:6.48025 247:40 248:40 249:40 250:40 251:40 252:40 253:40 254:40 255:40 256:13.91725 257:40 258:40 259:40 260:40 261:40 262:40 263:40 264:40 265:40 266:40 267:40 268:40 269:40 270:40 271:40 272:40 273:40 274:40 275:40 276:40 277:40 278:40 279:40 280:40 281:40 282:40 283:40 284:40 285:40 286:40 287:3.69425 288:8.24025 289:1.98025 290:40 291:40 292:40 293:40 294:8.69125 295:8.99625 296:40 297:40 298:40 299:40 300:40 301:40 302:40 303:13.50425 304:40 305:40 306:40 307:40 308:-4.11275 309:40 310:40 311:40 312:40 313:40 314:40 315:-0.50275 316:40 317:5.71525 318:40 319:40 320:40 321:13.11025 322:40 323:6.72225 324:13.27425 325:3.36225 326:40 327:13.75725 328:40 329:40 330:1.33425 331:40 332:5.78225 333:40 334:10.04625 335:1.50525 336:9.70625 337:40 338:40 339:40 340:1.22525 341:40 342:40 343:40 344:40 345:6.05225 346:40 347:40 348:40 349:40 350:5.53325 351:40 352:2.39525 353:40 354:40 355:5.90725 356:40 357:7.68425 358:40 359:40 360:40 361:40 362:7.97625 363:11.16125 364:40 365:40 366:40 367:40 368:40 369:40 370:40 371:40 372:0.51025 373:40 374:40 375:40 376:40 377:40 378:40 379:40 380:40 381:40 382:40 384:40 
-0.2333984375 1:10.843625 2:5.418625 3:4.794625 4:6.617625 5:40 6:5.226625 7:12.958625 8:40 9:3.812625 10:11.197625 11:7.681625 12:7.567625 13:12.054625 14:2.283625 15:-5.790375 16:-5.768375 17:3.102625 18:40 19:-1.204375 20:-7.020375 21:-5.282375 22:-1.213375 23:-1.636375 24:4.383625 25:14.064625 26:40 27:-5.462375 28:-3.391375 29:1.433625 30:2.625625 31:-3.078375 32:-0.775375 33:1.092625 34:3.820625 35:7.698625 36:7.821625 37:0.133625 38:9.581625 39:4.304625 40:-0.661375 41:-1.021375 42:9.902625 43:40 44:40 45:0.027625 46:40 47:-5.457375 48:-3.024375 49:9.962625 50:40 51:40 52:10.917625 53:4.582625 54:6.198625 55:2.389625 56:12.087625 57:40 58:-5.966375 59:40 60:-2.132375 61:40 62:-1.020375 63:40 64:40 65:9.841625 66:2.650625 67:-5.088375 68:0.922625 69:40 70:3.726625 71:40 72:40 73:-1.624375 74:1.140625 75:0.451625 76:2.574625 77:12.864625 78:5.346625 79:11.180625 80:40 81:40 82:40 83:7.462625 84:6.547625 85:-0.304375 86:4.359625 87:1.485625 88:40 89:-1.419375 90:4.751625 91:2.271625 92:6.482625 93:-5.755375 94:13.921625 95:-0.966375 96:40 97:1.148625 98:2.874625 99:40 100:-3.833375 101:-0.476375 102:40 103:40 104:7.068625 105:40 106:40 107:8.490625 108:40 109:3.429625 110:-0.236375 111:-0.254375 112:40 113:40 114:40 115:-3.759375 116:1.706625 117:15.639625 118:3.384625 119:2.385625 120:1.981625 121:2.912625 122:16.430625 123:2.913625 124:40 125:9.274625 126:-1.440375 127:15.934625 128:40 129:40 130:40 131:13.592625 132:4.611625 133:11.161625 134:9.616625 135:40 136:4.227625 137:7.320625 138:12.466625 139:40 140:40 141:40 142:5.626625 143:40 144:-2.456375 145:-3.386375 146:-9.674375 147:1.556625 148:40 149:8.756625 150:40 151:40 152:4.892625 153:6.197625 154:8.693625 155:-5.792375 156:12.890625 157:9.989625 158:-4.857375 159:5.821625 160:2.379625 161:0.961625 162:40 163:-1.328375 164:12.719625 165:11.827625 166:40 167:1.805625 168:40 169:1.296625 170:8.993625 171:40 172:3.426625 173:13.327625 174:2.491625 175:3.703625 176:0.411625 177:0.028625 178:40 179:1.320625 180:4.378625 181:8.081625 182:15.543625 183:8.461625 184:9.231625 185:8.254625 186:40 187:40 188:5.210625 189:40 190:10.314625 191:40 192:3.019625 193:5.937625 194:3.241625 195:1.178625 196:40 197:40 198:11.144625 199:40 200:40 201:2.162625 202:40 203:40 204:2.871625 205:8.446625 206:8.315625 207:3.013625 208:40 209:6.804625 210:8.961625 211:16.724625 212:4.791625 213:40 214:40 215:40 216:40 217:40 218:-6.506375 219:12.453625 220:40 221:6.968625 222:40 223:12.704625 224:-1.237375 225:-5.157375 226:14.569625 227:40 228:10.166625 229:4.684625 230:40 231:10.358625 232:40 233:40 234:40 235:40 236:7.727625 237:40 238:10.378625 239:6.735625 240:40 241:40 242:40 243:40 244:40 245:40 246:9.484625 247:40 248:40 249:40 250:6.377625 251:40 252:40 253:40 254:40 255:40 256:40 257:40 258:40 259:40 260:40 261:40 262:40 263:40 264:16.777625 265:40 266:40 267:40 268:40 269:40 270:40 271:40 272:40 273:40 274:40 275:40 276:40 277:40 278:40 279:40 280:40 281:40 282:9.434625 283:40 284:40 285:40 286:40 287:5.261625 288:0.599625 289:4.621625 290:40 291:40 292:40 293:40 294:11.758625 295:40 296:40 297:40 298:40 299:15.200625 300:11.283625 301:40 302:9.839625 303:10.469625 304:40 305:40 306:40 307:40 308:1.323625 309:7.713625 310:11.939625 311:8.742625 312:40 313:40 314:40 315:0.335625 316:7.891625 317:4.288625 318:40 319:40 320:8.560625 321:3.761625 322:40 323:11.156625 324:40 325:15.315625 326:7.484625 327:12.474625 328:5.637625 329:40 330:1.941625 331:40 332:40 333:12.556625 334:40 335:0.597625 336:6.290625 337:40 338:40 339:40 340:1.969625 341:40 342:40 343:40 344:40 345:12.984625 346:40 347:40 348:40 349:40 350:1.380625 351:40 352:10.524625 353:40 354:40 355:6.424625 356:40 357:40 358:40 359:40 360:40 361:7.562625 362:40 363:10.364625 364:40 365:40 366:40 367:40 368:9.640625 369:40 370:40 371:40 372:1.196625 373:40 374:40 375:40 376:40 377:40 378:40 379:7.193625 380:40 381:40 382:40 384:14.342625 
-0.2333984375 1:3.15125 2:3.73125 3:3.57125 4:0.26625 5:40 6:2.17425 7:5.13825 8:10.66625 9:5.71725 10:14.45925 11:6.56025 12:6.22925 13:4.03925 14:0.02525 15:-4.42975 16:-4.09375 17:2.60425 18:4.54325 19:-0.86375 20:-6.35375 21:-3.71375 22:1.68025 23:-4.18075 24:-0.15375 25:2.76525 26:40 27:-5.64475 28:-1.20175 29:-0.56875 30:1.51725 31:-2.12275 32:-0.41575 33:0.42125 34:2.37325 35:6.08225 36:6.16225 37:0.47725 38:7.62825 39:4.93925 40:-1.66375 41:-1.94275 42:5.77425 43:8.51625 44:8.46625 45:3.63925 46:40 47:-3.97875 48:-1.28775 49:7.94625 50:40 51:7.79425 52:6.08925 53:1.86025 54:4.89025 55:2.93125 56:-0.11075 57:40 58:-4.48675 59:40 60:-1.54375 61:7.84025 62:-2.54875 63:10.92425 64:10.77725 65:6.56125 66:-0.49975 67:-5.18675 68:0.29425 69:40 70:2.81425 71:40 72:40 73:-1.59875 74:0.21325 75:2.32925 76:-0.69375 77:3.61225 78:2.57725 79:5.89325 80:40 81:11.40725 82:40 83:8.46025 84:1.61125 85:0.02025 86:3.95225 87:1.40525 88:6.90225 89:-2.07275 90:2.78625 91:1.05525 92:2.21325 93:-5.39775 94:8.56225 95:-1.46975 96:40 97:0.85425 98:2.95225 99:40 100:-2.02675 101:0.88525 102:40 103:6.21425 104:1.69225 105:8.06625 106:14.47525 107:8.38625 108:10.96625 109:5.84925 110:0.60525 111:1.70025 112:9.70525 113:40 114:14.05125 115:-5.10175 116:2.00725 117:12.88625 118:3.07025 119:1.64825 120:4.83725 121:5.82625 122:9.77225 123:-1.19175 124:40 125:4.10025 126:-2.73775 127:7.69025 128:5.52025 129:6.00725 130:4.86725 131:10.73425 132:6.10825 133:5.61625 134:9.20325 135:40 136:0.94025 137:2.37625 138:3.04025 139:40 140:10.78825 141:40 142:3.66825 143:12.25025 144:-3.07075 145:-1.63175 146:-9.64375 147:1.25825 148:40 149:6.17025 150:40 151:40 152:2.95225 153:7.01425 154:13.47025 155:-5.76475 156:6.59525 157:8.06025 158:-2.46875 159:3.64725 160:2.96625 161:-0.18475 162:12.62925 163:-1.94575 164:5.89525 165:4.37025 166:40 167:0.01125 168:9.04425 169:0.82125 170:4.78825 171:8.19625 172:3.48025 173:4.01625 174:2.84125 175:5.74925 176:-0.89375 177:-0.11975 178:8.86725 179:2.36125 180:4.43325 181:8.28825 182:9.85325 183:6.56725 184:4.59925 185:1.86025 186:13.44425 187:11.58525 188:0.77125 189:40 190:4.72725 191:8.04125 192:2.56025 193:2.60125 194:2.36625 195:0.77325 196:8.18525 197:40 198:4.89825 199:8.41325 200:9.78725 201:-0.15675 202:7.23725 203:8.19925 204:3.09425 205:5.87325 206:10.24025 207:1.61325 208:10.43325 209:-1.13975 210:9.33825 211:7.48625 212:4.77025 213:12.36925 214:8.90725 215:11.43025 216:40 217:10.08925 218:-4.77475 219:6.11325 220:40 221:7.77125 222:6.80925 223:9.58725 224:3.90725 225:-5.18475 226:4.45625 227:5.65325 228:6.69825 229:3.58125 230:9.81425 231:5.55625 232:40 233:10.07425 234:40 235:9.38325 236:7.12725 237:7.75825 238:5.96725 239:2.59325 240:11.10325 241:40 242:40 243:6.62925 244:6.61025 245:7.97225 246:8.35925 247:40 248:11.70625 249:8.70825 250:4.97425 251:40 252:40 253:40 254:13.80425 255:40 256:40 257:40 258:14.99925 259:40 260:40 261:40 262:40 263:13.76225 264:15.83225 265:40 266:40 267:40 268:40 269:8.23225 270:40 271:40 272:15.25225 273:16.01025 274:40 275:40 276:40 277:40 278:40 279:40 280:40 281:40 282:6.30225 283:40 284:40 285:40 286:40 287:4.39325 288:1.76225 289:3.78425 290:40 291:14.61425 292:40 293:12.67525 294:7.53925 295:8.91925 296:40 297:40 298:40 299:11.77325 300:9.46125 301:10.35525 302:10.56125 303:7.65425 304:12.29825 305:40 306:40 307:40 308:0.15225 309:6.02625 310:12.21325 311:6.46225 312:40 313:40 314:12.47225 315:2.26425 316:8.90325 317:3.53525 318:40 319:40 320:8.07625 321:1.15625 322:40 323:5.35825 324:15.91625 325:11.32125 326:6.16825 327:9.68525 328:7.80025 329:40 330:0.67625 331:40 332:9.72825 333:4.14125 334:7.82525 335:1.75425 336:6.59525 337:40 338:40 339:11.17525 340:1.52925 341:8.89125 342:40 343:40 344:40 345:4.90725 346:40 347:40 348:40 349:40 350:0.27525 351:7.02025 352:7.43825 353:40 354:40 355:4.78125 356:40 357:12.73825 358:40 359:40 360:10.29225 361:-1.25375 362:10.51825 363:8.56925 364:40 365:40 366:13.48125 367:40 368:6.97125 369:40 370:40 371:40 372:-0.12575 373:40 374:40 375:40 376:40 377:40 378:40 379:6.82725 380:14.51025 381:14.45425 382:40 384:5.06225 
