svm_type c_svc
kernel_type rbf
gamma 0.000488
nr_class 2
total_sv 11
rho 0.165172
label 3 5
nr_sv 5 6
SV
1 15:-3.671625 64:10.070375 86:4.014375 126:-0.954625 155:-3.803625 229:2.871375 233:40 259:12.433375 292:40 330:0.604375 
1 15:-2.4755 64:9.3015 86:4.5235 126:-2.3735 155:-3.1555 229:3.6505 233:13.6395 259:14.5305 292:12.6125 330:1.1855 
1 15:-6.78725 64:16.90375 86:4.49075 126:-2.19025 155:-2.47725 229:4.17375 233:40 259:40 292:40 330:1.25375 
1 15:-2.265375 64:40 86:4.047625 126:-1.002375 155:-0.719375 229:2.753625 233:40 259:40 292:8.699625 330:0.152625 
1 15:-3.440125 64:10.442875 86:5.754875 126:-1.458125 155:-3.139125 229:6.803875 233:40 259:40 292:18.259875 330:1.503875 
-1 15:-2.998125 64:7.795875 86:4.010875 126:-0.685125 155:-4.135125 229:0.744875 233:9.901875 259:40 292:40 330:2.605875 
-1 15:-4.242125 64:40 86:2.056875 126:0.490875 155:-1.421125 229:0.472875 233:40 259:40 292:40 330:2.858875 
-0.1770309905520611 15:-5.63175 64:40 86:1.40625 126:-1.27975 155:-2.88475 229:-0.93575 233:40 259:40 292:40 330:1.33425 
-1 15:-4.082875 64:40 86:3.675125 126:-0.826875 155:-3.418875 229:1.852125 233:13.417125 259:40 292:12.457125 330:1.530125 
-1 15:-5.790375 64:40 86:4.359625 126:-1.440375 155:-5.792375 229:4.684625 233:40 259:40 292:40 330:1.941625 
-0.8229690094479389 15:-4.42975 64:10.77725 86:3.95225 126:-2.73775 155:-5.76475 229:3.58125 233:10.07425 259:40 292:40 330:0.67625 
