svm_type c_svc
kernel_type rbf
gamma 0.03125
nr_class 2
total_sv 34
rho -0.825
label 1 4
nr_sv 20 14
SV
0.1748046875 1:1.4605 2:3.5805 3:-0.2245 4:-0.9045 5:13.6135 6:-1.0175 7:7.4185 8:13.4855 9:4.2945 10:40 11:8.6435 12:8.6175 13:2.8185 14:-0.5335 15:-4.4305 16:-7.0255 17:-0.1035 18:7.1585 19:-2.1635 20:-6.9395 21:-5.7375 22:-2.3965 23:-2.0505 24:2.5335 25:5.7745 26:40 27:-6.0515 28:-1.1155 29:-2.7745 30:-0.3105 31:-1.9345 32:-0.7115 33:0.0875 34:0.5595 35:8.9315 36:8.6085 37:-1.0255 38:6.5005 39:6.1105 40:40 41:0.8465 42:40 43:5.6065 44:40 45:2.5865 46:40 47:-3.2185 48:-4.0725 49:8.9545 50:40 51:17.9495 52:14.7475 53:3.3215 54:6.8445 55:1.8615 56:-0.3455 57:40 58:-7.3645 59:6.0345 60:15.1425 61:11.8525 62:-2.8955 63:40 64:8.5305 65:1.2765 66:2.2615 67:-7.5985 68:-0.1935 69:11.7745 70:2.5495 71:40 72:40 73:0.6675 74:1.1055 75:0.0665 76:1.6365 77:8.7915 78:0.7695 79:7.9015 80:7.6985 81:13.9255 82:40 83:40 84:9.7945 85:6.3385 86:4.6815 87:-2.2105 88:12.6445 89:-3.8915 90:2.3015 91:1.3795 92:-0.0615 93:-7.9375 94:9.4285 95:-4.4395 96:40 97:1.4345 98:3.0795 99:40 100:-1.9165 101:-0.1055 102:10.5025 103:40 104:5.0865 105:12.5845 106:10.4295 107:40 108:8.9075 109:6.1175 110:-1.3835 111:-2.4925 112:6.5455 113:40 114:17.0805 115:-7.7995 116:1.2105 117:40 118:5.3015 119:1.6245 120:4.0285 121:2.6075 122:5.1895 123:0.9795 124:40 125:4.0455 126:-2.3765 127:6.3755 128:40 129:8.2325 130:3.3555 131:40 132:5.8885 133:5.2825 134:40 135:40 136:3.5145 137:40 138:10.5575 139:40 140:40 141:40 142:40 143:40 144:-2.2695 145:-5.5755 146:-10.6535 147:2.4325 148:40 149:10.5125 150:40 151:40 152:1.2145 153:3.7725 154:15.8505 155:-3.2035 156:40 157:40 158:-2.5905 159:7.2165 160:2.0585 161:0.5035 162:40 163:0.0885 164:9.5415 165:7.4095 166:40 167:0.6205 168:8.0915 169:1.5405 170:4.3475 171:5.7935 172:1.2385 173:11.8735 174:0.8965 175:-0.1485 176:-3.1215 177:-1.3955 178:10.5775 179:1.0065 180:2.0975 181:7.3805 182:9.7325 183:5.3235 184:7.7315 185:40 186:40 187:13.5165 188:0.2075 189:40 190:40 191:40 192:-1.1025 193:-0.9185 194:5.7245 195:1.1985 196:40 197:40 198:3.6005 199:40 200:8.6235 201:3.9085 202:40 203:40 204:4.9405 205:2.7805 206:9.6285 207:1.7945 208:10.4235 209:7.2055 210:9.1495 211:11.6915 212:1.9335 213:11.5695 214:40 215:9.9805 216:40 217:40 218:-6.4265 219:5.6015 220:40 221:-0.6875 222:40 223:9.2885 224:-0.2115 225:-7.1105 226:6.5585 227:40 228:11.2185 229:2.8925 230:10.0045 231:4.3735 232:40 233:8.9685 234:40 235:40 236:2.6385 237:5.6575 238:3.2055 239:1.8365 240:9.1115 241:40 242:40 243:6.5825 244:40 245:6.7095 246:7.3995 247:40 248:40 249:40 250:6.5315 251:40 252:40 253:40 254:40 255:40 256:15.4665 257:40 258:40 259:16.0835 260:40 261:40 262:40 263:40 264:40 265:40 266:40 267:40 268:40 269:40 270:40 271:11.3595 272:13.8395 273:40 274:40 275:40 276:40 277:40 278:40 279:40 280:40 281:40 282:11.5985 283:40 284:40 285:40 286:40 287:2.5525 288:1.4445 289:0.0105 290:40 291:10.1155 292:9.1785 293:40 294:6.7535 295:10.0845 296:40 297:40 298:40 299:40 300:14.8935 301:40 302:13.1395 303:40 304:40 305:40 306:40 307:40 308:-2.3895 309:5.5735 310:8.4445 311:5.1925 312:40 313:40 314:40 315:1.1515 316:5.8205 317:2.7875 318:40 319:40 320:7.0765 321:7.8425 322:40 323:5.2285 324:15.7405 325:4.2015 326:7.1645 327:7.4675 328:40 329:40 330:-0.9045 331:40 332:9.8225 333:11.2375 334:8.1015 335:0.4815 336:2.9785 337:40 338:40 339:40 340:-1.1005 341:11.8615 342:40 343:40 344:40 345:7.7625 346:40 347:40 348:40 349:40 350:2.2315 351:6.2435 352:3.3775 353:40 354:40 355:5.4515 356:40 357:9.9905 358:40 359:40 360:40 361:40 362:40 363:7.4095 364:40 365:40 366:40 367:40 368:40 369:40 370:40 371:40 372:0.0735 373:40 374:40 375:40 376:40 377:40 378:40 379:40 380:40 381:40 382:11.8985 384:40 
0.1748046875 1:2.985 2:5.72 3:3.626 4:0.907 5:40 6:1.958 7:9.657 8:10.484 9:7.226 10:16.601 11:7.359 12:7.323 13:3.638 14:0.347 15:-3.608 16:-4.409 17:2.562 18:4.446 19:-0.878 20:-6.435 21:-3.969 22:1.114 23:-2.976 24:-0.001 25:3.65 26:40 27:-5.799 28:-0.578 29:-1.112 30:1.2 31:-1.129 32:0.415 33:0.613 34:2.767 35:7.136 36:6.807 37:0.854 38:8.522 39:5.438 40:-1.445 41:-1.948 42:7.646 43:8.047 44:40 45:5.578 46:11.579 47:-3.348 48:-1.255 49:9.599 50:40 51:10.851 52:9.062 53:1.554 54:6.75 55:3.564 56:0.299 57:40 58:-4.842 59:40 60:-1.729 61:6.794 62:2.626 63:40 64:10.122 65:5.671 66:3.804 67:-4.655 68:1.353 69:40 70:3.129 71:40 72:40 73:-1.204 74:0.565 75:1.958 76:2.695 77:7.896 78:3.201 79:9.494 80:10.91 81:40 82:40 83:9.754 84:1.785 85:-0.111 86:3.654 87:0.871 88:7.441 89:-0.623 90:3.826 91:2.952 92:1.882 93:-4.922 94:8.744 95:-0.827 96:40 97:1.477 98:3.24 99:40 100:-3.106 101:1.257 102:13.4 103:11.936 104:2.443 105:9.159 106:13.692 107:8.764 108:9.9 109:7.834 110:0.763 111:1.187 112:40 113:40 114:11.372 115:-5.18 116:3.626 117:12.667 118:5.764 119:4.061 120:6.729 121:4.788 122:7.338 123:-1.077 124:40 125:4.467 126:-2.076 127:7.065 128:40 129:6.667 130:4.416 131:9.922 132:8.381 133:5.061 134:8.356 135:40 136:0.368 137:7.58 138:5.436 139:40 140:40 141:40 142:6.941 143:40 144:-2.329 145:-1.656 146:-9.173 147:3.661 148:40 149:6.357 150:40 151:40 152:2.823 153:6.019 154:12.001 155:-3.268 156:10.357 157:40 158:-2.292 159:5.097 160:3.166 161:0.484 162:12.29 163:-2.105 164:8.795 165:3.834 166:40 167:-0.138 168:8.89 169:0.724 170:5.839 171:8.565 172:2.64 173:3.146 174:2.834 175:5.355 176:-0.248 177:-0.375 178:9.341 179:2.83 180:4.147 181:8.735 182:11.297 183:5.441 184:9.296 185:10.775 186:10.879 187:13.351 188:1.831 189:40 190:15.415 191:40 192:2.253 193:1.55 194:5.846 195:1.707 196:10.087 197:40 198:5.934 199:40 200:10.259 201:0.861 202:9.695 203:8.957 204:4.684 205:5.07 206:11.691 207:2.277 208:9.896 209:-1.218 210:11.258 211:7.775 212:5.466 213:15.948 214:40 215:8.896 216:40 217:12.237 218:-4.293 219:7.697 220:40 221:6.867 222:40 223:12.771 224:5.272 225:-4.958 226:5.582 227:9.155 228:7.437 229:3.433 230:9.801 231:5.885 232:40 233:14.118 234:40 235:40 236:5.969 237:7.706 238:6.3 239:3.119 240:11.388 241:40 242:40 243:13.627 244:40 245:6.721 246:7.674 247:12.138 248:40 249:40 250:5.297 251:40 252:40 253:40 254:10.459 255:40 256:40 257:40 258:40 259:40 260:40 261:40 262:40 263:40 264:14.478 265:40 266:40 267:14.307 268:40 269:40 270:40 271:40 272:8.821 273:16.707 274:40 275:40 276:40 277:40 278:40 279:40 280:40 281:40 282:13.172 283:40 284:16.849 285:40 286:40 287:3.695 288:2.706 289:4.758 290:40 291:15.058 292:40 293:40 294:8.828 295:11.539 296:40 297:40 298:40 299:13.931 300:13.364 301:10.949 302:13.091 303:10.087 304:12.707 305:40 306:40 307:11.788 308:0.389 309:7.304 310:10.646 311:6.917 312:40 313:40 314:11.257 315:1.861 316:8.507 317:4.538 318:10.002 319:40 320:14.125 321:11.819 322:40 323:7.02 324:15.946 325:10.104 326:7.782 327:7.767 328:7.365 329:40 330:0.523 331:40 332:10.34 333:6.748 334:8.208 335:1.191 336:5.276 337:40 338:40 339:12.037 340:1.145 341:11.022 342:40 343:40 344:40 345:6.435 346:40 347:40 348:40 349:40 350:3.763 351:7.728 352:6.537 353:40 354:40 355:5.909 356:40 357:12.209 358:40 359:40 360:40 361:40 362:7.995 363:8.021 364:12.459 365:40 366:40 367:40 368:40 369:40 370:40 371:40 372:1.038 373:40 374:40 375:40 376:40 377:40 378:40 379:8.236 380:40 381:40 382:40 384:11.678 
0.1748046875 1:40 2:5.358875 3:5.197875 4:2.791875 5:40 6:3.356875 7:40 8:40 9:6.105875 10:40 11:1.663875 12:1.470875 13:4.827875 14:1.944875 15:-3.705125 16:-3.724125 17:3.812875 18:7.391875 19:-1.255125 20:-6.580125 21:-2.014125 22:1.770875 23:-2.560125 24:1.389875 25:3.526875 26:40 27:-5.621125 28:-0.700125 29:-0.082125 30:2.454875 31:0.277875 32:0.496875 33:-0.058125 34:3.197875 35:1.570875 36:1.648875 37:-0.508125 38:7.321875 39:5.275875 40:0.060875 41:-1.291125 42:4.260875 43:40 44:40 45:2.807875 46:40 47:-3.036125 48:-0.738125 49:7.011875 50:40 51:40 52:8.104875 53:1.623875 54:4.945875 55:2.635875 56:0.229875 57:40 58:-3.931125 59:40 60:-0.453125 61:40 62:-5.217125 63:40 64:40 65:4.388875 66:0.245875 67:-4.671125 68:2.691875 69:40 70:3.736875 71:40 72:40 73:0.651875 74:0.313875 75:3.136875 76:0.758875 77:7.635875 78:2.820875 79:40 80:40 81:12.215875 82:40 83:14.611875 84:2.043875 85:-0.049125 86:2.490875 87:1.305875 88:7.473875 89:-1.030125 90:4.424875 91:2.115875 92:2.135875 93:-5.606125 94:6.267875 95:-1.365125 96:40 97:0.050875 98:3.794875 99:40 100:-2.964125 101:1.528875 102:40 103:40 104:2.437875 105:8.490875 106:15.756875 107:7.435875 108:9.826875 109:5.346875 110:0.637875 111:0.302875 112:40 113:40 114:40 115:-5.094125 116:-0.665125 117:9.791875 118:1.049875 119:-1.899125 120:5.067875 121:4.447875 122:8.054875 123:-1.041125 124:9.839875 125:4.930875 126:-0.601125 127:7.897875 128:4.074875 129:6.466875 130:4.540875 131:7.993875 132:4.442875 133:4.549875 134:7.692875 135:40 136:-1.128125 137:1.470875 138:3.629875 139:40 140:40 141:40 142:4.008875 143:40 144:-1.583125 145:-2.187125 146:-8.668125 147:2.144875 148:40 149:5.886875 150:40 151:40 152:3.052875 153:6.620875 154:7.910875 155:-4.813125 156:40 157:40 158:-3.453125 159:5.595875 160:1.724875 161:1.273875 162:13.921875 163:-0.782125 164:40 165:5.111875 166:40 167:-0.039125 168:6.769875 169:2.985875 170:5.619875 171:5.962875 172:2.198875 173:5.273875 174:4.205875 175:3.903875 176:-0.824125 177:-1.975125 178:9.908875 179:1.232875 180:5.412875 181:7.116875 182:8.206875 183:7.200875 184:3.147875 185:40 186:40 187:40 188:1.483875 189:40 190:9.814875 191:40 192:3.229875 193:2.301875 194:0.962875 195:3.195875 196:40 197:40 198:6.985875 199:40 200:40 201:4.071875 202:40 203:40 204:6.405875 205:8.257875 206:7.429875 207:2.581875 208:9.061875 209:-0.810125 210:10.803875 211:40 212:5.483875 213:12.794875 214:40 215:7.970875 216:40 217:40 218:-4.731125 219:5.266875 220:40 221:7.181875 222:12.189875 223:7.218875 224:-1.366125 225:-5.135125 226:7.417875 227:40 228:6.313875 229:0.842875 230:40 231:6.819875 232:40 233:40 234:40 235:40 236:5.184875 237:7.549875 238:7.345875 239:4.491875 240:40 241:40 242:40 243:40 244:40 245:40 246:6.606875 247:40 248:40 249:40 250:3.572875 251:40 252:40 253:40 254:40 255:40 256:6.866875 257:40 258:15.550875 259:40 260:40 261:40 262:40 263:8.519875 264:9.061875 265:14.570875 266:40 267:10.850875 268:40 269:40 270:40 271:40 272:10.608875 273:9.500875 274:40 275:40 276:40 277:40 278:40 279:40 280:40 281:40 282:13.760875 283:40 284:40 285:40 286:40 287:3.553875 288:2.284875 289:4.359875 290:40 291:14.052875 292:7.636875 293:40 294:13.330875 295:10.071875 296:40 297:40 298:40 299:40 300:14.236875 301:40 302:10.122875 303:12.943875 304:40 305:40 306:40 307:40 308:1.291875 309:5.990875 310:9.328875 311:5.988875 312:40 313:40 314:40 315:2.666875 316:7.330875 317:4.868875 318:9.667875 319:40 320:7.046875 321:9.571875 322:40 323:7.139875 324:16.533875 325:9.760875 326:4.442875 327:5.751875 328:5.494875 329:40 330:2.435875 331:40 332:11.749875 333:11.455875 334:9.460875 335:0.054875 336:5.192875 337:40 338:40 339:12.760875 340:2.016875 341:40 342:40 343:40 344:40 345:3.544875 346:40 347:40 348:40 349:40 350:-2.228125 351:5.750875 352:4.306875 353:40 354:40 355:8.498875 356:40 357:40 358:40 359:40 360:40 361:40 362:40 363:6.728875 364:40 365:40 366:40 367:40 368:40 369:40 370:40 371:40 372:2.963875 373:40 374:40 375:40 376:40 377:40 378:40 379:4.957875 380:40 381:11.335875 382:15.387875 384:40 
0.1748046875 1:1.312875 2:3.882875 3:2.487875 4:-0.709125 5:40 6:1.587875 7:6.899875 8:40 9:5.361875 10:12.315875 11:4.187875 12:3.877875 13:3.542875 14:-0.381125 15:-5.875125 16:-4.939125 17:2.306875 18:5.050875 19:-0.811125 20:-6.800125 21:-4.576125 22:0.214875 23:-3.186125 24:1.074875 25:4.700875 26:40 27:-5.889125 28:-2.634125 29:-2.152125 30:-0.200125 31:-2.048125 32:-0.878125 33:1.520875 34:1.266875 35:3.760875 36:3.922875 37:1.387875 38:14.978875 39:5.465875 40:-3.112125 41:-3.572125 42:4.388875 43:6.923875 44:40 45:3.657875 46:40 47:-5.779125 48:-1.929125 49:7.200875 50:40 51:40 52:6.200875 53:0.523875 54:4.424875 55:1.826875 56:-0.825125 57:40 58:-5.249125 59:40 60:-2.617125 61:4.235875 62:-0.533125 63:5.628875 64:40 65:5.463875 66:1.499875 67:-5.631125 68:0.300875 69:8.555875 70:3.372875 71:40 72:40 73:-1.041125 74:0.839875 75:2.452875 76:0.832875 77:6.432875 78:3.815875 79:40 80:8.785875 81:11.337875 82:40 83:9.104875 84:2.803875 85:-0.038125 86:3.476875 87:1.894875 88:6.375875 89:-3.446125 90:3.323875 91:2.355875 92:1.912875 93:-4.865125 94:40 95:-0.830125 96:40 97:1.493875 98:2.482875 99:40 100:-3.296125 101:0.549875 102:40 103:4.980875 104:0.783875 105:6.892875 106:40 107:40 108:9.132875 109:2.773875 110:-0.227125 111:1.389875 112:40 113:40 114:40 115:-4.999125 116:3.494875 117:11.316875 118:3.972875 119:2.041875 120:7.923875 121:5.731875 122:40 123:-1.287125 124:40 125:4.214875 126:-2.383125 127:7.661875 128:40 129:6.559875 130:4.659875 131:10.178875 132:4.794875 133:5.181875 134:6.289875 135:40 136:-0.057125 137:6.512875 138:4.669875 139:40 140:40 141:40 142:5.131875 143:40 144:-2.883125 145:-0.035125 146:-9.620125 147:1.997875 148:9.439875 149:5.590875 150:40 151:4.636875 152:2.329875 153:5.534875 154:9.763875 155:-5.872125 156:3.313875 157:6.059875 158:-3.476125 159:4.047875 160:3.128875 161:0.032875 162:12.848875 163:-2.109125 164:5.808875 165:3.965875 166:40 167:-0.993125 168:7.291875 169:0.369875 170:5.386875 171:7.147875 172:3.736875 173:6.102875 174:3.874875 175:1.250875 176:-1.418125 177:-0.672125 178:40 179:2.458875 180:4.735875 181:7.259875 182:9.449875 183:4.907875 184:6.335875 185:-0.816125 186:13.026875 187:11.329875 188:0.244875 189:40 190:5.795875 191:40 192:0.613875 193:0.938875 194:3.604875 195:-0.032125 196:40 197:40 198:5.060875 199:40 200:7.748875 201:-1.000125 202:6.340875 203:9.779875 204:2.390875 205:4.483875 206:10.504875 207:2.453875 208:11.998875 209:-2.193125 210:9.934875 211:7.749875 212:4.665875 213:40 214:40 215:11.565875 216:40 217:40 218:-7.674125 219:6.244875 220:40 221:6.729875 222:7.966875 223:40 224:5.427875 225:-5.364125 226:3.148875 227:40 228:4.224875 229:0.013875 230:9.240875 231:5.460875 232:40 233:8.542875 234:40 235:8.658875 236:6.361875 237:7.894875 238:6.091875 239:2.108875 240:10.047875 241:40 242:40 243:7.425875 244:7.201875 245:40 246:6.980875 247:40 248:40 249:40 250:3.260875 251:40 252:40 253:40 254:40 255:40 256:40 257:40 258:40 259:40 260:40 261:40 262:40 263:40 264:14.985875 265:40 266:40 267:40 268:40 269:40 270:40 271:40 272:4.363875 273:13.464875 274:40 275:40 276:40 277:40 278:11.428875 279:40 280:40 281:40 282:8.102875 283:40 284:40 285:40 286:40 287:4.613875 288:1.526875 289:4.291875 290:40 291:10.592875 292:40 293:8.366875 294:7.730875 295:7.450875 296:40 297:40 298:14.131875 299:9.679875 300:8.492875 301:40 302:11.679875 303:5.983875 304:40 305:40 306:40 307:11.550875 308:0.069875 309:6.164875 310:40 311:6.209875 312:40 313:40 314:40 315:1.752875 316:5.751875 317:4.821875 318:40 319:40 320:12.371875 321:-5.535125 322:40 323:6.652875 324:14.933875 325:12.298875 326:5.549875 327:6.049875 328:11.225875 329:12.153875 330:1.548875 331:40 332:11.413875 333:5.283875 334:6.103875 335:-0.046125 336:6.499875 337:40 338:40 339:40 340:1.481875 341:7.108875 342:40 343:40 344:40 345:40 346:2.677875 347:40 348:40 349:40 350:0.300875 351:10.799875 352:7.784875 353:40 354:40 355:4.429875 356:40 357:40 358:40 359:40 360:8.479875 361:-2.211125 362:40 363:9.524875 364:40 365:40 366:40 367:40 368:5.361875 369:40 370:40 371:40 372:-0.329125 373:40 374:40 375:40 376:40 377:40 378:40 379:10.151875 380:40 381:40 382:11.139875 384:7.169875 
0.17578125 1:3.822875 2:4.536875 3:3.113875 4:0.154875 5:40 6:2.498875 7:8.883875 8:9.262875 9:5.244875 10:15.095875 11:4.821875 12:5.015875 13:2.379875 14:1.263875 15:-6.111125 16:-5.101125 17:2.924875 18:3.947875 19:-1.138125 20:-6.764125 21:-4.328125 22:-0.097125 23:-2.742125 24:0.563875 25:2.848875 26:40 27:-5.638125 28:-1.854125 29:-0.334125 30:1.681875 31:-0.959125 32:0.679875 33:0.748875 34:2.592875 35:5.076875 36:4.969875 37:0.966875 38:9.133875 39:5.285875 40:-1.797125 41:-1.794125 42:6.211875 43:9.056875 44:40 45:4.732875 46:40 47:-4.465125 48:-1.946125 49:10.229875 50:40 51:40 52:8.493875 53:1.544875 54:6.223875 55:3.200875 56:0.220875 57:40 58:-5.445125 59:40 60:-0.968125 61:6.949875 62:-0.295125 63:9.705875 64:13.863875 65:5.194875 66:2.280875 67:-5.225125 68:2.054875 69:40 70:3.631875 71:40 72:40 73:0.880875 74:1.283875 75:2.083875 76:1.759875 77:7.530875 78:4.791875 79:12.071875 80:15.405875 81:13.678875 82:40 83:10.390875 84:1.279875 85:-0.792125 86:2.051875 87:1.207875 88:8.323875 89:-1.834125 90:3.936875 91:3.026875 92:2.819875 93:-5.204125 94:40 95:-1.079125 96:40 97:2.109875 98:3.612875 99:40 100:-1.991125 101:1.665875 102:40 103:7.571875 104:2.146875 105:9.763875 106:40 107:9.122875 108:9.704875 109:5.219875 110:0.186875 111:0.747875 112:10.312875 113:40 114:15.292875 115:-5.316125 116:2.244875 117:14.250875 118:4.225875 119:1.538875 120:7.127875 121:4.847875 122:8.228875 123:-0.900125 124:40 125:6.351875 126:-1.222125 127:10.419875 128:40 129:6.990875 130:4.021875 131:11.180875 132:5.744875 133:6.489875 134:6.367875 135:40 136:-0.015125 137:6.302875 138:4.292875 139:40 140:40 141:40 142:6.228875 143:40 144:-2.185125 145:-2.020125 146:-9.026125 147:2.584875 148:40 149:5.012875 150:40 151:40 152:2.685875 153:6.923875 154:1.741875 155:-5.930125 156:13.364875 157:7.770875 158:-3.447125 159:4.934875 160:2.291875 161:0.900875 162:12.857875 163:-1.737125 164:8.264875 165:4.118875 166:40 167:-0.184125 168:13.720875 169:3.129875 170:7.148875 171:9.274875 172:2.549875 173:2.030875 174:4.218875 175:4.483875 176:-2.106125 177:-0.980125 178:8.510875 179:2.250875 180:6.267875 181:9.223875 182:13.288875 183:5.606875 184:7.707875 185:6.005875 186:40 187:14.270875 188:2.210875 189:40 190:7.328875 191:12.145875 192:2.265875 193:2.265875 194:4.892875 195:3.207875 196:40 197:40 198:7.657875 199:40 200:10.445875 201:2.129875 202:40 203:9.952875 204:5.896875 205:6.990875 206:12.508875 207:2.121875 208:12.798875 209:-1.901125 210:10.946875 211:11.663875 212:6.230875 213:40 214:40 215:40 216:40 217:13.692875 218:-6.053125 219:8.071875 220:40 221:5.683875 222:40 223:10.898875 224:2.973875 225:-5.688125 226:6.331875 227:7.349875 228:5.234875 229:0.836875 230:40 231:6.848875 232:40 233:13.510875 234:40 235:40 236:6.246875 237:9.117875 238:7.777875 239:5.185875 240:13.956875 241:40 242:40 243:7.112875 244:9.777875 245:7.991875 246:7.717875 247:12.485875 248:40 249:40 250:5.617875 251:40 252:40 253:40 254:40 255:40 256:40 257:40 258:40 259:40 260:40 261:40 262:40 263:11.374875 264:14.708875 265:40 266:40 267:40 268:40 269:40 270:40 271:40 272:-1.003125 273:10.579875 274:40 275:40 276:40 277:40 278:40 279:40 280:40 281:40 282:6.209875 283:40 284:40 285:40 286:40 287:4.157875 288:2.060875 289:5.163875 290:40 291:11.545875 292:13.575875 293:14.629875 294:7.888875 295:12.727875 296:40 297:40 298:40 299:12.811875 300:40 301:9.851875 302:40 303:15.056875 304:40 305:40 306:40 307:12.116875 308:0.516875 309:7.506875 310:8.940875 311:7.030875 312:40 313:40 314:9.850875 315:2.422875 316:9.673875 317:5.045875 318:40 319:40 320:40 321:-1.005125 322:40 323:6.237875 324:15.069875 325:10.854875 326:6.655875 327:7.299875 328:8.005875 329:40 330:1.303875 331:40 332:12.412875 333:7.995875 334:11.069875 335:0.640875 336:6.216875 337:40 338:40 339:40 340:1.656875 341:9.683875 342:40 343:40 344:40 345:5.746875 346:40 347:40 348:40 349:40 350:0.883875 351:8.134875 352:4.940875 353:40 354:40 355:7.806875 356:40 357:12.172875 358:40 359:40 360:11.493875 361:-1.084125 362:11.367875 363:9.515875 364:40 365:40 366:40 367:40 368:7.687875 369:40 370:40 371:40 372:1.820875 373:40 374:40 375:40 376:40 377:40 378:40 379:7.517875 380:40 381:40 382:14.861875 384:7.165875 
0.17578125 1:-0.978625 2:2.916375 3:-0.330625 4:-3.798625 5:40 6:-0.545625 7:4.652375 8:9.277375 9:3.390375 10:11.976375 11:7.651375 12:7.170375 13:5.236375 14:-0.141625 15:-1.327625 16:-5.571625 17:1.260375 18:4.939375 19:-4.061625 20:-7.939625 21:-5.518625 22:-1.685625 23:-2.737625 24:3.546375 25:40 26:5.739375 27:-6.375625 28:0.854375 29:-4.210625 30:-1.938625 31:-0.316625 32:0.490375 33:2.257375 34:3.343375 35:6.998375 36:7.133375 37:2.243375 38:8.214375 39:6.479375 40:-1.313625 41:-2.813625 42:6.118375 43:6.309375 44:40 45:2.630375 46:40 47:-0.152625 48:-1.787625 49:10.960375 50:40 51:40 52:4.799375 53:-0.523625 54:3.167375 55:3.414375 56:-1.489625 57:40 58:-5.889625 59:40 60:-0.487625 61:6.144375 62:-2.256625 63:40 64:6.639375 65:2.057375 66:2.534375 67:-6.757625 68:1.358375 69:40 70:2.576375 71:40 72:40 73:-0.639625 74:1.170375 75:2.188375 76:-0.117625 77:4.111375 78:-0.733625 79:9.103375 80:8.647375 81:15.525375 82:40 83:7.679375 84:0.759375 85:-1.353625 86:3.738375 87:-1.239625 88:40 89:-3.478625 90:3.327375 91:2.376375 92:-0.451625 93:-6.758625 94:8.347375 95:-3.545625 96:40 97:0.611375 98:2.395375 99:40 100:-0.786625 101:2.152375 102:40 103:40 104:2.205375 105:5.871375 106:10.808375 107:40 108:7.268375 109:6.009375 110:0.182375 111:-0.645625 112:40 113:40 114:9.469375 115:-7.929625 116:0.728375 117:8.900375 118:2.412375 119:1.810375 120:5.515375 121:2.415375 122:6.126375 123:-1.416625 124:40 125:5.276375 126:-1.623625 127:4.756375 128:40 129:4.826375 130:1.202375 131:5.795375 132:3.898375 133:3.892375 134:10.974375 135:40 136:1.481375 137:4.532375 138:4.971375 139:40 140:40 141:40 142:7.689375 143:40 144:-0.700625 145:-2.739625 146:-9.194625 147:1.556375 148:40 149:6.285375 150:40 151:40 152:1.354375 153:3.098375 154:7.461375 155:-4.518625 156:40 157:40 158:-1.333625 159:5.261375 160:4.761375 161:2.018375 162:40 163:-0.278625 164:7.854375 165:6.115375 166:10.359375 167:2.695375 168:9.568375 169:0.223375 170:40 171:5.573375 172:3.156375 173:6.901375 174:1.166375 175:2.518375 176:-3.654625 177:0.888375 178:40 179:2.861375 180:3.576375 181:8.656375 182:6.567375 183:4.522375 184:6.291375 185:40 186:40 187:40 188:2.096375 189:40 190:40 191:10.155375 192:-1.195625 193:-1.121625 194:5.312375 195:-0.032625 196:40 197:40 198:3.152375 199:40 200:40 201:0.785375 202:9.644375 203:9.182375 204:4.397375 205:3.942375 206:7.198375 207:1.601375 208:7.014375 209:4.302375 210:7.012375 211:12.359375 212:4.260375 213:8.310375 214:40 215:40 216:40 217:5.660375 218:-3.847625 219:4.889375 220:9.124375 221:1.230375 222:40 223:40 224:-0.170625 225:-5.018625 226:6.041375 227:40 228:3.573375 229:1.679375 230:40 231:4.085375 232:40 233:7.128375 234:40 235:40 236:3.988375 237:10.338375 238:4.257375 239:0.446375 240:8.394375 241:40 242:40 243:40 244:5.649375 245:6.091375 246:6.866375 247:40 248:40 249:40 250:6.786375 251:40 252:40 253:40 254:40 255:40 256:40 257:40 258:40 259:40 260:40 261:40 262:40 263:11.700375 264:9.927375 265:40 266:40 267:11.519375 268:40 269:5.567375 270:40 271:40 272:15.434375 273:9.593375 274:9.022375 275:40 276:40 277:40 278:40 279:40 280:10.814375 281:40 282:11.682375 283:40 284:40 285:40 286:40 287:3.056375 288:3.116375 289:1.203375 290:40 291:40 292:40 293:40 294:6.087375 295:6.096375 296:40 297:40 298:40 299:12.497375 300:12.410375 301:40 302:9.289375 303:6.964375 304:40 305:40 306:11.214375 307:40 308:0.395375 309:5.961375 310:7.412375 311:40 312:40 313:40 314:9.723375 315:2.478375 316:8.901375 317:2.530375 318:40 319:40 320:5.091375 321:9.419375 322:40 323:4.491375 324:12.343375 325:6.012375 326:40 327:40 328:7.052375 329:40 330:2.607375 331:40 332:8.694375 333:40 334:5.250375 335:-0.187625 336:3.602375 337:40 338:40 339:6.387375 340:1.324375 341:9.152375 342:40 343:40 344:40 345:10.614375 346:40 347:40 348:40 349:40 350:-0.036625 351:7.555375 352:4.403375 353:40 354:9.010375 355:5.186375 356:40 357:6.795375 358:40 359:40 360:40 361:40 362:9.678375 363:4.394375 364:40 365:40 366:40 367:40 368:40 369:40 370:40 371:40 372:0.500375 373:40 374:40 375:40 376:40 377:40 378:40 379:9.941375 380:40 381:40 382:12.769375 384:12.597375 
0.17578125 1:40 2:4.895 3:5.02 4:9.429 5:40 6:3.632 7:40 8:40 9:5.269 10:10 11:8.138 12:7.91 13:9.139 14:1.008 15:-5.679 16:-5.565 17:1.748 18:12.832 19:-0.973 20:-6.871 21:-5.399 22:-1.528 23:-2.237 24:3.475 25:13.488 26:40 27:-5.459 28:-3.138 29:0.448 30:1.329 31:-2.991 32:-0.727 33:1.186 34:3.257 35:8.411 36:7.784 37:-0.065 38:9.055 39:4.266 40:-0.504 41:-0.851 42:6.961 43:10.883 44:12.59 45:-0.599 46:40 47:-4.98 48:-2.971 49:11.758 50:40 51:40 52:10.95 53:6.234 54:7.16 55:2.603 56:5.753 57:40 58:-5.967 59:40 60:-2.25 61:40 62:-2.799 63:40 64:40 65:10.196 66:1.911 67:-4.659 68:1.917 69:40 70:3.083 71:40 72:40 73:-1.382 74:1.179 75:1.158 76:5.127 77:14.961 78:10.43 79:7.032 80:8.966 81:40 82:40 83:8.039 84:4.076 85:-0.313 86:5.34 87:1.459 88:7.176 89:-0.819 90:4.202 91:3.106 92:6.464 93:-5.267 94:8.219 95:-1.357 96:40 97:0.849 98:2.613 99:40 100:-3.042 101:-0.095 102:40 103:40 104:7.489 105:40 106:40 107:40 108:17.782 109:4.015 110:0.248 111:0.031 112:40 113:40 114:11.168 115:-4.405 116:0.455 117:11.725 118:2.237 119:1.28 120:1.748 121:3.207 122:13.622 123:2.241 124:40 125:6.09 126:-2.123 127:13.149 128:11.858 129:8.252 130:7.623 131:14.096 132:4.379 133:10.907 134:9.66 135:40 136:4.369 137:8.383 138:11.511 139:40 140:40 141:13.552 142:4.255 143:40 144:-3.104 145:-1.792 146:-9.708 147:3.408 148:40 149:8.437 150:40 151:40 152:3.409 153:7.722 154:8.725 155:-4.056 156:10.213 157:9.11 158:-3.934 159:7.256 160:2.776 161:0.377 162:18.577 163:-1.196 164:10.974 165:9.729 166:40 167:1.831 168:40 169:1.096 170:7.468 171:8.24 172:3.752 173:11.304 174:2.532 175:6.361 176:0.613 177:1.427 178:13.169 179:1.67 180:4.063 181:7.214 182:14.561 183:6.605 184:9.008 185:8.149 186:15.675 187:40 188:5.346 189:40 190:8.698 191:16.764 192:2.49 193:3.974 194:3.466 195:1.838 196:40 197:40 198:12.92 199:40 200:15.66 201:3.314 202:40 203:17.481 204:4.693 205:6.893 206:11.696 207:2.938 208:14.308 209:6.597 210:13.821 211:14.072 212:5.555 213:40 214:10.262 215:40 216:40 217:40 218:-6.796 219:9.194 220:40 221:8.356 222:12.288 223:10.697 224:-0.36 225:-4.612 226:10.026 227:40 228:7.304 229:6.143 230:40 231:7.838 232:40 233:40 234:40 235:40 236:8.098 237:13.725 238:9.483 239:4.907 240:40 241:40 242:40 243:11.834 244:17.245 245:40 246:7.367 247:40 248:40 249:40 250:6.742 251:40 252:40 253:40 254:40 255:40 256:40 257:40 258:40 259:40 260:40 261:40 262:40 263:40 264:40 265:40 266:40 267:40 268:40 269:40 270:40 271:40 272:40 273:40 274:40 275:40 276:40 277:40 278:40 279:40 280:40 281:40 282:9.199 283:40 284:40 285:40 286:40 287:4.868 288:0.463 289:7.233 290:40 291:40 292:40 293:40 294:6.859 295:40 296:40 297:40 298:40 299:40 300:40 301:10.353 302:40 303:10.597 304:40 305:40 306:40 307:14.641 308:0.851 309:6.851 310:15.026 311:7.043 312:40 313:40 314:40 315:0.88 316:9.649 317:4.057 318:40 319:40 320:40 321:4.364 322:40 323:9.382 324:40 325:12.921 326:9.309 327:16.352 328:7.572 329:40 330:1.206 331:40 332:11.81 333:15.279 334:13.989 335:0.804 336:5.772 337:40 338:40 339:40 340:0.877 341:13.397 342:40 343:40 344:40 345:16.198 346:40 347:40 348:40 349:40 350:-0.262 351:9.701 352:6.626 353:40 354:40 355:7.759 356:40 357:40 358:40 359:40 360:16.778 361:6.381 362:40 363:8.812 364:40 365:40 366:40 367:40 368:13.556 369:40 370:40 371:40 372:1.854 373:40 374:40 375:40 376:40 377:40 378:40 379:4.705 380:40 381:40 382:40 384:8.541 
0.17578125 1:2.32925 2:5.21225 3:2.37825 4:-0.04675 5:5.17525 6:1.96825 7:8.10625 8:10.23625 9:4.54325 10:14.27725 11:4.11525 12:4.10525 13:3.61625 14:0.30725 15:-5.88175 16:-4.89675 17:2.86125 18:4.54025 19:-1.05875 20:-6.61775 21:-4.29675 22:2.82825 23:-3.76275 24:0.65125 25:3.07325 26:40 27:-5.49075 28:-1.79575 29:-1.06475 30:1.05525 31:-1.01675 32:0.21025 33:0.36725 34:1.10425 35:3.64225 36:3.94125 37:1.64125 38:7.27825 39:6.20725 40:-2.41375 41:-3.02675 42:3.94325 43:7.88825 44:40 45:4.66825 46:12.86125 47:-4.72775 48:-1.69475 49:8.49725 50:40 51:40 52:7.67025 53:0.03625 54:5.26025 55:2.74725 56:-0.35375 57:40 58:-5.11675 59:40 60:-1.51975 61:5.02325 62:0.89125 63:7.25625 64:13.28325 65:4.32425 66:2.97525 67:-5.74075 68:2.84725 69:40 70:3.64725 71:40 72:40 73:0.07925 74:0.53325 75:2.00525 76:0.07925 77:6.03125 78:4.66525 79:6.86125 80:11.31625 81:14.48725 82:40 83:10.34325 84:1.27425 85:-1.26975 86:2.94925 87:1.54725 88:7.62025 89:-3.11475 90:3.20225 91:3.12625 92:1.58125 93:-5.11975 94:7.03125 95:-1.07575 96:40 97:2.14125 98:3.24325 99:8.68225 100:-3.31075 101:1.24925 102:40 103:40 104:2.02425 105:9.84025 106:14.55425 107:40 108:9.02525 109:6.06225 110:0.20425 111:1.12725 112:40 113:40 114:11.80225 115:-5.49175 116:3.21525 117:12.11325 118:3.54925 119:2.05625 120:6.30425 121:5.19125 122:8.57725 123:-1.10575 124:40 125:5.17025 126:-1.72075 127:9.10625 128:4.74125 129:6.04825 130:2.79825 131:13.03625 132:5.18625 133:7.01925 134:3.97425 135:40 136:-0.48575 137:7.67225 138:6.60725 139:8.19425 140:40 141:40 142:5.57425 143:40 144:-2.23775 145:-2.17275 146:-9.05375 147:3.53625 148:40 149:5.96125 150:40 151:40 152:2.75825 153:7.14025 154:0.62725 155:-6.05275 156:4.30625 157:8.19525 158:-3.74475 159:6.15825 160:2.73225 161:0.69225 162:13.18225 163:-1.28775 164:11.21325 165:4.04625 166:10.81025 167:-0.64375 168:9.46225 169:2.26025 170:8.20325 171:9.50425 172:3.14225 173:2.02725 174:4.04425 175:4.70825 176:-1.24375 177:-1.21075 178:11.30625 179:2.03725 180:5.29725 181:7.95825 182:8.05525 183:5.02125 184:6.61825 185:2.07025 186:40 187:13.75525 188:2.63225 189:40 190:5.45825 191:14.00025 192:1.84225 193:1.68525 194:3.56625 195:4.03225 196:40 197:40 198:7.38125 199:9.23025 200:10.02325 201:3.69525 202:40 203:40 204:6.63025 205:7.43925 206:12.75825 207:2.06725 208:12.02625 209:-1.82975 210:9.31325 211:11.00925 212:7.06325 213:40 214:40 215:11.85625 216:40 217:9.90125 218:-6.20175 219:7.71925 220:40 221:5.71525 222:7.29325 223:11.00525 224:2.99825 225:-5.81975 226:8.04625 227:10.12025 228:5.98625 229:1.08625 230:40 231:7.99025 232:40 233:10.68525 234:9.92625 235:40 236:5.88625 237:11.21725 238:8.84525 239:5.71225 240:40 241:40 242:40 243:7.35825 244:8.74025 245:8.19925 246:8.92025 247:12.53525 248:40 249:11.98025 250:5.01025 251:40 252:40 253:40 254:40 255:40 256:12.32425 257:40 258:40 259:40 260:40 261:40 262:40 263:14.55525 264:40 265:40 266:40 267:40 268:40 269:40 270:40 271:40 272:3.29525 273:40 274:40 275:40 276:40 277:40 278:11.54725 279:40 280:40 281:40 282:7.28425 283:40 284:40 285:40 286:40 287:4.43825 288:1.75125 289:6.80925 290:40 291:9.50925 292:14.39725 293:13.95825 294:8.64025 295:10.84325 296:40 297:40 298:40 299:13.67025 300:12.10625 301:12.66825 302:13.10725 303:3.52225 304:40 305:40 306:40 307:12.48525 308:-0.50275 309:7.51425 310:9.29325 311:7.14425 312:40 313:40 314:12.06825 315:2.09725 316:8.55325 317:5.12925 318:40 319:40 320:7.01825 321:-1.21575 322:40 323:5.95625 324:14.67125 325:11.74325 326:6.62325 327:6.83025 328:5.74425 329:40 330:1.48925 331:40 332:15.02825 333:9.45225 334:14.42225 335:0.51825 336:6.56825 337:40 338:40 339:10.14925 340:1.26425 341:10.53825 342:40 343:40 344:40 345:5.75125 346:40 347:40 348:40 349:40 350:1.73125 351:7.65025 352:5.66425 353:40 354:40 355:7.53425 356:40 357:40 358:40 359:40 360:12.98225 361:-1.13575 362:10.53725 363:8.30425 364:40 365:40 366:40 367:40 368:7.65025 369:40 370:40 371:40 372:3.21225 373:40 374:40 375:40 376:40 377:40 378:40 379:5.75625 380:40 381:40 382:40 384:7.85525 
0.1748046875 1:14.81475 2:6.47775 3:5.96375 4:10.51775 5:40 6:4.18475 7:9.07175 8:40 9:7.17675 10:11.21075 11:8.06875 12:8.01275 13:8.07375 14:1.02275 15:-5.95725 16:-6.31025 17:3.20975 18:14.27275 19:-0.34925 20:-6.34825 21:-4.50925 22:-0.87025 23:-1.69325 24:4.03075 25:12.10975 26:40 27:-6.05125 28:-1.71825 29:1.16075 30:2.01575 31:-2.84725 32:-0.15025 33:0.10275 34:3.52375 35:7.88275 36:7.83075 37:0.54475 38:10.70775 39:4.39275 40:0.43375 41:-0.40125 42:6.27175 43:12.14175 44:40 45:-0.69825 46:10.75075 47:-3.99725 48:-2.80525 49:11.54475 50:40 51:40 52:14.88575 53:6.02175 54:10.71675 55:3.27875 56:7.67975 57:40 58:-6.35325 59:40 60:-1.57325 61:18.07775 62:-0.44125 63:40 64:14.86675 65:7.23075 66:3.80475 67:-6.02425 68:0.99175 69:40 70:3.95875 71:40 72:40 73:-1.60925 74:2.81075 75:1.55975 76:1.06875 77:10.65375 78:5.60475 79:7.49375 80:40 81:40 82:40 83:7.87575 84:2.09075 85:-1.76425 86:5.18675 87:0.63975 88:9.24175 89:0.93975 90:4.93575 91:2.90375 92:5.73375 93:-6.84625 94:8.40375 95:-2.18125 96:40 97:2.89275 98:4.29375 99:40 100:-2.50325 101:0.39975 102:40 103:8.17875 104:8.16375 105:40 106:18.83875 107:9.64675 108:40 109:6.01175 110:0.75275 111:-1.14425 112:17.76275 113:40 114:40 115:-5.73125 116:1.49375 117:15.90475 118:5.16175 119:1.73675 120:3.10075 121:3.38175 122:15.01675 123:2.32675 124:40 125:7.47475 126:-1.48125 127:12.09875 128:18.65975 129:11.86875 130:15.49375 131:40 132:6.15475 133:9.84075 134:6.43975 135:40 136:4.32775 137:10.34775 138:12.34875 139:10.55475 140:10.04875 141:40 142:6.00775 143:40 144:-2.15325 145:-3.93825 146:-11.20525 147:1.66375 148:40 149:17.02975 150:40 151:40 152:4.91775 153:8.17875 154:11.11975 155:-1.81525 156:12.04375 157:13.13275 158:-4.11125 159:4.46975 160:3.01275 161:1.41675 162:40 163:-0.59025 164:9.17875 165:9.71675 166:40 167:1.04575 168:14.96875 169:1.48275 170:7.23675 171:12.08275 172:2.25675 173:14.05475 174:3.16475 175:2.72275 176:2.90275 177:-0.61925 178:40 179:1.35175 180:4.35875 181:10.84375 182:40 183:5.50075 184:11.86275 185:9.92275 186:16.05875 187:14.09275 188:2.61675 189:40 190:12.41375 191:40 192:2.35175 193:3.40375 194:3.20575 195:0.28375 196:40 197:40 198:8.71575 199:40 200:10.65875 201:3.82775 202:40 203:18.83375 204:2.80375 205:6.47875 206:9.21275 207:4.13575 208:16.89775 209:4.81175 210:16.69275 211:6.77075 212:4.31175 213:40 214:40 215:40 216:40 217:16.84775 218:-4.91825 219:7.60275 220:40 221:5.71575 222:40 223:18.04775 224:-0.24425 225:-5.13625 226:7.94175 227:40 228:7.26675 229:6.07475 230:40 231:7.32575 232:40 233:40 234:40 235:40 236:8.16075 237:10.63275 238:6.55075 239:4.31675 240:40 241:40 242:40 243:11.74675 244:17.38475 245:18.17575 246:10.48775 247:40 248:40 249:40 250:7.10475 251:40 252:40 253:40 254:40 255:40 256:14.89775 257:40 258:40 259:40 260:40 261:40 262:40 263:40 264:40 265:40 266:40 267:40 268:40 269:40 270:40 271:40 272:40 273:40 274:40 275:40 276:40 277:40 278:40 279:40 280:40 281:40 282:9.50075 283:40 284:40 285:40 286:40 287:4.99475 288:1.45575 289:2.56775 290:17.34675 291:40 292:14.89075 293:40 294:7.64675 295:12.76875 296:40 297:40 298:40 299:40 300:17.72475 301:13.42075 302:40 303:7.74575 304:40 305:40 306:40 307:40 308:-0.10025 309:6.59275 310:15.55875 311:7.75775 312:40 313:40 314:40 315:-0.33525 316:7.98175 317:3.41375 318:40 319:40 320:8.87275 321:3.87875 322:40 323:7.74475 324:40 325:9.90975 326:9.92475 327:13.91675 328:11.06975 329:40 330:1.28575 331:40 332:11.82175 333:9.29875 334:40 335:1.79575 336:6.13475 337:40 338:40 339:40 340:0.74875 341:10.76775 342:40 343:40 344:40 345:14.08675 346:40 347:40 348:40 349:40 350:-0.32125 351:11.12575 352:6.50975 353:40 354:13.77675 355:6.30075 356:40 357:16.56975 358:40 359:40 360:18.25875 361:6.68275 362:16.30775 363:12.12175 364:40 365:40 366:40 367:40 368:18.18275 369:40 370:40 371:40 372:0.24775 373:40 374:40 375:40 376:40 377:40 378:40 379:6.66975 380:40 381:40 382:40 384:14.43675 
0.1748046875 1:12.013125 2:3.012125 3:3.825125 4:5.424125 5:40 6:2.954125 7:12.269125 8:20.534125 9:6.818125 10:16.245125 11:7.517125 12:7.395125 13:8.285125 14:0.753125 15:-3.203875 16:-4.238875 17:3.504125 18:14.271125 19:0.313125 20:-5.447875 21:-3.006875 22:0.956125 23:-1.610875 24:2.658125 25:11.776125 26:40 27:-4.859875 28:-1.247875 29:-0.384875 30:1.255125 31:-1.017875 32:-1.025875 33:-0.575875 34:1.935125 35:7.089125 36:7.553125 37:-1.096875 38:10.189125 39:3.103125 40:-0.013875 41:-1.098875 42:8.340125 43:8.161125 44:40 45:0.271125 46:13.462125 47:-2.993875 48:-1.099875 49:6.949125 50:40 51:40 52:8.721125 53:5.513125 54:5.341125 55:2.550125 56:3.120125 57:40 58:-4.552875 59:40 60:-1.277875 61:14.562125 62:-6.868875 63:40 64:12.393125 65:5.328125 66:-0.681875 67:-4.418875 68:4.168125 69:40 70:4.659125 71:40 72:40 73:1.168125 74:2.858125 75:0.276125 76:4.216125 77:12.930125 78:8.615125 79:8.859125 80:12.086125 81:40 82:40 83:7.496125 84:3.743125 85:-0.276875 86:5.123125 87:0.475125 88:7.298125 89:-0.421875 90:5.196125 91:2.826125 92:4.409125 93:-4.744875 94:6.995125 95:-1.040875 96:40 97:-1.112875 98:4.169125 99:40 100:-2.163875 101:-0.075875 102:40 103:40 104:7.393125 105:13.156125 106:14.896125 107:7.730125 108:19.039125 109:6.812125 110:1.545125 111:-0.083875 112:40 113:40 114:10.804125 115:-4.537875 116:-3.645875 117:11.874125 118:-0.191875 119:-2.405875 120:2.594125 121:3.474125 122:14.947125 123:2.512125 124:40 125:5.528125 126:-0.822875 127:9.814125 128:7.531125 129:7.157125 130:7.782125 131:13.839125 132:1.892125 133:5.612125 134:6.288125 135:40 136:1.632125 137:4.372125 138:13.126125 139:11.188125 140:8.334125 141:12.446125 142:4.134125 143:13.324125 144:-1.475875 145:-3.079875 146:-8.586875 147:2.641125 148:40 149:9.411125 150:40 151:40 152:3.663125 153:7.314125 154:15.224125 155:-2.439875 156:40 157:40 158:-3.283875 159:10.522125 160:2.884125 161:1.178125 162:40 163:-0.250875 164:16.308125 165:9.851125 166:40 167:-0.020875 168:12.551125 169:2.554125 170:9.120125 171:11.900125 172:3.912125 173:10.777125 174:3.242125 175:4.522125 176:1.036125 177:0.126125 178:16.315125 179:0.260125 180:4.139125 181:7.219125 182:12.509125 183:6.060125 184:2.676125 185:17.116125 186:40 187:40 188:6.468125 189:40 190:40 191:40 192:1.333125 193:1.248125 194:-0.087875 195:5.283125 196:40 197:40 198:16.279125 199:40 200:40 201:7.809125 202:40 203:16.323125 204:7.904125 205:8.314125 206:7.735125 207:3.787125 208:10.197125 209:3.349125 210:8.498125 211:40 212:9.412125 213:10.398125 214:40 215:40 216:40 217:18.377125 218:-4.472875 219:6.307125 220:40 221:4.527125 222:7.340125 223:6.734125 224:-2.997875 225:-4.686875 226:12.838125 227:40 228:9.916125 229:4.765125 230:40 231:10.738125 232:40 233:13.293125 234:40 235:40 236:5.683125 237:40 238:9.692125 239:7.698125 240:40 241:40 242:16.662125 243:13.811125 244:20.672125 245:20.436125 246:8.403125 247:40 248:40 249:40 250:5.167125 251:40 252:40 253:40 254:40 255:40 256:40 257:40 258:40 259:40 260:40 261:40 262:40 263:40 264:40 265:40 266:40 267:40 268:40 269:40 270:40 271:40 272:19.476125 273:40 274:40 275:40 276:40 277:40 278:40 279:40 280:40 281:40 282:40 283:40 284:40 285:40 286:40 287:3.952125 288:1.950125 289:7.099125 290:40 291:12.509125 292:40 293:40 294:8.642125 295:40 296:40 297:40 298:40 299:40 300:11.171125 301:40 302:11.091125 303:8.095125 304:40 305:40 306:40 307:40 308:-1.410875 309:7.188125 310:15.700125 311:7.680125 312:40 313:40 314:19.285125 315:1.824125 316:9.443125 317:5.154125 318:40 319:40 320:8.786125 321:12.150125 322:40 323:8.698125 324:15.263125 325:8.822125 326:14.482125 327:11.980125 328:9.539125 329:40 330:2.031125 331:40 332:16.348125 333:17.898125 334:14.928125 335:1.003125 336:6.842125 337:40 338:40 339:40 340:1.198125 341:40 342:40 343:40 344:40 345:6.667125 346:40 347:40 348:40 349:40 350:-4.322875 351:12.952125 352:7.634125 353:40 354:40 355:9.730125 356:40 357:40 358:40 359:40 360:40 361:40 362:10.850125 363:6.581125 364:19.506125 365:40 366:40 367:40 368:40 369:40 370:40 371:40 372:5.252125 373:40 374:40 375:40 376:40 377:40 378:40 379:5.474125 380:40 381:16.519125 382:40 384:18.790125 
0.1748046875 1:40 2:6.156875 3:7.652875 4:16.148875 5:40 6:4.368875 7:11.137875 8:40 9:4.766875 10:40 11:6.437875 12:6.202875 13:6.953875 14:3.614875 15:-6.006125 16:-6.495125 17:5.144875 18:16.244875 19:0.447875 20:-5.622125 21:-2.349125 22:-0.441125 23:-0.533125 24:8.313875 25:11.029875 26:40 27:-5.808125 28:-0.509125 29:2.037875 30:4.346875 31:-1.263125 32:1.832875 33:-0.993125 34:4.147875 35:6.035875 36:6.067875 37:-0.958125 38:7.091875 39:4.083875 40:1.755875 41:1.028875 42:9.065875 43:6.977875 44:40 45:0.510875 46:40 47:-3.142125 48:-1.449125 49:8.811875 50:40 51:40 52:40 53:5.746875 54:10.558875 55:3.823875 56:8.778875 57:40 58:-6.732125 59:40 60:-0.616125 61:40 62:-0.990125 63:40 64:40 65:3.638875 66:3.850875 67:-6.223125 68:2.266875 69:40 70:5.222875 71:40 72:40 73:0.053875 74:3.912875 75:1.288875 76:-0.331125 77:7.510875 78:2.607875 79:13.450875 80:5.615875 81:10.670875 82:40 83:40 84:3.948875 85:-0.282125 86:3.061875 87:0.273875 88:3.532875 89:1.062875 90:3.809875 91:4.042875 92:8.148875 93:-8.040125 94:40 95:-2.846125 96:40 97:3.378875 98:5.280875 99:40 100:-4.040125 101:0.931875 102:40 103:40 104:7.700875 105:16.675875 106:40 107:40 108:40 109:6.092875 110:-0.066125 111:-3.202125 112:40 113:40 114:40 115:-6.343125 116:0.474875 117:13.795875 118:6.243875 119:1.139875 120:0.078875 121:2.898875 122:12.835875 123:0.815875 124:40 125:9.947875 126:-0.401125 127:40 128:1.243875 129:4.357875 130:0.633875 131:40 132:2.845875 133:8.890875 134:9.639875 135:40 136:2.753875 137:8.660875 138:10.267875 139:40 140:40 141:40 142:4.683875 143:40 144:-0.542125 145:-6.533125 146:-9.485125 147:4.361875 148:40 149:15.387875 150:40 151:40 152:5.433875 153:10.552875 154:8.150875 155:-2.630125 156:13.538875 157:15.128875 158:-6.635125 159:5.660875 160:1.950875 161:2.681875 162:40 163:1.629875 164:40 165:10.194875 166:40 167:0.883875 168:8.242875 169:2.941875 170:5.428875 171:40 172:0.333875 173:40 174:4.058875 175:-0.929125 176:1.163875 177:-1.368125 178:40 179:0.405875 180:6.481875 181:40 182:40 183:6.988875 184:40 185:7.380875 186:40 187:40 188:1.989875 189:40 190:6.932875 191:40 192:3.377875 193:2.380875 194:3.127875 195:0.576875 196:40 197:40 198:9.096875 199:40 200:7.813875 201:3.391875 202:40 203:40 204:3.754875 205:5.611875 206:14.197875 207:4.243875 208:40 209:2.247875 210:7.227875 211:8.779875 212:3.631875 213:40 214:40 215:40 216:40 217:40 218:-3.513125 219:11.254875 220:40 221:1.680875 222:40 223:40 224:-3.092125 225:-6.883125 226:9.912875 227:40 228:6.949875 229:3.521875 230:40 231:6.710875 232:40 233:8.993875 234:40 235:40 236:5.099875 237:10.044875 238:9.074875 239:8.048875 240:40 241:40 242:40 243:10.273875 244:40 245:40 246:10.193875 247:40 248:40 249:40 250:40 251:40 252:40 253:40 254:40 255:40 256:40 257:40 258:40 259:40 260:40 261:40 262:40 263:40 264:40 265:40 266:40 267:40 268:40 269:40 270:40 271:40 272:1.694875 273:14.474875 274:40 275:40 276:40 277:40 278:40 279:40 280:40 281:40 282:3.113875 283:40 284:40 285:40 286:40 287:5.509875 288:1.756875 289:3.366875 290:40 291:40 292:40 293:40 294:12.139875 295:40 296:40 297:40 298:40 299:11.365875 300:40 301:40 302:40 303:40 304:40 305:40 306:40 307:40 308:-1.803125 309:6.667875 310:40 311:8.361875 312:40 313:40 314:40 315:-0.216125 316:8.196875 317:6.403875 318:40 319:40 320:40 321:-0.844125 322:40 323:9.949875 324:15.008875 325:2.550875 326:8.298875 327:7.465875 328:40 329:40 330:1.203875 331:40 332:40 333:40 334:40 335:0.796875 336:5.042875 337:40 338:40 339:40 340:1.278875 341:40 342:40 343:40 344:16.662875 345:10.987875 346:40 347:40 348:40 349:40 350:2.118875 351:40 352:4.018875 353:40 354:40 355:40 356:40 357:40 358:40 359:40 360:17.180875 361:2.638875 362:40 363:9.512875 364:10.847875 365:40 366:40 367:40 368:40 369:40 370:40 371:40 372:0.284875 373:40 374:40 375:40 376:40 377:40 378:40 379:5.186875 380:40 381:40 382:40 384:16.329875 
0.1748046875 1:40 2:6.24425 3:4.32525 4:3.87025 5:40 6:2.63125 7:40 8:40 9:6.97625 10:40 11:4.93825 12:4.85925 13:8.95825 14:2.36125 15:-5.13075 16:-5.86175 17:2.99725 18:10.48325 19:-0.35375 20:-6.05375 21:-3.53275 22:-1.33175 23:0.19825 24:10.19525 25:10.85225 26:40 27:-4.45775 28:-1.13775 29:0.93825 30:2.02225 31:0.24725 32:4.82125 33:-0.53275 34:2.82525 35:4.76725 36:4.79525 37:-0.25375 38:7.67125 39:4.97025 40:0.33425 41:-0.14975 42:5.46825 43:40 44:40 45:4.38525 46:40 47:-3.05775 48:-2.38475 49:6.74225 50:40 51:40 52:16.41125 53:6.63825 54:14.91725 55:4.05125 56:2.57225 57:40 58:-6.05575 59:40 60:-0.94675 61:8.99125 62:-0.93075 63:40 64:40 65:2.90925 66:3.97625 67:-5.15975 68:3.19625 69:40 70:5.49825 71:40 72:40 73:1.67625 74:4.19525 75:2.96825 76:1.90225 77:8.81525 78:4.70125 79:40 80:7.97225 81:40 82:40 83:6.99225 84:3.13025 85:0.23525 86:2.80325 87:0.73425 88:8.14525 89:-1.00975 90:4.54925 91:2.81625 92:4.24125 93:-5.80075 94:40 95:-1.07875 96:40 97:2.95725 98:5.64025 99:12.96825 100:-2.39475 101:1.36025 102:40 103:40 104:8.62125 105:16.67725 106:40 107:5.16625 108:12.89725 109:3.63125 110:-0.88575 111:-1.50775 112:40 113:40 114:7.47625 115:-5.59875 116:-0.11775 117:14.81425 118:2.39225 119:0.67125 120:5.28225 121:2.66325 122:12.18225 123:0.79825 124:40 125:7.44925 126:-0.08575 127:9.99225 128:14.42925 129:15.56525 130:6.80925 131:40 132:4.33925 133:4.65425 134:6.00425 135:40 136:2.44525 137:7.82825 138:40 139:40 140:40 141:40 142:6.42325 143:40 144:-0.14675 145:-4.52375 146:-7.76175 147:4.65325 148:40 149:10.15625 150:40 151:40 152:2.80225 153:9.75025 154:40 155:-4.25975 156:40 157:40 158:-5.16475 159:7.62625 160:1.95025 161:4.63125 162:40 163:0.42125 164:16.62125 165:9.21125 166:40 167:0.45125 168:40 169:2.35525 170:40 171:40 172:1.66925 173:40 174:3.84225 175:1.89925 176:0.87325 177:-1.19675 178:14.19125 179:1.40525 180:6.23025 181:6.79625 182:7.92725 183:40 184:7.45925 185:40 186:40 187:40 188:3.15625 189:40 190:40 191:40 192:2.28725 193:1.65925 194:3.76025 195:3.41425 196:40 197:40 198:5.77725 199:40 200:40 201:8.24025 202:40 203:40 204:5.31825 205:5.81625 206:40 207:2.83625 208:40 209:0.72425 210:12.73925 211:40 212:4.31725 213:40 214:40 215:40 216:40 217:40 218:-4.32775 219:10.66225 220:40 221:3.18825 222:40 223:40 224:-1.65575 225:-6.64275 226:12.63525 227:40 228:9.78825 229:1.72425 230:40 231:7.22025 232:40 233:40 234:40 235:40 236:5.67225 237:40 238:7.35325 239:10.38525 240:40 241:40 242:40 243:40 244:40 245:10.80825 246:6.30725 247:12.40425 248:40 249:40 250:40 251:40 252:40 253:40 254:40 255:40 256:40 257:40 258:40 259:40 260:40 261:40 262:40 263:40 264:40 265:40 266:40 267:40 268:40 269:40 270:40 271:40 272:12.94225 273:40 274:40 275:40 276:40 277:40 278:40 279:40 280:40 281:40 282:12.55325 283:40 284:40 285:40 286:40 287:4.81925 288:2.47025 289:3.60725 290:40 291:40 292:40 293:40 294:40 295:9.94625 296:40 297:40 298:40 299:40 300:40 301:40 302:40 303:40 304:40 305:40 306:40 307:9.02525 308:-1.19275 309:15.57925 310:9.65725 311:10.14525 312:40 313:40 314:11.42625 315:2.14125 316:7.33325 317:6.65425 318:40 319:40 320:15.38325 321:9.99425 322:40 323:6.88825 324:40 325:10.69425 326:40 327:9.88225 328:6.53325 329:40 330:2.20225 331:40 332:40 333:40 334:40 335:0.36725 336:7.07625 337:40 338:40 339:40 340:1.00625 341:10.27425 342:40 343:40 344:40 345:6.98225 346:40 347:40 348:40 349:40 350:0.53725 351:40 352:5.16325 353:40 354:40 355:40 356:40 357:40 358:40 359:40 360:40 361:40 362:40 363:10.00125 364:40 365:40 366:40 367:40 368:11.68725 369:40 370:40 371:40 372:2.89625 373:40 374:40 375:40 376:40 377:40 378:40 379:7.56525 380:40 381:40 382:16.92425 384:40 
0.1748046875 1:10.4455 2:5.1105 3:4.1845 4:6.4175 5:40 6:2.9455 7:9.3895 8:40 9:6.2575 10:16.0545 11:6.0575 12:5.9235 13:13.8475 14:2.0315 15:-5.1405 16:-6.4045 17:1.7195 18:9.7635 19:-2.7015 20:-7.0405 21:-5.6115 22:-2.1185 23:-1.4795 24:6.5655 25:12.5335 26:40 27:-6.0195 28:-2.0205 29:-1.1945 30:-0.8065 31:-1.2915 32:0.6195 33:2.0395 34:3.6665 35:5.9255 36:5.8585 37:0.2065 38:13.1135 39:3.7025 40:0.9535 41:-0.1245 42:3.3955 43:10.6555 44:40 45:3.5695 46:11.1255 47:-3.2855 48:-3.0665 49:11.0055 50:40 51:40 52:10.6535 53:5.3565 54:6.4145 55:1.9005 56:5.0985 57:40 58:-6.5715 59:40 60:-1.3185 61:14.7485 62:-0.1105 63:40 64:13.3635 65:3.6355 66:4.0565 67:-5.9755 68:1.9475 69:40 70:3.6135 71:40 72:40 73:0.4505 74:2.5325 75:0.0815 76:2.0095 77:8.9615 78:3.8965 79:8.3845 80:7.4595 81:18.2055 82:40 83:5.8405 84:2.8145 85:-0.6785 86:3.2575 87:-1.0765 88:7.5885 89:-1.0095 90:3.6915 91:2.9615 92:3.9645 93:-7.1275 94:40 95:-2.5765 96:40 97:1.1705 98:2.6985 99:40 100:-3.4875 101:0.8725 102:40 103:40 104:5.6955 105:13.2155 106:17.7195 107:9.9885 108:17.2415 109:6.2075 110:0.0025 111:-2.8215 112:40 113:40 114:17.2375 115:-6.2505 116:0.1045 117:17.4535 118:3.2265 119:2.6725 120:3.6275 121:0.2405 122:14.8885 123:1.1595 124:40 125:7.4155 126:-0.7965 127:11.3295 128:11.2005 129:7.3105 130:4.7805 131:10.5625 132:3.8615 133:5.1765 134:10.1715 135:40 136:3.2065 137:7.9615 138:14.0755 139:40 140:40 141:40 142:5.6655 143:12.4755 144:-2.0245 145:-4.5945 146:-9.8705 147:3.2985 148:40 149:7.1985 150:40 151:40 152:3.2465 153:4.4585 154:15.1125 155:-3.6635 156:40 157:40 158:-2.5795 159:10.0405 160:2.6725 161:1.8475 162:15.4675 163:0.3155 164:13.1565 165:8.8895 166:40 167:2.1855 168:10.0455 169:0.5755 170:7.4235 171:7.4595 172:1.2215 173:14.1505 174:1.3545 175:2.4845 176:0.1655 177:-1.4635 178:11.7575 179:1.6605 180:3.1435 181:7.2865 182:11.8225 183:7.9515 184:8.8565 185:40 186:40 187:40 188:3.6265 189:40 190:40 191:18.4375 192:0.6255 193:0.8225 194:3.9865 195:0.8255 196:40 197:40 198:7.6195 199:40 200:8.2265 201:3.6665 202:40 203:11.6625 204:4.3535 205:5.2375 206:9.1505 207:3.5355 208:40 209:8.2405 210:7.0105 211:9.7915 212:4.2665 213:12.2775 214:40 215:40 216:40 217:40 218:-5.7825 219:7.4305 220:40 221:1.7915 222:11.3605 223:40 224:0.3425 225:-5.4875 226:11.3285 227:40 228:10.3785 229:1.5185 230:40 231:5.8465 232:40 233:8.8955 234:40 235:40 236:4.3025 237:8.9685 238:5.8445 239:4.1945 240:40 241:40 242:40 243:40 244:40 245:40 246:6.5425 247:40 248:40 249:40 250:6.7555 251:40 252:40 253:40 254:9.2515 255:40 256:6.1935 257:40 258:40 259:40 260:40 261:40 262:40 263:13.7835 264:12.1725 265:40 266:40 267:40 268:40 269:40 270:40 271:11.3855 272:11.9635 273:14.0155 274:40 275:40 276:40 277:40 278:40 279:40 280:40 281:40 282:12.4275 283:40 284:40 285:19.0215 286:40 287:4.3225 288:1.9215 289:3.5295 290:40 291:40 292:40 293:40 294:5.8845 295:10.8895 296:40 297:40 298:40 299:40 300:40 301:7.9605 302:40 303:8.1585 304:40 305:40 306:40 307:40 308:-1.4095 309:7.1365 310:40 311:16.5275 312:40 313:40 314:40 315:-0.9965 316:11.7135 317:3.6795 318:40 319:40 320:6.9655 321:10.3385 322:40 323:6.3815 324:10.7485 325:5.2305 326:13.7675 327:6.6015 328:6.3995 329:40 330:0.5485 331:40 332:8.9495 333:40 334:8.7375 335:-0.0125 336:4.3845 337:40 338:40 339:18.0825 340:0.8325 341:10.7535 342:40 343:40 344:40 345:8.4395 346:40 347:40 348:40 349:40 350:4.3345 351:8.0065 352:4.0115 353:40 354:40 355:7.3715 356:40 357:13.8145 358:40 359:40 360:40 361:40 362:11.1515 363:5.2055 364:40 365:40 366:40 367:40 368:40 369:40 370:40 371:40 372:0.7645 373:40 374:40 375:40 376:40 377:40 378:40 379:6.5155 380:40 381:40 382:40 384:15.0485 
0.1748046875 1:11.336625 2:5.438625 3:5.080625 4:6.077625 5:40 6:4.929625 7:6.517625 8:40 9:8.285625 10:11.855625 11:7.497625 12:7.115625 13:40 14:3.856625 15:-5.117375 16:-6.562375 17:2.457625 18:12.298625 19:-1.484375 20:-6.610375 21:-5.503375 22:-1.319375 23:-1.634375 24:10.086625 25:40 26:40 27:-5.683375 28:-1.980375 29:-0.436375 30:-0.144375 31:-1.568375 32:-0.102375 33:0.956625 34:3.668625 35:7.709625 36:6.945625 37:-0.674375 38:6.833625 39:2.482625 40:0.959625 41:-0.517375 42:7.992625 43:10.785625 44:40 45:2.753625 46:14.242625 47:-3.771375 48:-2.730375 49:12.327625 50:40 51:40 52:10.319625 53:8.024625 54:8.278625 55:2.789625 56:6.126625 57:40 58:-6.546375 59:40 60:-0.877375 61:40 62:-1.690375 63:40 64:16.755625 65:5.177625 66:3.131625 67:-5.137375 68:2.046625 69:40 70:4.523625 71:40 72:40 73:0.594625 74:2.973625 75:-0.046375 76:-0.104375 77:6.969625 78:4.097625 79:7.869625 80:17.652625 81:40 82:40 83:14.827625 84:3.238625 85:-0.529375 86:3.983625 87:-0.680375 88:8.551625 89:-0.962375 90:3.472625 91:0.956625 92:2.238625 93:-7.228375 94:7.743625 95:-2.153375 96:40 97:1.183625 98:3.168625 99:40 100:-3.094375 101:1.055625 102:40 103:40 104:8.707625 105:40 106:40 107:40 108:40 109:5.869625 110:0.896625 111:-2.784375 112:40 113:40 114:14.176625 115:-5.500375 116:-0.303375 117:40 118:3.389625 119:1.330625 120:6.223625 121:1.015625 122:40 123:1.430625 124:40 125:9.440625 126:-1.057375 127:12.498625 128:13.673625 129:40 130:11.554625 131:15.168625 132:3.706625 133:5.831625 134:7.867625 135:40 136:3.219625 137:6.093625 138:11.227625 139:40 140:40 141:40 142:3.532625 143:40 144:-2.240375 145:-4.781375 146:-10.058375 147:3.413625 148:40 149:6.974625 150:40 151:40 152:4.413625 153:7.274625 154:11.827625 155:-4.288375 156:40 157:40 158:-3.237375 159:9.188625 160:2.320625 161:2.644625 162:40 163:-0.073375 164:9.982625 165:14.662625 166:40 167:1.491625 168:12.970625 169:1.323625 170:12.409625 171:9.715625 172:1.199625 173:11.947625 174:2.436625 175:2.354625 176:1.505625 177:-1.671375 178:15.432625 179:1.079625 180:3.825625 181:8.057625 182:10.397625 183:9.166625 184:8.477625 185:15.145625 186:40 187:40 188:3.935625 189:40 190:8.006625 191:16.082625 192:2.083625 193:1.523625 194:2.253625 195:0.408625 196:40 197:10.517625 198:40 199:40 200:40 201:2.860625 202:40 203:40 204:4.130625 205:7.088625 206:9.127625 207:3.710625 208:40 209:5.692625 210:9.302625 211:11.722625 212:4.963625 213:9.913625 214:40 215:40 216:40 217:40 218:-5.222375 219:7.810625 220:40 221:2.577625 222:40 223:40 224:-0.930375 225:-5.601375 226:11.903625 227:40 228:11.278625 229:1.137625 230:11.580625 231:7.472625 232:40 233:12.538625 234:40 235:40 236:4.155625 237:16.091625 238:7.200625 239:3.398625 240:40 241:40 242:40 243:40 244:40 245:40 246:9.064625 247:40 248:40 249:40 250:16.351625 251:40 252:40 253:40 254:40 255:40 256:8.624625 257:40 258:40 259:40 260:40 261:40 262:40 263:15.425625 264:13.157625 265:40 266:40 267:40 268:40 269:40 270:40 271:40 272:40 273:12.846625 274:40 275:40 276:40 277:40 278:40 279:40 280:40 281:40 282:10.522625 283:40 284:40 285:40 286:40 287:5.261625 288:4.124625 289:3.625625 290:40 291:40 292:40 293:40 294:7.879625 295:12.601625 296:40 297:40 298:40 299:12.622625 300:40 301:15.278625 302:40 303:40 304:40 305:40 306:40 307:40 308:-1.659375 309:5.700625 310:40 311:7.669625 312:40 313:40 314:40 315:-0.603375 316:6.509625 317:4.855625 318:17.930625 319:40 320:40 321:8.608625 322:40 323:7.568625 324:16.277625 325:5.941625 326:40 327:6.878625 328:6.389625 329:40 330:0.765625 331:40 332:9.700625 333:40 334:7.401625 335:1.161625 336:6.236625 337:40 338:40 339:17.369625 340:1.366625 341:12.320625 342:40 343:40 344:40 345:8.379625 346:40 347:40 348:40 349:40 350:2.271625 351:9.631625 352:5.223625 353:40 354:40 355:7.546625 356:40 357:40 358:40 359:40 360:40 361:40 362:13.352625 363:8.859625 364:40 365:40 366:40 367:40 368:40 369:40 370:40 371:40 372:1.137625 373:40 374:40 375:40 376:40 377:40 378:40 379:11.498625 380:40 381:40 382:40 384:40 
0.1748046875 1:40 2:7.86975 3:5.48575 4:6.79575 5:40 6:4.49775 7:9.20275 8:40 9:14.38775 10:40 11:5.20575 12:5.15775 13:11.54975 14:4.02075 15:-3.02825 16:-6.58825 17:1.96475 18:14.51375 19:-2.29625 20:-7.03625 21:-5.38625 22:-1.78925 23:-2.35625 24:6.25775 25:40 26:40 27:-5.43025 28:-1.76525 29:0.24275 30:1.20575 31:-1.11125 32:0.28675 33:0.70475 34:4.67375 35:5.38575 36:5.11275 37:0.17275 38:8.27975 39:3.18775 40:1.62975 41:0.50075 42:40 43:40 44:40 45:5.55575 46:40 47:-4.28125 48:-3.41725 49:40 50:40 51:40 52:11.13275 53:5.65575 54:6.91475 55:2.30975 56:7.35375 57:40 58:-6.67225 59:40 60:-1.44325 61:40 62:-0.92525 63:40 64:40 65:5.57075 66:5.00375 67:-5.09125 68:1.01675 69:40 70:3.20575 71:40 72:40 73:-0.21525 74:0.98175 75:0.61475 76:0.78275 77:8.87075 78:3.04775 79:40 80:40 81:40 82:40 83:8.12475 84:2.61275 85:-0.34625 86:4.46775 87:0.29075 88:12.54275 89:-0.73025 90:3.64975 91:4.35875 92:4.37675 93:-8.30325 94:40 95:-1.99925 96:40 97:0.87575 98:3.07275 99:40 100:-0.81325 101:-0.70125 102:40 103:40 104:5.99675 105:14.69575 106:16.77975 107:8.00175 108:40 109:3.42375 110:-0.42825 111:-3.15025 112:40 113:40 114:40 115:-5.70225 116:1.27975 117:12.17075 118:4.06775 119:3.28975 120:6.81175 121:1.93175 122:40 123:0.12575 124:40 125:4.49275 126:-0.54225 127:5.08375 128:40 129:40 130:8.40275 131:10.02775 132:1.90575 133:6.57675 134:6.76075 135:40 136:3.59975 137:14.59475 138:12.74975 139:40 140:40 141:40 142:10.80675 143:40 144:-2.18225 145:-3.35025 146:-9.26825 147:2.55175 148:40 149:7.89475 150:40 151:40 152:3.87175 153:6.17975 154:11.84775 155:-4.37225 156:40 157:40 158:-3.55525 159:13.06375 160:2.33475 161:0.92175 162:17.23675 163:-1.11025 164:40 165:11.05875 166:40 167:2.62675 168:40 169:-0.10025 170:40 171:6.63475 172:0.55275 173:40 174:2.45275 175:4.38475 176:1.20475 177:0.79275 178:40 179:1.93775 180:4.77275 181:9.65475 182:11.48175 183:9.82275 184:9.33875 185:40 186:40 187:40 188:3.26875 189:40 190:40 191:14.16075 192:2.82175 193:4.11275 194:3.36575 195:1.31575 196:40 197:40 198:40 199:40 200:6.58075 201:4.10475 202:40 203:40 204:5.53475 205:6.53875 206:7.74775 207:2.03575 208:40 209:7.48175 210:9.96775 211:16.43975 212:2.67175 213:40 214:40 215:40 216:40 217:40 218:-3.67925 219:40 220:40 221:5.33875 222:40 223:9.40575 224:-0.49425 225:-6.32725 226:40 227:40 228:40 229:2.86975 230:40 231:9.40375 232:40 233:40 234:40 235:40 236:4.08275 237:40 238:6.44175 239:7.48175 240:40 241:40 242:40 243:40 244:40 245:40 246:7.82875 247:40 248:40 249:40 250:10.39475 251:40 252:40 253:40 254:40 255:40 256:40 257:40 258:40 259:40 260:40 261:40 262:40 263:40 264:40 265:40 266:40 267:40 268:40 269:40 270:40 271:40 272:40 273:40 274:40 275:40 276:40 277:40 278:40 279:40 280:40 281:40 282:11.44875 283:40 284:40 285:40 286:40 287:6.17075 288:3.39275 289:4.75475 290:40 291:8.02875 292:40 293:40 294:6.77175 295:10.26075 296:40 297:40 298:40 299:40 300:40 301:40 302:40 303:40 304:40 305:40 306:40 307:40 308:-2.39925 309:6.22875 310:40 311:40 312:40 313:40 314:40 315:0.42475 316:8.18475 317:4.15675 318:40 319:40 320:7.33975 321:9.27775 322:40 323:6.41775 324:14.45575 325:5.29675 326:40 327:7.18575 328:6.12875 329:40 330:0.47375 331:40 332:40 333:40 334:10.37775 335:1.25875 336:4.74575 337:40 338:40 339:40 340:0.50775 341:40 342:40 343:40 344:40 345:10.70975 346:40 347:40 348:40 349:40 350:9.84175 351:5.51675 352:4.44275 353:40 354:40 355:9.62775 356:40 357:12.76275 358:40 359:40 360:40 361:40 362:40 363:8.23575 364:40 365:40 366:40 367:40 368:1.62075 369:40 370:40 371:40 372:1.15675 373:40 374:40 375:40 376:40 377:40 378:40 379:10.61675 380:10.17175 381:40 382:40 384:40 
0.1748046875 1:12.733 2:5.554 3:4.29 4:6.896 5:40 6:3.239 7:7.221 8:40 9:6.995 10:40 11:10.007 12:10.074 13:15.013 14:4.409 15:-4.578 16:-6.641 17:2.048 18:12.955 19:-2.233 20:-6.833 21:-0.705 22:-1.629 23:-1.271 24:7.085 25:40 26:40 27:-4.699 28:-2.425 29:-0.672 30:0.051 31:-1.142 32:0.298 33:1.048 34:3.749 35:10.878 36:11.519 37:0.475 38:10.164 39:2.982 40:1.06 41:-0.054 42:2.211 43:40 44:40 45:1.703 46:13.19 47:-4.12 48:-3.357 49:14.349 50:40 51:40 52:13.846 53:4.85 54:6.67 55:2.203 56:4.552 57:40 58:-6.761 59:40 60:-1.624 61:40 62:-2.504 63:11.328 64:13.153 65:3.487 66:2.808 67:-5.383 68:1.105 69:40 70:4.976 71:40 72:40 73:0.616 74:2.362 75:-0.052 76:0.163 77:6.183 78:3.011 79:7.657 80:7.402 81:16.838 82:40 83:8.078 84:2.95 85:-0.344 86:3.451 87:-0.733 88:7.445 89:-1.06 90:4.452 91:3.865 92:4.068 93:-6.996 94:7.812 95:-1.965 96:40 97:0.584 98:3.937 99:40 100:-2.535 101:0.328 102:40 103:40 104:7.809 105:11.042 106:10.518 107:7.532 108:11.981 109:6.703 110:-0.49 111:-3.265 112:40 113:40 114:7.342 115:-6.469 116:-1.03 117:40 118:2.286 119:1.543 120:3.665 121:0.644 122:40 123:1.355 124:40 125:7.066 126:0.376 127:9.288 128:12.318 129:9.798 130:4.565 131:11.401 132:2.159 133:8.539 134:8.259 135:40 136:3.807 137:11.683 138:12.332 139:10.221 140:40 141:40 142:5.037 143:40 144:-2.123 145:-4.985 146:-9.547 147:1.955 148:40 149:6.798 150:40 151:40 152:3.135 153:6.531 154:13.047 155:-3.619 156:40 157:40 158:-3.742 159:10.104 160:2.045 161:1.424 162:40 163:-0.721 164:6.903 165:11.177 166:40 167:1.134 168:40 169:1.176 170:40 171:9.423 172:1 173:40 174:2.628 175:2.822 176:-0.346 177:-1.271 178:40 179:0.399 180:4.253 181:7.457 182:40 183:6.391 184:7.301 185:40 186:40 187:40 188:3.062 189:40 190:40 191:40 192:1.154 193:1.634 194:1.293 195:1.417 196:40 197:40 198:8.396 199:40 200:40 201:2.537 202:40 203:40 204:4.668 205:5.037 206:7.888 207:2.848 208:40 209:8.827 210:8.334 211:13.95 212:2.742 213:40 214:40 215:13.047 216:40 217:40 218:-5.355 219:10.259 220:40 221:2.683 222:40 223:9.354 224:-2.145 225:-6.529 226:14.865 227:40 228:14.554 229:1.049 230:40 231:6.855 232:40 233:40 234:40 235:40 236:4.182 237:14.394 238:6.904 239:8.981 240:40 241:40 242:40 243:40 244:17.108 245:40 246:7.181 247:40 248:40 249:40 250:40 251:40 252:40 253:40 254:40 255:40 256:40 257:40 258:40 259:40 260:40 261:40 262:40 263:40 264:40 265:40 266:40 267:40 268:40 269:40 270:40 271:40 272:40 273:13.977 274:40 275:40 276:40 277:40 278:40 279:40 280:40 281:40 282:11.697 283:40 284:40 285:40 286:40 287:4.01 288:2.263 289:3.396 290:40 291:40 292:40 293:40 294:9.178 295:13.529 296:40 297:40 298:40 299:40 300:40 301:14.464 302:40 303:14.125 304:40 305:40 306:40 307:12.16 308:-1.121 309:6.362 310:40 311:11.001 312:40 313:40 314:40 315:-0.502 316:10.246 317:4.629 318:40 319:40 320:40 321:11.171 322:40 323:5.472 324:12.335 325:6.13 326:40 327:6.409 328:7.859 329:40 330:1.047 331:40 332:8.578 333:40 334:9.669 335:0.389 336:5.317 337:40 338:40 339:40 340:0.414 341:11.399 342:40 343:40 344:40 345:8.208 346:40 347:40 348:40 349:40 350:0.647 351:7.764 352:2.904 353:40 354:40 355:10.352 356:40 357:40 358:40 359:40 360:40 361:40 362:9.516 363:6.234 364:40 365:40 366:40 367:40 368:40 369:40 370:40 371:40 372:1.584 373:40 374:40 375:40 376:40 377:40 378:40 379:11.575 380:40 381:40 382:40 384:40 
0.1748046875 1:10.931125 2:5.643125 3:3.862125 4:2.686125 5:40 6:4.529125 7:10.406125 8:40 9:4.673125 10:40 11:5.878125 12:5.735125 13:10.897125 14:1.995125 15:-4.701875 16:-4.640875 17:3.500125 18:13.934125 19:-0.440875 20:-5.922875 21:-3.286875 22:0.754125 23:-1.536875 24:8.397125 25:12.400125 26:40 27:-5.232875 28:-1.795875 29:0.226125 30:2.250125 31:-1.189875 32:0.434125 33:0.073125 34:2.201125 35:5.732125 36:5.652125 37:0.698125 38:8.164125 39:5.378125 40:-0.687875 41:-2.109875 42:7.997125 43:40 44:40 45:4.926125 46:40 47:-3.895875 48:-1.842875 49:11.767125 50:40 51:40 52:13.467125 53:4.916125 54:6.751125 55:2.590125 56:4.375125 57:40 58:-4.972875 59:40 60:-0.342875 61:17.747125 62:3.388125 63:40 64:13.301125 65:5.222125 66:4.729125 67:-4.771875 68:1.495125 69:40 70:3.953125 71:40 72:40 73:-0.337875 74:2.318125 75:1.922125 76:1.696125 77:10.289125 78:4.925125 79:40 80:40 81:40 82:40 83:9.546125 84:4.899125 85:0.094125 86:4.014125 87:0.119125 88:7.812125 89:-1.967875 90:4.905125 91:3.680125 92:2.812125 93:-5.529875 94:40 95:-0.542875 96:40 97:2.218125 98:3.976125 99:40 100:-3.118875 101:0.740125 102:40 103:40 104:6.483125 105:13.520125 106:11.856125 107:40 108:40 109:4.603125 110:0.863125 111:0.058125 112:40 113:40 114:10.999125 115:-4.170875 116:2.137125 117:14.129125 118:3.530125 119:4.629125 120:6.314125 121:4.108125 122:40 123:2.061125 124:40 125:4.826125 126:-1.589875 127:8.384125 128:40 129:12.950125 130:7.389125 131:13.119125 132:4.099125 133:12.889125 134:40 135:40 136:3.832125 137:8.478125 138:40 139:40 140:40 141:40 142:6.913125 143:40 144:-1.570875 145:-4.207875 146:-8.863875 147:2.652125 148:40 149:10.266125 150:40 151:40 152:4.361125 153:7.236125 154:16.769125 155:-3.948875 156:40 157:40 158:-4.182875 159:6.875125 160:2.835125 161:1.409125 162:40 163:-0.468875 164:16.341125 165:10.112125 166:40 167:0.527125 168:40 169:1.533125 170:6.504125 171:40 172:2.600125 173:9.328125 174:3.801125 175:5.372125 176:3.037125 177:-0.299875 178:40 179:1.458125 180:3.224125 181:11.305125 182:40 183:7.417125 184:9.173125 185:40 186:40 187:40 188:2.769125 189:40 190:8.508125 191:40 192:2.042125 193:2.708125 194:5.034125 195:2.271125 196:40 197:40 198:9.313125 199:40 200:40 201:4.477125 202:40 203:40 204:4.568125 205:6.951125 206:15.948125 207:2.844125 208:40 209:3.356125 210:40 211:17.582125 212:4.343125 213:40 214:40 215:18.122125 216:40 217:40 218:-4.448875 219:7.179125 220:40 221:5.534125 222:40 223:40 224:1.935125 225:-4.948875 226:8.727125 227:40 228:12.030125 229:4.125125 230:40 231:7.743125 232:40 233:40 234:40 235:40 236:6.064125 237:13.507125 238:7.052125 239:4.020125 240:40 241:40 242:40 243:40 244:40 245:40 246:8.059125 247:40 248:40 249:40 250:8.603125 251:40 252:40 253:40 254:40 255:40 256:40 257:40 258:40 259:40 260:40 261:40 262:40 263:40 264:40 265:40 266:40 267:40 268:40 269:40 270:40 271:40 272:16.555125 273:40 274:40 275:40 276:40 277:40 278:40 279:40 280:40 281:40 282:14.585125 283:40 284:40 285:40 286:40 287:5.422125 288:3.315125 289:3.214125 290:40 291:8.182125 292:40 293:16.458125 294:9.017125 295:11.822125 296:40 297:40 298:40 299:11.838125 300:40 301:40 302:13.308125 303:40 304:40 305:40 306:40 307:40 308:0.731125 309:6.955125 310:40 311:7.437125 312:40 313:40 314:40 315:1.129125 316:9.895125 317:4.441125 318:40 319:40 320:40 321:11.204125 322:40 323:9.207125 324:40 325:9.611125 326:9.764125 327:8.426125 328:5.877125 329:40 330:2.275125 331:40 332:10.040125 333:15.561125 334:10.052125 335:0.211125 336:5.553125 337:40 338:40 339:40 340:1.671125 341:10.415125 342:40 343:40 344:40 345:8.690125 346:40 347:40 348:40 349:40 350:3.960125 351:7.968125 352:7.357125 353:40 354:40 355:8.391125 356:40 357:40 358:40 359:40 360:40 361:40 362:14.648125 363:10.894125 364:40 365:40 366:40 367:40 368:40 369:40 370:40 371:40 372:1.721125 373:40 374:40 375:40 376:40 377:40 378:40 379:5.903125 380:40 381:40 382:18.578125 384:40 
0.1748046875 1:6.40575 2:9.79775 3:3.06075 4:1.56075 5:40 6:3.24175 7:8.12075 8:40 9:3.03075 10:9.84575 11:6.57975 12:6.28875 13:40 14:1.21075 15:-5.90325 16:-4.37225 17:5.14775 18:40 19:-1.85125 20:-7.15125 21:-4.05725 22:0.94775 23:-3.93425 24:1.65375 25:40 26:40 27:-6.82925 28:-3.94225 29:-1.16325 30:1.40575 31:-3.90925 32:-1.27425 33:0.16375 34:1.43075 35:6.58775 36:6.44775 37:1.37575 38:40 39:6.07875 40:-3.18125 41:-3.64225 42:9.53475 43:7.12975 44:40 45:-0.49325 46:40 47:-6.82225 48:-1.34325 49:40 50:40 51:40 52:11.22875 53:1.27375 54:6.95675 55:2.27075 56:8.19175 57:40 58:-4.54125 59:40 60:-1.58025 61:40 62:-0.02125 63:40 64:8.50775 65:5.86875 66:3.83375 67:-5.82225 68:0.34575 69:40 70:2.88175 71:40 72:40 73:-2.79425 74:-0.70025 75:-1.63025 76:0.07175 77:9.80675 78:3.73475 79:40 80:7.44875 81:14.11575 82:40 83:7.23475 84:4.46375 85:-0.82625 86:4.40075 87:2.15275 88:9.24875 89:-3.41125 90:5.00875 91:2.51775 92:2.17375 93:-8.08625 94:40 95:-1.92825 96:40 97:-0.61025 98:1.26875 99:40 100:-4.40625 101:-1.74325 102:40 103:40 104:4.38675 105:15.22875 106:12.77675 107:7.31475 108:40 109:3.79675 110:0.92775 111:-1.09225 112:40 113:40 114:40 115:-4.68225 116:2.41175 117:15.83675 118:2.71075 119:1.69175 120:0.42675 121:2.38375 122:40 123:1.11175 124:40 125:4.89175 126:-0.15625 127:10.28675 128:15.27375 129:11.09675 130:10.37775 131:14.83075 132:3.80875 133:8.68375 134:3.25575 135:40 136:3.42775 137:9.15775 138:13.09275 139:40 140:40 141:40 142:6.06475 143:16.13775 144:-2.94925 145:-4.81125 146:-9.67525 147:0.37375 148:40 149:8.65975 150:40 151:40 152:3.98975 153:7.42875 154:7.95675 155:-6.14625 156:8.41475 157:8.58575 158:-7.15925 159:2.78775 160:2.04075 161:1.81875 162:40 163:-2.39725 164:40 165:12.68875 166:40 167:-0.24025 168:9.65575 169:-1.08425 170:2.84775 171:40 172:3.14675 173:7.75475 174:2.43575 175:3.60175 176:2.62375 177:-0.48625 178:40 179:-0.37825 180:4.63175 181:9.61775 182:8.87875 183:8.26775 184:11.68675 185:6.52875 186:40 187:40 188:2.82175 189:40 190:9.61675 191:40 192:0.82275 193:2.52675 194:2.44675 195:0.27075 196:40 197:40 198:40 199:40 200:7.02375 201:0.02575 202:40 203:40 204:0.85475 205:3.62675 206:12.62975 207:0.47675 208:10.63675 209:3.02975 210:11.65775 211:9.28575 212:2.00875 213:40 214:40 215:40 216:40 217:40 218:-4.91925 219:6.51975 220:40 221:5.35775 222:40 223:40 224:-3.05225 225:-6.52725 226:13.70675 227:40 228:5.88375 229:5.22075 230:40 231:7.49475 232:40 233:15.03175 234:40 235:40 236:6.67775 237:40 238:5.40475 239:3.59775 240:40 241:40 242:40 243:40 244:10.98975 245:40 246:7.71275 247:40 248:40 249:13.77775 250:5.59675 251:40 252:40 253:40 254:7.14575 255:40 256:40 257:40 258:40 259:40 260:40 261:40 262:40 263:40 264:40 265:40 266:40 267:40 268:40 269:40 270:40 271:40 272:40 273:40 274:40 275:40 276:40 277:40 278:40 279:40 280:40 281:40 282:7.28075 283:40 284:40 285:40 286:40 287:5.67275 288:0.66075 289:3.69475 290:40 291:10.49275 292:40 293:40 294:6.99075 295:10.36975 296:40 297:40 298:40 299:40 300:11.90575 301:40 302:40 303:8.11875 304:40 305:40 306:40 307:10.05875 308:0.76375 309:4.81675 310:40 311:7.80075 312:40 313:40 314:40 315:-1.21325 316:10.00075 317:4.08475 318:40 319:40 320:40 321:3.49875 322:40 323:12.56075 324:40 325:11.62775 326:5.90075 327:40 328:5.06775 329:40 330:3.51975 331:40 332:40 333:40 334:40 335:-1.24025 336:6.89975 337:40 338:40 339:40 340:1.23275 341:40 342:40 343:40 344:40 345:13.38375 346:40 347:40 348:40 349:40 350:0.21575 351:9.28575 352:8.39175 353:40 354:40 355:4.84675 356:40 357:40 358:40 359:40 360:40 361:3.18675 362:16.33875 363:7.93875 364:40 365:40 366:40 367:40 368:11.30675 369:40 370:40 371:40 372:0.13575 373:40 374:40 375:40 376:40 377:40 378:40 379:4.63275 380:40 381:14.15775 382:40 384:10.50475 
0.1748046875 1:2.867125 2:3.376125 3:2.693125 4:-0.334875 5:40 6:1.371125 7:5.549125 8:9.137125 9:5.492125 10:13.668125 11:5.711125 12:5.443125 13:2.226125 14:-0.019875 15:-6.657875 16:-4.987875 17:2.207125 18:4.697125 19:-1.359875 20:-7.070875 21:-4.743875 22:-0.283875 23:-3.630875 24:0.558125 25:3.220125 26:13.925125 27:-4.993875 28:-2.518875 29:-1.493875 30:-0.156875 31:-1.933875 32:-0.499875 33:1.477125 34:2.432125 35:5.429125 36:5.074125 37:1.133125 38:6.916125 39:6.122125 40:-2.284875 41:-2.410875 42:5.565125 43:8.067125 44:7.918125 45:3.311125 46:9.403125 47:-5.227875 48:-2.019875 49:8.204125 50:40 51:40 52:6.157125 53:0.790125 54:4.964125 55:1.669125 56:-0.787875 57:40 58:-5.528875 59:40 60:-2.560875 61:5.015125 62:-2.326875 63:40 64:12.170125 65:5.293125 66:0.548125 67:-5.562875 68:1.601125 69:40 70:3.130125 71:40 72:40 73:-1.096875 74:1.392125 75:2.289125 76:0.096125 77:4.496125 78:7.063125 79:6.190125 80:11.417125 81:13.979125 82:40 83:9.033125 84:1.560125 85:-0.615875 86:2.736125 87:1.507125 88:7.899125 89:-2.518875 90:2.720125 91:2.364125 92:3.526125 93:-4.945875 94:7.711125 95:-1.074875 96:40 97:1.551125 98:3.450125 99:40 100:-2.545875 101:1.493125 102:40 103:9.178125 104:1.554125 105:7.063125 106:40 107:7.491125 108:8.016125 109:4.986125 110:-0.038875 111:1.442125 112:40 113:40 114:14.156125 115:-4.813875 116:2.470125 117:12.837125 118:3.451125 119:0.708125 120:5.364125 121:4.570125 122:10.135125 123:-0.978875 124:40 125:4.477125 126:-2.025875 127:7.621125 128:5.403125 129:5.334125 130:4.439125 131:8.958125 132:4.637125 133:5.004125 134:6.376125 135:40 136:0.727125 137:4.716125 138:4.250125 139:40 140:40 141:40 142:4.455125 143:40 144:-2.486875 145:-1.411875 146:-9.285875 147:1.853125 148:40 149:4.665125 150:40 151:40 152:2.335125 153:6.815125 154:0.839125 155:-6.553875 156:3.738125 157:6.415125 158:-3.055875 159:5.426125 160:2.550125 161:0.322125 162:12.687125 163:-1.465875 164:10.502125 165:3.915125 166:40 167:-0.485875 168:8.508125 169:0.310125 170:6.312125 171:10.038125 172:3.876125 173:3.827125 174:2.982125 175:4.886125 176:-2.192875 177:-0.896875 178:7.668125 179:2.341125 180:5.372125 181:7.491125 182:9.452125 183:3.484125 184:4.243125 185:3.607125 186:40 187:13.853125 188:2.563125 189:40 190:6.810125 191:8.655125 192:1.502125 193:1.317125 194:2.557125 195:2.512125 196:10.032125 197:12.311125 198:6.381125 199:40 200:10.271125 201:2.772125 202:10.414125 203:7.506125 204:5.110125 205:6.453125 206:10.648125 207:1.882125 208:13.579125 209:-1.877875 210:9.972125 211:8.673125 212:6.026125 213:40 214:12.979125 215:9.420125 216:40 217:13.149125 218:-7.556875 219:6.824125 220:40 221:6.600125 222:40 223:9.677125 224:3.910125 225:-5.072875 226:6.055125 227:40 228:5.087125 229:0.555125 230:11.509125 231:7.010125 232:40 233:10.052125 234:40 235:7.719125 236:6.430125 237:10.087125 238:7.478125 239:3.687125 240:12.223125 241:40 242:40 243:7.361125 244:8.779125 245:8.115125 246:7.467125 247:40 248:40 249:40 250:4.379125 251:40 252:40 253:40 254:9.973125 255:40 256:40 257:40 258:40 259:40 260:40 261:40 262:12.289125 263:40 264:13.669125 265:40 266:40 267:40 268:40 269:40 270:40 271:40 272:5.196125 273:14.833125 274:40 275:40 276:40 277:40 278:12.143125 279:40 280:40 281:14.574125 282:7.631125 283:40 284:40 285:40 286:40 287:3.756125 288:1.456125 289:6.095125 290:40 291:40 292:40 293:9.421125 294:8.035125 295:8.947125 296:40 297:40 298:40 299:10.051125 300:8.137125 301:13.356125 302:10.721125 303:7.861125 304:40 305:40 306:40 307:40 308:0.231125 309:7.189125 310:7.636125 311:5.693125 312:40 313:40 314:40 315:1.896125 316:8.127125 317:4.654125 318:40 319:40 320:11.626125 321:-4.651875 322:40 323:6.374125 324:40 325:11.610125 326:6.817125 327:6.118125 328:7.230125 329:40 330:0.514125 331:40 332:13.231125 333:6.376125 334:9.218125 335:0.029125 336:6.935125 337:40 338:40 339:10.282125 340:1.891125 341:8.075125 342:40 343:40 344:40 345:6.855125 346:40 347:40 348:40 349:40 350:0.024125 351:40 352:5.625125 353:40 354:40 355:6.252125 356:40 357:40 358:40 359:40 360:10.637125 361:-1.982875 362:9.097125 363:8.447125 364:12.602125 365:40 366:40 367:40 368:7.128125 369:40 370:40 371:40 372:1.486125 373:40 374:40 375:40 376:40 377:40 378:40 379:6.006125 380:40 381:14.164125 382:10.998125 384:6.495125 
0.1748046875 1:5.628 2:5.344 3:2.359 4:1.23 5:40 6:4.623 7:14.663 8:40 9:2.175 10:8.012 11:7.08 12:7.094 13:40 14:3.157 15:-6.891 16:-3.39 17:4.124 18:40 19:-1.631 20:-7.328 21:-3.589 22:0.841 23:-4.025 24:0.487 25:40 26:40 27:-6.119 28:-4.141 29:-0.67 30:1.461 31:-4.134 32:-1.857 33:1.259 34:1.764 35:7.139 36:7.141 37:1.487 38:5.185 39:5.45 40:-2.902 41:-3.456 42:0.694 43:10.979 44:40 45:-1.895 46:40 47:-7.545 48:-0.944 49:8.839 50:40 51:40 52:10.411 53:3.12 54:4.609 55:2.601 56:40 57:40 58:-3.671 59:40 60:-1.71 61:40 62:-0.533 63:13.036 64:13.644 65:9.538 66:3.347 67:-5.225 68:1.083 69:40 70:2.192 71:40 72:40 73:-3.122 74:3.172 75:-0.785 76:2.879 77:10.134 78:3.04 79:12.322 80:5.808 81:40 82:40 83:40 84:6.774 85:-1.388 86:4.556 87:2.987 88:4.874 89:-3.276 90:5.08 91:4.712 92:4.917 93:-7.493 94:40 95:-1.745 96:40 97:-0.376 98:2.08 99:40 100:-4.647 101:-1.253 102:40 103:6.082 104:5.719 105:40 106:40 107:6.917 108:40 109:1.512 110:0.748 111:0.341 112:40 113:40 114:8.9 115:-3.884 116:1.316 117:40 118:1.494 119:2.302 120:-0.423 121:2.039 122:13.233 123:3.511 124:40 125:40 126:0.223 127:40 128:10.463 129:7.813 130:5.976 131:40 132:3.815 133:9.694 134:4.342 135:40 136:4.682 137:7.182 138:11.894 139:13.63 140:40 141:40 142:2.888 143:40 144:-1.814 145:-4.421 146:-8.387 147:3.02 148:40 149:8.478 150:40 151:40 152:3.564 153:9.428 154:6.895 155:-6.902 156:4.98 157:6.864 158:-6.724 159:3.286 160:2.856 161:2.957 162:40 163:-2.77 164:4.947 165:11.642 166:40 167:0.82 168:40 169:-1.187 170:4.153 171:40 172:3.459 173:10.102 174:3.383 175:3.977 176:2.329 177:0.53 178:40 179:-0.179 180:3.63 181:5.416 182:10.285 183:40 184:9.738 185:5.482 186:11.077 187:40 188:5.684 189:40 190:7.218 191:40 192:1.124 193:1.833 194:-0.73 195:1.339 196:40 197:40 198:11.933 199:40 200:16.134 201:-1.396 202:15.515 203:40 204:0.077 205:5.415 206:10.003 207:0.285 208:40 209:8.399 210:8.514 211:40 212:5.26 213:40 214:40 215:13.016 216:40 217:40 218:-5.95 219:5.26 220:40 221:4.886 222:40 223:40 224:-3.755 225:-6.263 226:11.858 227:40 228:3.441 229:5.968 230:40 231:6.034 232:40 233:40 234:40 235:40 236:8.716 237:40 238:7.403 239:2.179 240:40 241:40 242:40 243:40 244:9.412 245:40 246:6.067 247:40 248:40 249:40 250:3.73 251:40 252:40 253:40 254:40 255:40 256:15.079 257:40 258:40 259:40 260:40 261:40 262:40 263:40 264:40 265:40 266:40 267:40 268:40 269:40 270:40 271:40 272:40 273:40 274:40 275:40 276:40 277:40 278:40 279:40 280:40 281:40 282:6.996 283:40 284:40 285:40 286:40 287:6.248 288:0.263 289:5.001 290:40 291:40 292:40 293:40 294:10.628 295:11.769 296:40 297:40 298:40 299:40 300:40 301:40 302:40 303:7.606 304:40 305:40 306:40 307:11.674 308:2.155 309:5.105 310:40 311:5.062 312:40 313:40 314:40 315:-1.424 316:7.351 317:5.136 318:40 319:40 320:40 321:1.924 322:40 323:13.904 324:40 325:11.295 326:5.591 327:12.472 328:6.475 329:40 330:4.159 331:40 332:40 333:40 334:40 335:-2.546 336:7.235 337:40 338:40 339:40 340:3.049 341:40 342:40 343:40 344:40 345:11.884 346:40 347:40 348:40 349:40 350:-1.044 351:9.474 352:9.71 353:40 354:40 355:4.253 356:40 357:40 358:40 359:40 360:15.513 361:1.283 362:40 363:8.895 364:40 365:40 366:40 367:40 368:11.986 369:40 370:40 371:40 372:0.758 373:40 374:40 375:40 376:40 377:40 378:40 379:4.078 380:40 381:40 382:40 384:8.727 
-0.25 1:40 2:8.122875 3:4.951875 4:9.370875 5:40 6:3.667875 7:12.199875 8:40 9:7.638875 10:40 11:3.956875 12:3.904875 13:5.568875 14:3.982875 15:-4.635125 16:-4.471125 17:4.897875 18:7.517875 19:-0.873125 20:-6.834125 21:-1.782125 22:1.646875 23:-1.767125 24:3.751875 25:3.647875 26:40 27:-6.345125 28:-0.387125 29:0.739875 30:3.430875 31:1.648875 32:1.951875 33:-0.945125 34:4.507875 35:3.985875 36:3.912875 37:0.096875 38:40 39:6.012875 40:1.060875 41:-0.078125 42:5.656875 43:40 44:40 45:4.242875 46:40 47:-3.635125 48:-0.709125 49:40 50:9.102875 51:40 52:9.066875 53:3.567875 54:5.286875 55:3.676875 56:1.156875 57:40 58:-4.636125 59:40 60:-0.678125 61:40 62:1.326875 63:40 64:40 65:3.047875 66:3.129875 67:-5.421125 68:3.166875 69:40 70:4.241875 71:40 72:40 73:0.916875 74:0.899875 75:4.981875 76:-1.411125 77:4.090875 78:0.230875 79:7.461875 80:10.764875 81:40 82:40 83:40 84:0.956875 85:-0.886125 86:0.803875 87:1.433875 88:6.153875 89:0.076875 90:4.022875 91:2.578875 92:3.062875 93:-7.403125 94:40 95:-2.324125 96:40 97:4.761875 98:3.975875 99:40 100:-3.481125 101:2.313875 102:40 103:40 104:2.528875 105:10.288875 106:11.555875 107:40 108:6.264875 109:4.805875 110:-0.088125 111:-1.529125 112:40 113:40 114:40 115:-6.547125 116:1.898875 117:40 118:3.467875 119:1.364875 120:8.564875 121:3.826875 122:8.134875 123:-2.167125 124:40 125:40 126:0.012875 127:40 128:40 129:40 130:2.191875 131:7.349875 132:4.501875 133:5.776875 134:40 135:8.674875 136:-0.386125 137:6.840875 138:5.537875 139:5.928875 140:40 141:40 142:6.340875 143:40 144:-0.556125 145:-3.655125 146:-9.362125 147:3.812875 148:40 149:8.088875 150:40 151:40 152:3.342875 153:7.134875 154:5.893875 155:-5.143125 156:40 157:12.273875 158:-5.181125 159:4.040875 160:1.306875 161:2.821875 162:11.071875 163:0.202875 164:10.899875 165:4.698875 166:11.586875 167:-0.176125 168:6.390875 169:3.101875 170:5.486875 171:40 172:-0.188125 173:9.004875 174:5.262875 175:1.226875 176:-1.762125 177:-2.249125 178:40 179:0.915875 180:5.261875 181:40 182:11.262875 183:5.592875 184:7.711875 185:7.160875 186:40 187:12.172875 188:0.862875 189:40 190:40 191:40 192:4.094875 193:2.464875 194:4.019875 195:1.065875 196:40 197:40 198:4.539875 199:40 200:40 201:1.866875 202:40 203:10.170875 204:5.657875 205:6.947875 206:7.394875 207:2.678875 208:40 209:-2.571125 210:10.892875 211:11.754875 212:4.138875 213:40 214:40 215:40 216:40 217:6.803875 218:-4.688125 219:4.878875 220:40 221:4.173875 222:40 223:40 224:1.152875 225:-6.422125 226:6.046875 227:40 228:5.147875 229:0.181875 230:40 231:7.190875 232:10.214875 233:6.894875 234:40 235:6.064875 236:5.336875 237:7.235875 238:7.754875 239:4.166875 240:40 241:40 242:40 243:40 244:5.346875 245:6.987875 246:14.537875 247:40 248:40 249:40 250:40 251:40 252:40 253:40 254:40 255:40 256:40 257:40 258:10.840875 259:40 260:40 261:40 262:40 263:40 264:14.182875 265:12.944875 266:40 267:11.720875 268:40 269:40 270:40 271:40 272:3.808875 273:11.085875 274:9.120875 275:40 276:40 277:40 278:40 279:40 280:14.510875 281:40 282:12.506875 283:40 284:40 285:40 286:40 287:3.901875 288:2.867875 289:3.577875 290:40 291:40 292:40 293:40 294:9.736875 295:7.942875 296:40 297:40 298:40 299:40 300:40 301:40 302:40 303:40 304:40 305:40 306:40 307:40 308:-1.671125 309:11.107875 310:5.926875 311:40 312:40 313:40 314:40 315:3.117875 316:6.599875 317:4.616875 318:40 319:40 320:40 321:4.580875 322:40 323:4.891875 324:12.553875 325:9.950875 326:5.140875 327:4.712875 328:40 329:40 330:1.887875 331:40 332:11.285875 333:8.092875 334:11.990875 335:0.172875 336:6.087875 337:40 338:40 339:40 340:1.523875 341:40 342:40 343:40 344:40 345:4.025875 346:40 347:40 348:40 349:40 350:2.605875 351:7.371875 352:2.511875 353:40 354:40 355:6.136875 356:40 357:6.338875 358:40 359:40 360:40 361:6.210875 362:40 363:7.076875 364:40 365:40 366:40 367:40 368:40 369:40 370:40 371:40 372:0.877875 373:40 374:40 375:40 376:40 377:40 378:40 379:7.646875 380:40 381:10.183875 382:10.827875 384:40 
-0.25 1:4.92075 2:3.31275 3:3.11475 4:1.81375 5:40 6:-0.52825 7:10.45175 8:11.37675 9:5.22575 10:10.74075 11:4.54775 12:4.75175 13:3.62775 14:0.70075 15:-9.27125 16:-6.90325 17:0.45275 18:2.07575 19:-3.13325 20:-9.12925 21:-6.91725 22:-2.70025 23:-3.94725 24:0.02075 25:7.44075 26:40 27:-4.50725 28:-4.92925 29:-0.90725 30:-1.59425 31:0.04175 32:1.38475 33:1.95275 34:3.13475 35:4.08075 36:4.13175 37:2.19175 38:7.81775 39:3.97875 40:-2.64725 41:-2.71725 42:6.90475 43:6.74075 44:40 45:6.12875 46:40 47:-6.98625 48:-4.35325 49:12.03175 50:40 51:11.31475 52:9.83475 53:1.35175 54:8.03975 55:-0.80825 56:-2.20725 57:40 58:-7.41625 59:40 60:-4.93525 61:5.14975 62:-0.16225 63:10.04575 64:15.43975 65:6.81975 66:2.20775 67:-5.67525 68:3.24175 69:40 70:3.64075 71:40 72:40 73:-0.64325 74:0.84775 75:2.14475 76:3.27375 77:8.27175 78:6.25175 79:6.50775 80:40 81:15.36475 82:40 83:9.46675 84:3.73375 85:0.61875 86:0.25675 87:0.48175 88:8.25875 89:-2.02725 90:3.10775 91:3.60375 92:2.49575 93:-3.20625 94:9.74875 95:-0.91725 96:40 97:2.25275 98:3.87675 99:40 100:-3.11325 101:1.98675 102:40 103:40 104:2.02375 105:9.49475 106:9.60775 107:9.04575 108:5.20975 109:7.29775 110:-2.30625 111:-0.13225 112:40 113:40 114:9.99475 115:-5.49125 116:0.12375 117:14.17075 118:4.25275 119:2.86175 120:1.93475 121:1.57275 122:9.40375 123:0.70275 124:13.62975 125:6.61975 126:-0.20525 127:8.77375 128:40 129:8.07675 130:4.79975 131:11.92975 132:4.50475 133:6.58575 134:6.28075 135:40 136:-1.16825 137:5.68475 138:3.01075 139:9.48075 140:10.60175 141:40 142:5.21875 143:14.75275 144:-0.83325 145:-2.46425 146:-8.38125 147:5.23775 148:40 149:2.07875 150:40 151:40 152:1.67775 153:8.30775 154:2.68075 155:-5.18525 156:-1.32925 157:8.09775 158:-4.70525 159:7.13875 160:0.16475 161:0.59975 162:15.61975 163:-0.69125 164:11.21575 165:4.82875 166:13.64975 167:-0.96725 168:12.45075 169:3.20875 170:8.42575 171:10.37675 172:4.29075 173:3.78175 174:5.20875 175:5.76475 176:-4.46125 177:-0.78225 178:9.90375 179:2.87375 180:6.86575 181:6.27175 182:7.85575 183:1.47275 184:6.75875 185:2.02675 186:40 187:17.23875 188:2.89075 189:40 190:16.13075 191:40 192:0.29275 193:1.87575 194:5.26675 195:3.72875 196:40 197:15.37975 198:7.81675 199:40 200:10.77475 201:3.94475 202:13.42375 203:10.73075 204:7.10575 205:7.27175 206:10.39775 207:1.18375 208:10.92975 209:-2.89425 210:16.36475 211:9.95475 212:8.60775 213:14.76275 214:15.10275 215:40 216:40 217:14.31075 218:-9.85825 219:10.15275 220:40 221:2.44275 222:9.96975 223:14.20075 224:4.88875 225:-5.85025 226:7.13575 227:40 228:3.31975 229:-2.96225 230:12.33375 231:8.94175 232:16.08575 233:40 234:40 235:40 236:7.26675 237:11.52875 238:9.43675 239:5.52275 240:40 241:40 242:11.35575 243:4.71675 244:7.22575 245:4.21075 246:4.81375 247:9.87675 248:40 249:9.91275 250:6.11475 251:40 252:40 253:40 254:11.76975 255:40 256:40 257:40 258:40 259:17.83775 260:40 261:40 262:40 263:40 264:12.88375 265:40 266:40 267:40 268:40 269:40 270:40 271:14.73975 272:14.03675 273:12.16175 274:40 275:40 276:40 277:40 278:40 279:40 280:40 281:14.70975 282:9.67575 283:40 284:40 285:40 286:40 287:1.83375 288:-0.75225 289:7.87275 290:40 291:11.56175 292:40 293:10.35975 294:7.03475 295:13.81975 296:40 297:40 298:40 299:12.72175 300:14.70575 301:12.95275 302:17.26075 303:9.00075 304:40 305:15.82375 306:40 307:12.77175 308:0.84375 309:8.34375 310:8.74975 311:5.86775 312:15.86075 313:40 314:11.73475 315:0.34475 316:10.34775 317:4.88175 318:40 319:40 320:9.29075 321:-3.60125 322:40 323:7.74275 324:40 325:10.86975 326:6.02975 327:6.32675 328:6.87675 329:40 330:-0.61625 331:40 332:15.39175 333:8.30675 334:14.11775 335:-2.04225 336:7.90975 337:40 338:40 339:40 340:2.45075 341:10.45575 342:40 343:40 344:40 345:5.64475 346:40 347:40 348:40 349:40 350:1.21875 351:8.14975 352:5.21075 353:40 354:40 355:8.56375 356:40 357:15.43875 358:40 359:40 360:11.45475 361:-2.92925 362:12.04275 363:10.07375 364:12.60875 365:40 366:40 367:40 368:10.27775 369:40 370:40 371:40 372:3.41975 373:40 374:40 375:40 376:40 377:40 378:40 379:8.17075 380:40 381:40 382:40 384:7.39575 
-0.25 1:40 2:4.58175 3:4.89675 4:13.56575 5:40 6:0.99275 7:8.27875 8:40 9:6.87175 10:40 11:6.24875 12:6.22775 13:13.61975 14:2.66375 15:-8.50725 16:-7.83225 17:1.85475 18:11.25575 19:-2.22025 20:-8.03325 21:-6.95825 22:-3.65125 23:-1.20425 24:8.01475 25:12.37075 26:40 27:-4.71225 28:-4.15625 29:-0.20225 30:-1.81225 31:-1.20925 32:1.14975 33:0.68175 34:3.10475 35:6.34975 36:6.28475 37:0.17575 38:40 39:4.17575 40:-0.51425 41:0.41475 42:40 43:11.99775 44:40 45:-0.33925 46:40 47:-5.90125 48:-4.14625 49:7.66775 50:40 51:40 52:13.52875 53:6.67175 54:7.39375 55:0.62875 56:2.90675 57:40 58:-8.03325 59:40 60:-3.59425 61:40 62:-1.67225 63:40 64:11.54175 65:5.37275 66:2.22975 67:-5.79625 68:3.10075 69:40 70:4.26575 71:40 72:40 73:0.64175 74:4.12175 75:1.63875 76:0.80975 77:9.82975 78:10.30675 79:5.96075 80:40 81:16.72275 82:40 83:13.30475 84:6.20675 85:0.60375 86:1.78575 87:0.38075 88:8.68975 89:-0.52825 90:4.22375 91:2.58575 92:5.79975 93:-4.76625 94:40 95:-2.14425 96:40 97:1.64375 98:4.20975 99:40 100:-4.89325 101:1.39375 102:40 103:40 104:7.20575 105:16.94075 106:12.69275 107:9.12575 108:10.49775 109:3.17575 110:-1.33625 111:-1.90125 112:40 113:40 114:40 115:-5.65825 116:-0.47125 117:40 118:3.77675 119:1.36775 120:0.03675 121:0.42975 122:11.91175 123:1.97775 124:40 125:7.09175 126:-0.55025 127:13.18775 128:40 129:9.90075 130:12.03775 131:40 132:3.30475 133:6.68575 134:3.71175 135:40 136:3.80375 137:8.06375 138:9.71275 139:40 140:40 141:40 142:-0.20725 143:40 144:-0.48225 145:-4.99425 146:-9.37025 147:4.99475 148:40 149:6.95775 150:40 151:40 152:2.67475 153:6.39975 154:6.88175 155:-4.95325 156:9.99975 157:10.01675 158:-5.26225 159:10.96475 160:1.52175 161:2.14475 162:40 163:0.63975 164:15.16675 165:11.78275 166:40 167:0.50975 168:9.95575 169:1.81175 170:8.38475 171:13.47775 172:3.84075 173:40 174:3.63975 175:0.70175 176:-2.25725 177:-1.43825 178:13.96875 179:2.26775 180:7.90375 181:6.17475 182:40 183:4.82575 184:9.69175 185:7.41175 186:40 187:40 188:8.53975 189:40 190:11.25675 191:40 192:0.23375 193:1.29275 194:3.38475 195:3.36875 196:40 197:40 198:40 199:40 200:15.84575 201:8.31075 202:40 203:40 204:5.50975 205:17.15575 206:40 207:3.31975 208:12.70175 209:3.49375 210:12.24575 211:40 212:8.09875 213:40 214:40 215:40 216:40 217:40 218:-8.33225 219:12.13975 220:40 221:0.39875 222:40 223:40 224:-1.61425 225:-6.56925 226:40 227:40 228:7.03775 229:2.07775 230:13.05975 231:14.38575 232:40 233:11.14775 234:40 235:40 236:8.23875 237:11.15375 238:10.16075 239:6.84975 240:40 241:40 242:10.10875 243:5.55875 244:40 245:8.00375 246:9.15375 247:12.22575 248:40 249:40 250:5.77775 251:40 252:40 253:40 254:40 255:40 256:40 257:40 258:40 259:40 260:40 261:40 262:40 263:40 264:40 265:40 266:40 267:40 268:40 269:40 270:40 271:40 272:5.31375 273:40 274:40 275:40 276:40 277:40 278:40 279:40 280:40 281:40 282:6.29275 283:40 284:40 285:40 286:40 287:3.30875 288:0.04975 289:7.33775 290:40 291:40 292:40 293:40 294:9.39275 295:15.55375 296:40 297:40 298:40 299:13.79675 300:40 301:40 302:40 303:10.07475 304:40 305:40 306:40 307:40 308:-0.95225 309:13.78075 310:40 311:6.61875 312:40 313:40 314:40 315:-0.12025 316:40 317:3.87375 318:40 319:40 320:40 321:-1.13925 322:40 323:13.56775 324:40 325:6.19575 326:10.05475 327:5.55475 328:6.89775 329:40 330:1.48675 331:40 332:40 333:40 334:40 335:-0.59525 336:6.66375 337:40 338:40 339:40 340:2.47675 341:40 342:40 343:40 344:40 345:11.81375 346:40 347:40 348:40 349:40 350:0.78075 351:40 352:4.08175 353:40 354:40 355:9.67675 356:40 357:40 358:40 359:40 360:16.17475 361:2.57975 362:40 363:11.84375 364:40 365:40 366:40 367:40 368:13.43375 369:40 370:40 371:40 372:3.21975 373:40 374:40 375:40 376:40 377:40 378:40 379:6.47975 380:40 381:40 382:40 384:14.86775 
-0.25 1:3.78375 2:3.28275 3:3.00275 4:1.69575 5:40 6:2.21375 7:5.58975 8:10.53175 9:4.32275 10:11.59675 11:6.19575 12:6.62075 13:6.13575 14:2.58375 15:-4.58525 16:-3.93425 17:2.20075 18:9.66075 19:0.43975 20:-6.87725 21:-3.26925 22:0.29175 23:-4.32525 24:-1.60325 25:1.58375 26:40 27:-4.80125 28:-1.35525 29:-0.14625 30:1.47675 31:-0.16525 32:0.41075 33:0.72875 34:4.12875 35:6.61575 36:6.38375 37:-0.19125 38:6.24675 39:3.58775 40:-1.24225 41:-0.84525 42:5.43975 43:8.28975 44:40 45:1.27975 46:11.16775 47:-2.70425 48:-1.82925 49:5.14875 50:40 51:40 52:3.08975 53:2.06775 54:3.02575 55:1.66575 56:0.14375 57:40 58:-4.04425 59:40 60:-0.70625 61:5.36975 62:-5.53925 63:40 64:13.93775 65:5.69075 66:-0.62925 67:-4.18425 68:1.05375 69:8.67075 70:2.89975 71:40 72:40 73:-0.39825 74:0.66075 75:1.02675 76:0.12675 77:2.74775 78:1.74575 79:12.28175 80:10.58775 81:40 82:40 83:6.65875 84:2.57375 85:1.06275 86:3.69475 87:0.65975 88:5.53475 89:-2.01925 90:3.32775 91:-0.47525 92:0.05075 93:-3.10125 94:7.56175 95:-0.35725 96:40 97:-0.81125 98:3.62975 99:40 100:-1.84125 101:1.11975 102:40 103:7.18075 104:2.23775 105:7.57475 106:40 107:7.57575 108:9.23375 109:5.10575 110:-0.02125 111:1.04575 112:4.51275 113:40 114:12.11475 115:-2.69125 116:-0.95025 117:9.76275 118:0.08675 119:-0.99525 120:4.68275 121:1.19075 122:40 123:-0.09925 124:9.24675 125:4.43875 126:-0.89125 127:6.06075 128:2.67275 129:3.99475 130:4.41675 131:6.25075 132:5.25875 133:3.20475 134:5.70175 135:40 136:-0.98225 137:0.88475 138:0.97975 139:9.57975 140:7.68575 141:40 142:3.15275 143:9.17975 144:-1.35825 145:-3.04425 146:-7.70725 147:1.96475 148:40 149:4.29075 150:12.33275 151:40 152:3.49375 153:7.20575 154:3.28475 155:-6.96325 156:40 157:40 158:-2.42925 159:4.06675 160:2.39175 161:2.04175 162:9.53675 163:-0.97825 164:8.08275 165:4.78775 166:40 167:1.14775 168:7.29775 169:2.74675 170:4.85375 171:5.91775 172:6.96375 173:4.02875 174:3.85975 175:5.22075 176:-1.80525 177:-0.86225 178:10.38975 179:1.68075 180:3.88075 181:7.87375 182:10.95675 183:7.10075 184:4.87275 185:12.49075 186:8.20375 187:11.99475 188:2.05175 189:40 190:14.74875 191:40 192:4.26575 193:2.37175 194:0.93775 195:2.21175 196:6.78575 197:40 198:4.38375 199:40 200:7.08075 201:0.02975 202:6.17475 203:7.24375 204:4.11275 205:5.07375 206:7.19475 207:1.79575 208:8.47475 209:-0.92125 210:8.16475 211:6.81975 212:3.18375 213:40 214:40 215:7.79875 216:40 217:40 218:-6.09625 219:5.42375 220:9.77975 221:5.65975 222:7.24975 223:5.81275 224:0.06375 225:-4.32325 226:2.79175 227:10.34375 228:3.84775 229:-0.48125 230:7.75975 231:7.13775 232:10.58975 233:40 234:40 235:40 236:5.58575 237:6.68075 238:6.69275 239:5.13075 240:8.58775 241:40 242:7.81875 243:6.36575 244:40 245:40 246:7.02075 247:40 248:40 249:40 250:3.60975 251:40 252:40 253:40 254:40 255:40 256:40 257:40 258:40 259:40 260:40 261:40 262:40 263:9.02075 264:11.12475 265:40 266:12.02175 267:40 268:40 269:40 270:40 271:40 272:8.74375 273:9.59575 274:40 275:40 276:40 277:40 278:40 279:40 280:40 281:40 282:4.04475 283:40 284:40 285:40 286:40 287:4.96875 288:0.57175 289:3.44175 290:40 291:9.36375 292:10.72575 293:40 294:8.97575 295:9.97075 296:40 297:40 298:12.25775 299:9.63775 300:10.00275 301:40 302:9.88575 303:40 304:40 305:40 306:40 307:40 308:-0.05725 309:7.58175 310:40 311:5.41875 312:9.62175 313:40 314:40 315:2.31375 316:6.73175 317:4.44975 318:40 319:40 320:40 321:5.69075 322:40 323:5.84975 324:40 325:9.07275 326:5.65975 327:6.14775 328:6.45875 329:40 330:1.90975 331:40 332:8.81075 333:40 334:6.15275 335:-0.36925 336:6.35475 337:40 338:40 339:40 340:2.26575 341:6.17475 342:40 343:40 344:40 345:1.23975 346:40 347:40 348:40 349:40 350:-1.54225 351:4.52175 352:5.95475 353:40 354:8.92675 355:6.00575 356:40 357:40 358:40 359:40 360:40 361:40 362:8.70075 363:7.21775 364:40 365:40 366:40 367:40 368:7.70875 369:40 370:40 371:40 372:0.88075 373:40 374:40 375:40 376:40 377:40 378:40 379:4.72575 380:40 381:40 382:40 384:11.53175 
-0.25 1:12.909625 2:6.613625 3:3.550625 4:4.128625 5:40 6:2.888625 7:4.222625 8:40 9:40 10:40 11:5.336625 12:5.266625 13:40 14:4.004625 15:-4.675375 16:-6.581375 17:2.758625 18:11.730625 19:-2.853375 20:-7.772375 21:-4.978375 22:-2.064375 23:-1.535375 24:12.819625 25:40 26:40 27:-6.654375 28:-1.379375 29:0.574625 30:0.720625 31:-0.126375 32:1.088625 33:2.000625 34:6.597625 35:5.291625 36:5.125625 37:0.230625 38:40 39:4.581625 40:0.606625 41:0.560625 42:40 43:40 44:40 45:4.409625 46:40 47:-3.786375 48:-3.111375 49:40 50:40 51:40 52:40 53:11.133625 54:40 55:2.438625 56:5.257625 57:40 58:-6.649375 59:40 60:-0.341375 61:40 62:-0.555375 63:40 64:40 65:3.092625 66:5.175625 67:-5.888375 68:1.502625 69:40 70:4.778625 71:40 72:40 73:2.325625 74:3.803625 75:1.229625 76:-0.821375 77:5.404625 78:0.183625 79:40 80:40 81:40 82:40 83:40 84:2.545625 85:0.627625 86:3.031625 87:-1.795375 88:40 89:0.143625 90:8.436625 91:3.740625 92:5.815625 93:-7.978375 94:40 95:-3.179375 96:40 97:0.275625 98:2.665625 99:40 100:-2.216375 101:0.565625 102:40 103:40 104:40 105:40 106:40 107:40 108:9.655625 109:40 110:0.033625 111:-3.710375 112:40 113:40 114:40 115:-7.387375 116:0.881625 117:40 118:6.728625 119:5.099625 120:40 121:0.891625 122:5.273625 123:0.570625 124:40 125:3.859625 126:-1.399375 127:4.999625 128:40 129:11.323625 130:40 131:40 132:4.547625 133:40 134:40 135:40 136:5.067625 137:4.850625 138:40 139:40 140:40 141:40 142:6.018625 143:40 144:-2.148375 145:-5.652375 146:-10.509375 147:2.666625 148:40 149:6.467625 150:40 151:40 152:3.696625 153:10.995625 154:40 155:-3.800375 156:40 157:40 158:-3.902375 159:5.963625 160:2.468625 161:3.495625 162:40 163:0.021625 164:40 165:10.236625 166:40 167:3.654625 168:40 169:-0.030375 170:40 171:40 172:-0.179375 173:40 174:1.997625 175:1.397625 176:0.302625 177:-1.868375 178:40 179:0.791625 180:3.473625 181:40 182:40 183:40 184:9.231625 185:40 186:40 187:40 188:7.945625 189:40 190:40 191:40 192:2.541625 193:1.363625 194:2.593625 195:0.244625 196:40 197:40 198:40 199:40 200:3.919625 201:4.625625 202:40 203:40 204:4.177625 205:7.223625 206:5.865625 207:1.740625 208:40 209:2.747625 210:6.601625 211:10.260625 212:1.352625 213:40 214:40 215:40 216:40 217:40 218:-4.441375 219:40 220:40 221:1.577625 222:40 223:40 224:-2.547375 225:-6.829375 226:40 227:40 228:8.892625 229:0.264625 230:40 231:4.332625 232:40 233:40 234:5.863625 235:40 236:3.761625 237:40 238:40 239:1.542625 240:40 241:40 242:40 243:40 244:40 245:40 246:6.072625 247:40 248:40 249:40 250:40 251:40 252:40 253:40 254:40 255:40 256:40 257:40 258:40 259:40 260:40 261:40 262:40 263:40 264:40 265:40 266:40 267:40 268:40 269:8.033625 270:40 271:40 272:40 273:40 274:40 275:40 276:40 277:40 278:13.146625 279:40 280:40 281:40 282:40 283:40 284:40 285:40 286:40 287:40 288:2.144625 289:2.460625 290:40 291:40 292:40 293:40 294:40 295:6.684625 296:40 297:40 298:40 299:40 300:40 301:40 302:40 303:40 304:40 305:40 306:40 307:40 308:-3.294375 309:40 310:40 311:4.639625 312:40 313:40 314:40 315:-0.183375 316:40 317:2.031625 318:40 319:40 320:7.409625 321:40 322:40 323:8.830625 324:40 325:3.442625 326:40 327:40 328:40 329:40 330:1.248625 331:40 332:40 333:40 334:7.321625 335:0.280625 336:5.444625 337:40 338:40 339:40 340:1.434625 341:40 342:40 343:40 344:40 345:7.609625 346:40 347:40 348:40 349:40 350:4.567625 351:40 352:6.583625 353:40 354:40 355:4.931625 356:40 357:40 358:40 359:40 360:40 361:40 362:11.807625 363:8.494625 364:40 365:40 366:40 367:40 368:40 369:40 370:40 371:40 372:0.139625 373:40 374:40 375:40 376:40 377:40 378:40 379:2.919625 380:40 381:40 382:8.774625 384:40 
-0.25 1:40 2:6.493 3:6.419 4:8.992 5:40 6:5.435 7:8.528 8:40 9:5.655 10:40 11:9.335 12:8.958 13:14.554 14:3.856 15:-4.414 16:-4.496 17:3.21 18:14.863 19:-0.496 20:-5.945 21:-3.334 22:0.833 23:-1.28 24:4.961 25:12.906 26:40 27:-4.886 28:-2.174 29:2.282 30:2.727 31:-1.835 32:0.137 33:0.807 34:4.29 35:9.071 36:9.004 37:0.275 38:10.859 39:4.082 40:1.008 41:-0.244 42:7.553 43:9.119 44:40 45:3.106 46:40 47:-4.291 48:-2.091 49:9.633 50:40 51:40 52:14.998 53:6.705 54:8.61 55:2.595 56:9.186 57:40 58:-4.869 59:40 60:-0.988 61:40 62:-1.294 63:11.95 64:10.092 65:8.45 66:4.045 67:-3.94 68:2.012 69:40 70:3.642 71:40 72:40 73:-0.522 74:2.005 75:0.81 76:0.878 77:8.245 78:6.17 79:40 80:40 81:40 82:40 83:7.343 84:3.928 85:0.641 86:4.497 87:0.289 88:8.509 89:0.369 90:6.083 91:2.342 92:5.285 93:-5.308 94:8.604 95:-0.131 96:40 97:2.356 98:3.945 99:40 100:-2.758 101:0.206 102:40 103:13.079 104:8.619 105:15.25 106:40 107:11.009 108:40 109:4.418 110:0.647 111:0.681 112:40 113:40 114:40 115:-3.236 116:0.363 117:40 118:2.976 119:2.243 120:6.79 121:3.699 122:40 123:1.921 124:40 125:6.078 126:-1.301 127:10.591 128:18.489 129:11.12 130:13.391 131:10.15 132:5.626 133:7.043 134:40 135:40 136:4.282 137:10.239 138:10.591 139:18.761 140:40 141:40 142:4.566 143:16.129 144:-1.902 145:-2.421 146:-8.639 147:2.989 148:40 149:8.471 150:40 151:40 152:4.495 153:7.047 154:14.375 155:-2.685 156:40 157:40 158:-4.101 159:7.255 160:2.592 161:0.927 162:17.616 163:-1.149 164:11.691 165:10.172 166:40 167:1.485 168:18.27 169:1.616 170:7.415 171:11.987 172:3.206 173:14.653 174:3.54 175:6.288 176:3.168 177:2.02 178:17.061 179:1.218 180:3.942 181:8.274 182:10.827 183:15.404 184:7.192 185:40 186:40 187:15.346 188:3.922 189:40 190:40 191:40 192:4.038 193:5.416 194:2.867 195:3.028 196:11.087 197:40 198:40 199:40 200:17.644 201:3.306 202:40 203:15.538 204:4.962 205:7.692 206:10.448 207:2.791 208:11.508 209:3.205 210:10.445 211:18.632 212:4.499 213:10.465 214:12.094 215:11.947 216:40 217:40 218:-5.291 219:8.077 220:40 221:6.541 222:40 223:40 224:1.24 225:-4.914 226:11.827 227:40 228:8.277 229:2.988 230:40 231:8.023 232:10.621 233:10.061 234:40 235:40 236:6.516 237:9.237 238:6.886 239:5.03 240:40 241:40 242:40 243:40 244:40 245:40 246:8.389 247:40 248:40 249:40 250:6.604 251:40 252:40 253:40 254:40 255:40 256:40 257:40 258:40 259:40 260:40 261:40 262:40 263:14.885 264:16.334 265:40 266:40 267:40 268:40 269:40 270:40 271:40 272:18.479 273:40 274:40 275:40 276:40 277:40 278:40 279:40 280:40 281:40 282:15.382 283:40 284:40 285:40 286:40 287:5.726 288:2.053 289:4.75 290:40 291:8.113 292:40 293:40 294:15.324 295:11.781 296:40 297:40 298:40 299:14.13 300:40 301:10.21 302:40 303:40 304:40 305:40 306:40 307:11.456 308:0.906 309:7.886 310:17.082 311:8.438 312:40 313:40 314:40 315:1.254 316:8.041 317:4.495 318:40 319:40 320:40 321:13.044 322:40 323:8.87 324:15.292 325:11.551 326:10.047 327:8.215 328:7.099 329:40 330:2.112 331:40 332:14.827 333:15.18 334:10.793 335:-0.209 336:6.869 337:40 338:40 339:40 340:1.441 341:17.372 342:40 343:40 344:40 345:9.045 346:40 347:40 348:40 349:40 350:0.949 351:8.753 352:6.87 353:40 354:11.143 355:7.18 356:40 357:13.916 358:40 359:40 360:40 361:40 362:16.322 363:7.221 364:15.264 365:40 366:40 367:40 368:40 369:40 370:40 371:40 372:2.171 373:40 374:40 375:40 376:40 377:40 378:40 379:6.857 380:40 381:40 382:17.851 384:40 
