svm_type c_svc
kernel_type rbf
gamma 0.001953
nr_class 2
total_sv 26
rho -0.103628
label 4 2
nr_sv 13 13
SV
0.7544728300894943 130:12.03775 139:40 166:40 168:9.95575 208:12.70175 228:7.03775 232:40 314:40 320:40 339:40 
0.8999545727055874 130:6.118 139:7.072 166:40 168:40 208:40 228:40 232:40 314:40 320:40 339:40 
16 130:6.29575 139:40 166:40 168:15.40375 208:40 228:4.30775 232:40 314:40 320:13.50075 339:18.22475 
0.714272648003905 130:3.275875 139:9.279875 166:40 168:8.266875 208:9.575875 228:5.073875 232:40 314:8.861875 320:8.745875 339:40 
0.7804999205237971 130:4.79975 139:9.48075 166:13.64975 168:12.45075 208:10.92975 228:3.31975 232:16.08575 314:11.73475 320:9.29075 339:40 
0.509031329939749 130:13.391 139:18.761 166:40 168:18.27 208:11.508 228:8.277 232:10.621 314:40 320:40 339:40 
0.8389297353789122 130:4.670875 139:9.975875 166:11.084875 168:10.600875 208:7.964875 228:15.982875 232:40 314:40 320:12.186875 339:40 
0.9930855852958254 130:40 139:40 166:40 168:40 208:40 228:8.892625 232:40 314:40 320:7.409625 339:40 
0.5494996050775215 130:4.41675 139:9.57975 166:40 168:7.29775 208:8.47475 228:3.84775 232:10.58975 314:40 320:40 339:40 
0.7445012851015668 130:3.80725 139:11.77525 166:40 168:6.40025 208:7.45225 228:3.90325 232:40 314:8.81925 320:40 339:40 
5.252646984048106 130:13.024125 139:40 166:40 168:6.639125 208:40 228:5.705125 232:40 314:40 320:40 339:40 
0.8679564276303328 130:2.191875 139:5.928875 166:11.586875 168:6.390875 208:40 228:5.147875 232:10.214875 314:40 320:40 339:40 
0.8686508066372701 130:40 139:40 166:40 168:40 208:40 228:40 232:40 314:40 320:40 339:40 
-1.082002877622065 130:5.351875 139:40 166:40 168:12.563875 208:9.456875 228:4.971875 232:40 314:40 320:12.550875 339:14.783875 
-0.7141187460180923 130:2.9245 139:40 166:40 168:40 208:40 228:0.5235 232:40 314:40 320:5.3885 339:40 
-0.74569245414128 130:4.304625 139:40 166:40 168:40 208:40 228:9.300625 232:40 314:40 320:40 339:40 
-0.2084555256409276 130:5.0675 139:40 166:40 168:40 208:40 228:2.0145 232:40 314:40 320:40 339:40 
-0.5276882642391943 130:8.16625 139:40 166:40 168:40 208:40 228:7.37425 232:40 314:40 320:10.57225 339:40 
-2.909811100227152 130:6.221625 139:40 166:40 168:7.639625 208:40 228:5.749625 232:40 314:40 320:7.457625 339:40 
-1.400501233694696 130:8.697375 139:40 166:40 168:40 208:40 228:5.104375 232:40 314:40 320:13.711375 339:15.303375 
-5.558448569346218 130:3.756625 139:40 166:40 168:6.520625 208:40 228:1.464625 232:40 314:40 320:40 339:40 
-0.4562901127715581 130:4.616125 139:40 166:40 168:40 208:40 228:8.113125 232:40 314:40 320:8.174125 339:17.253125 
-0.9485198102925001 130:3.714375 139:40 166:40 168:40 208:7.393375 228:4.089375 232:40 314:40 320:40 339:7.798375 
-0.02692077225800664 130:1.97 139:40 166:40 168:40 208:40 228:12.467 232:40 314:40 320:5.461 339:40 
-0.6703024806249864 130:13.269125 139:40 166:40 168:40 208:40 228:4.600125 232:40 314:40 320:40 339:8.263125 
-14.52474978355539 130:5.231875 139:40 166:40 168:13.087875 208:40 228:7.430875 232:40 314:40 320:14.084875 339:13.320875 
