svm_type c_svc
kernel_type rbf
gamma 0.125
nr_class 2
total_sv 32
rho -0.0641597
label 5 2
nr_sv 15 17
SV
0.745315750265258 6:2.17425 66:-0.49975 77:3.61225 87:1.40525 110:0.60525 133:5.61625 193:2.60125 196:8.18525 228:6.69825 284:40 
0.7063505765136239 6:3.29 66:40 77:40 87:0.768 110:-0.786 133:40 193:1.571 196:40 228:8.872 284:40 
0.7447023516758344 6:1.248375 66:-0.355625 77:5.808375 87:1.742375 110:0.142375 133:4.443375 193:1.536375 196:7.027375 228:5.692375 284:40 
0.8754872229516547 6:4.87225 66:40 77:40 87:-1.02275 110:0.18325 133:40 193:3.32325 196:40 228:12.04525 284:40 
0.9229640920096254 6:5.367875 66:3.659875 77:5.324875 87:-0.874125 110:-0.637125 133:7.182875 193:3.432875 196:40 228:5.863875 284:40 
0.8724499339358647 6:6.07375 66:3.59075 77:9.58275 87:0.25175 110:-0.25025 133:8.51475 193:5.66075 196:40 228:9.54675 284:40 
0.7961853235230227 6:2.80425 66:40 77:40 87:-0.23975 110:-0.25575 133:40 193:-0.22175 196:40 228:5.99025 284:40 
0.8285603283902121 6:3.607 66:1.667 77:5.485 87:0.232 110:-1.036 133:8.815 193:3.836 196:40 228:5.832 284:40 
0.9387687564502647 6:3.2245 66:4.3475 77:10.0115 87:-0.0975 110:-0.7285 133:10.3915 193:3.3255 196:40 228:13.4995 284:40 
0.9378937134351635 6:0.56825 66:2.75225 77:40 87:-0.46275 110:-1.23375 133:9.58325 193:0.55925 196:40 228:7.32525 284:40 
0.8786354417232159 6:5.226625 66:2.650625 77:12.864625 87:1.485625 110:-0.236375 133:11.161625 193:5.937625 196:40 228:10.166625 284:40 
0.9358359399084055 6:3.015125 66:5.440125 77:7.638125 87:-0.246875 110:-0.325875 133:8.044125 193:3.765125 196:17.186125 228:10.249125 284:14.890125 
0.9358697506655044 6:2.548 66:0.425 77:7.506 87:1.163 110:0.085 133:5.02 193:3.014 196:40 228:5.575 284:15.056 
0.9361354096008864 6:9.872875 66:40 77:40 87:0.570875 110:-0.732125 133:40 193:1.539875 196:40 228:40 284:40 
0.9361622312453308 6:3.70825 66:2.65025 77:11.61925 87:0.20325 110:-0.78075 133:40 193:3.41525 196:40 228:12.03625 284:9.82525 
-0.7469817626640146 6:2.897625 66:4.323625 77:8.109625 87:1.187625 110:0.729625 133:10.998625 193:1.358625 196:40 228:5.749625 284:40 
-1 6:1.4065 66:2.8135 77:8.3445 87:-0.2625 110:0.4735 133:40 193:1.2525 196:40 228:0.5235 284:40 
-0.8346089267955378 6:1.485125 66:3.263125 77:4.954125 87:-1.515875 110:0.387125 133:4.439125 193:-0.071875 196:40 228:8.113125 284:40 
-0.4632993468760234 6:2.259 66:4.558 77:8.062 87:0.296 110:0.526 133:8.561 193:1.575 196:40 228:7.342 284:40 
-0.7454089867063246 6:2.4955 66:2.7235 77:5.4155 87:0.2745 110:-0.4205 133:4.0435 193:3.5625 196:40 228:2.0145 284:40 
-1 6:1.835625 66:6.750625 77:40 87:0.001625 110:0.162625 133:5.781625 193:-1.797375 196:40 228:10.443625 284:40 
-0.9553478012374017 6:3.916125 66:1.843125 77:7.649125 87:0.245125 110:-0.056875 133:4.600125 193:2.082125 196:40 228:8.331125 284:40 
-0.8554522725627146 6:2.823875 66:5.051875 77:12.677875 87:-0.731125 110:-0.264125 133:10.089875 193:0.462875 196:40 228:9.861875 284:40 
-0.6165282518522295 6:2.68725 66:3.12325 77:12.93925 87:0.40425 110:0.20425 133:8.74125 193:1.60725 196:40 228:7.37425 284:40 
-0.5682565724228226 6:1.186625 66:2.735625 77:11.319625 87:0.266625 110:-0.341375 133:8.044625 193:0.037625 196:40 228:9.300625 284:40 
-0.5921866369309007 6:2.799375 66:2.492375 77:7.814375 87:0.871375 110:0.097375 133:3.799375 193:2.000375 196:40 228:4.089375 284:40 
-0.5408116357010954 6:2.052875 66:3.559875 77:10.789875 87:-1.269125 110:-0.197125 133:7.427875 193:-0.407125 196:40 228:7.430875 284:40 
-0.811921129408947 6:4.069375 66:4.332375 77:7.813375 87:-0.915625 110:-0.194625 133:8.728375 193:1.115375 196:40 228:5.104375 284:40 
-1 6:1.91 66:2.991 77:5.042 87:-2.128 110:-0.458 133:4.295 193:1.996 196:40 228:12.467 284:40 
-0.5774466268647618 6:2.116625 66:2.791625 77:7.291625 87:-0.383375 110:0.313625 133:4.055625 193:1.634625 196:40 228:1.464625 284:40 
-1 6:3.598125 66:2.243125 77:12.091125 87:0.254125 110:-1.111875 133:9.933125 193:4.656125 196:40 228:4.600125 284:40 
-0.6830668722710932 6:1.643875 66:4.045875 77:5.957875 87:-0.732125 110:-0.012125 133:5.702875 193:0.184875 196:40 228:4.971875 284:40 
