svm_type c_svc
kernel_type rbf
gamma 0.001953
nr_class 2
total_sv 29
rho 0.40238
label 1 4
nr_sv 15 14
SV
0.25 31:-1.9345 38:6.5005 86:4.6815 117:40 144:-2.2695 181:7.3805 229:2.8925 232:40 238:3.2055 309:5.5735 
0.25 31:0.277875 38:7.321875 86:2.490875 117:9.791875 144:-1.583125 181:7.116875 229:0.842875 232:40 238:7.345875 309:5.990875 
0.25 31:-2.048125 38:14.978875 86:3.476875 117:11.316875 144:-2.883125 181:7.259875 229:0.013875 232:40 238:6.091875 309:6.164875 
0.25 31:-0.316625 38:8.214375 86:3.738375 117:8.900375 144:-0.700625 181:8.656375 229:1.679375 232:40 238:4.257375 309:5.961375 
0.25 31:-2.991 38:9.055 86:5.34 117:11.725 144:-3.104 181:7.214 229:6.143 232:40 238:9.483 309:6.851 
0.003261354548672115 31:-1.01675 38:7.27825 86:2.94925 117:12.11325 144:-2.23775 181:7.95825 229:1.08625 232:40 238:8.84525 309:7.51425 
0.1331744440696072 31:-2.84725 38:10.70775 86:5.18675 117:15.90475 144:-2.15325 181:10.84375 229:6.07475 232:40 238:6.55075 309:6.59275 
0.25 31:-1.263125 38:7.091875 86:3.061875 117:13.795875 144:-0.542125 181:40 229:3.521875 232:40 238:9.074875 309:6.667875 
0.25 31:0.24725 38:7.67125 86:2.80325 117:14.81425 144:-0.14675 181:6.79625 229:1.72425 232:40 238:7.35325 309:15.57925 
0.25 31:-1.2915 38:13.1135 86:3.2575 117:17.4535 144:-2.0245 181:7.2865 229:1.5185 232:40 238:5.8445 309:7.1365 
0.25 31:-1.568375 38:6.833625 86:3.983625 117:40 144:-2.240375 181:8.057625 229:1.137625 232:40 238:7.200625 309:5.700625 
0.25 31:-1.142 38:10.164 86:3.451 117:40 144:-2.123 181:7.457 229:1.049 232:40 238:6.904 309:6.362 
0.25 31:-3.90925 38:40 86:4.40075 117:15.83675 144:-2.94925 181:9.61775 229:5.22075 232:40 238:5.40475 309:4.81675 
0.1986979952504103 31:-1.933875 38:6.916125 86:2.736125 117:12.837125 144:-2.486875 181:7.491125 229:0.555125 232:40 238:7.478125 309:7.189125 
0.25 31:-4.134 38:5.185 86:4.556 117:40 144:-1.814 181:5.416 229:5.968 232:40 238:7.403 309:5.105 
-0.25 31:1.648875 38:40 86:0.803875 117:40 144:-0.556125 181:40 229:0.181875 232:10.214875 238:7.754875 309:11.107875 
-0.25 31:0.04175 38:7.81775 86:0.25675 117:14.17075 144:-0.83325 181:6.27175 229:-2.96225 232:16.08575 238:9.43675 309:8.34375 
-0.25 31:-1.20925 38:40 86:1.78575 117:40 144:-0.48225 181:6.17475 229:2.07775 232:40 238:10.16075 309:13.78075 
-0.25 31:-0.16525 38:6.24675 86:3.69475 117:9.76275 144:-1.35825 181:7.87375 229:-0.48125 232:10.58975 238:6.69275 309:7.58175 
-0.25 31:-0.126375 38:40 86:3.031625 117:40 144:-2.148375 181:40 229:0.264625 232:40 238:40 309:40 
-0.25 31:-1.835 38:10.859 86:4.497 117:40 144:-1.902 181:8.274 229:2.988 232:10.621 238:6.886 309:7.886 
-0.25 31:-1.329875 38:40 86:2.782125 117:40 144:-0.920875 181:40 229:1.590125 232:40 238:8.066125 309:9.925125 
-0.25 31:-1.065125 38:12.271875 86:5.197875 117:40 144:-1.204125 181:6.939875 229:4.302875 232:40 238:4.902875 309:7.132875 
-0.25 31:-0.750125 38:40 86:2.791875 117:8.127875 144:-2.285125 181:40 229:1.663875 232:40 238:40 309:12.473875 
-0.25 31:-0.136125 38:9.636875 86:1.491875 117:40 144:-1.183125 181:11.176875 229:0.139875 232:40 238:7.712875 309:8.993875 
-0.25 31:-0.22175 38:6.80825 86:2.90725 117:12.16325 144:-1.83375 181:7.95625 229:-0.86075 232:40 238:5.45225 309:7.47425 
-0.25 31:-1.19825 38:12.11375 86:4.01175 117:40 144:-0.52325 181:7.44075 229:-0.14225 232:40 238:9.18675 309:9.47575 
-0.25 31:0.084 38:40 86:2.334 117:40 144:0.941 181:40 229:0.459 232:40 238:40 309:40 
-0.08513379386868961 31:-0.62375 38:40 86:2.30925 117:40 144:-0.51775 181:40 229:-0.04275 232:40 238:40 309:40 
