svm_type c_svc
kernel_type rbf
gamma 0.03125
nr_class 2
total_sv 35
rho 0.8125
label 5 1
nr_sv 15 20
SV
0.25 1:0.729375 2:2.742375 3:2.724375 4:-0.112625 5:4.287375 6:1.248375 7:6.951375 8:8.465375 9:4.330375 10:7.776375 11:3.526375 12:3.216375 13:3.625375 14:0.152375 15:-6.284625 16:-4.747625 17:2.646375 18:3.881375 19:-1.240625 20:-6.804625 21:-4.669625 22:-0.014625 23:-3.307625 24:0.764375 25:3.609375 26:40 27:-5.075625 28:-2.510625 29:-1.541625 30:0.436375 31:-1.354625 32:-0.342625 33:1.429375 34:2.020375 35:2.902375 36:3.058375 37:0.564375 38:7.223375 39:5.732375 40:-2.816625 41:-2.945625 42:5.424375 43:5.907375 44:40 45:3.716375 46:7.090375 47:-5.183625 48:-2.019625 49:8.580375 50:40 51:40 52:6.270375 53:0.508375 54:4.713375 55:2.350375 56:-0.751625 57:40 58:-5.074625 59:40 60:-2.374625 61:4.976375 62:-0.839625 63:7.653375 64:14.234375 65:5.527375 66:-0.355625 67:-5.378625 68:3.637375 69:40 70:3.878375 71:40 72:40 73:0.965375 74:1.440375 75:2.871375 76:1.743375 77:5.808375 78:6.770375 79:7.028375 80:13.110375 81:13.589375 82:40 83:6.623375 84:1.620375 85:-0.812625 86:3.164375 87:1.742375 88:6.551375 89:-2.733625 90:3.619375 91:0.844375 92:0.682375 93:-4.389625 94:9.040375 95:-0.989625 96:40 97:2.318375 98:3.902375 99:4.778375 100:-4.203625 101:2.053375 102:40 103:40 104:1.561375 105:5.712375 106:14.369375 107:6.794375 108:8.910375 109:5.517375 110:0.142375 111:1.701375 112:11.050375 113:40 114:13.015375 115:-4.827625 116:2.353375 117:13.809375 118:3.657375 119:0.580375 120:4.940375 121:4.391375 122:9.899375 123:-0.756625 124:40 125:4.915375 126:-1.386625 127:7.686375 128:3.300375 129:6.166375 130:3.089375 131:9.878375 132:4.622375 133:4.443375 134:4.728375 135:40 136:0.576375 137:3.612375 138:4.445375 139:7.942375 140:12.352375 141:40 142:3.228375 143:40 144:-1.922625 145:-1.110625 146:-9.400625 147:3.042375 148:40 149:3.951375 150:40 151:40 152:2.174375 153:6.133375 154:2.450375 155:-6.647625 156:4.465375 157:5.621375 158:-3.051625 159:6.837375 160:2.931375 161:0.472375 162:13.388375 163:-1.749625 164:11.178375 165:3.636375 166:40 167:-0.502625 168:8.206375 169:1.721375 170:8.046375 171:11.168375 172:4.271375 173:3.160375 174:3.758375 175:5.165375 176:-1.568625 177:-1.120625 178:5.512375 179:2.663375 180:5.139375 181:8.001375 182:9.824375 183:2.819375 184:4.197375 185:1.466375 186:40 187:14.351375 188:3.644375 189:40 190:5.333375 191:9.280375 192:1.350375 193:1.536375 194:3.079375 195:4.720375 196:7.027375 197:40 198:7.824375 199:40 200:10.407375 201:3.871375 202:13.354375 203:12.475375 204:7.274375 205:7.702375 206:9.148375 207:2.589375 208:11.272375 209:-1.793625 210:9.511375 211:12.568375 212:7.465375 213:14.646375 214:40 215:10.224375 216:40 217:40 218:-7.467625 219:7.905375 220:40 221:6.171375 222:10.988375 223:11.162375 224:3.691375 225:-4.704625 226:8.026375 227:40 228:5.692375 229:0.450375 230:40 231:8.020375 232:40 233:10.732375 234:40 235:40 236:7.723375 237:13.848375 238:8.943375 239:5.597375 240:40 241:40 242:40 243:7.392375 244:9.373375 245:5.494375 246:6.951375 247:9.458375 248:40 249:40 250:4.317375 251:40 252:40 253:40 254:9.078375 255:40 256:11.941375 257:40 258:40 259:40 260:40 261:40 262:40 263:8.838375 264:11.693375 265:40 266:40 267:40 268:40 269:40 270:40 271:40 272:0.836375 273:9.798375 274:10.786375 275:40 276:40 277:40 278:10.279375 279:40 280:40 281:40 282:4.138375 283:40 284:40 285:40 286:40 287:3.618375 288:1.172375 289:8.567375 290:40 291:9.600375 292:40 293:8.031375 294:8.693375 295:12.875375 296:40 297:40 298:40 299:12.626375 300:15.877375 301:40 302:11.162375 303:7.672375 304:40 305:40 306:40 307:11.066375 308:0.498375 309:6.506375 310:6.974375 311:6.132375 312:40 313:40 314:40 315:3.140375 316:8.605375 317:5.168375 318:40 319:40 320:5.471375 321:-3.721625 322:40 323:7.919375 324:40 325:11.445375 326:7.032375 327:6.507375 328:7.485375 329:40 330:1.321375 331:40 332:14.047375 333:40 334:13.138375 335:0.070375 336:6.804375 337:40 338:40 339:40 340:1.947375 341:11.321375 342:40 343:40 344:40 345:4.665375 346:40 347:40 348:40 349:40 350:0.185375 351:5.528375 352:5.704375 353:40 354:40 355:7.088375 356:40 357:40 358:40 359:40 360:14.395375 361:-2.159625 362:10.963375 363:8.521375 364:11.789375 365:40 366:40 367:40 368:7.524375 369:40 370:40 371:40 372:3.749375 373:40 374:40 375:40 376:40 377:40 378:40 379:5.712375 380:40 381:40 382:9.649375 384:9.456375 
0.25 1:40 2:4.98325 3:4.82025 4:9.52725 5:40 6:3.70825 7:9.61825 8:40 9:5.76925 10:40 11:5.84625 12:5.83725 13:12.85825 14:2.77525 15:-5.52775 16:-6.22175 17:2.74025 18:14.55825 19:-0.30175 20:-6.41175 21:-4.46175 22:-1.52375 23:-0.76975 24:40 25:12.24325 26:40 27:-4.28275 28:-2.01675 29:1.65025 30:1.33225 31:-0.21675 32:1.85925 33:-0.25275 34:3.81025 35:5.90625 36:5.78125 37:0.09125 38:40 39:5.28925 40:0.96525 41:0.59825 42:10.34125 43:14.82925 44:40 45:3.98625 46:40 47:-3.99775 48:-2.78275 49:6.53925 50:40 51:40 52:15.87625 53:5.58625 54:7.07325 55:3.18125 56:4.35725 57:40 58:-6.41875 59:40 60:-1.49975 61:40 62:-3.59275 63:11.75125 64:40 65:4.58925 66:2.65025 67:-5.17075 68:2.03025 69:40 70:5.31925 71:40 72:40 73:1.22725 74:3.65725 75:5.04025 76:0.61725 77:11.61925 78:3.79725 79:40 80:40 81:14.60625 82:40 83:10.11425 84:4.74325 85:0.47525 86:3.05225 87:0.20325 88:6.23225 89:-0.44875 90:4.11725 91:2.51525 92:3.92225 93:-5.51375 94:40 95:-1.30475 96:40 97:2.17325 98:5.40025 99:40 100:-4.02475 101:2.15525 102:40 103:40 104:8.40125 105:16.36925 106:40 107:7.54825 108:10.66325 109:3.01025 110:-0.78075 111:-0.97275 112:40 113:40 114:40 115:-5.20475 116:-0.51575 117:14.92225 118:1.32025 119:-0.70375 120:4.68025 121:2.42625 122:12.46625 123:2.15125 124:40 125:40 126:0.09225 127:40 128:40 129:9.74925 130:5.44725 131:40 132:3.04525 133:40 134:6.57525 135:40 136:3.22325 137:6.91025 138:13.82225 139:40 140:8.44625 141:40 142:5.25725 143:40 144:-0.65775 145:-4.51875 146:-8.62975 147:7.50825 148:40 149:8.02225 150:40 151:40 152:3.64025 153:40 154:40 155:-6.01775 156:40 157:40 158:-4.96375 159:8.59425 160:1.59325 161:2.81025 162:40 163:-0.09775 164:40 165:12.97725 166:40 167:0.51325 168:40 169:3.96125 170:40 171:40 172:3.14925 173:40 174:4.80125 175:2.61925 176:-0.51075 177:-1.45075 178:40 179:1.33025 180:6.11625 181:5.72725 182:7.18525 183:5.29825 184:5.06325 185:40 186:40 187:10.81525 188:4.81625 189:40 190:7.10725 191:40 192:2.82725 193:3.41525 194:2.48225 195:2.47325 196:40 197:40 198:40 199:40 200:40 201:7.87025 202:40 203:8.16325 204:5.57725 205:8.31225 206:8.09925 207:2.51925 208:40 209:1.61725 210:40 211:40 212:4.80525 213:40 214:40 215:40 216:40 217:40 218:-5.90375 219:7.51825 220:40 221:2.82025 222:40 223:40 224:-2.07175 225:-6.54475 226:7.95525 227:40 228:12.03625 229:2.53325 230:40 231:6.47425 232:40 233:40 234:40 235:40 236:4.00925 237:9.81925 238:12.86625 239:6.21525 240:40 241:40 242:40 243:40 244:40 245:40 246:4.64125 247:10.07025 248:40 249:40 250:8.45925 251:40 252:40 253:40 254:40 255:40 256:40 257:40 258:40 259:40 260:40 261:40 262:40 263:40 264:40 265:40 266:40 267:40 268:40 269:40 270:40 271:40 272:40 273:40 274:40 275:40 276:40 277:40 278:40 279:40 280:40 281:40 282:13.73225 283:40 284:9.82525 285:40 286:40 287:3.47925 288:2.00125 289:6.57625 290:40 291:40 292:40 293:40 294:40 295:8.22325 296:40 297:40 298:40 299:40 300:40 301:40 302:40 303:40 304:40 305:40 306:40 307:40 308:-0.74375 309:40 310:40 311:6.10825 312:40 313:40 314:40 315:1.89525 316:40 317:7.86225 318:40 319:40 320:40 321:11.29225 322:40 323:9.07025 324:40 325:11.92525 326:13.69825 327:9.36225 328:40 329:40 330:2.83025 331:40 332:40 333:14.72525 334:14.01025 335:0.26925 336:5.28225 337:40 338:40 339:40 340:1.00725 341:40 342:40 343:40 344:40 345:9.94625 346:40 347:40 348:40 349:40 350:0.16125 351:40 352:6.13725 353:40 354:40 355:13.79825 356:40 357:40 358:40 359:40 360:40 361:40 362:40 363:5.91325 364:40 365:40 366:40 367:40 368:14.21925 369:40 370:40 371:40 372:1.66925 373:40 374:40 375:40 376:40 377:40 378:40 379:5.86825 380:40 381:40 382:40 384:40 
0.25 1:40 2:9.877125 3:5.362125 4:11.040125 5:40 6:3.015125 7:9.923125 8:40 9:6.600125 10:40 11:9.040125 12:8.999125 13:10.604125 14:2.762125 15:-4.082875 16:-5.499875 17:3.110125 18:13.355125 19:-0.387875 20:-6.352875 21:-2.587875 22:0.411125 23:-0.672875 24:6.468125 25:10.885125 26:40 27:-5.542875 28:-1.388875 29:0.813125 30:2.202125 31:-0.639875 32:0.755125 33:-0.578875 34:4.320125 35:8.884125 36:8.712125 37:-0.294875 38:12.560125 39:5.061125 40:1.729125 41:1.026125 42:8.494125 43:12.618125 44:40 45:16.498125 46:40 47:-3.562875 48:-2.006875 49:40 50:40 51:40 52:40 53:5.780125 54:8.735125 55:2.880125 56:3.915125 57:40 58:-5.681875 59:40 60:-1.193875 61:40 62:0.033125 63:40 64:40 65:3.882125 66:5.440125 67:-4.918875 68:1.215125 69:40 70:4.091125 71:40 72:40 73:0.300125 74:2.700125 75:1.003125 76:0.006125 77:7.638125 78:1.979125 79:40 80:40 81:40 82:40 83:9.261125 84:5.044125 85:1.382125 86:3.675125 87:-0.246875 88:40 89:0.433125 90:4.184125 91:2.483125 92:4.343125 93:-7.026875 94:40 95:-2.274875 96:40 97:2.797125 98:4.268125 99:40 100:-2.262875 101:0.995125 102:40 103:40 104:6.786125 105:14.774125 106:40 107:8.539125 108:40 109:4.616125 110:-0.325875 111:-1.627875 112:40 113:40 114:16.642125 115:-5.869875 116:1.204125 117:40 118:6.169125 119:2.484125 120:7.420125 121:4.165125 122:40 123:1.176125 124:40 125:5.478125 126:-0.826875 127:8.860125 128:40 129:15.788125 130:8.522125 131:12.537125 132:6.044125 133:8.044125 134:8.699125 135:40 136:3.778125 137:9.780125 138:9.919125 139:40 140:40 141:40 142:7.677125 143:40 144:-1.494875 145:-4.696875 146:-9.430875 147:2.993125 148:40 149:9.425125 150:40 151:40 152:3.330125 153:6.619125 154:16.029125 155:-3.418875 156:40 157:40 158:-4.370875 159:5.911125 160:1.897125 161:1.611125 162:40 163:0.221125 164:7.255125 165:9.542125 166:40 167:0.199125 168:16.956125 169:2.676125 170:5.649125 171:10.104125 172:1.284125 173:40 174:3.099125 175:3.483125 176:1.499125 177:-0.482875 178:17.184125 179:0.930125 180:5.399125 181:7.033125 182:8.773125 183:9.591125 184:9.860125 185:40 186:40 187:13.836125 188:2.376125 189:15.929125 190:40 191:40 192:2.473125 193:3.765125 194:4.393125 195:0.660125 196:17.186125 197:40 198:6.651125 199:40 200:40 201:2.363125 202:40 203:10.135125 204:4.528125 205:5.222125 206:10.279125 207:3.004125 208:40 209:1.724125 210:10.420125 211:7.596125 212:2.572125 213:10.834125 214:40 215:40 216:40 217:40 218:-4.858875 219:6.845125 220:40 221:3.401125 222:40 223:40 224:0.377125 225:-6.908875 226:6.997125 227:15.878125 228:10.249125 229:1.852125 230:8.934125 231:6.557125 232:40 233:13.417125 234:40 235:40 236:4.226125 237:6.281125 238:4.749125 239:3.484125 240:40 241:40 242:40 243:40 244:40 245:12.541125 246:8.320125 247:40 248:40 249:40 250:15.519125 251:40 252:40 253:40 254:40 255:40 256:40 257:40 258:40 259:40 260:40 261:40 262:40 263:40 264:40 265:13.063125 266:40 267:40 268:40 269:40 270:40 271:40 272:40 273:40 274:40 275:40 276:40 277:40 278:40 279:40 280:40 281:40 282:13.885125 283:40 284:14.890125 285:40 286:40 287:5.389125 288:2.602125 289:1.888125 290:40 291:40 292:12.457125 293:40 294:7.251125 295:13.455125 296:40 297:40 298:40 299:40 300:40 301:40 302:40 303:10.879125 304:40 305:40 306:40 307:40 308:-1.046875 309:7.668125 310:40 311:8.198125 312:40 313:40 314:40 315:1.348125 316:9.664125 317:4.659125 318:40 319:40 320:40 321:10.635125 322:40 323:10.227125 324:40 325:5.523125 326:12.895125 327:9.337125 328:40 329:40 330:1.530125 331:40 332:9.167125 333:10.296125 334:10.003125 335:0.670125 336:4.648125 337:40 338:40 339:40 340:0.282125 341:11.831125 342:40 343:40 344:40 345:9.619125 346:40 347:40 348:40 349:40 350:2.317125 351:40 352:4.958125 353:40 354:40 355:7.565125 356:40 357:40 358:40 359:40 360:40 361:40 362:15.681125 363:14.123125 364:40 365:40 366:40 367:40 368:40 369:40 370:40 371:40 372:0.947125 373:40 374:40 375:40 376:40 377:40 378:40 379:7.558125 380:40 381:16.985125 382:40 384:13.860125 
0.25 1:16.686875 2:3.622875 3:5.063875 4:10.201875 5:40 6:5.367875 7:5.160875 8:40 9:8.474875 10:17.705875 11:9.165875 12:8.660875 13:40 14:3.600875 15:-2.998125 16:-6.687125 17:1.499875 18:9.837875 19:-2.761125 20:-7.455125 21:-6.257125 22:-1.799125 23:-1.608125 24:6.283875 25:12.216875 26:40 27:-5.788125 28:-2.366125 29:0.301875 30:-0.434125 31:-1.433125 32:0.257875 33:1.202875 34:5.732875 35:8.819875 36:8.638875 37:0.967875 38:40 39:3.373875 40:1.067875 41:-0.151125 42:12.150875 43:7.383875 44:40 45:3.288875 46:40 47:-3.751125 48:-3.006125 49:10.287875 50:40 51:40 52:10.459875 53:6.726875 54:6.509875 55:1.982875 56:8.145875 57:40 58:-6.684125 59:40 60:-0.963125 61:40 62:-2.316125 63:40 64:7.795875 65:6.427875 66:3.659875 67:-5.439125 68:0.891875 69:40 70:3.206875 71:40 72:40 73:0.211875 74:2.722875 75:-0.583125 76:-0.593125 77:5.324875 78:1.647875 79:10.517875 80:14.443875 81:15.516875 82:40 83:7.786875 84:2.497875 85:0.065875 86:4.010875 87:-0.874125 88:12.159875 89:-0.324125 90:3.744875 91:2.109875 92:3.549875 93:-7.465125 94:10.247875 95:-1.876125 96:40 97:1.199875 98:2.959875 99:40 100:-2.764125 101:1.436875 102:40 103:40 104:7.638875 105:14.328875 106:14.325875 107:10.308875 108:13.785875 109:5.673875 110:-0.637125 111:-1.773125 112:40 113:40 114:9.815875 115:-5.543125 116:-0.790125 117:40 118:2.021875 119:2.220875 120:7.421875 121:1.914875 122:8.817875 123:0.876875 124:40 125:6.586875 126:-0.685125 127:7.260875 128:40 129:9.439875 130:8.106875 131:14.751875 132:3.914875 133:7.182875 134:7.835875 135:40 136:3.820875 137:6.848875 138:40 139:40 140:10.628875 141:40 142:5.004875 143:10.677875 144:-0.792125 145:-4.342125 146:-9.637125 147:2.363875 148:40 149:5.613875 150:40 151:40 152:4.452875 153:6.360875 154:40 155:-4.135125 156:40 157:40 158:-1.562125 159:5.822875 160:5.215875 161:1.881875 162:40 163:0.515875 164:9.516875 165:10.206875 166:40 167:5.035875 168:40 169:0.078875 170:6.690875 171:8.829875 172:3.003875 173:40 174:1.972875 175:4.127875 176:-0.556125 177:1.390875 178:14.276875 179:1.755875 180:1.918875 181:5.795875 182:40 183:6.214875 184:6.954875 185:40 186:11.290875 187:14.601875 188:2.895875 189:40 190:40 191:40 192:1.457875 193:3.432875 194:3.202875 195:-1.089125 196:40 197:40 198:5.959875 199:40 200:9.287875 201:2.800875 202:9.897875 203:9.691875 204:3.300875 205:6.276875 206:8.753875 207:3.238875 208:13.392875 209:15.709875 210:7.847875 211:8.442875 212:2.936875 213:10.280875 214:15.287875 215:10.413875 216:40 217:40 218:-5.841125 219:6.367875 220:40 221:2.802875 222:40 223:40 224:-0.808125 225:-5.245125 226:12.723875 227:40 228:5.863875 229:0.744875 230:40 231:5.905875 232:40 233:9.901875 234:40 235:40 236:5.312875 237:7.591875 238:5.031875 239:1.976875 240:8.912875 241:40 242:40 243:40 244:8.553875 245:40 246:5.863875 247:40 248:40 249:40 250:8.102875 251:40 252:40 253:40 254:40 255:40 256:10.980875 257:40 258:40 259:40 260:40 261:40 262:40 263:12.900875 264:10.325875 265:40 266:40 267:12.246875 268:40 269:12.804875 270:40 271:40 272:40 273:12.066875 274:40 275:40 276:40 277:40 278:40 279:40 280:40 281:11.924875 282:17.388875 283:40 284:40 285:40 286:40 287:3.912875 288:0.917875 289:1.849875 290:40 291:40 292:40 293:40 294:8.345875 295:9.240875 296:40 297:40 298:40 299:40 300:40 301:40 302:13.598875 303:40 304:40 305:40 306:40 307:11.357875 308:-0.649125 309:6.274875 310:17.659875 311:9.061875 312:40 313:40 314:40 315:1.169875 316:12.307875 317:3.493875 318:40 319:40 320:8.166875 321:12.035875 322:40 323:7.875875 324:11.516875 325:6.963875 326:8.027875 327:8.858875 328:6.399875 329:40 330:2.605875 331:40 332:8.069875 333:14.629875 334:7.117875 335:-0.556125 336:5.303875 337:40 338:40 339:14.313875 340:1.971875 341:40 342:40 343:40 344:40 345:10.513875 346:40 347:40 348:40 349:40 350:1.742875 351:10.601875 352:3.272875 353:40 354:40 355:5.825875 356:40 357:40 358:40 359:40 360:40 361:40 362:12.459875 363:5.496875 364:40 365:40 366:40 367:40 368:12.200875 369:40 370:40 371:40 372:-0.115125 373:40 374:40 375:40 376:40 377:40 378:40 379:6.749875 380:14.415875 381:40 382:16.067875 384:40 
0.25 1:12.866 2:5.558 3:5.903 4:9.244 5:40 6:3.607 7:11.775 8:40 9:4.371 10:40 11:5.91 12:5.588 13:40 14:5.004 15:-8.07 16:-6.575 17:2.949 18:16.603 19:-1.948 20:-7.919 21:-6.379 22:-2.52 23:-1.99 24:4.719 25:14.595 26:40 27:-4.654 28:-4.661 29:1.73 30:0.097 31:-1.291 32:0.351 33:1.917 34:4.093 35:6.205 36:5.351 37:0.56 38:11.289 39:4.287 40:0.454 41:-0.476 42:8.946 43:15.18 44:40 45:-1.29 46:40 47:-6.138 48:-4.141 49:7.151 50:40 51:40 52:9.016 53:4.537 54:4.717 55:0.365 56:12.557 57:40 58:-6.983 59:40 60:-3.223 61:40 62:-2.937 63:6.703 64:40 65:6.146 66:1.667 67:-5.051 68:2.811 69:40 70:3.778 71:40 72:40 73:0.029 74:2.695 75:0.661 76:-1.96 77:5.485 78:10.16 79:11.924 80:40 81:40 82:40 83:6.736 84:6.415 85:-0.079 86:2.401 87:0.232 88:10.09 89:-0.802 90:6.434 91:2.968 92:7.357 93:-4.621 94:40 95:-1.359 96:40 97:1.544 98:4.313 99:10.986 100:-4.597 101:0.23 102:40 103:40 104:7.673 105:40 106:13.521 107:4.788 108:13.661 109:-1.767 110:-1.036 111:-1.543 112:40 113:40 114:40 115:-4.061 116:-0.527 117:15.34 118:2.949 119:1.365 120:-0.016 121:1.125 122:40 123:3.109 124:40 125:6.378 126:-0.091 127:14.791 128:14.395 129:10.189 130:11.504 131:11.297 132:2.741 133:8.815 134:3.025 135:40 136:2.995 137:7.4 138:7.9 139:40 140:40 141:40 142:3.954 143:7.095 144:-1.098 145:-4.067 146:-8.532 147:2.85 148:40 149:7.054 150:40 151:40 152:4.014 153:8.722 154:5.941 155:-5.614 156:7.406 157:8.319 158:-5.378 159:9.043 160:1.146 161:1.5 162:40 163:0.215 164:40 165:14.067 166:40 167:1.121 168:40 169:3.384 170:40 171:40 172:4.094 173:13.206 174:4.564 175:2.712 176:-0.762 177:-0.211 178:14.571 179:1.417 180:10.58 181:9.342 182:40 183:5.345 184:7.825 185:6.188 186:40 187:40 188:7.33 189:40 190:8.668 191:16.166 192:2.332 193:3.836 194:1.223 195:4.193 196:40 197:40 198:40 199:40 200:13.939 201:8.586 202:40 203:10.612 204:6.907 205:7.917 206:13.444 207:3.37 208:40 209:4.813 210:40 211:40 212:9.204 213:40 214:40 215:40 216:40 217:40 218:-8.63 219:9.17 220:40 221:2.688 222:40 223:10.769 224:-3.404 225:-6.175 226:40 227:40 228:5.832 229:1.952 230:40 231:10.295 232:40 233:11.798 234:40 235:40 236:8.105 237:15.233 238:10.721 239:7.52 240:40 241:40 242:12.049 243:7.028 244:40 245:13.576 246:7.922 247:12.455 248:40 249:40 250:5.747 251:40 252:40 253:40 254:40 255:40 256:40 257:40 258:40 259:40 260:40 261:40 262:40 263:40 264:40 265:40 266:40 267:10.379 268:40 269:40 270:40 271:40 272:3.478 273:40 274:15.929 275:40 276:40 277:40 278:40 279:40 280:40 281:40 282:6.487 283:40 284:40 285:40 286:40 287:4.264 288:-0.276 289:7.529 290:40 291:40 292:40 293:40 294:7.452 295:12.859 296:40 297:40 298:40 299:16.291 300:40 301:40 302:40 303:10.678 304:40 305:40 306:40 307:40 308:0.536 309:5.85 310:40 311:7.458 312:40 313:40 314:40 315:-0.151 316:8.315 317:5.528 318:40 319:40 320:40 321:-2.589 322:40 323:9.515 324:40 325:9.57 326:6.883 327:12.721 328:40 329:40 330:2.795 331:40 332:40 333:40 334:40 335:-1.718 336:5.903 337:40 338:40 339:40 340:2.532 341:40 342:40 343:40 344:40 345:40 346:40 347:40 348:40 349:40 350:-1.081 351:11.44 352:6.109 353:40 354:40 355:7.738 356:40 357:40 358:40 359:40 360:16.586 361:3.858 362:14.572 363:9.947 364:14.559 365:40 366:40 367:40 368:11.901 369:40 370:40 371:40 372:3.784 373:40 374:40 375:40 376:40 377:40 378:40 379:4.533 380:40 381:40 382:40 384:11.561 
0.25 1:10.843625 2:5.418625 3:4.794625 4:6.617625 5:40 6:5.226625 7:12.958625 8:40 9:3.812625 10:11.197625 11:7.681625 12:7.567625 13:12.054625 14:2.283625 15:-5.790375 16:-5.768375 17:3.102625 18:40 19:-1.204375 20:-7.020375 21:-5.282375 22:-1.213375 23:-1.636375 24:4.383625 25:14.064625 26:40 27:-5.462375 28:-3.391375 29:1.433625 30:2.625625 31:-3.078375 32:-0.775375 33:1.092625 34:3.820625 35:7.698625 36:7.821625 37:0.133625 38:9.581625 39:4.304625 40:-0.661375 41:-1.021375 42:9.902625 43:40 44:40 45:0.027625 46:40 47:-5.457375 48:-3.024375 49:9.962625 50:40 51:40 52:10.917625 53:4.582625 54:6.198625 55:2.389625 56:12.087625 57:40 58:-5.966375 59:40 60:-2.132375 61:40 62:-1.020375 63:40 64:40 65:9.841625 66:2.650625 67:-5.088375 68:0.922625 69:40 70:3.726625 71:40 72:40 73:-1.624375 74:1.140625 75:0.451625 76:2.574625 77:12.864625 78:5.346625 79:11.180625 80:40 81:40 82:40 83:7.462625 84:6.547625 85:-0.304375 86:4.359625 87:1.485625 88:40 89:-1.419375 90:4.751625 91:2.271625 92:6.482625 93:-5.755375 94:13.921625 95:-0.966375 96:40 97:1.148625 98:2.874625 99:40 100:-3.833375 101:-0.476375 102:40 103:40 104:7.068625 105:40 106:40 107:8.490625 108:40 109:3.429625 110:-0.236375 111:-0.254375 112:40 113:40 114:40 115:-3.759375 116:1.706625 117:15.639625 118:3.384625 119:2.385625 120:1.981625 121:2.912625 122:16.430625 123:2.913625 124:40 125:9.274625 126:-1.440375 127:15.934625 128:40 129:40 130:40 131:13.592625 132:4.611625 133:11.161625 134:9.616625 135:40 136:4.227625 137:7.320625 138:12.466625 139:40 140:40 141:40 142:5.626625 143:40 144:-2.456375 145:-3.386375 146:-9.674375 147:1.556625 148:40 149:8.756625 150:40 151:40 152:4.892625 153:6.197625 154:8.693625 155:-5.792375 156:12.890625 157:9.989625 158:-4.857375 159:5.821625 160:2.379625 161:0.961625 162:40 163:-1.328375 164:12.719625 165:11.827625 166:40 167:1.805625 168:40 169:1.296625 170:8.993625 171:40 172:3.426625 173:13.327625 174:2.491625 175:3.703625 176:0.411625 177:0.028625 178:40 179:1.320625 180:4.378625 181:8.081625 182:15.543625 183:8.461625 184:9.231625 185:8.254625 186:40 187:40 188:5.210625 189:40 190:10.314625 191:40 192:3.019625 193:5.937625 194:3.241625 195:1.178625 196:40 197:40 198:11.144625 199:40 200:40 201:2.162625 202:40 203:40 204:2.871625 205:8.446625 206:8.315625 207:3.013625 208:40 209:6.804625 210:8.961625 211:16.724625 212:4.791625 213:40 214:40 215:40 216:40 217:40 218:-6.506375 219:12.453625 220:40 221:6.968625 222:40 223:12.704625 224:-1.237375 225:-5.157375 226:14.569625 227:40 228:10.166625 229:4.684625 230:40 231:10.358625 232:40 233:40 234:40 235:40 236:7.727625 237:40 238:10.378625 239:6.735625 240:40 241:40 242:40 243:40 244:40 245:40 246:9.484625 247:40 248:40 249:40 250:6.377625 251:40 252:40 253:40 254:40 255:40 256:40 257:40 258:40 259:40 260:40 261:40 262:40 263:40 264:16.777625 265:40 266:40 267:40 268:40 269:40 270:40 271:40 272:40 273:40 274:40 275:40 276:40 277:40 278:40 279:40 280:40 281:40 282:9.434625 283:40 284:40 285:40 286:40 287:5.261625 288:0.599625 289:4.621625 290:40 291:40 292:40 293:40 294:11.758625 295:40 296:40 297:40 298:40 299:15.200625 300:11.283625 301:40 302:9.839625 303:10.469625 304:40 305:40 306:40 307:40 308:1.323625 309:7.713625 310:11.939625 311:8.742625 312:40 313:40 314:40 315:0.335625 316:7.891625 317:4.288625 318:40 319:40 320:8.560625 321:3.761625 322:40 323:11.156625 324:40 325:15.315625 326:7.484625 327:12.474625 328:5.637625 329:40 330:1.941625 331:40 332:40 333:12.556625 334:40 335:0.597625 336:6.290625 337:40 338:40 339:40 340:1.969625 341:40 342:40 343:40 344:40 345:12.984625 346:40 347:40 348:40 349:40 350:1.380625 351:40 352:10.524625 353:40 354:40 355:6.424625 356:40 357:40 358:40 359:40 360:40 361:7.562625 362:40 363:10.364625 364:40 365:40 366:40 367:40 368:9.640625 369:40 370:40 371:40 372:1.196625 373:40 374:40 375:40 376:40 377:40 378:40 379:7.193625 380:40 381:40 382:40 384:14.342625 
0.25 1:40 2:40 3:3.893875 4:8.869875 5:40 6:9.872875 7:40 8:40 9:40 10:40 11:5.061875 12:5.126875 13:40 14:7.885875 15:-4.242125 16:-5.119125 17:2.198875 18:12.866875 19:1.215875 20:-5.856125 21:0.333875 22:-1.136125 23:3.028875 24:40 25:40 26:40 27:-5.137125 28:0.402875 29:3.275875 30:5.242875 31:1.153875 32:40 33:-0.657125 34:40 35:5.060875 36:5.062875 37:-0.831125 38:40 39:5.335875 40:3.223875 41:0.795875 42:40 43:40 44:40 45:40 46:40 47:-1.414125 48:-0.502125 49:40 50:40 51:40 52:40 53:40 54:40 55:40 56:1.040875 57:40 58:-5.404125 59:40 60:0.060875 61:40 62:4.921875 63:40 64:40 65:1.134875 66:40 67:-5.667125 68:40 69:40 70:6.214875 71:40 72:40 73:5.115875 74:40 75:7.172875 76:1.146875 77:40 78:0.289875 79:40 80:40 81:40 82:40 83:40 84:0.118875 85:-0.458125 86:2.056875 87:0.570875 88:40 89:0.050875 90:40 91:3.133875 92:8.762875 93:-6.975125 94:40 95:-2.986125 96:40 97:40 98:40 99:40 100:-5.546125 101:40 102:40 103:40 104:7.885875 105:40 106:40 107:3.163875 108:40 109:40 110:-0.732125 111:-2.184125 112:40 113:40 114:40 115:-8.488125 116:1.581875 117:40 118:7.675875 119:1.941875 120:9.778875 121:2.520875 122:40 123:0.476875 124:40 125:40 126:0.490875 127:40 128:7.027875 129:40 130:40 131:40 132:40 133:40 134:40 135:40 136:2.241875 137:9.410875 138:5.765875 139:40 140:40 141:40 142:9.922875 143:40 144:0.158875 145:-6.340125 146:-6.413125 147:40 148:40 149:40 150:40 151:40 152:8.723875 153:40 154:12.095875 155:-1.421125 156:40 157:10.728875 158:-6.115125 159:11.260875 160:1.288875 161:40 162:40 163:1.423875 164:40 165:5.861875 166:40 167:-0.645125 168:40 169:2.923875 170:40 171:40 172:-0.874125 173:40 174:2.247875 175:1.896875 176:3.142875 177:-3.176125 178:40 179:-0.452125 180:40 181:40 182:40 183:40 184:40 185:40 186:40 187:7.062875 188:1.823875 189:40 190:40 191:40 192:2.896875 193:1.539875 194:40 195:2.562875 196:40 197:40 198:40 199:40 200:40 201:8.421875 202:40 203:40 204:9.130875 205:4.654875 206:40 207:40 208:40 209:-0.597125 210:40 211:13.352875 212:0.304875 213:40 214:40 215:40 216:40 217:40 218:-1.997125 219:40 220:40 221:1.754875 222:40 223:40 224:-3.278125 225:-8.686125 226:40 227:40 228:40 229:0.472875 230:40 231:40 232:40 233:40 234:40 235:40 236:2.168875 237:5.547875 238:40 239:40 240:40 241:40 242:40 243:40 244:40 245:40 246:40 247:40 248:40 249:40 250:40 251:40 252:40 253:40 254:40 255:40 256:40 257:40 258:40 259:40 260:40 261:40 262:40 263:40 264:40 265:40 266:40 267:40 268:40 269:40 270:40 271:40 272:6.512875 273:40 274:40 275:40 276:40 277:40 278:40 279:40 280:40 281:40 282:6.329875 283:40 284:40 285:40 286:40 287:40 288:5.998875 289:-0.771125 290:40 291:40 292:40 293:40 294:40 295:5.125875 296:40 297:40 298:40 299:40 300:40 301:40 302:40 303:40 304:40 305:40 306:40 307:40 308:-1.760125 309:40 310:40 311:40 312:40 313:40 314:40 315:3.580875 316:40 317:40 318:40 319:40 320:40 321:7.908875 322:40 323:40 324:5.857875 325:4.828875 326:40 327:6.167875 328:40 329:40 330:2.858875 331:40 332:40 333:40 334:40 335:0.192875 336:40 337:40 338:40 339:40 340:-0.377125 341:40 342:40 343:40 344:40 345:40 346:40 347:40 348:40 349:40 350:11.114875 351:4.676875 352:6.536875 353:40 354:40 355:40 356:40 357:40 358:40 359:40 360:40 361:40 362:6.195875 363:7.265875 364:40 365:40 366:40 367:40 368:10.747875 369:40 370:40 371:40 372:1.006875 373:40 374:40 375:40 376:40 377:40 378:40 379:40 380:40 381:40 382:40 384:40 
0.25 1:15.4885 2:5.9615 3:4.2545 4:4.3145 5:40 6:3.2245 7:6.9275 8:40 9:6.3615 10:40 11:5.4275 12:5.2275 13:12.4905 14:3.1695 15:-3.4295 16:-6.0955 17:1.7415 18:10.1085 19:-2.0555 20:-6.7135 21:-5.5655 22:-1.4515 23:-2.2465 24:4.2465 25:11.9145 26:40 27:-5.0705 28:-2.1335 29:-0.6615 30:0.7375 31:-0.6845 32:0.3775 33:1.3055 34:3.6075 35:5.3635 36:5.3095 37:0.2055 38:40 39:3.7375 40:0.8875 41:-0.1075 42:8.1985 43:8.8915 44:40 45:1.6285 46:40 47:-3.9645 48:-3.3275 49:9.3695 50:40 51:40 52:11.2455 53:5.6105 54:6.1935 55:2.3215 56:4.6235 57:40 58:-6.3775 59:40 60:-1.2395 61:40 62:-2.8795 63:40 64:40 65:5.8985 66:4.3475 67:-5.4765 68:1.6615 69:40 70:2.6445 71:9.8415 72:40 73:0.0415 74:1.0925 75:0.2385 76:2.0035 77:10.0115 78:4.5155 79:10.6035 80:11.7425 81:40 82:40 83:6.1085 84:2.5925 85:-0.3705 86:3.9055 87:-0.0975 88:9.7905 89:-1.6965 90:4.2595 91:2.4355 92:2.9165 93:-7.5385 94:6.2265 95:-1.6935 96:40 97:2.1895 98:3.5995 99:40 100:-1.4975 101:0.2535 102:40 103:40 104:4.8995 105:11.3905 106:40 107:40 108:15.5025 109:40 110:-0.7285 111:-3.0945 112:40 113:40 114:40 115:-5.9275 116:-0.6535 117:11.8265 118:0.9975 119:1.4255 120:5.3035 121:1.3145 122:9.5245 123:0.3005 124:40 125:13.1505 126:0.0735 127:40 128:15.7545 129:9.9525 130:9.8205 131:40 132:5.7475 133:10.3915 134:40 135:40 136:3.2245 137:10.6475 138:14.6705 139:40 140:40 141:40 142:4.4195 143:40 144:-2.6405 145:-3.9055 146:-9.1185 147:0.3625 148:40 149:6.4325 150:40 151:40 152:3.2565 153:9.3255 154:40 155:-5.6965 156:40 157:40 158:-3.0765 159:11.6975 160:2.5925 161:1.0035 162:40 163:-0.7045 164:11.4535 165:8.4715 166:40 167:2.2045 168:40 169:0.8795 170:7.7665 171:10.5495 172:0.9665 173:40 174:2.2455 175:2.5325 176:-0.1355 177:-0.1585 178:14.1535 179:0.9115 180:2.5225 181:6.4985 182:8.8765 183:7.6925 184:8.1175 185:40 186:40 187:40 188:7.2905 189:40 190:40 191:40 192:1.8995 193:3.3255 194:2.1975 195:2.5305 196:40 197:40 198:40 199:40 200:40 201:8.5295 202:40 203:40 204:7.9065 205:40 206:5.7695 207:2.9135 208:6.0465 209:4.1935 210:40 211:40 212:4.2395 213:40 214:40 215:8.2765 216:40 217:40 218:-4.6015 219:11.2605 220:40 221:4.4255 222:40 223:7.4645 224:-2.1425 225:-6.1105 226:9.9815 227:40 228:13.4995 229:2.2155 230:40 231:8.3905 232:40 233:10.6795 234:40 235:40 236:3.6405 237:40 238:8.0635 239:6.0895 240:40 241:40 242:40 243:11.6235 244:15.5835 245:7.6965 246:6.9995 247:40 248:40 249:40 250:5.7055 251:40 252:40 253:40 254:40 255:40 256:40 257:40 258:40 259:40 260:40 261:40 262:40 263:40 264:40 265:40 266:40 267:40 268:40 269:15.4455 270:40 271:8.9345 272:8.7425 273:11.5115 274:40 275:40 276:40 277:40 278:40 279:40 280:40 281:40 282:11.6895 283:40 284:40 285:40 286:40 287:4.6845 288:1.2075 289:7.8625 290:40 291:40 292:40 293:40 294:5.0615 295:11.5185 296:40 297:40 298:40 299:40 300:40 301:40 302:40 303:40 304:40 305:40 306:40 307:40 308:-0.9775 309:5.8845 310:40 311:6.2815 312:40 313:40 314:40 315:-0.0285 316:7.3655 317:3.1945 318:40 319:40 320:13.6915 321:11.8775 322:40 323:4.9415 324:40 325:6.9075 326:9.3775 327:7.7865 328:7.4655 329:40 330:0.8295 331:40 332:40 333:40 334:11.7915 335:0.3165 336:4.6085 337:40 338:40 339:40 340:0.4225 341:8.9005 342:40 343:40 344:40 345:7.7335 346:40 347:40 348:40 349:40 350:2.6675 351:9.2565 352:3.7405 353:40 354:40 355:8.6855 356:40 357:40 358:40 359:40 360:40 361:40 362:6.8855 363:6.1205 364:40 365:40 366:40 367:40 368:15.6035 369:40 370:40 371:40 372:2.0625 373:40 374:40 375:40 376:40 377:40 378:40 379:7.7835 380:40 381:40 382:40 384:40 
0.25 1:3.15125 2:3.73125 3:3.57125 4:0.26625 5:40 6:2.17425 7:5.13825 8:10.66625 9:5.71725 10:14.45925 11:6.56025 12:6.22925 13:4.03925 14:0.02525 15:-4.42975 16:-4.09375 17:2.60425 18:4.54325 19:-0.86375 20:-6.35375 21:-3.71375 22:1.68025 23:-4.18075 24:-0.15375 25:2.76525 26:40 27:-5.64475 28:-1.20175 29:-0.56875 30:1.51725 31:-2.12275 32:-0.41575 33:0.42125 34:2.37325 35:6.08225 36:6.16225 37:0.47725 38:7.62825 39:4.93925 40:-1.66375 41:-1.94275 42:5.77425 43:8.51625 44:8.46625 45:3.63925 46:40 47:-3.97875 48:-1.28775 49:7.94625 50:40 51:7.79425 52:6.08925 53:1.86025 54:4.89025 55:2.93125 56:-0.11075 57:40 58:-4.48675 59:40 60:-1.54375 61:7.84025 62:-2.54875 63:10.92425 64:10.77725 65:6.56125 66:-0.49975 67:-5.18675 68:0.29425 69:40 70:2.81425 71:40 72:40 73:-1.59875 74:0.21325 75:2.32925 76:-0.69375 77:3.61225 78:2.57725 79:5.89325 80:40 81:11.40725 82:40 83:8.46025 84:1.61125 85:0.02025 86:3.95225 87:1.40525 88:6.90225 89:-2.07275 90:2.78625 91:1.05525 92:2.21325 93:-5.39775 94:8.56225 95:-1.46975 96:40 97:0.85425 98:2.95225 99:40 100:-2.02675 101:0.88525 102:40 103:6.21425 104:1.69225 105:8.06625 106:14.47525 107:8.38625 108:10.96625 109:5.84925 110:0.60525 111:1.70025 112:9.70525 113:40 114:14.05125 115:-5.10175 116:2.00725 117:12.88625 118:3.07025 119:1.64825 120:4.83725 121:5.82625 122:9.77225 123:-1.19175 124:40 125:4.10025 126:-2.73775 127:7.69025 128:5.52025 129:6.00725 130:4.86725 131:10.73425 132:6.10825 133:5.61625 134:9.20325 135:40 136:0.94025 137:2.37625 138:3.04025 139:40 140:10.78825 141:40 142:3.66825 143:12.25025 144:-3.07075 145:-1.63175 146:-9.64375 147:1.25825 148:40 149:6.17025 150:40 151:40 152:2.95225 153:7.01425 154:13.47025 155:-5.76475 156:6.59525 157:8.06025 158:-2.46875 159:3.64725 160:2.96625 161:-0.18475 162:12.62925 163:-1.94575 164:5.89525 165:4.37025 166:40 167:0.01125 168:9.04425 169:0.82125 170:4.78825 171:8.19625 172:3.48025 173:4.01625 174:2.84125 175:5.74925 176:-0.89375 177:-0.11975 178:8.86725 179:2.36125 180:4.43325 181:8.28825 182:9.85325 183:6.56725 184:4.59925 185:1.86025 186:13.44425 187:11.58525 188:0.77125 189:40 190:4.72725 191:8.04125 192:2.56025 193:2.60125 194:2.36625 195:0.77325 196:8.18525 197:40 198:4.89825 199:8.41325 200:9.78725 201:-0.15675 202:7.23725 203:8.19925 204:3.09425 205:5.87325 206:10.24025 207:1.61325 208:10.43325 209:-1.13975 210:9.33825 211:7.48625 212:4.77025 213:12.36925 214:8.90725 215:11.43025 216:40 217:10.08925 218:-4.77475 219:6.11325 220:40 221:7.77125 222:6.80925 223:9.58725 224:3.90725 225:-5.18475 226:4.45625 227:5.65325 228:6.69825 229:3.58125 230:9.81425 231:5.55625 232:40 233:10.07425 234:40 235:9.38325 236:7.12725 237:7.75825 238:5.96725 239:2.59325 240:11.10325 241:40 242:40 243:6.62925 244:6.61025 245:7.97225 246:8.35925 247:40 248:11.70625 249:8.70825 250:4.97425 251:40 252:40 253:40 254:13.80425 255:40 256:40 257:40 258:14.99925 259:40 260:40 261:40 262:40 263:13.76225 264:15.83225 265:40 266:40 267:40 268:40 269:8.23225 270:40 271:40 272:15.25225 273:16.01025 274:40 275:40 276:40 277:40 278:40 279:40 280:40 281:40 282:6.30225 283:40 284:40 285:40 286:40 287:4.39325 288:1.76225 289:3.78425 290:40 291:14.61425 292:40 293:12.67525 294:7.53925 295:8.91925 296:40 297:40 298:40 299:11.77325 300:9.46125 301:10.35525 302:10.56125 303:7.65425 304:12.29825 305:40 306:40 307:40 308:0.15225 309:6.02625 310:12.21325 311:6.46225 312:40 313:40 314:12.47225 315:2.26425 316:8.90325 317:3.53525 318:40 319:40 320:8.07625 321:1.15625 322:40 323:5.35825 324:15.91625 325:11.32125 326:6.16825 327:9.68525 328:7.80025 329:40 330:0.67625 331:40 332:9.72825 333:4.14125 334:7.82525 335:1.75425 336:6.59525 337:40 338:40 339:11.17525 340:1.52925 341:8.89125 342:40 343:40 344:40 345:4.90725 346:40 347:40 348:40 349:40 350:0.27525 351:7.02025 352:7.43825 353:40 354:40 355:4.78125 356:40 357:12.73825 358:40 359:40 360:10.29225 361:-1.25375 362:10.51825 363:8.56925 364:40 365:40 366:13.48125 367:40 368:6.97125 369:40 370:40 371:40 372:-0.12575 373:40 374:40 375:40 376:40 377:40 378:40 379:6.82725 380:14.51025 381:14.45425 382:40 384:5.06225 
0.25 1:40 2:40 3:5.04325 4:3.83925 5:40 6:2.80425 7:8.91925 8:40 9:40 10:40 11:3.66525 12:4.12725 13:40 14:2.82925 15:-5.77475 16:-6.78975 17:3.57925 18:12.12525 19:-0.33675 20:-6.41875 21:-1.37575 22:-0.30475 23:-0.31675 24:40 25:7.04025 26:40 27:-7.31375 28:-0.32775 29:-0.92475 30:1.02325 31:-0.84775 32:4.13425 33:0.16225 34:4.02725 35:4.00325 36:3.85625 37:-1.16175 38:40 39:4.85925 40:0.46225 41:-0.66075 42:40 43:40 44:40 45:9.32625 46:40 47:-3.39675 48:-1.74675 49:40 50:40 51:40 52:40 53:5.92625 54:40 55:3.75825 56:4.55025 57:40 58:-6.99675 59:40 60:-1.23275 61:40 62:-0.48175 63:40 64:40 65:1.76425 66:40 67:-7.30675 68:40 69:40 70:40 71:40 72:40 73:1.85125 74:2.26425 75:-0.27875 76:-1.73575 77:40 78:0.52725 79:40 80:40 81:40 82:40 83:40 84:1.17025 85:-1.62175 86:0.88925 87:-0.23975 88:7.16025 89:0.33225 90:4.13325 91:40 92:3.80025 93:-8.39875 94:40 95:-5.01175 96:40 97:2.18425 98:3.62425 99:40 100:-4.06575 101:5.56625 102:40 103:40 104:5.37625 105:40 106:40 107:40 108:40 109:40 110:-0.25575 111:-4.23875 112:40 113:40 114:40 115:-9.87475 116:-0.30575 117:40 118:40 119:1.18425 120:3.12525 121:0.71225 122:7.16925 123:0.90925 124:5.02925 125:40 126:-1.19675 127:40 128:40 129:11.00525 130:3.41625 131:40 132:40 133:40 134:40 135:40 136:5.73825 137:8.68825 138:40 139:40 140:40 141:40 142:40 143:40 144:1.06125 145:-5.37975 146:-10.04075 147:9.51425 148:40 149:40 150:40 151:40 152:3.59125 153:40 154:40 155:-2.35275 156:40 157:40 158:-4.83375 159:7.49025 160:1.63625 161:40 162:40 163:3.54525 164:40 165:8.35425 166:40 167:0.66725 168:6.07925 169:2.77625 170:40 171:40 172:-1.56775 173:40 174:1.80125 175:-1.40375 176:0.53525 177:-2.61075 178:40 179:-0.70075 180:40 181:40 182:40 183:40 184:40 185:40 186:40 187:40 188:3.19225 189:40 190:40 191:40 192:0.48825 193:-0.22175 194:40 195:-0.59375 196:40 197:40 198:40 199:40 200:40 201:3.68425 202:40 203:40 204:3.69225 205:2.45625 206:40 207:2.07225 208:40 209:3.67325 210:40 211:3.48025 212:3.43025 213:40 214:40 215:40 216:40 217:40 218:-4.32875 219:40 220:40 221:-0.93175 222:40 223:40 224:-4.24375 225:-7.36675 226:40 227:40 228:5.99025 229:-1.00975 230:40 231:3.85025 232:40 233:5.24125 234:40 235:40 236:7.20425 237:4.75925 238:4.96925 239:40 240:40 241:40 242:40 243:40 244:5.28625 245:40 246:40 247:40 248:40 249:40 250:40 251:40 252:40 253:40 254:40 255:40 256:40 257:40 258:40 259:40 260:40 261:40 262:40 263:40 264:40 265:40 266:40 267:40 268:40 269:10.05025 270:40 271:40 272:40 273:40 274:40 275:40 276:40 277:40 278:40 279:40 280:40 281:40 282:40 283:40 284:40 285:40 286:40 287:1.94925 288:1.01125 289:40 290:40 291:40 292:40 293:40 294:9.03025 295:7.08225 296:40 297:40 298:40 299:40 300:40 301:40 302:40 303:40 304:40 305:40 306:40 307:40 308:-4.76875 309:40 310:40 311:40 312:40 313:40 314:40 315:-0.31075 316:40 317:2.82625 318:40 319:40 320:6.95925 321:12.58425 322:40 323:5.73525 324:40 325:3.47225 326:40 327:5.95325 328:40 329:40 330:0.53025 331:40 332:40 333:40 334:7.44425 335:0.76825 336:40 337:40 338:40 339:40 340:-0.14875 341:40 342:40 343:40 344:40 345:40 346:40 347:40 348:40 349:40 350:1.49325 351:40 352:2.35225 353:40 354:40 355:40 356:40 357:40 358:40 359:40 360:40 361:40 362:40 363:2.15825 364:40 365:40 366:40 367:40 368:40 369:40 370:40 371:40 372:-0.96975 373:40 374:40 375:40 376:40 377:40 378:40 379:7.16625 380:40 381:40 382:40 384:40 
0.25 1:40 2:40 3:6.314 4:9.763 5:40 6:3.29 7:40 8:40 9:40 10:40 11:4.609 12:4.269 13:40 14:4.806 15:-6.4 16:-5.006 17:1.909 18:12.017 19:-0.963 20:-7.11 21:0.182 22:-1.181 23:1.52 24:40 25:40 26:40 27:-5.924 28:1.608 29:2.547 30:1.353 31:0.975 32:40 33:-0.749 34:2.559 35:4.337 36:4.305 37:-0.601 38:40 39:5.612 40:0.765 41:0.126 42:40 43:40 44:40 45:40 46:40 47:-2.378 48:-1.919 49:40 50:40 51:40 52:40 53:40 54:40 55:40 56:2.001 57:40 58:-5.263 59:40 60:-1.285 61:40 62:0.226 63:40 64:40 65:0.783 66:40 67:-6.65 68:40 69:40 70:11.47 71:40 72:40 73:40 74:5.985 75:40 76:0.152 77:40 78:2.359 79:40 80:40 81:12.889 82:40 83:40 84:2.125 85:-0.145 86:0.335 87:0.768 88:40 89:0.945 90:3.418 91:40 92:6.643 93:-7.205 94:40 95:-3.511 96:40 97:3.884 98:40 99:40 100:-5.275 101:40 102:40 103:40 104:40 105:40 106:40 107:4.708 108:40 109:2.881 110:-0.786 111:-2.572 112:40 113:40 114:40 115:-8.313 116:0.329 117:40 118:40 119:-0.189 120:9.548 121:2.25 122:40 123:-0.552 124:40 125:40 126:-0.088 127:40 128:7.121 129:40 130:3.506 131:40 132:40 133:40 134:40 135:40 136:4.282 137:9.566 138:40 139:40 140:40 141:40 142:40 143:40 144:4.092 145:-7.677 146:-6.404 147:40 148:40 149:10.358 150:40 151:40 152:40 153:40 154:40 155:-2.207 156:40 157:40 158:-6.046 159:11.879 160:0.261 161:40 162:40 163:1.463 164:40 165:11.34 166:40 167:-0.025 168:40 169:2.362 170:40 171:40 172:0.242 173:40 174:8.954 175:1.058 176:5.451 177:-2.866 178:40 179:0.325 180:40 181:40 182:40 183:40 184:40 185:40 186:40 187:40 188:3.489 189:40 190:40 191:40 192:1.863 193:1.571 194:2.903 195:1.153 196:40 197:40 198:40 199:40 200:40 201:40 202:40 203:40 204:3.179 205:40 206:40 207:3.272 208:40 209:-0.202 210:40 211:40 212:1.844 213:40 214:40 215:40 216:40 217:40 218:-3.375 219:2.923 220:40 221:-0.629 222:40 223:40 224:-3.733 225:-8.353 226:40 227:40 228:8.872 229:-0.787 230:40 231:40 232:40 233:7.598 234:40 235:40 236:3.412 237:40 238:40 239:40 240:40 241:40 242:40 243:40 244:40 245:40 246:40 247:40 248:40 249:40 250:40 251:40 252:40 253:40 254:40 255:40 256:40 257:40 258:40 259:40 260:40 261:40 262:40 263:40 264:40 265:40 266:40 267:40 268:40 269:40 270:40 271:40 272:8.858 273:40 274:40 275:40 276:40 277:40 278:40 279:40 280:40 281:40 282:7.419 283:40 284:40 285:40 286:40 287:2.075 288:3.664 289:1.081 290:40 291:40 292:40 293:40 294:2.098 295:6.231 296:40 297:40 298:40 299:40 300:40 301:40 302:40 303:40 304:40 305:40 306:40 307:40 308:-2.436 309:40 310:40 311:40 312:40 313:40 314:40 315:2.965 316:40 317:40 318:40 319:40 320:40 321:9.156 322:40 323:40 324:40 325:6.021 326:40 327:6.807 328:40 329:40 330:2.737 331:40 332:40 333:40 334:40 335:0.138 336:40 337:40 338:40 339:40 340:-0.212 341:40 342:40 343:40 344:40 345:40 346:40 347:40 348:40 349:40 350:1.675 351:40 352:3.136 353:40 354:40 355:40 356:40 357:40 358:40 359:40 360:40 361:40 362:12.363 363:40 364:40 365:40 366:40 367:40 368:40 369:40 370:40 371:40 372:1.938 373:40 374:40 375:40 376:40 377:40 378:40 379:3.1 380:40 381:40 382:9.829 384:40 
0.25 1:40 2:5.00625 3:7.91325 4:9.40325 5:40 6:4.87225 7:8.59625 8:40 9:40 10:40 11:6.28025 12:6.13825 13:40 14:10.77925 15:-5.63175 16:-6.61175 17:5.00625 18:40 19:-1.94575 20:-6.80375 21:-3.74175 22:-1.06975 23:-0.81475 24:40 25:40 26:40 27:-6.65575 28:-1.01775 29:0.02825 30:0.45225 31:-0.84975 32:0.23425 33:0.78325 34:6.50225 35:6.31225 36:6.15225 37:-0.22875 38:40 39:3.65425 40:3.21425 41:1.42525 42:8.23725 43:40 44:40 45:40 46:40 47:-3.31575 48:-1.63075 49:40 50:40 51:40 52:40 53:7.15625 54:40 55:1.95325 56:8.90825 57:40 58:-6.74475 59:40 60:-0.78475 61:40 62:0.84825 63:40 64:40 65:2.51725 66:40 67:-5.81775 68:2.21025 69:40 70:5.24525 71:40 72:40 73:1.70425 74:4.32425 75:-0.60875 76:-0.82075 77:40 78:0.61725 79:40 80:40 81:13.20225 82:40 83:8.85925 84:2.29025 85:-0.95975 86:1.40625 87:-1.02275 88:40 89:0.64725 90:4.76525 91:5.36725 92:6.55225 93:-8.39975 94:40 95:-3.79575 96:40 97:2.78325 98:3.63825 99:40 100:-3.56975 101:1.37425 102:40 103:40 104:10.17925 105:40 106:40 107:40 108:40 109:3.77225 110:0.18325 111:-4.12475 112:40 113:40 114:40 115:-8.40175 116:-0.17475 117:40 118:7.49325 119:3.11825 120:12.02225 121:0.05025 122:10.95225 123:-0.17475 124:40 125:40 126:-1.27975 127:40 128:11.06325 129:40 130:4.95525 131:40 132:3.86025 133:40 134:40 135:40 136:2.60425 137:11.20525 138:13.62125 139:40 140:40 141:40 142:10.45825 143:40 144:-0.60875 145:-5.94675 146:-10.36675 147:5.59025 148:40 149:9.03125 150:40 151:40 152:40 153:7.93225 154:40 155:-2.88475 156:40 157:40 158:-4.94175 159:9.72025 160:2.58525 161:2.05425 162:40 163:1.01925 164:12.91025 165:13.77725 166:40 167:2.47625 168:11.62825 169:0.49325 170:8.58625 171:40 172:-0.96875 173:40 174:2.01025 175:-0.17475 176:0.23825 177:-3.31375 178:10.28025 179:-0.19175 180:40 181:40 182:40 183:14.54625 184:40 185:40 186:40 187:40 188:2.35425 189:40 190:40 191:40 192:1.79325 193:3.32325 194:3.85625 195:-0.35075 196:40 197:40 198:40 199:40 200:40 201:6.10225 202:40 203:40 204:4.19325 205:8.82125 206:9.10325 207:3.95025 208:40 209:2.84725 210:8.97725 211:13.30825 212:2.91825 213:40 214:40 215:40 216:40 217:40 218:-4.40375 219:4.44525 220:40 221:0.84625 222:40 223:40 224:-2.86375 225:-7.11375 226:9.39625 227:40 228:12.04525 229:-0.93575 230:40 231:4.56025 232:40 233:40 234:40 235:40 236:8.11325 237:40 238:40 239:8.62225 240:40 241:40 242:40 243:40 244:40 245:40 246:6.48025 247:40 248:40 249:40 250:40 251:40 252:40 253:40 254:40 255:40 256:13.91725 257:40 258:40 259:40 260:40 261:40 262:40 263:40 264:40 265:40 266:40 267:40 268:40 269:40 270:40 271:40 272:40 273:40 274:40 275:40 276:40 277:40 278:40 279:40 280:40 281:40 282:40 283:40 284:40 285:40 286:40 287:3.69425 288:8.24025 289:1.98025 290:40 291:40 292:40 293:40 294:8.69125 295:8.99625 296:40 297:40 298:40 299:40 300:40 301:40 302:40 303:13.50425 304:40 305:40 306:40 307:40 308:-4.11275 309:40 310:40 311:40 312:40 313:40 314:40 315:-0.50275 316:40 317:5.71525 318:40 319:40 320:40 321:13.11025 322:40 323:6.72225 324:13.27425 325:3.36225 326:40 327:13.75725 328:40 329:40 330:1.33425 331:40 332:5.78225 333:40 334:10.04625 335:1.50525 336:9.70625 337:40 338:40 339:40 340:1.22525 341:40 342:40 343:40 344:40 345:6.05225 346:40 347:40 348:40 349:40 350:5.53325 351:40 352:2.39525 353:40 354:40 355:5.90725 356:40 357:7.68425 358:40 359:40 360:40 361:40 362:7.97625 363:11.16125 364:40 365:40 366:40 367:40 368:40 369:40 370:40 371:40 372:0.51025 373:40 374:40 375:40 376:40 377:40 378:40 379:40 380:40 381:40 382:40 384:40 
0.25 1:1.443 2:3.975 3:3.259 4:1.515 5:40 6:2.548 7:13.787 8:7.585 9:3.952 10:6.297 11:4.002 12:4.184 13:3.36 14:1.154 15:-5.385 16:-4.655 17:2.793 18:4.41 19:-0.937 20:-6.306 21:-4.272 22:0.458 23:-3.673 24:-0.879 25:2.186 26:40 27:-4.83 28:-2.518 29:-0.144 30:2.221 31:-1.055 32:0.003 33:0.407 34:2.251 35:4.113 36:4.132 37:0.127 38:6.286 39:4.797 40:-1.938 41:-2.205 42:4.391 43:8.915 44:40 45:3.651 46:40 47:-5.128 48:-1.916 49:5.792 50:40 51:40 52:5.758 53:-0.023 54:4.207 55:2.664 56:-0.044 57:40 58:-4.889 59:40 60:-1.723 61:5.275 62:-4.012 63:7.719 64:10.028 65:4.78 66:0.425 67:-4.914 68:0.178 69:10.064 70:3.298 71:10.677 72:40 73:-0.631 74:0.822 75:2.026 76:2.909 77:7.506 78:3.075 79:6.162 80:9.641 81:11.898 82:4.007 83:9.013 84:2.26 85:0.215 86:2.909 87:1.163 88:6.181 89:-2.805 90:3.282 91:3.208 92:1.224 93:-4.779 94:7.341 95:-1.1 96:40 97:0.694 98:3.983 99:40 100:-4.282 101:1.536 102:40 103:7.217 104:1.704 105:7.12 106:12.876 107:6.949 108:8.167 109:5.737 110:0.085 111:1.516 112:40 113:40 114:10.688 115:-4.821 116:-0.012 117:11.433 118:1.859 119:-0.868 120:4.285 121:5.292 122:7.508 123:-1.306 124:40 125:4.546 126:-0.636 127:8.056 128:3.866 129:6.006 130:3.9 131:9.172 132:4.96 133:5.02 134:4.948 135:40 136:-0.585 137:4.666 138:1.851 139:40 140:40 141:40 142:5.176 143:11.205 144:-1.458 145:-1.716 146:-8.575 147:4.198 148:40 149:4.871 150:40 151:40 152:2.828 153:7.507 154:13.543 155:-5.971 156:16.375 157:4.986 158:-3.423 159:4.634 160:2.361 161:0.943 162:11.053 163:-2.012 164:8.159 165:4.471 166:11.265 167:-0.51 168:9.402 169:3.564 170:4.973 171:7.823 172:3.845 173:3.12 174:5.192 175:3.486 176:-1.68 177:-2.485 178:6.566 179:1.95 180:4.758 181:8.666 182:8.116 183:4.901 184:4.029 185:1.269 186:15.513 187:11.254 188:0.864 189:40 190:5.952 191:7.303 192:3.112 193:3.014 194:0.468 195:2.26 196:40 197:9.901 198:5.151 199:40 200:9.303 201:1.084 202:8.137 203:8.281 204:4.938 205:6.119 206:9.912 207:1.779 208:10.229 209:-1.693 210:10.862 211:9.163 212:4.81 213:12.933 214:40 215:11.231 216:40 217:40 218:-7.133 219:9.63 220:40 221:6.424 222:7.475 223:8.756 224:0.652 225:-5.394 226:4.725 227:40 228:5.575 229:0.079 230:9.106 231:6.732 232:40 233:9.06 234:40 235:40 236:6.443 237:7.993 238:7.097 239:3.996 240:11.907 241:40 242:8.843 243:10.208 244:7.765 245:7.182 246:8.259 247:40 248:40 249:40 250:4.098 251:40 252:40 253:40 254:40 255:40 256:40 257:40 258:40 259:40 260:40 261:40 262:40 263:40 264:11.137 265:40 266:40 267:10.236 268:40 269:40 270:40 271:40 272:0.173 273:10.453 274:40 275:10.116 276:14.115 277:40 278:40 279:40 280:16.426 281:40 282:13.776 283:40 284:15.056 285:40 286:40 287:3.268 288:1.125 289:4.8 290:40 291:11.221 292:40 293:9.436 294:7.68 295:12.673 296:40 297:40 298:40 299:40 300:11.512 301:40 302:9.406 303:6.501 304:40 305:40 306:40 307:12.504 308:-0.196 309:6.585 310:6.948 311:5.923 312:40 313:40 314:12.123 315:3.479 316:8.187 317:5.094 318:40 319:40 320:8.401 321:-4.371 322:40 323:8.001 324:40 325:13.048 326:5.019 327:7.623 328:6.135 329:12.052 330:1.122 331:14.677 332:10.671 333:6.783 334:11.867 335:0.651 336:5.874 337:40 338:40 339:9.372 340:1.8 341:8.342 342:40 343:40 344:13.637 345:4.298 346:40 347:40 348:40 349:40 350:-1.915 351:5.105 352:5.139 353:40 354:40 355:6.551 356:40 357:10.915 358:40 359:40 360:12.686 361:-1.771 362:8.09 363:8.004 364:40 365:40 366:40 367:40 368:6.664 369:40 370:40 371:40 372:1.429 373:40 374:40 375:40 376:40 377:40 378:40 379:5.22 380:40 381:13.624 382:9.526 384:8.085 
0.25 1:14.77625 2:1.76925 3:2.18725 4:4.31425 5:40 6:0.56825 7:7.29125 8:40 9:9.61425 10:40 11:8.31625 12:8.04325 13:40 14:8.45225 15:-4.81775 16:-7.90975 17:0.03325 18:11.57325 19:-3.96075 20:-8.88475 21:-7.46575 22:-3.79775 23:-1.86675 24:40 25:40 26:40 27:-4.94675 28:-3.62075 29:-2.97375 30:-3.30775 31:-0.73775 32:0.86225 33:3.50725 34:4.56925 35:7.97425 36:7.83425 37:1.03625 38:12.66025 39:3.90925 40:0.90025 41:-1.94975 42:14.01825 43:6.97625 44:40 45:5.74225 46:40 47:-4.19475 48:-4.44975 49:40 50:40 51:40 52:15.46725 53:5.58725 54:7.54725 55:-0.19475 56:1.46025 57:40 58:-7.95475 59:40 60:-3.06175 61:40 62:-1.77075 63:40 64:40 65:5.63025 66:2.75225 67:-5.48575 68:1.69525 69:40 70:4.64725 71:40 72:40 73:2.57025 74:3.46125 75:0.44325 76:2.88025 77:40 78:6.35725 79:13.07525 80:40 81:40 82:40 83:5.26425 84:3.56325 85:-0.76175 86:2.45225 87:-0.46275 88:40 89:-2.65475 90:3.44125 91:6.73525 92:1.30625 93:-6.34675 94:40 95:-2.85675 96:40 97:0.55325 98:3.10225 99:40 100:-4.00575 101:1.98925 102:40 103:40 104:9.85125 105:40 106:40 107:40 108:15.47625 109:3.87425 110:-1.23375 111:-2.32275 112:40 113:40 114:8.35425 115:-6.97375 116:-2.32875 117:40 118:9.66525 119:2.54125 120:3.22225 121:-0.69775 122:40 123:2.34625 124:15.46225 125:40 126:-0.54975 127:14.04225 128:40 129:40 130:6.79725 131:12.47925 132:7.03825 133:9.58325 134:40 135:40 136:3.82325 137:12.97325 138:11.94025 139:40 140:40 141:40 142:7.57425 143:40 144:1.83425 145:-3.74975 146:-8.74575 147:6.96925 148:40 149:4.53725 150:40 151:40 152:1.80625 153:4.15525 154:5.09725 155:-4.55675 156:40 157:40 158:-2.44275 159:9.79225 160:12.30525 161:1.93925 162:40 163:0.23825 164:8.09325 165:40 166:40 167:3.88825 168:40 169:0.43725 170:40 171:40 172:4.12325 173:40 174:1.49625 175:4.24825 176:-3.63775 177:1.25225 178:40 179:2.78625 180:10.46525 181:6.95825 182:13.44725 183:4.26025 184:5.63525 185:12.62325 186:40 187:40 188:10.15625 189:40 190:40 191:14.99525 192:-2.04575 193:0.55925 194:9.38725 195:0.29225 196:40 197:40 198:40 199:40 200:13.72225 201:9.12125 202:40 203:40 204:5.21925 205:6.41825 206:6.83425 207:3.15825 208:40 209:40 210:40 211:40 212:5.25425 213:40 214:40 215:40 216:40 217:40 218:-8.52275 219:10.91625 220:40 221:-0.94975 222:40 223:40 224:0.52925 225:-6.78075 226:11.00125 227:40 228:7.32525 229:0.58025 230:40 231:8.86825 232:40 233:14.88825 234:40 235:40 236:4.42625 237:40 238:3.82125 239:3.22725 240:40 241:40 242:40 243:40 244:40 245:15.22825 246:6.67225 247:40 248:40 249:40 250:40 251:40 252:40 253:40 254:40 255:40 256:40 257:40 258:40 259:40 260:40 261:40 262:40 263:16.36425 264:10.05425 265:14.64025 266:40 267:12.27225 268:40 269:40 270:40 271:40 272:12.14025 273:15.39125 274:40 275:40 276:40 277:40 278:40 279:40 280:10.85425 281:15.46325 282:5.76725 283:40 284:40 285:16.43625 286:40 287:3.43725 288:5.01725 289:4.01425 290:40 291:8.45825 292:40 293:40 294:40 295:13.95225 296:40 297:40 298:40 299:40 300:40 301:12.81725 302:40 303:11.07125 304:40 305:40 306:40 307:40 308:0.75325 309:6.80425 310:40 311:40 312:40 313:40 314:40 315:1.04025 316:11.89825 317:4.26025 318:16.70225 319:40 320:40 321:6.93825 322:40 323:7.24025 324:12.26125 325:6.31525 326:40 327:8.27225 328:7.61325 329:40 330:1.80625 331:40 332:40 333:40 334:6.32025 335:-1.77375 336:12.83325 337:40 338:40 339:12.39325 340:1.41925 341:40 342:40 343:40 344:40 345:40 346:40 347:40 348:40 349:40 350:5.29125 351:10.56325 352:2.95225 353:40 354:40 355:13.28525 356:40 357:40 358:40 359:40 360:40 361:40 362:40 363:15.63725 364:40 365:14.23125 366:40 367:40 368:40 369:40 370:40 371:40 372:6.18925 373:40 374:40 375:40 376:40 377:40 378:40 379:40 380:40 381:8.82825 382:40 384:40 
0.25 1:40 2:5.18975 3:5.82575 4:12.57675 5:40 6:6.07375 7:40 8:40 9:4.98475 10:40 11:7.16675 12:7.07275 13:13.30675 14:4.55875 15:-6.02125 16:-5.92925 17:3.59375 18:16.22975 19:-1.28825 20:-6.86725 21:-3.86625 22:-0.90925 23:-0.72725 24:13.78275 25:10.25875 26:40 27:-5.07125 28:-2.29725 29:2.11575 30:1.28675 31:-0.85025 32:1.45875 33:0.89275 34:5.59975 35:7.15775 36:7.24475 37:-0.37525 38:40 39:4.00775 40:1.62175 41:0.22975 42:5.83875 43:8.31375 44:14.13875 45:6.66175 46:40 47:-4.14425 48:-2.65625 49:11.22475 50:40 51:40 52:14.88675 53:6.64475 54:8.03575 55:2.06575 56:11.00975 57:40 58:-6.12025 59:40 60:-1.23725 61:40 62:1.18475 63:40 64:40 65:7.71175 66:3.59075 67:-4.72225 68:1.54275 69:40 70:4.51575 71:40 72:40 73:0.28075 74:3.58675 75:1.30875 76:1.78175 77:9.58275 78:3.30175 79:8.71775 80:40 81:15.03575 82:40 83:7.97075 84:5.62175 85:0.02875 86:2.66275 87:0.25175 88:8.17175 89:1.26775 90:5.19475 91:1.82775 92:6.23775 93:-5.72725 94:40 95:-0.86025 96:40 97:1.78975 98:3.34775 99:40 100:-3.46825 101:0.63475 102:40 103:40 104:9.52875 105:40 106:11.01375 107:7.81175 108:12.76975 109:4.09075 110:-0.25025 111:-1.45625 112:40 113:40 114:40 115:-4.61025 116:0.47375 117:40 118:4.40775 119:2.77075 120:6.70375 121:1.88575 122:40 123:2.46575 124:40 125:6.43975 126:-0.26925 127:10.26975 128:17.85075 129:9.54475 130:8.01275 131:10.16275 132:3.88775 133:8.51475 134:7.21675 135:40 136:4.71075 137:5.55675 138:17.25075 139:9.16075 140:40 141:40 142:5.48675 143:40 144:-0.31125 145:-4.14325 146:-8.80525 147:4.93575 148:40 149:8.25575 150:40 151:40 152:4.72475 153:7.79475 154:40 155:-4.46425 156:40 157:40 158:-5.27625 159:4.35575 160:2.31075 161:2.44475 162:40 163:-0.01225 164:9.57175 165:10.12875 166:40 167:2.04075 168:40 169:1.78575 170:6.62175 171:10.83775 172:2.36075 173:40 174:3.69875 175:3.34675 176:0.64075 177:-0.71825 178:40 179:0.99875 180:4.17875 181:7.09075 182:40 183:5.14575 184:8.90275 185:40 186:10.11875 187:40 188:4.09975 189:40 190:40 191:40 192:4.33575 193:5.66075 194:2.68875 195:0.55475 196:40 197:40 198:7.11875 199:40 200:7.79575 201:2.16975 202:40 203:14.22375 204:2.92375 205:6.15975 206:6.53875 207:2.98875 208:40 209:2.54475 210:40 211:12.21375 212:2.68775 213:40 214:40 215:40 216:40 217:40 218:-5.62825 219:10.17575 220:40 221:4.00975 222:40 223:40 224:1.34075 225:-5.73125 226:7.87875 227:40 228:9.54675 229:1.37575 230:15.46975 231:5.75375 232:40 233:8.93975 234:40 235:40 236:8.29575 237:6.72575 238:7.07875 239:3.75775 240:40 241:40 242:13.32075 243:12.08575 244:40 245:40 246:7.01175 247:16.51575 248:40 249:40 250:40 251:40 252:40 253:40 254:40 255:40 256:14.74075 257:40 258:40 259:40 260:40 261:40 262:40 263:14.59475 264:40 265:40 266:40 267:40 268:40 269:40 270:40 271:40 272:40 273:40 274:40 275:40 276:40 277:40 278:40 279:40 280:40 281:40 282:15.49275 283:40 284:40 285:40 286:40 287:5.60775 288:2.61975 289:1.70675 290:40 291:40 292:40 293:40 294:9.98075 295:8.07075 296:40 297:40 298:40 299:16.46075 300:40 301:40 302:40 303:40 304:40 305:40 306:40 307:40 308:0.28375 309:16.79575 310:40 311:6.80575 312:40 313:40 314:40 315:0.92375 316:7.54975 317:4.21875 318:40 319:40 320:40 321:13.62875 322:40 323:8.74975 324:40 325:9.63375 326:15.13975 327:7.74175 328:8.16875 329:40 330:3.57175 331:40 332:8.26575 333:13.26675 334:11.12275 335:-0.26625 336:6.64575 337:40 338:40 339:40 340:2.53375 341:40 342:40 343:40 344:40 345:9.99175 346:40 347:40 348:40 349:40 350:3.56875 351:7.92975 352:4.06175 353:40 354:40 355:5.53875 356:40 357:40 358:40 359:40 360:40 361:40 362:8.87875 363:5.88875 364:40 365:40 366:40 367:40 368:40 369:40 370:40 371:40 372:0.03375 373:40 374:40 375:40 376:40 377:40 378:40 379:6.15075 380:40 381:40 382:40 384:40 
-0.1875 1:2.985 2:5.72 3:3.626 4:0.907 5:40 6:1.958 7:9.657 8:10.484 9:7.226 10:16.601 11:7.359 12:7.323 13:3.638 14:0.347 15:-3.608 16:-4.409 17:2.562 18:4.446 19:-0.878 20:-6.435 21:-3.969 22:1.114 23:-2.976 24:-0.001 25:3.65 26:40 27:-5.799 28:-0.578 29:-1.112 30:1.2 31:-1.129 32:0.415 33:0.613 34:2.767 35:7.136 36:6.807 37:0.854 38:8.522 39:5.438 40:-1.445 41:-1.948 42:7.646 43:8.047 44:40 45:5.578 46:11.579 47:-3.348 48:-1.255 49:9.599 50:40 51:10.851 52:9.062 53:1.554 54:6.75 55:3.564 56:0.299 57:40 58:-4.842 59:40 60:-1.729 61:6.794 62:2.626 63:40 64:10.122 65:5.671 66:3.804 67:-4.655 68:1.353 69:40 70:3.129 71:40 72:40 73:-1.204 74:0.565 75:1.958 76:2.695 77:7.896 78:3.201 79:9.494 80:10.91 81:40 82:40 83:9.754 84:1.785 85:-0.111 86:3.654 87:0.871 88:7.441 89:-0.623 90:3.826 91:2.952 92:1.882 93:-4.922 94:8.744 95:-0.827 96:40 97:1.477 98:3.24 99:40 100:-3.106 101:1.257 102:13.4 103:11.936 104:2.443 105:9.159 106:13.692 107:8.764 108:9.9 109:7.834 110:0.763 111:1.187 112:40 113:40 114:11.372 115:-5.18 116:3.626 117:12.667 118:5.764 119:4.061 120:6.729 121:4.788 122:7.338 123:-1.077 124:40 125:4.467 126:-2.076 127:7.065 128:40 129:6.667 130:4.416 131:9.922 132:8.381 133:5.061 134:8.356 135:40 136:0.368 137:7.58 138:5.436 139:40 140:40 141:40 142:6.941 143:40 144:-2.329 145:-1.656 146:-9.173 147:3.661 148:40 149:6.357 150:40 151:40 152:2.823 153:6.019 154:12.001 155:-3.268 156:10.357 157:40 158:-2.292 159:5.097 160:3.166 161:0.484 162:12.29 163:-2.105 164:8.795 165:3.834 166:40 167:-0.138 168:8.89 169:0.724 170:5.839 171:8.565 172:2.64 173:3.146 174:2.834 175:5.355 176:-0.248 177:-0.375 178:9.341 179:2.83 180:4.147 181:8.735 182:11.297 183:5.441 184:9.296 185:10.775 186:10.879 187:13.351 188:1.831 189:40 190:15.415 191:40 192:2.253 193:1.55 194:5.846 195:1.707 196:10.087 197:40 198:5.934 199:40 200:10.259 201:0.861 202:9.695 203:8.957 204:4.684 205:5.07 206:11.691 207:2.277 208:9.896 209:-1.218 210:11.258 211:7.775 212:5.466 213:15.948 214:40 215:8.896 216:40 217:12.237 218:-4.293 219:7.697 220:40 221:6.867 222:40 223:12.771 224:5.272 225:-4.958 226:5.582 227:9.155 228:7.437 229:3.433 230:9.801 231:5.885 232:40 233:14.118 234:40 235:40 236:5.969 237:7.706 238:6.3 239:3.119 240:11.388 241:40 242:40 243:13.627 244:40 245:6.721 246:7.674 247:12.138 248:40 249:40 250:5.297 251:40 252:40 253:40 254:10.459 255:40 256:40 257:40 258:40 259:40 260:40 261:40 262:40 263:40 264:14.478 265:40 266:40 267:14.307 268:40 269:40 270:40 271:40 272:8.821 273:16.707 274:40 275:40 276:40 277:40 278:40 279:40 280:40 281:40 282:13.172 283:40 284:16.849 285:40 286:40 287:3.695 288:2.706 289:4.758 290:40 291:15.058 292:40 293:40 294:8.828 295:11.539 296:40 297:40 298:40 299:13.931 300:13.364 301:10.949 302:13.091 303:10.087 304:12.707 305:40 306:40 307:11.788 308:0.389 309:7.304 310:10.646 311:6.917 312:40 313:40 314:11.257 315:1.861 316:8.507 317:4.538 318:10.002 319:40 320:14.125 321:11.819 322:40 323:7.02 324:15.946 325:10.104 326:7.782 327:7.767 328:7.365 329:40 330:0.523 331:40 332:10.34 333:6.748 334:8.208 335:1.191 336:5.276 337:40 338:40 339:12.037 340:1.145 341:11.022 342:40 343:40 344:40 345:6.435 346:40 347:40 348:40 349:40 350:3.763 351:7.728 352:6.537 353:40 354:40 355:5.909 356:40 357:12.209 358:40 359:40 360:40 361:40 362:7.995 363:8.021 364:12.459 365:40 366:40 367:40 368:40 369:40 370:40 371:40 372:1.038 373:40 374:40 375:40 376:40 377:40 378:40 379:8.236 380:40 381:40 382:40 384:11.678 
-0.1875 1:1.4605 2:3.5805 3:-0.2245 4:-0.9045 5:13.6135 6:-1.0175 7:7.4185 8:13.4855 9:4.2945 10:40 11:8.6435 12:8.6175 13:2.8185 14:-0.5335 15:-4.4305 16:-7.0255 17:-0.1035 18:7.1585 19:-2.1635 20:-6.9395 21:-5.7375 22:-2.3965 23:-2.0505 24:2.5335 25:5.7745 26:40 27:-6.0515 28:-1.1155 29:-2.7745 30:-0.3105 31:-1.9345 32:-0.7115 33:0.0875 34:0.5595 35:8.9315 36:8.6085 37:-1.0255 38:6.5005 39:6.1105 40:40 41:0.8465 42:40 43:5.6065 44:40 45:2.5865 46:40 47:-3.2185 48:-4.0725 49:8.9545 50:40 51:17.9495 52:14.7475 53:3.3215 54:6.8445 55:1.8615 56:-0.3455 57:40 58:-7.3645 59:6.0345 60:15.1425 61:11.8525 62:-2.8955 63:40 64:8.5305 65:1.2765 66:2.2615 67:-7.5985 68:-0.1935 69:11.7745 70:2.5495 71:40 72:40 73:0.6675 74:1.1055 75:0.0665 76:1.6365 77:8.7915 78:0.7695 79:7.9015 80:7.6985 81:13.9255 82:40 83:40 84:9.7945 85:6.3385 86:4.6815 87:-2.2105 88:12.6445 89:-3.8915 90:2.3015 91:1.3795 92:-0.0615 93:-7.9375 94:9.4285 95:-4.4395 96:40 97:1.4345 98:3.0795 99:40 100:-1.9165 101:-0.1055 102:10.5025 103:40 104:5.0865 105:12.5845 106:10.4295 107:40 108:8.9075 109:6.1175 110:-1.3835 111:-2.4925 112:6.5455 113:40 114:17.0805 115:-7.7995 116:1.2105 117:40 118:5.3015 119:1.6245 120:4.0285 121:2.6075 122:5.1895 123:0.9795 124:40 125:4.0455 126:-2.3765 127:6.3755 128:40 129:8.2325 130:3.3555 131:40 132:5.8885 133:5.2825 134:40 135:40 136:3.5145 137:40 138:10.5575 139:40 140:40 141:40 142:40 143:40 144:-2.2695 145:-5.5755 146:-10.6535 147:2.4325 148:40 149:10.5125 150:40 151:40 152:1.2145 153:3.7725 154:15.8505 155:-3.2035 156:40 157:40 158:-2.5905 159:7.2165 160:2.0585 161:0.5035 162:40 163:0.0885 164:9.5415 165:7.4095 166:40 167:0.6205 168:8.0915 169:1.5405 170:4.3475 171:5.7935 172:1.2385 173:11.8735 174:0.8965 175:-0.1485 176:-3.1215 177:-1.3955 178:10.5775 179:1.0065 180:2.0975 181:7.3805 182:9.7325 183:5.3235 184:7.7315 185:40 186:40 187:13.5165 188:0.2075 189:40 190:40 191:40 192:-1.1025 193:-0.9185 194:5.7245 195:1.1985 196:40 197:40 198:3.6005 199:40 200:8.6235 201:3.9085 202:40 203:40 204:4.9405 205:2.7805 206:9.6285 207:1.7945 208:10.4235 209:7.2055 210:9.1495 211:11.6915 212:1.9335 213:11.5695 214:40 215:9.9805 216:40 217:40 218:-6.4265 219:5.6015 220:40 221:-0.6875 222:40 223:9.2885 224:-0.2115 225:-7.1105 226:6.5585 227:40 228:11.2185 229:2.8925 230:10.0045 231:4.3735 232:40 233:8.9685 234:40 235:40 236:2.6385 237:5.6575 238:3.2055 239:1.8365 240:9.1115 241:40 242:40 243:6.5825 244:40 245:6.7095 246:7.3995 247:40 248:40 249:40 250:6.5315 251:40 252:40 253:40 254:40 255:40 256:15.4665 257:40 258:40 259:16.0835 260:40 261:40 262:40 263:40 264:40 265:40 266:40 267:40 268:40 269:40 270:40 271:11.3595 272:13.8395 273:40 274:40 275:40 276:40 277:40 278:40 279:40 280:40 281:40 282:11.5985 283:40 284:40 285:40 286:40 287:2.5525 288:1.4445 289:0.0105 290:40 291:10.1155 292:9.1785 293:40 294:6.7535 295:10.0845 296:40 297:40 298:40 299:40 300:14.8935 301:40 302:13.1395 303:40 304:40 305:40 306:40 307:40 308:-2.3895 309:5.5735 310:8.4445 311:5.1925 312:40 313:40 314:40 315:1.1515 316:5.8205 317:2.7875 318:40 319:40 320:7.0765 321:7.8425 322:40 323:5.2285 324:15.7405 325:4.2015 326:7.1645 327:7.4675 328:40 329:40 330:-0.9045 331:40 332:9.8225 333:11.2375 334:8.1015 335:0.4815 336:2.9785 337:40 338:40 339:40 340:-1.1005 341:11.8615 342:40 343:40 344:40 345:7.7625 346:40 347:40 348:40 349:40 350:2.2315 351:6.2435 352:3.3775 353:40 354:40 355:5.4515 356:40 357:9.9905 358:40 359:40 360:40 361:40 362:40 363:7.4095 364:40 365:40 366:40 367:40 368:40 369:40 370:40 371:40 372:0.0735 373:40 374:40 375:40 376:40 377:40 378:40 379:40 380:40 381:40 382:11.8985 384:40 
-0.1875 1:-0.978625 2:2.916375 3:-0.330625 4:-3.798625 5:40 6:-0.545625 7:4.652375 8:9.277375 9:3.390375 10:11.976375 11:7.651375 12:7.170375 13:5.236375 14:-0.141625 15:-1.327625 16:-5.571625 17:1.260375 18:4.939375 19:-4.061625 20:-7.939625 21:-5.518625 22:-1.685625 23:-2.737625 24:3.546375 25:40 26:5.739375 27:-6.375625 28:0.854375 29:-4.210625 30:-1.938625 31:-0.316625 32:0.490375 33:2.257375 34:3.343375 35:6.998375 36:7.133375 37:2.243375 38:8.214375 39:6.479375 40:-1.313625 41:-2.813625 42:6.118375 43:6.309375 44:40 45:2.630375 46:40 47:-0.152625 48:-1.787625 49:10.960375 50:40 51:40 52:4.799375 53:-0.523625 54:3.167375 55:3.414375 56:-1.489625 57:40 58:-5.889625 59:40 60:-0.487625 61:6.144375 62:-2.256625 63:40 64:6.639375 65:2.057375 66:2.534375 67:-6.757625 68:1.358375 69:40 70:2.576375 71:40 72:40 73:-0.639625 74:1.170375 75:2.188375 76:-0.117625 77:4.111375 78:-0.733625 79:9.103375 80:8.647375 81:15.525375 82:40 83:7.679375 84:0.759375 85:-1.353625 86:3.738375 87:-1.239625 88:40 89:-3.478625 90:3.327375 91:2.376375 92:-0.451625 93:-6.758625 94:8.347375 95:-3.545625 96:40 97:0.611375 98:2.395375 99:40 100:-0.786625 101:2.152375 102:40 103:40 104:2.205375 105:5.871375 106:10.808375 107:40 108:7.268375 109:6.009375 110:0.182375 111:-0.645625 112:40 113:40 114:9.469375 115:-7.929625 116:0.728375 117:8.900375 118:2.412375 119:1.810375 120:5.515375 121:2.415375 122:6.126375 123:-1.416625 124:40 125:5.276375 126:-1.623625 127:4.756375 128:40 129:4.826375 130:1.202375 131:5.795375 132:3.898375 133:3.892375 134:10.974375 135:40 136:1.481375 137:4.532375 138:4.971375 139:40 140:40 141:40 142:7.689375 143:40 144:-0.700625 145:-2.739625 146:-9.194625 147:1.556375 148:40 149:6.285375 150:40 151:40 152:1.354375 153:3.098375 154:7.461375 155:-4.518625 156:40 157:40 158:-1.333625 159:5.261375 160:4.761375 161:2.018375 162:40 163:-0.278625 164:7.854375 165:6.115375 166:10.359375 167:2.695375 168:9.568375 169:0.223375 170:40 171:5.573375 172:3.156375 173:6.901375 174:1.166375 175:2.518375 176:-3.654625 177:0.888375 178:40 179:2.861375 180:3.576375 181:8.656375 182:6.567375 183:4.522375 184:6.291375 185:40 186:40 187:40 188:2.096375 189:40 190:40 191:10.155375 192:-1.195625 193:-1.121625 194:5.312375 195:-0.032625 196:40 197:40 198:3.152375 199:40 200:40 201:0.785375 202:9.644375 203:9.182375 204:4.397375 205:3.942375 206:7.198375 207:1.601375 208:7.014375 209:4.302375 210:7.012375 211:12.359375 212:4.260375 213:8.310375 214:40 215:40 216:40 217:5.660375 218:-3.847625 219:4.889375 220:9.124375 221:1.230375 222:40 223:40 224:-0.170625 225:-5.018625 226:6.041375 227:40 228:3.573375 229:1.679375 230:40 231:4.085375 232:40 233:7.128375 234:40 235:40 236:3.988375 237:10.338375 238:4.257375 239:0.446375 240:8.394375 241:40 242:40 243:40 244:5.649375 245:6.091375 246:6.866375 247:40 248:40 249:40 250:6.786375 251:40 252:40 253:40 254:40 255:40 256:40 257:40 258:40 259:40 260:40 261:40 262:40 263:11.700375 264:9.927375 265:40 266:40 267:11.519375 268:40 269:5.567375 270:40 271:40 272:15.434375 273:9.593375 274:9.022375 275:40 276:40 277:40 278:40 279:40 280:10.814375 281:40 282:11.682375 283:40 284:40 285:40 286:40 287:3.056375 288:3.116375 289:1.203375 290:40 291:40 292:40 293:40 294:6.087375 295:6.096375 296:40 297:40 298:40 299:12.497375 300:12.410375 301:40 302:9.289375 303:6.964375 304:40 305:40 306:11.214375 307:40 308:0.395375 309:5.961375 310:7.412375 311:40 312:40 313:40 314:9.723375 315:2.478375 316:8.901375 317:2.530375 318:40 319:40 320:5.091375 321:9.419375 322:40 323:4.491375 324:12.343375 325:6.012375 326:40 327:40 328:7.052375 329:40 330:2.607375 331:40 332:8.694375 333:40 334:5.250375 335:-0.187625 336:3.602375 337:40 338:40 339:6.387375 340:1.324375 341:9.152375 342:40 343:40 344:40 345:10.614375 346:40 347:40 348:40 349:40 350:-0.036625 351:7.555375 352:4.403375 353:40 354:9.010375 355:5.186375 356:40 357:6.795375 358:40 359:40 360:40 361:40 362:9.678375 363:4.394375 364:40 365:40 366:40 367:40 368:40 369:40 370:40 371:40 372:0.500375 373:40 374:40 375:40 376:40 377:40 378:40 379:9.941375 380:40 381:40 382:12.769375 384:12.597375 
-0.1875 1:40 2:6.156875 3:7.652875 4:16.148875 5:40 6:4.368875 7:11.137875 8:40 9:4.766875 10:40 11:6.437875 12:6.202875 13:6.953875 14:3.614875 15:-6.006125 16:-6.495125 17:5.144875 18:16.244875 19:0.447875 20:-5.622125 21:-2.349125 22:-0.441125 23:-0.533125 24:8.313875 25:11.029875 26:40 27:-5.808125 28:-0.509125 29:2.037875 30:4.346875 31:-1.263125 32:1.832875 33:-0.993125 34:4.147875 35:6.035875 36:6.067875 37:-0.958125 38:7.091875 39:4.083875 40:1.755875 41:1.028875 42:9.065875 43:6.977875 44:40 45:0.510875 46:40 47:-3.142125 48:-1.449125 49:8.811875 50:40 51:40 52:40 53:5.746875 54:10.558875 55:3.823875 56:8.778875 57:40 58:-6.732125 59:40 60:-0.616125 61:40 62:-0.990125 63:40 64:40 65:3.638875 66:3.850875 67:-6.223125 68:2.266875 69:40 70:5.222875 71:40 72:40 73:0.053875 74:3.912875 75:1.288875 76:-0.331125 77:7.510875 78:2.607875 79:13.450875 80:5.615875 81:10.670875 82:40 83:40 84:3.948875 85:-0.282125 86:3.061875 87:0.273875 88:3.532875 89:1.062875 90:3.809875 91:4.042875 92:8.148875 93:-8.040125 94:40 95:-2.846125 96:40 97:3.378875 98:5.280875 99:40 100:-4.040125 101:0.931875 102:40 103:40 104:7.700875 105:16.675875 106:40 107:40 108:40 109:6.092875 110:-0.066125 111:-3.202125 112:40 113:40 114:40 115:-6.343125 116:0.474875 117:13.795875 118:6.243875 119:1.139875 120:0.078875 121:2.898875 122:12.835875 123:0.815875 124:40 125:9.947875 126:-0.401125 127:40 128:1.243875 129:4.357875 130:0.633875 131:40 132:2.845875 133:8.890875 134:9.639875 135:40 136:2.753875 137:8.660875 138:10.267875 139:40 140:40 141:40 142:4.683875 143:40 144:-0.542125 145:-6.533125 146:-9.485125 147:4.361875 148:40 149:15.387875 150:40 151:40 152:5.433875 153:10.552875 154:8.150875 155:-2.630125 156:13.538875 157:15.128875 158:-6.635125 159:5.660875 160:1.950875 161:2.681875 162:40 163:1.629875 164:40 165:10.194875 166:40 167:0.883875 168:8.242875 169:2.941875 170:5.428875 171:40 172:0.333875 173:40 174:4.058875 175:-0.929125 176:1.163875 177:-1.368125 178:40 179:0.405875 180:6.481875 181:40 182:40 183:6.988875 184:40 185:7.380875 186:40 187:40 188:1.989875 189:40 190:6.932875 191:40 192:3.377875 193:2.380875 194:3.127875 195:0.576875 196:40 197:40 198:9.096875 199:40 200:7.813875 201:3.391875 202:40 203:40 204:3.754875 205:5.611875 206:14.197875 207:4.243875 208:40 209:2.247875 210:7.227875 211:8.779875 212:3.631875 213:40 214:40 215:40 216:40 217:40 218:-3.513125 219:11.254875 220:40 221:1.680875 222:40 223:40 224:-3.092125 225:-6.883125 226:9.912875 227:40 228:6.949875 229:3.521875 230:40 231:6.710875 232:40 233:8.993875 234:40 235:40 236:5.099875 237:10.044875 238:9.074875 239:8.048875 240:40 241:40 242:40 243:10.273875 244:40 245:40 246:10.193875 247:40 248:40 249:40 250:40 251:40 252:40 253:40 254:40 255:40 256:40 257:40 258:40 259:40 260:40 261:40 262:40 263:40 264:40 265:40 266:40 267:40 268:40 269:40 270:40 271:40 272:1.694875 273:14.474875 274:40 275:40 276:40 277:40 278:40 279:40 280:40 281:40 282:3.113875 283:40 284:40 285:40 286:40 287:5.509875 288:1.756875 289:3.366875 290:40 291:40 292:40 293:40 294:12.139875 295:40 296:40 297:40 298:40 299:11.365875 300:40 301:40 302:40 303:40 304:40 305:40 306:40 307:40 308:-1.803125 309:6.667875 310:40 311:8.361875 312:40 313:40 314:40 315:-0.216125 316:8.196875 317:6.403875 318:40 319:40 320:40 321:-0.844125 322:40 323:9.949875 324:15.008875 325:2.550875 326:8.298875 327:7.465875 328:40 329:40 330:1.203875 331:40 332:40 333:40 334:40 335:0.796875 336:5.042875 337:40 338:40 339:40 340:1.278875 341:40 342:40 343:40 344:16.662875 345:10.987875 346:40 347:40 348:40 349:40 350:2.118875 351:40 352:4.018875 353:40 354:40 355:40 356:40 357:40 358:40 359:40 360:17.180875 361:2.638875 362:40 363:9.512875 364:10.847875 365:40 366:40 367:40 368:40 369:40 370:40 371:40 372:0.284875 373:40 374:40 375:40 376:40 377:40 378:40 379:5.186875 380:40 381:40 382:40 384:16.329875 
-0.1875 1:2.32925 2:5.21225 3:2.37825 4:-0.04675 5:5.17525 6:1.96825 7:8.10625 8:10.23625 9:4.54325 10:14.27725 11:4.11525 12:4.10525 13:3.61625 14:0.30725 15:-5.88175 16:-4.89675 17:2.86125 18:4.54025 19:-1.05875 20:-6.61775 21:-4.29675 22:2.82825 23:-3.76275 24:0.65125 25:3.07325 26:40 27:-5.49075 28:-1.79575 29:-1.06475 30:1.05525 31:-1.01675 32:0.21025 33:0.36725 34:1.10425 35:3.64225 36:3.94125 37:1.64125 38:7.27825 39:6.20725 40:-2.41375 41:-3.02675 42:3.94325 43:7.88825 44:40 45:4.66825 46:12.86125 47:-4.72775 48:-1.69475 49:8.49725 50:40 51:40 52:7.67025 53:0.03625 54:5.26025 55:2.74725 56:-0.35375 57:40 58:-5.11675 59:40 60:-1.51975 61:5.02325 62:0.89125 63:7.25625 64:13.28325 65:4.32425 66:2.97525 67:-5.74075 68:2.84725 69:40 70:3.64725 71:40 72:40 73:0.07925 74:0.53325 75:2.00525 76:0.07925 77:6.03125 78:4.66525 79:6.86125 80:11.31625 81:14.48725 82:40 83:10.34325 84:1.27425 85:-1.26975 86:2.94925 87:1.54725 88:7.62025 89:-3.11475 90:3.20225 91:3.12625 92:1.58125 93:-5.11975 94:7.03125 95:-1.07575 96:40 97:2.14125 98:3.24325 99:8.68225 100:-3.31075 101:1.24925 102:40 103:40 104:2.02425 105:9.84025 106:14.55425 107:40 108:9.02525 109:6.06225 110:0.20425 111:1.12725 112:40 113:40 114:11.80225 115:-5.49175 116:3.21525 117:12.11325 118:3.54925 119:2.05625 120:6.30425 121:5.19125 122:8.57725 123:-1.10575 124:40 125:5.17025 126:-1.72075 127:9.10625 128:4.74125 129:6.04825 130:2.79825 131:13.03625 132:5.18625 133:7.01925 134:3.97425 135:40 136:-0.48575 137:7.67225 138:6.60725 139:8.19425 140:40 141:40 142:5.57425 143:40 144:-2.23775 145:-2.17275 146:-9.05375 147:3.53625 148:40 149:5.96125 150:40 151:40 152:2.75825 153:7.14025 154:0.62725 155:-6.05275 156:4.30625 157:8.19525 158:-3.74475 159:6.15825 160:2.73225 161:0.69225 162:13.18225 163:-1.28775 164:11.21325 165:4.04625 166:10.81025 167:-0.64375 168:9.46225 169:2.26025 170:8.20325 171:9.50425 172:3.14225 173:2.02725 174:4.04425 175:4.70825 176:-1.24375 177:-1.21075 178:11.30625 179:2.03725 180:5.29725 181:7.95825 182:8.05525 183:5.02125 184:6.61825 185:2.07025 186:40 187:13.75525 188:2.63225 189:40 190:5.45825 191:14.00025 192:1.84225 193:1.68525 194:3.56625 195:4.03225 196:40 197:40 198:7.38125 199:9.23025 200:10.02325 201:3.69525 202:40 203:40 204:6.63025 205:7.43925 206:12.75825 207:2.06725 208:12.02625 209:-1.82975 210:9.31325 211:11.00925 212:7.06325 213:40 214:40 215:11.85625 216:40 217:9.90125 218:-6.20175 219:7.71925 220:40 221:5.71525 222:7.29325 223:11.00525 224:2.99825 225:-5.81975 226:8.04625 227:10.12025 228:5.98625 229:1.08625 230:40 231:7.99025 232:40 233:10.68525 234:9.92625 235:40 236:5.88625 237:11.21725 238:8.84525 239:5.71225 240:40 241:40 242:40 243:7.35825 244:8.74025 245:8.19925 246:8.92025 247:12.53525 248:40 249:11.98025 250:5.01025 251:40 252:40 253:40 254:40 255:40 256:12.32425 257:40 258:40 259:40 260:40 261:40 262:40 263:14.55525 264:40 265:40 266:40 267:40 268:40 269:40 270:40 271:40 272:3.29525 273:40 274:40 275:40 276:40 277:40 278:11.54725 279:40 280:40 281:40 282:7.28425 283:40 284:40 285:40 286:40 287:4.43825 288:1.75125 289:6.80925 290:40 291:9.50925 292:14.39725 293:13.95825 294:8.64025 295:10.84325 296:40 297:40 298:40 299:13.67025 300:12.10625 301:12.66825 302:13.10725 303:3.52225 304:40 305:40 306:40 307:12.48525 308:-0.50275 309:7.51425 310:9.29325 311:7.14425 312:40 313:40 314:12.06825 315:2.09725 316:8.55325 317:5.12925 318:40 319:40 320:7.01825 321:-1.21575 322:40 323:5.95625 324:14.67125 325:11.74325 326:6.62325 327:6.83025 328:5.74425 329:40 330:1.48925 331:40 332:15.02825 333:9.45225 334:14.42225 335:0.51825 336:6.56825 337:40 338:40 339:10.14925 340:1.26425 341:10.53825 342:40 343:40 344:40 345:5.75125 346:40 347:40 348:40 349:40 350:1.73125 351:7.65025 352:5.66425 353:40 354:40 355:7.53425 356:40 357:40 358:40 359:40 360:12.98225 361:-1.13575 362:10.53725 363:8.30425 364:40 365:40 366:40 367:40 368:7.65025 369:40 370:40 371:40 372:3.21225 373:40 374:40 375:40 376:40 377:40 378:40 379:5.75625 380:40 381:40 382:40 384:7.85525 
-0.1875 1:1.312875 2:3.882875 3:2.487875 4:-0.709125 5:40 6:1.587875 7:6.899875 8:40 9:5.361875 10:12.315875 11:4.187875 12:3.877875 13:3.542875 14:-0.381125 15:-5.875125 16:-4.939125 17:2.306875 18:5.050875 19:-0.811125 20:-6.800125 21:-4.576125 22:0.214875 23:-3.186125 24:1.074875 25:4.700875 26:40 27:-5.889125 28:-2.634125 29:-2.152125 30:-0.200125 31:-2.048125 32:-0.878125 33:1.520875 34:1.266875 35:3.760875 36:3.922875 37:1.387875 38:14.978875 39:5.465875 40:-3.112125 41:-3.572125 42:4.388875 43:6.923875 44:40 45:3.657875 46:40 47:-5.779125 48:-1.929125 49:7.200875 50:40 51:40 52:6.200875 53:0.523875 54:4.424875 55:1.826875 56:-0.825125 57:40 58:-5.249125 59:40 60:-2.617125 61:4.235875 62:-0.533125 63:5.628875 64:40 65:5.463875 66:1.499875 67:-5.631125 68:0.300875 69:8.555875 70:3.372875 71:40 72:40 73:-1.041125 74:0.839875 75:2.452875 76:0.832875 77:6.432875 78:3.815875 79:40 80:8.785875 81:11.337875 82:40 83:9.104875 84:2.803875 85:-0.038125 86:3.476875 87:1.894875 88:6.375875 89:-3.446125 90:3.323875 91:2.355875 92:1.912875 93:-4.865125 94:40 95:-0.830125 96:40 97:1.493875 98:2.482875 99:40 100:-3.296125 101:0.549875 102:40 103:4.980875 104:0.783875 105:6.892875 106:40 107:40 108:9.132875 109:2.773875 110:-0.227125 111:1.389875 112:40 113:40 114:40 115:-4.999125 116:3.494875 117:11.316875 118:3.972875 119:2.041875 120:7.923875 121:5.731875 122:40 123:-1.287125 124:40 125:4.214875 126:-2.383125 127:7.661875 128:40 129:6.559875 130:4.659875 131:10.178875 132:4.794875 133:5.181875 134:6.289875 135:40 136:-0.057125 137:6.512875 138:4.669875 139:40 140:40 141:40 142:5.131875 143:40 144:-2.883125 145:-0.035125 146:-9.620125 147:1.997875 148:9.439875 149:5.590875 150:40 151:4.636875 152:2.329875 153:5.534875 154:9.763875 155:-5.872125 156:3.313875 157:6.059875 158:-3.476125 159:4.047875 160:3.128875 161:0.032875 162:12.848875 163:-2.109125 164:5.808875 165:3.965875 166:40 167:-0.993125 168:7.291875 169:0.369875 170:5.386875 171:7.147875 172:3.736875 173:6.102875 174:3.874875 175:1.250875 176:-1.418125 177:-0.672125 178:40 179:2.458875 180:4.735875 181:7.259875 182:9.449875 183:4.907875 184:6.335875 185:-0.816125 186:13.026875 187:11.329875 188:0.244875 189:40 190:5.795875 191:40 192:0.613875 193:0.938875 194:3.604875 195:-0.032125 196:40 197:40 198:5.060875 199:40 200:7.748875 201:-1.000125 202:6.340875 203:9.779875 204:2.390875 205:4.483875 206:10.504875 207:2.453875 208:11.998875 209:-2.193125 210:9.934875 211:7.749875 212:4.665875 213:40 214:40 215:11.565875 216:40 217:40 218:-7.674125 219:6.244875 220:40 221:6.729875 222:7.966875 223:40 224:5.427875 225:-5.364125 226:3.148875 227:40 228:4.224875 229:0.013875 230:9.240875 231:5.460875 232:40 233:8.542875 234:40 235:8.658875 236:6.361875 237:7.894875 238:6.091875 239:2.108875 240:10.047875 241:40 242:40 243:7.425875 244:7.201875 245:40 246:6.980875 247:40 248:40 249:40 250:3.260875 251:40 252:40 253:40 254:40 255:40 256:40 257:40 258:40 259:40 260:40 261:40 262:40 263:40 264:14.985875 265:40 266:40 267:40 268:40 269:40 270:40 271:40 272:4.363875 273:13.464875 274:40 275:40 276:40 277:40 278:11.428875 279:40 280:40 281:40 282:8.102875 283:40 284:40 285:40 286:40 287:4.613875 288:1.526875 289:4.291875 290:40 291:10.592875 292:40 293:8.366875 294:7.730875 295:7.450875 296:40 297:40 298:14.131875 299:9.679875 300:8.492875 301:40 302:11.679875 303:5.983875 304:40 305:40 306:40 307:11.550875 308:0.069875 309:6.164875 310:40 311:6.209875 312:40 313:40 314:40 315:1.752875 316:5.751875 317:4.821875 318:40 319:40 320:12.371875 321:-5.535125 322:40 323:6.652875 324:14.933875 325:12.298875 326:5.549875 327:6.049875 328:11.225875 329:12.153875 330:1.548875 331:40 332:11.413875 333:5.283875 334:6.103875 335:-0.046125 336:6.499875 337:40 338:40 339:40 340:1.481875 341:7.108875 342:40 343:40 344:40 345:40 346:2.677875 347:40 348:40 349:40 350:0.300875 351:10.799875 352:7.784875 353:40 354:40 355:4.429875 356:40 357:40 358:40 359:40 360:8.479875 361:-2.211125 362:40 363:9.524875 364:40 365:40 366:40 367:40 368:5.361875 369:40 370:40 371:40 372:-0.329125 373:40 374:40 375:40 376:40 377:40 378:40 379:10.151875 380:40 381:40 382:11.139875 384:7.169875 
-0.1875 1:10.4455 2:5.1105 3:4.1845 4:6.4175 5:40 6:2.9455 7:9.3895 8:40 9:6.2575 10:16.0545 11:6.0575 12:5.9235 13:13.8475 14:2.0315 15:-5.1405 16:-6.4045 17:1.7195 18:9.7635 19:-2.7015 20:-7.0405 21:-5.6115 22:-2.1185 23:-1.4795 24:6.5655 25:12.5335 26:40 27:-6.0195 28:-2.0205 29:-1.1945 30:-0.8065 31:-1.2915 32:0.6195 33:2.0395 34:3.6665 35:5.9255 36:5.8585 37:0.2065 38:13.1135 39:3.7025 40:0.9535 41:-0.1245 42:3.3955 43:10.6555 44:40 45:3.5695 46:11.1255 47:-3.2855 48:-3.0665 49:11.0055 50:40 51:40 52:10.6535 53:5.3565 54:6.4145 55:1.9005 56:5.0985 57:40 58:-6.5715 59:40 60:-1.3185 61:14.7485 62:-0.1105 63:40 64:13.3635 65:3.6355 66:4.0565 67:-5.9755 68:1.9475 69:40 70:3.6135 71:40 72:40 73:0.4505 74:2.5325 75:0.0815 76:2.0095 77:8.9615 78:3.8965 79:8.3845 80:7.4595 81:18.2055 82:40 83:5.8405 84:2.8145 85:-0.6785 86:3.2575 87:-1.0765 88:7.5885 89:-1.0095 90:3.6915 91:2.9615 92:3.9645 93:-7.1275 94:40 95:-2.5765 96:40 97:1.1705 98:2.6985 99:40 100:-3.4875 101:0.8725 102:40 103:40 104:5.6955 105:13.2155 106:17.7195 107:9.9885 108:17.2415 109:6.2075 110:0.0025 111:-2.8215 112:40 113:40 114:17.2375 115:-6.2505 116:0.1045 117:17.4535 118:3.2265 119:2.6725 120:3.6275 121:0.2405 122:14.8885 123:1.1595 124:40 125:7.4155 126:-0.7965 127:11.3295 128:11.2005 129:7.3105 130:4.7805 131:10.5625 132:3.8615 133:5.1765 134:10.1715 135:40 136:3.2065 137:7.9615 138:14.0755 139:40 140:40 141:40 142:5.6655 143:12.4755 144:-2.0245 145:-4.5945 146:-9.8705 147:3.2985 148:40 149:7.1985 150:40 151:40 152:3.2465 153:4.4585 154:15.1125 155:-3.6635 156:40 157:40 158:-2.5795 159:10.0405 160:2.6725 161:1.8475 162:15.4675 163:0.3155 164:13.1565 165:8.8895 166:40 167:2.1855 168:10.0455 169:0.5755 170:7.4235 171:7.4595 172:1.2215 173:14.1505 174:1.3545 175:2.4845 176:0.1655 177:-1.4635 178:11.7575 179:1.6605 180:3.1435 181:7.2865 182:11.8225 183:7.9515 184:8.8565 185:40 186:40 187:40 188:3.6265 189:40 190:40 191:18.4375 192:0.6255 193:0.8225 194:3.9865 195:0.8255 196:40 197:40 198:7.6195 199:40 200:8.2265 201:3.6665 202:40 203:11.6625 204:4.3535 205:5.2375 206:9.1505 207:3.5355 208:40 209:8.2405 210:7.0105 211:9.7915 212:4.2665 213:12.2775 214:40 215:40 216:40 217:40 218:-5.7825 219:7.4305 220:40 221:1.7915 222:11.3605 223:40 224:0.3425 225:-5.4875 226:11.3285 227:40 228:10.3785 229:1.5185 230:40 231:5.8465 232:40 233:8.8955 234:40 235:40 236:4.3025 237:8.9685 238:5.8445 239:4.1945 240:40 241:40 242:40 243:40 244:40 245:40 246:6.5425 247:40 248:40 249:40 250:6.7555 251:40 252:40 253:40 254:9.2515 255:40 256:6.1935 257:40 258:40 259:40 260:40 261:40 262:40 263:13.7835 264:12.1725 265:40 266:40 267:40 268:40 269:40 270:40 271:11.3855 272:11.9635 273:14.0155 274:40 275:40 276:40 277:40 278:40 279:40 280:40 281:40 282:12.4275 283:40 284:40 285:19.0215 286:40 287:4.3225 288:1.9215 289:3.5295 290:40 291:40 292:40 293:40 294:5.8845 295:10.8895 296:40 297:40 298:40 299:40 300:40 301:7.9605 302:40 303:8.1585 304:40 305:40 306:40 307:40 308:-1.4095 309:7.1365 310:40 311:16.5275 312:40 313:40 314:40 315:-0.9965 316:11.7135 317:3.6795 318:40 319:40 320:6.9655 321:10.3385 322:40 323:6.3815 324:10.7485 325:5.2305 326:13.7675 327:6.6015 328:6.3995 329:40 330:0.5485 331:40 332:8.9495 333:40 334:8.7375 335:-0.0125 336:4.3845 337:40 338:40 339:18.0825 340:0.8325 341:10.7535 342:40 343:40 344:40 345:8.4395 346:40 347:40 348:40 349:40 350:4.3345 351:8.0065 352:4.0115 353:40 354:40 355:7.3715 356:40 357:13.8145 358:40 359:40 360:40 361:40 362:11.1515 363:5.2055 364:40 365:40 366:40 367:40 368:40 369:40 370:40 371:40 372:0.7645 373:40 374:40 375:40 376:40 377:40 378:40 379:6.5155 380:40 381:40 382:40 384:15.0485 
-0.1875 1:40 2:6.24425 3:4.32525 4:3.87025 5:40 6:2.63125 7:40 8:40 9:6.97625 10:40 11:4.93825 12:4.85925 13:8.95825 14:2.36125 15:-5.13075 16:-5.86175 17:2.99725 18:10.48325 19:-0.35375 20:-6.05375 21:-3.53275 22:-1.33175 23:0.19825 24:10.19525 25:10.85225 26:40 27:-4.45775 28:-1.13775 29:0.93825 30:2.02225 31:0.24725 32:4.82125 33:-0.53275 34:2.82525 35:4.76725 36:4.79525 37:-0.25375 38:7.67125 39:4.97025 40:0.33425 41:-0.14975 42:5.46825 43:40 44:40 45:4.38525 46:40 47:-3.05775 48:-2.38475 49:6.74225 50:40 51:40 52:16.41125 53:6.63825 54:14.91725 55:4.05125 56:2.57225 57:40 58:-6.05575 59:40 60:-0.94675 61:8.99125 62:-0.93075 63:40 64:40 65:2.90925 66:3.97625 67:-5.15975 68:3.19625 69:40 70:5.49825 71:40 72:40 73:1.67625 74:4.19525 75:2.96825 76:1.90225 77:8.81525 78:4.70125 79:40 80:7.97225 81:40 82:40 83:6.99225 84:3.13025 85:0.23525 86:2.80325 87:0.73425 88:8.14525 89:-1.00975 90:4.54925 91:2.81625 92:4.24125 93:-5.80075 94:40 95:-1.07875 96:40 97:2.95725 98:5.64025 99:12.96825 100:-2.39475 101:1.36025 102:40 103:40 104:8.62125 105:16.67725 106:40 107:5.16625 108:12.89725 109:3.63125 110:-0.88575 111:-1.50775 112:40 113:40 114:7.47625 115:-5.59875 116:-0.11775 117:14.81425 118:2.39225 119:0.67125 120:5.28225 121:2.66325 122:12.18225 123:0.79825 124:40 125:7.44925 126:-0.08575 127:9.99225 128:14.42925 129:15.56525 130:6.80925 131:40 132:4.33925 133:4.65425 134:6.00425 135:40 136:2.44525 137:7.82825 138:40 139:40 140:40 141:40 142:6.42325 143:40 144:-0.14675 145:-4.52375 146:-7.76175 147:4.65325 148:40 149:10.15625 150:40 151:40 152:2.80225 153:9.75025 154:40 155:-4.25975 156:40 157:40 158:-5.16475 159:7.62625 160:1.95025 161:4.63125 162:40 163:0.42125 164:16.62125 165:9.21125 166:40 167:0.45125 168:40 169:2.35525 170:40 171:40 172:1.66925 173:40 174:3.84225 175:1.89925 176:0.87325 177:-1.19675 178:14.19125 179:1.40525 180:6.23025 181:6.79625 182:7.92725 183:40 184:7.45925 185:40 186:40 187:40 188:3.15625 189:40 190:40 191:40 192:2.28725 193:1.65925 194:3.76025 195:3.41425 196:40 197:40 198:5.77725 199:40 200:40 201:8.24025 202:40 203:40 204:5.31825 205:5.81625 206:40 207:2.83625 208:40 209:0.72425 210:12.73925 211:40 212:4.31725 213:40 214:40 215:40 216:40 217:40 218:-4.32775 219:10.66225 220:40 221:3.18825 222:40 223:40 224:-1.65575 225:-6.64275 226:12.63525 227:40 228:9.78825 229:1.72425 230:40 231:7.22025 232:40 233:40 234:40 235:40 236:5.67225 237:40 238:7.35325 239:10.38525 240:40 241:40 242:40 243:40 244:40 245:10.80825 246:6.30725 247:12.40425 248:40 249:40 250:40 251:40 252:40 253:40 254:40 255:40 256:40 257:40 258:40 259:40 260:40 261:40 262:40 263:40 264:40 265:40 266:40 267:40 268:40 269:40 270:40 271:40 272:12.94225 273:40 274:40 275:40 276:40 277:40 278:40 279:40 280:40 281:40 282:12.55325 283:40 284:40 285:40 286:40 287:4.81925 288:2.47025 289:3.60725 290:40 291:40 292:40 293:40 294:40 295:9.94625 296:40 297:40 298:40 299:40 300:40 301:40 302:40 303:40 304:40 305:40 306:40 307:9.02525 308:-1.19275 309:15.57925 310:9.65725 311:10.14525 312:40 313:40 314:11.42625 315:2.14125 316:7.33325 317:6.65425 318:40 319:40 320:15.38325 321:9.99425 322:40 323:6.88825 324:40 325:10.69425 326:40 327:9.88225 328:6.53325 329:40 330:2.20225 331:40 332:40 333:40 334:40 335:0.36725 336:7.07625 337:40 338:40 339:40 340:1.00625 341:10.27425 342:40 343:40 344:40 345:6.98225 346:40 347:40 348:40 349:40 350:0.53725 351:40 352:5.16325 353:40 354:40 355:40 356:40 357:40 358:40 359:40 360:40 361:40 362:40 363:10.00125 364:40 365:40 366:40 367:40 368:11.68725 369:40 370:40 371:40 372:2.89625 373:40 374:40 375:40 376:40 377:40 378:40 379:7.56525 380:40 381:40 382:16.92425 384:40 
-0.1875 1:40 2:7.86975 3:5.48575 4:6.79575 5:40 6:4.49775 7:9.20275 8:40 9:14.38775 10:40 11:5.20575 12:5.15775 13:11.54975 14:4.02075 15:-3.02825 16:-6.58825 17:1.96475 18:14.51375 19:-2.29625 20:-7.03625 21:-5.38625 22:-1.78925 23:-2.35625 24:6.25775 25:40 26:40 27:-5.43025 28:-1.76525 29:0.24275 30:1.20575 31:-1.11125 32:0.28675 33:0.70475 34:4.67375 35:5.38575 36:5.11275 37:0.17275 38:8.27975 39:3.18775 40:1.62975 41:0.50075 42:40 43:40 44:40 45:5.55575 46:40 47:-4.28125 48:-3.41725 49:40 50:40 51:40 52:11.13275 53:5.65575 54:6.91475 55:2.30975 56:7.35375 57:40 58:-6.67225 59:40 60:-1.44325 61:40 62:-0.92525 63:40 64:40 65:5.57075 66:5.00375 67:-5.09125 68:1.01675 69:40 70:3.20575 71:40 72:40 73:-0.21525 74:0.98175 75:0.61475 76:0.78275 77:8.87075 78:3.04775 79:40 80:40 81:40 82:40 83:8.12475 84:2.61275 85:-0.34625 86:4.46775 87:0.29075 88:12.54275 89:-0.73025 90:3.64975 91:4.35875 92:4.37675 93:-8.30325 94:40 95:-1.99925 96:40 97:0.87575 98:3.07275 99:40 100:-0.81325 101:-0.70125 102:40 103:40 104:5.99675 105:14.69575 106:16.77975 107:8.00175 108:40 109:3.42375 110:-0.42825 111:-3.15025 112:40 113:40 114:40 115:-5.70225 116:1.27975 117:12.17075 118:4.06775 119:3.28975 120:6.81175 121:1.93175 122:40 123:0.12575 124:40 125:4.49275 126:-0.54225 127:5.08375 128:40 129:40 130:8.40275 131:10.02775 132:1.90575 133:6.57675 134:6.76075 135:40 136:3.59975 137:14.59475 138:12.74975 139:40 140:40 141:40 142:10.80675 143:40 144:-2.18225 145:-3.35025 146:-9.26825 147:2.55175 148:40 149:7.89475 150:40 151:40 152:3.87175 153:6.17975 154:11.84775 155:-4.37225 156:40 157:40 158:-3.55525 159:13.06375 160:2.33475 161:0.92175 162:17.23675 163:-1.11025 164:40 165:11.05875 166:40 167:2.62675 168:40 169:-0.10025 170:40 171:6.63475 172:0.55275 173:40 174:2.45275 175:4.38475 176:1.20475 177:0.79275 178:40 179:1.93775 180:4.77275 181:9.65475 182:11.48175 183:9.82275 184:9.33875 185:40 186:40 187:40 188:3.26875 189:40 190:40 191:14.16075 192:2.82175 193:4.11275 194:3.36575 195:1.31575 196:40 197:40 198:40 199:40 200:6.58075 201:4.10475 202:40 203:40 204:5.53475 205:6.53875 206:7.74775 207:2.03575 208:40 209:7.48175 210:9.96775 211:16.43975 212:2.67175 213:40 214:40 215:40 216:40 217:40 218:-3.67925 219:40 220:40 221:5.33875 222:40 223:9.40575 224:-0.49425 225:-6.32725 226:40 227:40 228:40 229:2.86975 230:40 231:9.40375 232:40 233:40 234:40 235:40 236:4.08275 237:40 238:6.44175 239:7.48175 240:40 241:40 242:40 243:40 244:40 245:40 246:7.82875 247:40 248:40 249:40 250:10.39475 251:40 252:40 253:40 254:40 255:40 256:40 257:40 258:40 259:40 260:40 261:40 262:40 263:40 264:40 265:40 266:40 267:40 268:40 269:40 270:40 271:40 272:40 273:40 274:40 275:40 276:40 277:40 278:40 279:40 280:40 281:40 282:11.44875 283:40 284:40 285:40 286:40 287:6.17075 288:3.39275 289:4.75475 290:40 291:8.02875 292:40 293:40 294:6.77175 295:10.26075 296:40 297:40 298:40 299:40 300:40 301:40 302:40 303:40 304:40 305:40 306:40 307:40 308:-2.39925 309:6.22875 310:40 311:40 312:40 313:40 314:40 315:0.42475 316:8.18475 317:4.15675 318:40 319:40 320:7.33975 321:9.27775 322:40 323:6.41775 324:14.45575 325:5.29675 326:40 327:7.18575 328:6.12875 329:40 330:0.47375 331:40 332:40 333:40 334:10.37775 335:1.25875 336:4.74575 337:40 338:40 339:40 340:0.50775 341:40 342:40 343:40 344:40 345:10.70975 346:40 347:40 348:40 349:40 350:9.84175 351:5.51675 352:4.44275 353:40 354:40 355:9.62775 356:40 357:12.76275 358:40 359:40 360:40 361:40 362:40 363:8.23575 364:40 365:40 366:40 367:40 368:1.62075 369:40 370:40 371:40 372:1.15675 373:40 374:40 375:40 376:40 377:40 378:40 379:10.61675 380:10.17175 381:40 382:40 384:40 
-0.1875 1:14.81475 2:6.47775 3:5.96375 4:10.51775 5:40 6:4.18475 7:9.07175 8:40 9:7.17675 10:11.21075 11:8.06875 12:8.01275 13:8.07375 14:1.02275 15:-5.95725 16:-6.31025 17:3.20975 18:14.27275 19:-0.34925 20:-6.34825 21:-4.50925 22:-0.87025 23:-1.69325 24:4.03075 25:12.10975 26:40 27:-6.05125 28:-1.71825 29:1.16075 30:2.01575 31:-2.84725 32:-0.15025 33:0.10275 34:3.52375 35:7.88275 36:7.83075 37:0.54475 38:10.70775 39:4.39275 40:0.43375 41:-0.40125 42:6.27175 43:12.14175 44:40 45:-0.69825 46:10.75075 47:-3.99725 48:-2.80525 49:11.54475 50:40 51:40 52:14.88575 53:6.02175 54:10.71675 55:3.27875 56:7.67975 57:40 58:-6.35325 59:40 60:-1.57325 61:18.07775 62:-0.44125 63:40 64:14.86675 65:7.23075 66:3.80475 67:-6.02425 68:0.99175 69:40 70:3.95875 71:40 72:40 73:-1.60925 74:2.81075 75:1.55975 76:1.06875 77:10.65375 78:5.60475 79:7.49375 80:40 81:40 82:40 83:7.87575 84:2.09075 85:-1.76425 86:5.18675 87:0.63975 88:9.24175 89:0.93975 90:4.93575 91:2.90375 92:5.73375 93:-6.84625 94:8.40375 95:-2.18125 96:40 97:2.89275 98:4.29375 99:40 100:-2.50325 101:0.39975 102:40 103:8.17875 104:8.16375 105:40 106:18.83875 107:9.64675 108:40 109:6.01175 110:0.75275 111:-1.14425 112:17.76275 113:40 114:40 115:-5.73125 116:1.49375 117:15.90475 118:5.16175 119:1.73675 120:3.10075 121:3.38175 122:15.01675 123:2.32675 124:40 125:7.47475 126:-1.48125 127:12.09875 128:18.65975 129:11.86875 130:15.49375 131:40 132:6.15475 133:9.84075 134:6.43975 135:40 136:4.32775 137:10.34775 138:12.34875 139:10.55475 140:10.04875 141:40 142:6.00775 143:40 144:-2.15325 145:-3.93825 146:-11.20525 147:1.66375 148:40 149:17.02975 150:40 151:40 152:4.91775 153:8.17875 154:11.11975 155:-1.81525 156:12.04375 157:13.13275 158:-4.11125 159:4.46975 160:3.01275 161:1.41675 162:40 163:-0.59025 164:9.17875 165:9.71675 166:40 167:1.04575 168:14.96875 169:1.48275 170:7.23675 171:12.08275 172:2.25675 173:14.05475 174:3.16475 175:2.72275 176:2.90275 177:-0.61925 178:40 179:1.35175 180:4.35875 181:10.84375 182:40 183:5.50075 184:11.86275 185:9.92275 186:16.05875 187:14.09275 188:2.61675 189:40 190:12.41375 191:40 192:2.35175 193:3.40375 194:3.20575 195:0.28375 196:40 197:40 198:8.71575 199:40 200:10.65875 201:3.82775 202:40 203:18.83375 204:2.80375 205:6.47875 206:9.21275 207:4.13575 208:16.89775 209:4.81175 210:16.69275 211:6.77075 212:4.31175 213:40 214:40 215:40 216:40 217:16.84775 218:-4.91825 219:7.60275 220:40 221:5.71575 222:40 223:18.04775 224:-0.24425 225:-5.13625 226:7.94175 227:40 228:7.26675 229:6.07475 230:40 231:7.32575 232:40 233:40 234:40 235:40 236:8.16075 237:10.63275 238:6.55075 239:4.31675 240:40 241:40 242:40 243:11.74675 244:17.38475 245:18.17575 246:10.48775 247:40 248:40 249:40 250:7.10475 251:40 252:40 253:40 254:40 255:40 256:14.89775 257:40 258:40 259:40 260:40 261:40 262:40 263:40 264:40 265:40 266:40 267:40 268:40 269:40 270:40 271:40 272:40 273:40 274:40 275:40 276:40 277:40 278:40 279:40 280:40 281:40 282:9.50075 283:40 284:40 285:40 286:40 287:4.99475 288:1.45575 289:2.56775 290:17.34675 291:40 292:14.89075 293:40 294:7.64675 295:12.76875 296:40 297:40 298:40 299:40 300:17.72475 301:13.42075 302:40 303:7.74575 304:40 305:40 306:40 307:40 308:-0.10025 309:6.59275 310:15.55875 311:7.75775 312:40 313:40 314:40 315:-0.33525 316:7.98175 317:3.41375 318:40 319:40 320:8.87275 321:3.87875 322:40 323:7.74475 324:40 325:9.90975 326:9.92475 327:13.91675 328:11.06975 329:40 330:1.28575 331:40 332:11.82175 333:9.29875 334:40 335:1.79575 336:6.13475 337:40 338:40 339:40 340:0.74875 341:10.76775 342:40 343:40 344:40 345:14.08675 346:40 347:40 348:40 349:40 350:-0.32125 351:11.12575 352:6.50975 353:40 354:13.77675 355:6.30075 356:40 357:16.56975 358:40 359:40 360:18.25875 361:6.68275 362:16.30775 363:12.12175 364:40 365:40 366:40 367:40 368:18.18275 369:40 370:40 371:40 372:0.24775 373:40 374:40 375:40 376:40 377:40 378:40 379:6.66975 380:40 381:40 382:40 384:14.43675 
-0.1875 1:12.013125 2:3.012125 3:3.825125 4:5.424125 5:40 6:2.954125 7:12.269125 8:20.534125 9:6.818125 10:16.245125 11:7.517125 12:7.395125 13:8.285125 14:0.753125 15:-3.203875 16:-4.238875 17:3.504125 18:14.271125 19:0.313125 20:-5.447875 21:-3.006875 22:0.956125 23:-1.610875 24:2.658125 25:11.776125 26:40 27:-4.859875 28:-1.247875 29:-0.384875 30:1.255125 31:-1.017875 32:-1.025875 33:-0.575875 34:1.935125 35:7.089125 36:7.553125 37:-1.096875 38:10.189125 39:3.103125 40:-0.013875 41:-1.098875 42:8.340125 43:8.161125 44:40 45:0.271125 46:13.462125 47:-2.993875 48:-1.099875 49:6.949125 50:40 51:40 52:8.721125 53:5.513125 54:5.341125 55:2.550125 56:3.120125 57:40 58:-4.552875 59:40 60:-1.277875 61:14.562125 62:-6.868875 63:40 64:12.393125 65:5.328125 66:-0.681875 67:-4.418875 68:4.168125 69:40 70:4.659125 71:40 72:40 73:1.168125 74:2.858125 75:0.276125 76:4.216125 77:12.930125 78:8.615125 79:8.859125 80:12.086125 81:40 82:40 83:7.496125 84:3.743125 85:-0.276875 86:5.123125 87:0.475125 88:7.298125 89:-0.421875 90:5.196125 91:2.826125 92:4.409125 93:-4.744875 94:6.995125 95:-1.040875 96:40 97:-1.112875 98:4.169125 99:40 100:-2.163875 101:-0.075875 102:40 103:40 104:7.393125 105:13.156125 106:14.896125 107:7.730125 108:19.039125 109:6.812125 110:1.545125 111:-0.083875 112:40 113:40 114:10.804125 115:-4.537875 116:-3.645875 117:11.874125 118:-0.191875 119:-2.405875 120:2.594125 121:3.474125 122:14.947125 123:2.512125 124:40 125:5.528125 126:-0.822875 127:9.814125 128:7.531125 129:7.157125 130:7.782125 131:13.839125 132:1.892125 133:5.612125 134:6.288125 135:40 136:1.632125 137:4.372125 138:13.126125 139:11.188125 140:8.334125 141:12.446125 142:4.134125 143:13.324125 144:-1.475875 145:-3.079875 146:-8.586875 147:2.641125 148:40 149:9.411125 150:40 151:40 152:3.663125 153:7.314125 154:15.224125 155:-2.439875 156:40 157:40 158:-3.283875 159:10.522125 160:2.884125 161:1.178125 162:40 163:-0.250875 164:16.308125 165:9.851125 166:40 167:-0.020875 168:12.551125 169:2.554125 170:9.120125 171:11.900125 172:3.912125 173:10.777125 174:3.242125 175:4.522125 176:1.036125 177:0.126125 178:16.315125 179:0.260125 180:4.139125 181:7.219125 182:12.509125 183:6.060125 184:2.676125 185:17.116125 186:40 187:40 188:6.468125 189:40 190:40 191:40 192:1.333125 193:1.248125 194:-0.087875 195:5.283125 196:40 197:40 198:16.279125 199:40 200:40 201:7.809125 202:40 203:16.323125 204:7.904125 205:8.314125 206:7.735125 207:3.787125 208:10.197125 209:3.349125 210:8.498125 211:40 212:9.412125 213:10.398125 214:40 215:40 216:40 217:18.377125 218:-4.472875 219:6.307125 220:40 221:4.527125 222:7.340125 223:6.734125 224:-2.997875 225:-4.686875 226:12.838125 227:40 228:9.916125 229:4.765125 230:40 231:10.738125 232:40 233:13.293125 234:40 235:40 236:5.683125 237:40 238:9.692125 239:7.698125 240:40 241:40 242:16.662125 243:13.811125 244:20.672125 245:20.436125 246:8.403125 247:40 248:40 249:40 250:5.167125 251:40 252:40 253:40 254:40 255:40 256:40 257:40 258:40 259:40 260:40 261:40 262:40 263:40 264:40 265:40 266:40 267:40 268:40 269:40 270:40 271:40 272:19.476125 273:40 274:40 275:40 276:40 277:40 278:40 279:40 280:40 281:40 282:40 283:40 284:40 285:40 286:40 287:3.952125 288:1.950125 289:7.099125 290:40 291:12.509125 292:40 293:40 294:8.642125 295:40 296:40 297:40 298:40 299:40 300:11.171125 301:40 302:11.091125 303:8.095125 304:40 305:40 306:40 307:40 308:-1.410875 309:7.188125 310:15.700125 311:7.680125 312:40 313:40 314:19.285125 315:1.824125 316:9.443125 317:5.154125 318:40 319:40 320:8.786125 321:12.150125 322:40 323:8.698125 324:15.263125 325:8.822125 326:14.482125 327:11.980125 328:9.539125 329:40 330:2.031125 331:40 332:16.348125 333:17.898125 334:14.928125 335:1.003125 336:6.842125 337:40 338:40 339:40 340:1.198125 341:40 342:40 343:40 344:40 345:6.667125 346:40 347:40 348:40 349:40 350:-4.322875 351:12.952125 352:7.634125 353:40 354:40 355:9.730125 356:40 357:40 358:40 359:40 360:40 361:40 362:10.850125 363:6.581125 364:19.506125 365:40 366:40 367:40 368:40 369:40 370:40 371:40 372:5.252125 373:40 374:40 375:40 376:40 377:40 378:40 379:5.474125 380:40 381:16.519125 382:40 384:18.790125 
