svm_type c_svc
kernel_type rbf
gamma 0.001953
nr_class 2
total_sv 31
rho 0.0469303
label 1 2
nr_sv 16 15
SV
0.2771026910275888 34:2.592875 38:9.133875 46:40 80:15.405875 134:6.367875 144:-2.185125 154:1.741875 163:-1.737125 221:5.683875 250:5.617875 
0.9335997241924603 34:1.43075 38:40 46:40 80:7.44875 134:3.25575 144:-2.94925 154:7.95675 163:-2.39725 221:5.35775 250:5.59675 
0.7484695716826323 34:3.749 38:10.164 46:13.19 80:7.402 134:8.259 144:-2.123 154:13.047 163:-0.721 221:2.683 250:40 
1 34:3.197875 38:7.321875 46:40 80:40 134:7.692875 144:-1.583125 154:7.910875 163:-0.782125 221:7.181875 250:3.572875 
0.8503882914166827 34:4.147875 38:7.091875 46:40 80:5.615875 134:9.639875 144:-0.542125 154:8.150875 163:1.629875 221:1.680875 250:40 
1 34:2.82525 38:7.67125 46:40 80:7.97225 134:6.00425 144:-0.14675 154:40 163:0.42125 221:3.18825 250:40 
0.5043333976276652 34:3.6665 38:13.1135 46:11.1255 80:7.4595 134:10.1715 144:-2.0245 154:15.1125 163:0.3155 221:1.7915 250:6.7555 
0.06877945898530705 34:1.266875 38:14.978875 46:40 80:8.785875 134:6.289875 144:-2.883125 154:9.763875 163:-2.109125 221:6.729875 250:3.260875 
0.7805459140323568 34:3.52375 38:10.70775 46:10.75075 80:40 134:6.43975 144:-2.15325 154:11.11975 163:-0.59025 221:5.71575 250:7.10475 
1 34:4.67375 38:8.27975 46:40 80:40 134:6.76075 144:-2.18225 154:11.84775 163:-1.11025 221:5.33875 250:10.39475 
0.491772977680779 34:3.257 38:9.055 46:40 80:8.966 134:9.66 144:-3.104 154:8.725 163:-1.196 221:8.356 250:6.742 
1 34:2.201125 38:8.164125 46:40 80:40 134:40 144:-1.570875 154:16.769125 163:-0.468875 221:5.534125 250:8.603125 
0.4617296647335209 34:2.432125 38:6.916125 46:9.403125 80:11.417125 134:6.376125 144:-2.486875 154:0.839125 163:-1.465875 221:6.600125 250:4.379125 
0.4450436905923826 34:1.764 38:5.185 46:40 80:5.808 134:4.342 144:-1.814 154:6.895 163:-2.77 221:4.886 250:3.73 
0.4390286312075424 34:3.343375 38:8.214375 46:40 80:8.647375 134:10.974375 144:-0.700625 154:7.461375 163:-0.278625 221:1.230375 250:6.786375 
1 34:0.5595 38:6.5005 46:40 80:7.6985 134:40 144:-2.2695 154:15.8505 163:0.0885 221:-0.6875 250:6.5315 
-0.6050381257337274 34:4.754125 38:12.441125 46:40 80:40 134:40 144:0.239125 154:12.757125 163:0.418125 221:1.421125 250:40 
-1 34:2.059 38:8.576 46:40 80:16.366 134:8.43 144:-3.057 154:11.236 163:-0.815 221:4.993 250:6.504 
-1 34:3.234875 38:9.061875 46:40 80:9.457875 134:9.673875 144:-1.120125 154:40 163:-0.158125 221:1.341875 250:6.148875 
-0.9529307807003958 34:3.308 38:40 46:40 80:9.748 134:40 144:-2.494 154:40 163:1.965 221:2.614 250:3.39 
-0.3483510952051483 34:3.574625 38:40 46:40 80:40 134:40 144:0.923625 154:40 163:1.759625 221:-1.598375 250:40 
-1 34:3.558375 38:8.074375 46:40 80:40 134:6.264375 144:-0.498625 154:11.465375 163:-0.234625 221:6.619375 250:40 
-0.1085098447848369 34:4.929875 38:40 46:40 80:40 134:40 144:-0.672125 154:40 163:0.395875 221:0.825875 250:40 
-1 34:4.1795 38:6.5955 46:40 80:11.2575 134:40 144:-1.5635 154:4.7565 163:-1.0965 221:4.8455 250:4.3635 
-0.6425865042356483 34:5.219625 38:40 46:40 80:40 134:9.275625 144:-0.721375 154:8.457625 163:1.475625 221:1.281625 250:40 
-0.8394511155754748 34:3.935875 38:18.127875 46:40 80:15.636875 134:40 144:-0.597125 154:9.134875 163:0.584875 221:2.071875 250:40 
-1 34:2.58325 38:8.89425 46:40 80:40 134:9.66925 144:-1.82975 154:40 163:-1.07975 221:3.62225 250:8.30925 
-0.2768020780992852 34:4.996125 38:40 46:40 80:40 134:40 144:2.559125 154:40 163:1.841125 221:0.785125 250:40 
-0.7662551167307374 34:6.161625 38:40 46:40 80:40 134:4.742625 144:-0.222375 154:40 163:1.631625 221:0.638625 250:40 
-0.4608693521136638 34:4.170375 38:40 46:40 80:40 134:40 144:-0.996625 154:11.716375 163:-0.072625 221:2.338375 250:40 
-1 34:7.505125 38:9.103125 46:40 80:40 134:6.270125 144:-1.083875 154:5.940125 163:0.029125 221:3.862125 250:6.859125 
