svm_type c_svc
kernel_type rbf
gamma 0.001953
nr_class 2
total_sv 9
rho 0.22426
label 2 6
nr_sv 5 4
SV
0.599352809213438 3:1.611125 6:1.485125 26:40 29:-2.495875 30:-1.344875 90:3.861125 192:-0.880875 222:40 291:40 314:40 
0.5930693751426148 3:8.408625 6:2.897625 26:40 29:1.261625 30:3.123625 90:6.105625 192:2.482625 222:40 291:40 314:40 
1 3:3.012875 6:2.052875 26:40 29:-2.145125 30:-1.740125 90:3.300875 192:-0.659125 222:16.940875 291:10.730875 314:40 
0.0631470906667245 3:3.834375 6:2.799375 26:40 29:-0.253625 30:0.849375 90:3.958375 192:3.404375 222:40 291:13.140375 314:40 
1 3:2.759 6:2.259 26:40 29:-1.06 30:0.74 90:3.57 192:1.112 222:40 291:9.377 314:40 
-0.6621874145768331 3:1.215875 6:0.514875 26:40 29:-2.656125 30:-1.111125 90:1.822875 192:1.313875 222:9.450875 291:9.808875 314:8.486875 
-1 3:0.045 6:0.004 26:13.602 29:-3.993 30:-2.183 90:3.077 192:-2.414 222:40 291:13.475 314:40 
-1 3:3.1415 6:3.1245 26:40 29:-1.4225 30:-2.0785 90:3.8625 192:-0.1805 222:9.7625 291:10.8875 314:40 
-0.5933818604459442 3:-0.818125 6:-0.113125 26:13.687875 29:-4.148125 30:-2.134125 90:2.925875 192:-2.505125 222:13.944875 291:16.072875 314:13.818875 
