svm_type c_svc
kernel_type rbf
gamma 0.03125
nr_class 2
total_sv 18
rho -0.928571
label 4 6
nr_sv 14 4
SV
0.0712890625 1:4.92075 2:3.31275 3:3.11475 4:1.81375 5:40 6:-0.52825 7:10.45175 8:11.37675 9:5.22575 10:10.74075 11:4.54775 12:4.75175 13:3.62775 14:0.70075 15:-9.27125 16:-6.90325 17:0.45275 18:2.07575 19:-3.13325 20:-9.12925 21:-6.91725 22:-2.70025 23:-3.94725 24:0.02075 25:7.44075 26:40 27:-4.50725 28:-4.92925 29:-0.90725 30:-1.59425 31:0.04175 32:1.38475 33:1.95275 34:3.13475 35:4.08075 36:4.13175 37:2.19175 38:7.81775 39:3.97875 40:-2.64725 41:-2.71725 42:6.90475 43:6.74075 44:40 45:6.12875 46:40 47:-6.98625 48:-4.35325 49:12.03175 50:40 51:11.31475 52:9.83475 53:1.35175 54:8.03975 55:-0.80825 56:-2.20725 57:40 58:-7.41625 59:40 60:-4.93525 61:5.14975 62:-0.16225 63:10.04575 64:15.43975 65:6.81975 66:2.20775 67:-5.67525 68:3.24175 69:40 70:3.64075 71:40 72:40 73:-0.64325 74:0.84775 75:2.14475 76:3.27375 77:8.27175 78:6.25175 79:6.50775 80:40 81:15.36475 82:40 83:9.46675 84:3.73375 85:0.61875 86:0.25675 87:0.48175 88:8.25875 89:-2.02725 90:3.10775 91:3.60375 92:2.49575 93:-3.20625 94:9.74875 95:-0.91725 96:40 97:2.25275 98:3.87675 99:40 100:-3.11325 101:1.98675 102:40 103:40 104:2.02375 105:9.49475 106:9.60775 107:9.04575 108:5.20975 109:7.29775 110:-2.30625 111:-0.13225 112:40 113:40 114:9.99475 115:-5.49125 116:0.12375 117:14.17075 118:4.25275 119:2.86175 120:1.93475 121:1.57275 122:9.40375 123:0.70275 124:13.62975 125:6.61975 126:-0.20525 127:8.77375 128:40 129:8.07675 130:4.79975 131:11.92975 132:4.50475 133:6.58575 134:6.28075 135:40 136:-1.16825 137:5.68475 138:3.01075 139:9.48075 140:10.60175 141:40 142:5.21875 143:14.75275 144:-0.83325 145:-2.46425 146:-8.38125 147:5.23775 148:40 149:2.07875 150:40 151:40 152:1.67775 153:8.30775 154:2.68075 155:-5.18525 156:-1.32925 157:8.09775 158:-4.70525 159:7.13875 160:0.16475 161:0.59975 162:15.61975 163:-0.69125 164:11.21575 165:4.82875 166:13.64975 167:-0.96725 168:12.45075 169:3.20875 170:8.42575 171:10.37675 172:4.29075 173:3.78175 174:5.20875 175:5.76475 176:-4.46125 177:-0.78225 178:9.90375 179:2.87375 180:6.86575 181:6.27175 182:7.85575 183:1.47275 184:6.75875 185:2.02675 186:40 187:17.23875 188:2.89075 189:40 190:16.13075 191:40 192:0.29275 193:1.87575 194:5.26675 195:3.72875 196:40 197:15.37975 198:7.81675 199:40 200:10.77475 201:3.94475 202:13.42375 203:10.73075 204:7.10575 205:7.27175 206:10.39775 207:1.18375 208:10.92975 209:-2.89425 210:16.36475 211:9.95475 212:8.60775 213:14.76275 214:15.10275 215:40 216:40 217:14.31075 218:-9.85825 219:10.15275 220:40 221:2.44275 222:9.96975 223:14.20075 224:4.88875 225:-5.85025 226:7.13575 227:40 228:3.31975 229:-2.96225 230:12.33375 231:8.94175 232:16.08575 233:40 234:40 235:40 236:7.26675 237:11.52875 238:9.43675 239:5.52275 240:40 241:40 242:11.35575 243:4.71675 244:7.22575 245:4.21075 246:4.81375 247:9.87675 248:40 249:9.91275 250:6.11475 251:40 252:40 253:40 254:11.76975 255:40 256:40 257:40 258:40 259:17.83775 260:40 261:40 262:40 263:40 264:12.88375 265:40 266:40 267:40 268:40 269:40 270:40 271:14.73975 272:14.03675 273:12.16175 274:40 275:40 276:40 277:40 278:40 279:40 280:40 281:14.70975 282:9.67575 283:40 284:40 285:40 286:40 287:1.83375 288:-0.75225 289:7.87275 290:40 291:11.56175 292:40 293:10.35975 294:7.03475 295:13.81975 296:40 297:40 298:40 299:12.72175 300:14.70575 301:12.95275 302:17.26075 303:9.00075 304:40 305:15.82375 306:40 307:12.77175 308:0.84375 309:8.34375 310:8.74975 311:5.86775 312:15.86075 313:40 314:11.73475 315:0.34475 316:10.34775 317:4.88175 318:40 319:40 320:9.29075 321:-3.60125 322:40 323:7.74275 324:40 325:10.86975 326:6.02975 327:6.32675 328:6.87675 329:40 330:-0.61625 331:40 332:15.39175 333:8.30675 334:14.11775 335:-2.04225 336:7.90975 337:40 338:40 339:40 340:2.45075 341:10.45575 342:40 343:40 344:40 345:5.64475 346:40 347:40 348:40 349:40 350:1.21875 351:8.14975 352:5.21075 353:40 354:40 355:8.56375 356:40 357:15.43875 358:40 359:40 360:11.45475 361:-2.92925 362:12.04275 363:10.07375 364:12.60875 365:40 366:40 367:40 368:10.27775 369:40 370:40 371:40 372:3.41975 373:40 374:40 375:40 376:40 377:40 378:40 379:8.17075 380:40 381:40 382:40 384:7.39575 
0.0712890625 1:3.78375 2:3.28275 3:3.00275 4:1.69575 5:40 6:2.21375 7:5.58975 8:10.53175 9:4.32275 10:11.59675 11:6.19575 12:6.62075 13:6.13575 14:2.58375 15:-4.58525 16:-3.93425 17:2.20075 18:9.66075 19:0.43975 20:-6.87725 21:-3.26925 22:0.29175 23:-4.32525 24:-1.60325 25:1.58375 26:40 27:-4.80125 28:-1.35525 29:-0.14625 30:1.47675 31:-0.16525 32:0.41075 33:0.72875 34:4.12875 35:6.61575 36:6.38375 37:-0.19125 38:6.24675 39:3.58775 40:-1.24225 41:-0.84525 42:5.43975 43:8.28975 44:40 45:1.27975 46:11.16775 47:-2.70425 48:-1.82925 49:5.14875 50:40 51:40 52:3.08975 53:2.06775 54:3.02575 55:1.66575 56:0.14375 57:40 58:-4.04425 59:40 60:-0.70625 61:5.36975 62:-5.53925 63:40 64:13.93775 65:5.69075 66:-0.62925 67:-4.18425 68:1.05375 69:8.67075 70:2.89975 71:40 72:40 73:-0.39825 74:0.66075 75:1.02675 76:0.12675 77:2.74775 78:1.74575 79:12.28175 80:10.58775 81:40 82:40 83:6.65875 84:2.57375 85:1.06275 86:3.69475 87:0.65975 88:5.53475 89:-2.01925 90:3.32775 91:-0.47525 92:0.05075 93:-3.10125 94:7.56175 95:-0.35725 96:40 97:-0.81125 98:3.62975 99:40 100:-1.84125 101:1.11975 102:40 103:7.18075 104:2.23775 105:7.57475 106:40 107:7.57575 108:9.23375 109:5.10575 110:-0.02125 111:1.04575 112:4.51275 113:40 114:12.11475 115:-2.69125 116:-0.95025 117:9.76275 118:0.08675 119:-0.99525 120:4.68275 121:1.19075 122:40 123:-0.09925 124:9.24675 125:4.43875 126:-0.89125 127:6.06075 128:2.67275 129:3.99475 130:4.41675 131:6.25075 132:5.25875 133:3.20475 134:5.70175 135:40 136:-0.98225 137:0.88475 138:0.97975 139:9.57975 140:7.68575 141:40 142:3.15275 143:9.17975 144:-1.35825 145:-3.04425 146:-7.70725 147:1.96475 148:40 149:4.29075 150:12.33275 151:40 152:3.49375 153:7.20575 154:3.28475 155:-6.96325 156:40 157:40 158:-2.42925 159:4.06675 160:2.39175 161:2.04175 162:9.53675 163:-0.97825 164:8.08275 165:4.78775 166:40 167:1.14775 168:7.29775 169:2.74675 170:4.85375 171:5.91775 172:6.96375 173:4.02875 174:3.85975 175:5.22075 176:-1.80525 177:-0.86225 178:10.38975 179:1.68075 180:3.88075 181:7.87375 182:10.95675 183:7.10075 184:4.87275 185:12.49075 186:8.20375 187:11.99475 188:2.05175 189:40 190:14.74875 191:40 192:4.26575 193:2.37175 194:0.93775 195:2.21175 196:6.78575 197:40 198:4.38375 199:40 200:7.08075 201:0.02975 202:6.17475 203:7.24375 204:4.11275 205:5.07375 206:7.19475 207:1.79575 208:8.47475 209:-0.92125 210:8.16475 211:6.81975 212:3.18375 213:40 214:40 215:7.79875 216:40 217:40 218:-6.09625 219:5.42375 220:9.77975 221:5.65975 222:7.24975 223:5.81275 224:0.06375 225:-4.32325 226:2.79175 227:10.34375 228:3.84775 229:-0.48125 230:7.75975 231:7.13775 232:10.58975 233:40 234:40 235:40 236:5.58575 237:6.68075 238:6.69275 239:5.13075 240:8.58775 241:40 242:7.81875 243:6.36575 244:40 245:40 246:7.02075 247:40 248:40 249:40 250:3.60975 251:40 252:40 253:40 254:40 255:40 256:40 257:40 258:40 259:40 260:40 261:40 262:40 263:9.02075 264:11.12475 265:40 266:12.02175 267:40 268:40 269:40 270:40 271:40 272:8.74375 273:9.59575 274:40 275:40 276:40 277:40 278:40 279:40 280:40 281:40 282:4.04475 283:40 284:40 285:40 286:40 287:4.96875 288:0.57175 289:3.44175 290:40 291:9.36375 292:10.72575 293:40 294:8.97575 295:9.97075 296:40 297:40 298:12.25775 299:9.63775 300:10.00275 301:40 302:9.88575 303:40 304:40 305:40 306:40 307:40 308:-0.05725 309:7.58175 310:40 311:5.41875 312:9.62175 313:40 314:40 315:2.31375 316:6.73175 317:4.44975 318:40 319:40 320:40 321:5.69075 322:40 323:5.84975 324:40 325:9.07275 326:5.65975 327:6.14775 328:6.45875 329:40 330:1.90975 331:40 332:8.81075 333:40 334:6.15275 335:-0.36925 336:6.35475 337:40 338:40 339:40 340:2.26575 341:6.17475 342:40 343:40 344:40 345:1.23975 346:40 347:40 348:40 349:40 350:-1.54225 351:4.52175 352:5.95475 353:40 354:8.92675 355:6.00575 356:40 357:40 358:40 359:40 360:40 361:40 362:8.70075 363:7.21775 364:40 365:40 366:40 367:40 368:7.70875 369:40 370:40 371:40 372:0.88075 373:40 374:40 375:40 376:40 377:40 378:40 379:4.72575 380:40 381:40 382:40 384:11.53175 
0.0712890625 1:2.54225 2:3.73525 3:1.94025 4:0.38125 5:40 6:1.29425 7:5.83425 8:11.50325 9:4.67425 10:4.08825 11:4.55425 12:4.74925 13:2.76625 14:0.21525 15:-5.33275 16:-5.23575 17:1.41625 18:5.88525 19:-1.79175 20:-6.78575 21:-4.32175 22:-0.77975 23:-2.91775 24:-0.72675 25:1.98725 26:40 27:-4.90275 28:-0.76975 29:-1.87875 30:0.27525 31:-0.22175 32:0.99625 33:0.29525 34:2.82925 35:4.56625 36:4.55725 37:1.24725 38:6.80825 39:5.91725 40:-0.65175 41:-1.02875 42:7.57825 43:7.52325 44:40 45:3.59925 46:40 47:-2.84275 48:-2.42175 49:6.93225 50:40 51:40 52:4.75125 53:2.11225 54:4.69025 55:3.26425 56:0.12425 57:40 58:-5.25775 59:40 60:-0.89975 61:7.82725 62:-1.64375 63:9.92725 64:13.35325 65:3.80225 66:3.13625 67:-5.72375 68:2.25525 69:40 70:2.92825 71:40 72:40 73:-0.30375 74:0.30825 75:1.55525 76:1.22125 77:4.32625 78:1.46925 79:6.86525 80:13.31925 81:40 82:40 83:9.42025 84:2.10725 85:0.26625 86:2.90725 87:-0.81875 88:7.82325 89:-1.81475 90:2.47525 91:3.27625 92:1.45825 93:-4.66475 94:10.34625 95:-1.73075 96:40 97:1.47825 98:3.14825 99:40 100:-2.61075 101:2.01425 102:40 103:8.07825 104:3.31925 105:9.48125 106:40 107:10.86725 108:7.69725 109:6.26125 110:0.06625 111:-0.46275 112:11.30225 113:40 114:13.34025 115:-5.03675 116:3.53825 117:12.16325 118:2.26925 119:2.29025 120:6.61425 121:1.35125 122:10.10125 123:-1.11475 124:40 125:4.32625 126:-1.20375 127:6.50425 128:6.13725 129:4.26825 130:3.80725 131:7.87625 132:7.83025 133:4.75125 134:7.50925 135:40 136:0.64525 137:7.73825 138:2.46725 139:11.77525 140:10.25525 141:40 142:9.44025 143:40 144:-1.83375 145:-3.80075 146:-9.55775 147:2.71125 148:40 149:5.46725 150:40 151:40 152:1.64125 153:5.87225 154:6.73825 155:-5.85675 156:40 157:40 158:-2.87675 159:4.23225 160:2.07725 161:1.79625 162:8.27525 163:-0.84575 164:8.24025 165:5.36225 166:40 167:0.24525 168:6.40025 169:2.15525 170:5.82325 171:5.31125 172:5.27825 173:4.76625 174:2.26525 175:3.21225 176:-2.66475 177:-1.94375 178:10.70625 179:1.20125 180:4.46425 181:7.95625 182:11.63625 183:8.17325 184:11.87225 185:40 186:40 187:40 188:1.56725 189:40 190:40 191:40 192:1.80025 193:0.28825 194:3.61625 195:2.01925 196:40 197:40 198:4.09225 199:40 200:40 201:2.63625 202:40 203:7.82425 204:5.84225 205:6.21125 206:9.18225 207:2.23825 208:7.45225 209:-1.28675 210:10.65125 211:6.54225 212:3.73825 213:11.07625 214:10.42625 215:8.74925 216:40 217:40 218:-5.87475 219:8.05025 220:40 221:2.60525 222:40 223:9.29725 224:1.58725 225:-5.20975 226:4.19925 227:40 228:3.90325 229:-0.86075 230:8.94625 231:6.36125 232:40 233:9.44525 234:8.30325 235:40 236:4.82725 237:7.13225 238:5.45225 239:4.05825 240:40 241:40 242:11.51225 243:5.70725 244:10.30325 245:6.83125 246:7.14025 247:8.26425 248:40 249:40 250:6.20225 251:40 252:40 253:40 254:40 255:40 256:8.56025 257:40 258:40 259:40 260:40 261:40 262:40 263:7.84325 264:7.88125 265:40 266:40 267:10.73325 268:40 269:40 270:40 271:40 272:8.01825 273:9.18025 274:40 275:40 276:40 277:40 278:40 279:40 280:40 281:12.47225 282:4.98725 283:40 284:40 285:40 286:40 287:3.69425 288:0.79925 289:4.02325 290:40 291:9.45925 292:13.03025 293:40 294:7.18525 295:11.72425 296:40 297:40 298:40 299:40 300:12.84525 301:40 302:40 303:9.17825 304:40 305:40 306:40 307:10.08125 308:-0.94075 309:7.47425 310:9.83625 311:5.56825 312:9.90025 313:40 314:8.81925 315:1.72925 316:7.27825 317:4.21825 318:40 319:40 320:40 321:8.96525 322:40 323:4.94125 324:11.07125 325:6.09025 326:5.63225 327:6.29425 328:6.65425 329:40 330:0.21025 331:40 332:9.97325 333:8.20025 334:7.43925 335:0.99325 336:4.93525 337:8.35125 338:40 339:40 340:1.59325 341:40 342:40 343:40 344:40 345:4.28525 346:40 347:40 348:40 349:40 350:1.59225 351:6.16025 352:4.69925 353:40 354:10.48725 355:7.12025 356:40 357:13.01525 358:40 359:40 360:40 361:40 362:11.23225 363:7.37625 364:9.02425 365:40 366:40 367:40 368:6.84925 369:40 370:10.23225 371:40 372:0.82525 373:40 374:40 375:40 376:40 377:40 378:40 379:6.78625 380:40 381:40 382:12.51125 384:40 
0.0712890625 1:40 2:13.587 3:12.076 4:40 5:40 6:14.725 7:40 8:40 9:4.444 10:40 11:7.308 12:7.447 13:40 14:40 15:-4.277 16:-5.716 17:3.54 18:40 19:0.403 20:-5.996 21:-2.323 22:-0.718 23:1.817 24:40 25:40 26:40 27:-4.726 28:-0.995 29:4.719 30:10.188 31:0.084 32:3.102 33:-1.107 34:40 35:7.373 36:7.237 37:-0.55 38:40 39:5.017 40:1.888 41:1.815 42:40 43:6.566 44:40 45:12.531 46:40 47:-3.295 48:-1.812 49:40 50:40 51:40 52:13.887 53:40 54:5.881 55:2.919 56:3.466 57:40 58:-6.021 59:40 60:-0.571 61:40 62:0.95 63:8.139 64:40 65:6.259 66:5.434 67:-4.887 68:1.892 69:40 70:40 71:40 72:40 73:2.125 74:2.619 75:6.022 76:-0.665 77:9.492 78:2.254 79:40 80:5.829 81:14.567 82:40 83:40 84:4.039 85:2.425 86:2.334 87:0.631 88:40 89:1.541 90:40 91:6.529 92:6.375 93:-5.526 94:40 95:-0.152 96:40 97:7.644 98:9.379 99:40 100:-3.623 101:1.714 102:40 103:40 104:40 105:40 106:40 107:4.547 108:40 109:2.058 110:-0.939 111:-1.392 112:40 113:40 114:40 115:-5.149 116:1.126 117:40 118:3.388 119:0.827 120:8.034 121:3.738 122:40 123:0.075 124:40 125:40 126:-0.09 127:40 128:40 129:40 130:6.118 131:7.096 132:40 133:40 134:40 135:40 136:2.207 137:5.439 138:40 139:7.072 140:40 141:40 142:4.396 143:40 144:0.941 145:-6.218 146:-7.174 147:3.422 148:40 149:9.213 150:40 151:40 152:5.299 153:40 154:40 155:-2.721 156:40 157:40 158:-6.538 159:12.906 160:1.295 161:2.519 162:40 163:-0.039 164:40 165:8.375 166:40 167:1.03 168:40 169:5.524 170:4.989 171:40 172:1.715 173:40 174:4.928 175:2.54 176:3.868 177:-1.156 178:40 179:-0.218 180:40 181:40 182:40 183:40 184:8.764 185:40 186:40 187:40 188:1.42 189:40 190:7.895 191:40 192:4.14 193:3.841 194:3.43 195:3.12 196:40 197:40 198:3.963 199:40 200:40 201:9.555 202:40 203:40 204:9.816 205:8.735 206:40 207:1.973 208:40 209:-0.892 210:40 211:40 212:2.94 213:40 214:40 215:40 216:40 217:40 218:-3.162 219:5.783 220:40 221:3.504 222:40 223:40 224:-2.162 225:-8.019 226:6.96 227:40 228:40 229:0.459 230:40 231:40 232:40 233:40 234:6.467 235:40 236:5.181 237:6.842 238:40 239:8.641 240:40 241:40 242:40 243:40 244:40 245:40 246:6.054 247:40 248:40 249:40 250:40 251:40 252:40 253:40 254:40 255:40 256:40 257:40 258:40 259:40 260:40 261:40 262:40 263:40 264:40 265:40 266:40 267:40 268:40 269:12.044 270:40 271:40 272:10.356 273:40 274:40 275:40 276:40 277:40 278:8.379 279:40 280:40 281:40 282:9.175 283:40 284:40 285:40 286:40 287:3.178 288:3.271 289:2.689 290:40 291:40 292:40 293:40 294:40 295:3.492 296:40 297:40 298:40 299:7.33 300:40 301:40 302:40 303:40 304:40 305:40 306:40 307:40 308:-1.497 309:40 310:40 311:40 312:40 313:40 314:40 315:3.628 316:40 317:40 318:40 319:40 320:40 321:9.666 322:40 323:8.96 324:7.232 325:6.589 326:40 327:40 328:40 329:40 330:2.444 331:40 332:40 333:40 334:40 335:-0.331 336:40 337:40 338:40 339:40 340:0.92 341:40 342:40 343:40 344:40 345:5.828 346:40 347:40 348:40 349:40 350:5.628 351:5.073 352:4.004 353:40 354:40 355:40 356:40 357:40 358:40 359:40 360:40 361:40 362:40 363:5.056 364:40 365:40 366:40 367:40 368:40 369:40 370:40 371:40 372:2.296 373:40 374:40 375:40 376:40 377:40 378:40 379:40 380:40 381:40 382:11.26 384:40 
0.0712890625 1:3.474875 2:5.917875 3:0.889875 4:0.880875 5:17.226875 6:-0.182125 7:7.376875 8:40 9:7.604875 10:40 11:8.361875 12:8.428875 13:5.108875 14:-0.046125 15:-3.484125 16:-6.312125 17:1.029875 18:10.285875 19:-1.785125 20:-6.576125 21:-5.261125 22:-1.972125 23:-1.429125 24:5.804875 25:9.962875 26:17.301875 27:-5.574125 28:0.257875 29:-2.347125 30:-0.779125 31:-1.065125 32:0.407875 33:1.443875 34:1.727875 35:8.239875 36:8.258875 37:0.486875 38:12.271875 39:5.664875 40:1.224875 41:0.549875 42:40 43:7.300875 44:40 45:4.053875 46:40 47:-1.929125 48:-2.986125 49:40 50:40 51:13.562875 52:40 53:5.765875 54:11.179875 55:2.692875 56:1.332875 57:40 58:-6.518125 59:40 60:-0.655125 61:11.710875 62:1.832875 63:40 64:11.391875 65:1.533875 66:4.978875 67:-6.216125 68:2.005875 69:40 70:4.066875 71:40 72:40 73:1.250875 74:3.239875 75:0.419875 76:2.675875 77:8.879875 78:3.253875 79:8.927875 80:14.864875 81:17.676875 82:40 83:10.416875 84:2.368875 85:-1.379125 86:5.197875 87:-1.545125 88:11.713875 89:-2.819125 90:3.204875 91:3.904875 92:1.936875 93:-6.976125 94:7.869875 95:-2.930125 96:40 97:1.850875 98:3.577875 99:40 100:-0.117125 101:1.256875 102:13.133875 103:16.247875 104:6.549875 105:11.350875 106:11.568875 107:40 108:13.194875 109:8.303875 110:-0.419125 111:-1.744125 112:40 113:40 114:15.723875 115:-6.918125 116:2.267875 117:40 118:9.006875 119:4.750875 120:4.110875 121:2.311875 122:8.640875 123:1.810875 124:40 125:6.237875 126:-1.817125 127:8.457875 128:15.795875 129:11.472875 130:4.670875 131:40 132:7.455875 133:6.325875 134:11.176875 135:40 136:6.271875 137:9.888875 138:12.910875 139:9.975875 140:40 141:40 142:13.483875 143:40 144:-1.204125 145:-4.258125 146:-10.051125 147:1.883875 148:40 149:9.620875 150:40 151:40 152:2.166875 153:4.986875 154:40 155:-2.090125 156:40 157:40 158:-1.463125 159:10.997875 160:3.353875 161:2.049875 162:40 163:1.831875 164:9.064875 165:9.875875 166:11.084875 167:1.748875 168:10.600875 169:1.992875 170:8.100875 171:9.905875 172:2.122875 173:12.672875 174:1.773875 175:0.880875 176:-0.897125 177:-0.017125 178:40 179:2.338875 180:3.637875 181:6.939875 182:12.137875 183:6.020875 184:11.894875 185:40 186:40 187:40 188:3.605875 189:40 190:40 191:40 192:-0.582125 193:-0.536125 194:6.336875 195:2.517875 196:40 197:40 198:6.148875 199:40 200:12.424875 201:7.002875 202:40 203:40 204:6.445875 205:4.890875 206:9.452875 207:2.772875 208:7.964875 209:7.266875 210:9.045875 211:10.504875 212:4.680875 213:8.735875 214:40 215:10.011875 216:40 217:40 218:-4.766125 219:5.376875 220:40 221:0.570875 222:40 223:12.072875 224:1.215875 225:-5.681125 226:10.495875 227:40 228:15.982875 229:4.302875 230:40 231:5.984875 232:40 233:13.534875 234:16.436875 235:40 236:3.775875 237:8.810875 238:4.902875 239:3.332875 240:40 241:40 242:40 243:40 244:40 245:10.111875 246:8.723875 247:40 248:40 249:40 250:14.716875 251:40 252:40 253:40 254:40 255:40 256:40 257:40 258:40 259:40 260:40 261:40 262:40 263:40 264:40 265:40 266:40 267:40 268:40 269:40 270:40 271:40 272:40 273:40 274:40 275:40 276:40 277:40 278:40 279:40 280:40 281:40 282:12.113875 283:40 284:40 285:40 286:40 287:4.497875 288:3.333875 289:2.952875 290:40 291:40 292:15.193875 293:40 294:9.116875 295:9.875875 296:40 297:40 298:40 299:40 300:40 301:40 302:40 303:40 304:40 305:40 306:40 307:11.032875 308:-1.043125 309:7.132875 310:18.473875 311:40 312:40 313:40 314:40 315:0.785875 316:9.193875 317:4.211875 318:40 319:40 320:12.186875 321:8.893875 322:40 323:4.799875 324:40 325:3.601875 326:40 327:8.610875 328:9.524875 329:40 330:-0.044125 331:40 332:9.947875 333:18.004875 334:9.166875 335:1.397875 336:4.693875 337:40 338:40 339:40 340:-0.693125 341:40 342:40 343:40 344:40 345:12.777875 346:40 347:40 348:40 349:40 350:6.180875 351:10.691875 352:5.038875 353:40 354:40 355:8.362875 356:40 357:40 358:40 359:40 360:40 361:40 362:40 363:11.036875 364:40 365:40 366:40 367:40 368:40 369:40 370:40 371:40 372:2.974875 373:40 374:40 375:40 376:40 377:40 378:40 379:6.881875 380:40 381:40 382:40 384:40 
0.0712890625 1:12.909625 2:6.613625 3:3.550625 4:4.128625 5:40 6:2.888625 7:4.222625 8:40 9:40 10:40 11:5.336625 12:5.266625 13:40 14:4.004625 15:-4.675375 16:-6.581375 17:2.758625 18:11.730625 19:-2.853375 20:-7.772375 21:-4.978375 22:-2.064375 23:-1.535375 24:12.819625 25:40 26:40 27:-6.654375 28:-1.379375 29:0.574625 30:0.720625 31:-0.126375 32:1.088625 33:2.000625 34:6.597625 35:5.291625 36:5.125625 37:0.230625 38:40 39:4.581625 40:0.606625 41:0.560625 42:40 43:40 44:40 45:4.409625 46:40 47:-3.786375 48:-3.111375 49:40 50:40 51:40 52:40 53:11.133625 54:40 55:2.438625 56:5.257625 57:40 58:-6.649375 59:40 60:-0.341375 61:40 62:-0.555375 63:40 64:40 65:3.092625 66:5.175625 67:-5.888375 68:1.502625 69:40 70:4.778625 71:40 72:40 73:2.325625 74:3.803625 75:1.229625 76:-0.821375 77:5.404625 78:0.183625 79:40 80:40 81:40 82:40 83:40 84:2.545625 85:0.627625 86:3.031625 87:-1.795375 88:40 89:0.143625 90:8.436625 91:3.740625 92:5.815625 93:-7.978375 94:40 95:-3.179375 96:40 97:0.275625 98:2.665625 99:40 100:-2.216375 101:0.565625 102:40 103:40 104:40 105:40 106:40 107:40 108:9.655625 109:40 110:0.033625 111:-3.710375 112:40 113:40 114:40 115:-7.387375 116:0.881625 117:40 118:6.728625 119:5.099625 120:40 121:0.891625 122:5.273625 123:0.570625 124:40 125:3.859625 126:-1.399375 127:4.999625 128:40 129:11.323625 130:40 131:40 132:4.547625 133:40 134:40 135:40 136:5.067625 137:4.850625 138:40 139:40 140:40 141:40 142:6.018625 143:40 144:-2.148375 145:-5.652375 146:-10.509375 147:2.666625 148:40 149:6.467625 150:40 151:40 152:3.696625 153:10.995625 154:40 155:-3.800375 156:40 157:40 158:-3.902375 159:5.963625 160:2.468625 161:3.495625 162:40 163:0.021625 164:40 165:10.236625 166:40 167:3.654625 168:40 169:-0.030375 170:40 171:40 172:-0.179375 173:40 174:1.997625 175:1.397625 176:0.302625 177:-1.868375 178:40 179:0.791625 180:3.473625 181:40 182:40 183:40 184:9.231625 185:40 186:40 187:40 188:7.945625 189:40 190:40 191:40 192:2.541625 193:1.363625 194:2.593625 195:0.244625 196:40 197:40 198:40 199:40 200:3.919625 201:4.625625 202:40 203:40 204:4.177625 205:7.223625 206:5.865625 207:1.740625 208:40 209:2.747625 210:6.601625 211:10.260625 212:1.352625 213:40 214:40 215:40 216:40 217:40 218:-4.441375 219:40 220:40 221:1.577625 222:40 223:40 224:-2.547375 225:-6.829375 226:40 227:40 228:8.892625 229:0.264625 230:40 231:4.332625 232:40 233:40 234:5.863625 235:40 236:3.761625 237:40 238:40 239:1.542625 240:40 241:40 242:40 243:40 244:40 245:40 246:6.072625 247:40 248:40 249:40 250:40 251:40 252:40 253:40 254:40 255:40 256:40 257:40 258:40 259:40 260:40 261:40 262:40 263:40 264:40 265:40 266:40 267:40 268:40 269:8.033625 270:40 271:40 272:40 273:40 274:40 275:40 276:40 277:40 278:13.146625 279:40 280:40 281:40 282:40 283:40 284:40 285:40 286:40 287:40 288:2.144625 289:2.460625 290:40 291:40 292:40 293:40 294:40 295:6.684625 296:40 297:40 298:40 299:40 300:40 301:40 302:40 303:40 304:40 305:40 306:40 307:40 308:-3.294375 309:40 310:40 311:4.639625 312:40 313:40 314:40 315:-0.183375 316:40 317:2.031625 318:40 319:40 320:7.409625 321:40 322:40 323:8.830625 324:40 325:3.442625 326:40 327:40 328:40 329:40 330:1.248625 331:40 332:40 333:40 334:7.321625 335:0.280625 336:5.444625 337:40 338:40 339:40 340:1.434625 341:40 342:40 343:40 344:40 345:7.609625 346:40 347:40 348:40 349:40 350:4.567625 351:40 352:6.583625 353:40 354:40 355:4.931625 356:40 357:40 358:40 359:40 360:40 361:40 362:11.807625 363:8.494625 364:40 365:40 366:40 367:40 368:40 369:40 370:40 371:40 372:0.139625 373:40 374:40 375:40 376:40 377:40 378:40 379:2.919625 380:40 381:40 382:8.774625 384:40 
0.072265625 1:40 2:5.201125 3:5.102125 4:10.992125 5:40 6:2.130125 7:7.949125 8:40 9:40 10:40 11:6.455125 12:6.495125 13:8.449125 14:3.491125 15:-6.502875 16:-6.780875 17:4.335125 18:16.461125 19:0.157125 20:-5.635875 21:-3.407875 22:-0.712875 23:-0.162875 24:11.193125 25:9.540125 26:40 27:-6.290875 28:-1.498875 29:0.586125 30:1.564125 31:-1.329875 32:0.989125 33:-0.359875 34:5.284125 35:6.408125 36:6.287125 37:-0.483875 38:40 39:4.520125 40:0.773125 41:0.958125 42:7.000125 43:6.563125 44:40 45:-0.233875 46:40 47:-3.198875 48:-1.549875 49:8.804125 50:40 51:40 52:15.037125 53:10.208125 54:11.728125 55:3.034125 56:3.317125 57:40 58:-6.935875 59:40 60:-1.193875 61:40 62:0.559125 63:40 64:40 65:4.538125 66:3.908125 67:-6.511875 68:4.744125 69:40 70:7.094125 71:40 72:40 73:0.652125 74:4.771125 75:2.143125 76:-0.239875 77:11.550125 78:5.833125 79:40 80:40 81:15.803125 82:40 83:6.677125 84:3.038125 85:-1.731875 86:2.782125 87:0.896125 88:40 89:1.458125 90:5.873125 91:2.493125 92:6.400125 93:-7.529875 94:40 95:-2.826875 96:40 97:2.234125 98:4.616125 99:40 100:-4.593875 101:1.339125 102:40 103:40 104:10.208125 105:40 106:40 107:9.121125 108:16.436125 109:5.751125 110:0.368125 111:-2.745875 112:40 113:40 114:40 115:-7.276875 116:1.680125 117:40 118:6.247125 119:1.977125 120:1.360125 121:1.752125 122:8.517125 123:0.448125 124:40 125:7.052125 126:-1.086875 127:11.657125 128:40 129:40 130:13.024125 131:40 132:10.769125 133:5.644125 134:9.628125 135:40 136:5.239125 137:6.781125 138:12.184125 139:40 140:40 141:40 142:5.231125 143:40 144:-0.920875 145:-5.578875 146:-10.521875 147:2.382125 148:40 149:15.823125 150:40 151:40 152:5.692125 153:6.673125 154:8.098125 155:-3.021875 156:9.579125 157:14.220125 158:-5.631875 159:6.930125 160:2.854125 161:3.519125 162:40 163:1.205125 164:40 165:12.354125 166:40 167:0.349125 168:6.639125 169:2.555125 170:40 171:8.035125 172:0.147125 173:40 174:3.031125 175:-0.962875 176:0.978125 177:-2.085875 178:40 179:0.323125 180:4.879125 181:40 182:40 183:5.999125 184:16.321125 185:7.149125 186:40 187:40 188:5.979125 189:40 190:14.538125 191:40 192:2.095125 193:1.287125 194:4.974125 195:2.151125 196:40 197:40 198:40 199:40 200:40 201:7.990125 202:40 203:40 204:4.649125 205:6.646125 206:40 207:4.493125 208:40 209:2.300125 210:11.184125 211:13.224125 212:5.859125 213:40 214:40 215:40 216:40 217:40 218:-4.854875 219:17.606125 220:40 221:1.127125 222:40 223:40 224:-2.536875 225:-7.223875 226:10.869125 227:40 228:5.705125 229:1.590125 230:40 231:8.570125 232:40 233:13.105125 234:40 235:40 236:7.203125 237:8.361125 238:8.066125 239:7.347125 240:9.726125 241:40 242:40 243:16.332125 244:11.515125 245:40 246:9.325125 247:40 248:40 249:40 250:5.473125 251:40 252:40 253:40 254:10.980125 255:40 256:40 257:40 258:40 259:40 260:40 261:40 262:40 263:40 264:40 265:40 266:40 267:40 268:40 269:40 270:40 271:40 272:3.933125 273:40 274:40 275:40 276:40 277:40 278:40 279:40 280:40 281:40 282:4.707125 283:40 284:40 285:40 286:40 287:6.409125 288:3.266125 289:4.004125 290:40 291:40 292:40 293:40 294:8.447125 295:40 296:40 297:40 298:40 299:40 300:40 301:40 302:40 303:40 304:40 305:40 306:40 307:40 308:-2.547875 309:9.925125 310:11.443125 311:9.489125 312:40 313:40 314:40 315:-0.283875 316:8.685125 317:5.347125 318:40 319:40 320:40 321:-0.474875 322:40 323:10.908125 324:40 325:2.050125 326:8.737125 327:6.576125 328:40 329:40 330:1.650125 331:40 332:40 333:40 334:40 335:1.193125 336:8.273125 337:40 338:40 339:40 340:0.934125 341:40 342:40 343:40 344:40 345:13.959125 346:40 347:40 348:40 349:40 350:1.818125 351:40 352:5.685125 353:40 354:40 355:9.218125 356:40 357:40 358:40 359:40 360:16.463125 361:1.477125 362:40 363:10.511125 364:40 365:40 366:40 367:40 368:40 369:40 370:40 371:40 372:1.914125 373:40 374:40 375:40 376:40 377:40 378:40 379:6.391125 380:40 381:40 382:40 384:40 
0.072265625 1:6.921875 2:5.540875 3:4.555875 4:1.908875 5:40 6:1.977875 7:8.210875 8:9.709875 9:7.011875 10:14.178875 11:1.419875 12:1.044875 13:3.330875 14:1.242875 15:-6.276125 16:-5.546125 17:4.059875 18:5.937875 19:-0.689125 20:-6.423125 21:-3.907125 22:0.074875 23:-2.131125 24:1.105875 25:4.387875 26:40 27:-6.252125 28:-0.812125 29:-0.458125 30:2.113875 31:-0.136125 32:0.901875 33:-0.213125 34:2.824875 35:0.987875 36:0.964875 37:0.361875 38:9.636875 39:5.510875 40:-0.658125 41:-0.954125 42:6.162875 43:6.792875 44:40 45:6.219875 46:40 47:-3.272125 48:-1.115125 49:10.213875 50:40 51:40 52:8.452875 53:1.951875 54:6.799875 55:3.150875 56:0.696875 57:40 58:-5.791125 59:40 60:-0.488125 61:6.966875 62:0.566875 63:40 64:13.976875 65:3.174875 66:4.585875 67:-6.937125 68:4.069875 69:40 70:4.494875 71:40 72:40 73:0.130875 74:1.654875 75:3.162875 76:-0.003125 77:6.841875 78:3.206875 79:40 80:40 81:9.882875 82:40 83:9.775875 84:1.441875 85:-1.479125 86:1.491875 87:1.110875 88:10.020875 89:-0.924125 90:3.867875 91:2.130875 92:3.130875 93:-6.925125 94:6.641875 95:-3.096125 96:40 97:3.517875 98:3.807875 99:40 100:-5.384125 101:1.597875 102:40 103:40 104:3.210875 105:10.723875 106:40 107:6.647875 108:11.842875 109:6.078875 110:0.242875 111:-1.140125 112:8.136875 113:40 114:40 115:-6.738125 116:3.091875 117:40 118:5.178875 119:1.939875 120:6.237875 121:4.321875 122:7.086875 123:-0.983125 124:40 125:5.989875 126:-1.376125 127:9.902875 128:7.638875 129:6.589875 130:3.275875 131:10.519875 132:6.865875 133:7.071875 134:7.990875 135:40 136:0.441875 137:9.656875 138:4.611875 139:9.279875 140:40 141:40 142:6.632875 143:40 144:-1.183125 145:-4.076125 146:-10.176125 147:2.919875 148:40 149:6.603875 150:40 151:40 152:3.100875 153:6.471875 154:1.792875 155:-4.526125 156:3.872875 157:8.465875 158:-4.421125 159:5.283875 160:2.087875 161:1.967875 162:13.055875 163:0.074875 164:17.005875 165:4.329875 166:40 167:-0.455125 168:8.266875 169:3.153875 170:8.089875 171:7.036875 172:0.294875 173:3.264875 174:4.053875 175:1.282875 176:-2.029125 177:-3.805125 178:6.503875 179:0.805875 180:5.548875 181:11.176875 182:11.185875 183:6.345875 184:7.636875 185:1.829875 186:40 187:14.870875 188:3.202875 189:40 190:7.438875 191:40 192:2.318875 193:1.269875 194:6.249875 195:2.384875 196:40 197:3.818875 198:7.185875 199:40 200:10.546875 201:4.253875 202:40 203:40 204:6.204875 205:8.006875 206:13.942875 207:2.997875 208:9.575875 209:-1.669125 210:13.618875 211:9.802875 212:6.747875 213:12.227875 214:14.925875 215:10.449875 216:40 217:40 218:-4.457125 219:7.800875 220:40 221:3.405875 222:40 223:40 224:2.128875 225:-5.819125 226:7.823875 227:40 228:5.073875 229:0.139875 230:40 231:7.145875 232:40 233:7.631875 234:40 235:40 236:5.911875 237:8.724875 238:7.712875 239:5.202875 240:12.326875 241:40 242:40 243:9.946875 244:40 245:6.377875 246:8.683875 247:40 248:40 249:40 250:5.445875 251:40 252:40 253:40 254:40 255:40 256:8.826875 257:40 258:40 259:40 260:40 261:40 262:40 263:40 264:40 265:40 266:40 267:13.577875 268:40 269:40 270:40 271:40 272:-3.678125 273:40 274:40 275:40 276:40 277:40 278:40 279:40 280:18.753875 281:40 282:6.007875 283:40 284:40 285:40 286:40 287:4.155875 288:2.627875 289:5.508875 290:40 291:8.606875 292:11.055875 293:8.905875 294:7.343875 295:10.934875 296:40 297:40 298:40 299:40 300:40 301:40 302:16.211875 303:8.220875 304:40 305:40 306:40 307:40 308:-1.106125 309:8.993875 310:40 311:6.898875 312:40 313:40 314:8.861875 315:0.752875 316:10.329875 317:4.957875 318:40 319:40 320:8.745875 321:-4.314125 322:40 323:6.199875 324:12.639875 325:7.433875 326:6.695875 327:6.414875 328:8.671875 329:40 330:1.457875 331:40 332:40 333:13.170875 334:9.333875 335:1.277875 336:6.221875 337:40 338:40 339:40 340:1.413875 341:10.498875 342:40 343:40 344:40 345:5.455875 346:40 347:40 348:40 349:40 350:1.539875 351:10.051875 352:3.247875 353:40 354:40 355:7.932875 356:40 357:40 358:40 359:40 360:10.738875 361:-1.389125 362:10.328875 363:7.670875 364:40 365:40 366:40 367:40 368:40 369:40 370:40 371:40 372:1.608875 373:40 374:40 375:40 376:40 377:40 378:40 379:7.740875 380:40 381:40 382:9.362875 384:8.113875 
0.0712890625 1:40 2:6.928875 3:12.629875 4:40 5:40 6:8.493875 7:40 8:40 9:8.840875 10:40 11:5.582875 12:5.339875 13:40 14:7.940875 15:-4.228125 16:-7.014125 17:2.828875 18:40 19:-2.326125 20:-7.363125 21:-5.535125 22:-0.908125 23:-1.467125 24:40 25:40 26:40 27:-5.244125 28:-3.554125 29:0.525875 30:0.682875 31:-0.750125 32:-0.505125 33:0.158875 34:7.545875 35:5.609875 36:5.407875 37:-0.183125 38:40 39:2.844875 40:2.287875 41:1.328875 42:5.668875 43:40 44:40 45:2.460875 46:40 47:-5.386125 48:-3.561125 49:40 50:40 51:40 52:14.186875 53:6.756875 54:5.468875 55:0.884875 56:12.586875 57:40 58:-7.021125 59:40 60:-2.432125 61:40 62:-2.751125 63:40 64:11.478875 65:5.062875 66:2.487875 67:-5.023125 68:0.522875 69:40 70:5.321875 71:40 72:40 73:0.009875 74:1.792875 75:1.193875 76:0.775875 77:40 78:0.607875 79:40 80:40 81:40 82:40 83:6.165875 84:3.591875 85:-0.100125 86:2.791875 87:0.641875 88:9.480875 89:-0.359125 90:5.158875 91:6.475875 92:4.316875 93:-8.052125 94:40 95:-2.288125 96:40 97:1.621875 98:3.559875 99:40 100:-4.384125 101:-0.003125 102:8.983875 103:40 104:6.268875 105:40 106:40 107:40 108:40 109:1.928875 110:-0.846125 111:-3.628125 112:40 113:40 114:40 115:-6.551125 116:-0.620125 117:8.127875 118:2.140875 119:0.570875 120:14.185875 121:1.154875 122:40 123:0.666875 124:40 125:40 126:1.362875 127:40 128:40 129:40 130:40 131:7.761875 132:2.706875 133:4.625875 134:40 135:40 136:3.999875 137:10.866875 138:7.863875 139:40 140:40 141:40 142:4.114875 143:40 144:-2.285125 145:-4.887125 146:-9.275125 147:1.810875 148:40 149:7.670875 150:40 151:40 152:4.820875 153:6.745875 154:12.511875 155:-5.313125 156:40 157:40 158:-4.744125 159:40 160:1.041875 161:0.365875 162:40 163:-1.467125 164:40 165:40 166:40 167:1.984875 168:40 169:0.901875 170:40 171:40 172:0.594875 173:40 174:3.632875 175:3.573875 176:1.253875 177:-1.981125 178:40 179:0.261875 180:4.314875 181:40 182:40 183:7.185875 184:7.059875 185:40 186:40 187:40 188:7.435875 189:40 190:11.299875 191:12.996875 192:2.341875 193:9.280875 194:4.324875 195:-0.473125 196:40 197:40 198:40 199:40 200:4.389875 201:4.872875 202:40 203:40 204:3.481875 205:7.390875 206:5.196875 207:2.843875 208:40 209:40 210:40 211:40 212:3.262875 213:40 214:40 215:40 216:40 217:40 218:-5.847125 219:40 220:40 221:4.182875 222:40 223:5.543875 224:-2.947125 225:-6.850125 226:40 227:40 228:40 229:1.663875 230:40 231:12.588875 232:40 233:40 234:40 235:40 236:2.455875 237:40 238:40 239:40 240:40 241:40 242:40 243:40 244:40 245:40 246:9.290875 247:40 248:40 249:40 250:40 251:40 252:40 253:40 254:40 255:40 256:40 257:40 258:40 259:40 260:40 261:40 262:40 263:40 264:12.793875 265:40 266:40 267:12.949875 268:40 269:40 270:40 271:9.403875 272:40 273:12.926875 274:40 275:40 276:40 277:40 278:40 279:40 280:40 281:40 282:10.047875 283:40 284:40 285:40 286:40 287:3.478875 288:3.779875 289:2.754875 290:40 291:40 292:40 293:40 294:10.161875 295:7.015875 296:40 297:40 298:40 299:40 300:40 301:40 302:40 303:11.161875 304:40 305:40 306:40 307:40 308:-0.956125 309:12.473875 310:40 311:7.571875 312:40 313:40 314:40 315:-0.071125 316:3.941875 317:6.446875 318:40 319:40 320:40 321:7.836875 322:40 323:8.676875 324:13.808875 325:6.510875 326:40 327:40 328:4.185875 329:40 330:0.773875 331:40 332:40 333:40 334:14.239875 335:0.432875 336:8.296875 337:40 338:40 339:40 340:0.143875 341:40 342:40 343:40 344:40 345:40 346:40 347:40 348:40 349:40 350:10.055875 351:5.778875 352:7.613875 353:40 354:40 355:40 356:40 357:40 358:40 359:40 360:40 361:40 362:40 363:40 364:40 365:40 366:40 367:40 368:40 369:40 370:40 371:40 372:0.588875 373:40 374:40 375:40 376:40 377:40 378:40 379:11.716875 380:40 381:40 382:40 384:40 
0.0712890625 1:9.29675 2:3.59875 3:2.73875 4:3.73975 5:40 6:2.60275 7:8.43875 8:40 9:6.46475 10:14.78875 11:8.36975 12:8.53175 13:40 14:2.90975 15:-2.54325 16:-6.33725 17:1.52975 18:10.13775 19:-2.16025 20:-7.05525 21:-5.89425 22:-1.45125 23:-0.67725 24:12.82675 25:11.00275 26:40 27:-5.58225 28:-2.03725 29:-1.38925 30:-1.47025 31:-1.19825 32:0.52975 33:0.53775 34:3.65875 35:8.63875 36:8.19075 37:0.99575 38:12.11375 39:3.18675 40:-0.55825 41:-1.66725 42:7.89275 43:11.91875 44:40 45:4.89475 46:40 47:-3.36725 48:-2.48025 49:13.25275 50:40 51:40 52:9.87075 53:4.73875 54:7.17875 55:2.33975 56:2.66175 57:40 58:-6.44925 59:40 60:-1.21725 61:40 62:-0.63225 63:40 64:11.13275 65:4.63875 66:5.20775 67:-5.37725 68:4.13175 69:40 70:3.73675 71:40 72:40 73:0.50975 74:3.09475 75:-0.00125 76:1.45275 77:8.25375 78:4.78475 79:10.93575 80:13.16775 81:16.44075 82:40 83:6.84675 84:2.70875 85:-0.46225 86:4.01175 87:-0.82825 88:9.34475 89:-1.34925 90:4.15375 91:3.54675 92:2.95275 93:-7.17625 94:9.90475 95:-2.14525 96:40 97:1.98175 98:3.86775 99:40 100:-3.55125 101:2.45475 102:40 103:40 104:6.74075 105:14.15175 106:14.93975 107:10.94375 108:11.38675 109:5.00875 110:-0.47025 111:-1.73325 112:40 113:40 114:9.30875 115:-6.30725 116:-0.65025 117:40 118:3.54475 119:2.99675 120:5.77375 121:2.25275 122:12.25875 123:0.94375 124:40 125:6.88375 126:-0.40225 127:7.94675 128:17.59975 129:12.60575 130:6.29575 131:15.56675 132:4.62875 133:4.91575 134:13.95475 135:40 136:3.92475 137:8.81675 138:11.14475 139:40 140:40 141:40 142:9.93675 143:40 144:-0.52325 145:-3.96325 146:-9.51625 147:5.21475 148:40 149:6.44875 150:40 151:40 152:3.12975 153:5.20475 154:13.24475 155:-3.12125 156:40 157:40 158:-1.46925 159:8.92875 160:5.08875 161:2.16475 162:40 163:0.53475 164:13.22975 165:11.15675 166:40 167:3.89575 168:15.40375 169:1.68975 170:16.56675 171:11.19975 172:3.31275 173:16.75475 174:2.21475 175:2.97775 176:-0.94625 177:0.30975 178:14.18875 179:2.64075 180:3.25575 181:7.44075 182:10.37075 183:5.69675 184:7.47575 185:40 186:40 187:40 188:5.93975 189:40 190:12.06575 191:16.83675 192:0.25975 193:1.00975 194:5.85775 195:2.43275 196:40 197:40 198:40 199:40 200:40 201:7.08875 202:40 203:11.63975 204:8.27975 205:14.58675 206:10.36075 207:3.00175 208:40 209:13.83875 210:8.91275 211:16.98575 212:6.65275 213:12.77175 214:40 215:10.30475 216:40 217:40 218:-5.94225 219:14.47575 220:40 221:1.08875 222:40 223:40 224:-0.21825 225:-5.43625 226:40 227:40 228:4.30775 229:-0.14225 230:40 231:9.53975 232:40 233:9.35975 234:40 235:40 236:4.33575 237:40 238:9.18675 239:8.11375 240:40 241:40 242:40 243:40 244:9.90775 245:10.45175 246:7.03275 247:40 248:40 249:40 250:9.77075 251:40 252:40 253:40 254:40 255:40 256:9.18875 257:40 258:40 259:11.11575 260:15.39675 261:40 262:40 263:11.57175 264:10.25275 265:40 266:40 267:40 268:40 269:13.05875 270:40 271:10.96075 272:17.16375 273:40 274:40 275:40 276:40 277:40 278:40 279:40 280:40 281:40 282:10.69575 283:40 284:40 285:40 286:40 287:5.10575 288:2.55175 289:4.64275 290:40 291:40 292:40 293:40 294:10.10275 295:9.37575 296:40 297:40 298:40 299:40 300:17.80375 301:40 302:40 303:40 304:40 305:40 306:40 307:40 308:-0.60425 309:9.47575 310:40 311:40 312:40 313:40 314:40 315:1.64075 316:9.33975 317:3.51475 318:40 319:40 320:13.50075 321:11.75075 322:40 323:7.79175 324:40 325:5.43175 326:40 327:7.23975 328:7.90975 329:40 330:3.12575 331:40 332:40 333:40 334:9.74675 335:0.09475 336:5.93575 337:40 338:40 339:18.22475 340:0.45075 341:40 342:40 343:40 344:40 345:12.49975 346:40 347:40 348:40 349:40 350:3.37675 351:9.33975 352:4.51575 353:40 354:40 355:9.25675 356:40 357:40 358:40 359:40 360:40 361:40 362:17.93675 363:5.56575 364:40 365:40 366:40 367:40 368:14.84675 369:40 370:40 371:40 372:3.44475 373:40 374:40 375:40 376:40 377:40 378:40 379:7.55375 380:40 381:40 382:14.77775 384:40 
0.0712890625 1:40 2:8.122875 3:4.951875 4:9.370875 5:40 6:3.667875 7:12.199875 8:40 9:7.638875 10:40 11:3.956875 12:3.904875 13:5.568875 14:3.982875 15:-4.635125 16:-4.471125 17:4.897875 18:7.517875 19:-0.873125 20:-6.834125 21:-1.782125 22:1.646875 23:-1.767125 24:3.751875 25:3.647875 26:40 27:-6.345125 28:-0.387125 29:0.739875 30:3.430875 31:1.648875 32:1.951875 33:-0.945125 34:4.507875 35:3.985875 36:3.912875 37:0.096875 38:40 39:6.012875 40:1.060875 41:-0.078125 42:5.656875 43:40 44:40 45:4.242875 46:40 47:-3.635125 48:-0.709125 49:40 50:9.102875 51:40 52:9.066875 53:3.567875 54:5.286875 55:3.676875 56:1.156875 57:40 58:-4.636125 59:40 60:-0.678125 61:40 62:1.326875 63:40 64:40 65:3.047875 66:3.129875 67:-5.421125 68:3.166875 69:40 70:4.241875 71:40 72:40 73:0.916875 74:0.899875 75:4.981875 76:-1.411125 77:4.090875 78:0.230875 79:7.461875 80:10.764875 81:40 82:40 83:40 84:0.956875 85:-0.886125 86:0.803875 87:1.433875 88:6.153875 89:0.076875 90:4.022875 91:2.578875 92:3.062875 93:-7.403125 94:40 95:-2.324125 96:40 97:4.761875 98:3.975875 99:40 100:-3.481125 101:2.313875 102:40 103:40 104:2.528875 105:10.288875 106:11.555875 107:40 108:6.264875 109:4.805875 110:-0.088125 111:-1.529125 112:40 113:40 114:40 115:-6.547125 116:1.898875 117:40 118:3.467875 119:1.364875 120:8.564875 121:3.826875 122:8.134875 123:-2.167125 124:40 125:40 126:0.012875 127:40 128:40 129:40 130:2.191875 131:7.349875 132:4.501875 133:5.776875 134:40 135:8.674875 136:-0.386125 137:6.840875 138:5.537875 139:5.928875 140:40 141:40 142:6.340875 143:40 144:-0.556125 145:-3.655125 146:-9.362125 147:3.812875 148:40 149:8.088875 150:40 151:40 152:3.342875 153:7.134875 154:5.893875 155:-5.143125 156:40 157:12.273875 158:-5.181125 159:4.040875 160:1.306875 161:2.821875 162:11.071875 163:0.202875 164:10.899875 165:4.698875 166:11.586875 167:-0.176125 168:6.390875 169:3.101875 170:5.486875 171:40 172:-0.188125 173:9.004875 174:5.262875 175:1.226875 176:-1.762125 177:-2.249125 178:40 179:0.915875 180:5.261875 181:40 182:11.262875 183:5.592875 184:7.711875 185:7.160875 186:40 187:12.172875 188:0.862875 189:40 190:40 191:40 192:4.094875 193:2.464875 194:4.019875 195:1.065875 196:40 197:40 198:4.539875 199:40 200:40 201:1.866875 202:40 203:10.170875 204:5.657875 205:6.947875 206:7.394875 207:2.678875 208:40 209:-2.571125 210:10.892875 211:11.754875 212:4.138875 213:40 214:40 215:40 216:40 217:6.803875 218:-4.688125 219:4.878875 220:40 221:4.173875 222:40 223:40 224:1.152875 225:-6.422125 226:6.046875 227:40 228:5.147875 229:0.181875 230:40 231:7.190875 232:10.214875 233:6.894875 234:40 235:6.064875 236:5.336875 237:7.235875 238:7.754875 239:4.166875 240:40 241:40 242:40 243:40 244:5.346875 245:6.987875 246:14.537875 247:40 248:40 249:40 250:40 251:40 252:40 253:40 254:40 255:40 256:40 257:40 258:10.840875 259:40 260:40 261:40 262:40 263:40 264:14.182875 265:12.944875 266:40 267:11.720875 268:40 269:40 270:40 271:40 272:3.808875 273:11.085875 274:9.120875 275:40 276:40 277:40 278:40 279:40 280:14.510875 281:40 282:12.506875 283:40 284:40 285:40 286:40 287:3.901875 288:2.867875 289:3.577875 290:40 291:40 292:40 293:40 294:9.736875 295:7.942875 296:40 297:40 298:40 299:40 300:40 301:40 302:40 303:40 304:40 305:40 306:40 307:40 308:-1.671125 309:11.107875 310:5.926875 311:40 312:40 313:40 314:40 315:3.117875 316:6.599875 317:4.616875 318:40 319:40 320:40 321:4.580875 322:40 323:4.891875 324:12.553875 325:9.950875 326:5.140875 327:4.712875 328:40 329:40 330:1.887875 331:40 332:11.285875 333:8.092875 334:11.990875 335:0.172875 336:6.087875 337:40 338:40 339:40 340:1.523875 341:40 342:40 343:40 344:40 345:4.025875 346:40 347:40 348:40 349:40 350:2.605875 351:7.371875 352:2.511875 353:40 354:40 355:6.136875 356:40 357:6.338875 358:40 359:40 360:40 361:6.210875 362:40 363:7.076875 364:40 365:40 366:40 367:40 368:40 369:40 370:40 371:40 372:0.877875 373:40 374:40 375:40 376:40 377:40 378:40 379:7.646875 380:40 381:10.183875 382:10.827875 384:40 
0.0712890625 1:40 2:4.58175 3:4.89675 4:13.56575 5:40 6:0.99275 7:8.27875 8:40 9:6.87175 10:40 11:6.24875 12:6.22775 13:13.61975 14:2.66375 15:-8.50725 16:-7.83225 17:1.85475 18:11.25575 19:-2.22025 20:-8.03325 21:-6.95825 22:-3.65125 23:-1.20425 24:8.01475 25:12.37075 26:40 27:-4.71225 28:-4.15625 29:-0.20225 30:-1.81225 31:-1.20925 32:1.14975 33:0.68175 34:3.10475 35:6.34975 36:6.28475 37:0.17575 38:40 39:4.17575 40:-0.51425 41:0.41475 42:40 43:11.99775 44:40 45:-0.33925 46:40 47:-5.90125 48:-4.14625 49:7.66775 50:40 51:40 52:13.52875 53:6.67175 54:7.39375 55:0.62875 56:2.90675 57:40 58:-8.03325 59:40 60:-3.59425 61:40 62:-1.67225 63:40 64:11.54175 65:5.37275 66:2.22975 67:-5.79625 68:3.10075 69:40 70:4.26575 71:40 72:40 73:0.64175 74:4.12175 75:1.63875 76:0.80975 77:9.82975 78:10.30675 79:5.96075 80:40 81:16.72275 82:40 83:13.30475 84:6.20675 85:0.60375 86:1.78575 87:0.38075 88:8.68975 89:-0.52825 90:4.22375 91:2.58575 92:5.79975 93:-4.76625 94:40 95:-2.14425 96:40 97:1.64375 98:4.20975 99:40 100:-4.89325 101:1.39375 102:40 103:40 104:7.20575 105:16.94075 106:12.69275 107:9.12575 108:10.49775 109:3.17575 110:-1.33625 111:-1.90125 112:40 113:40 114:40 115:-5.65825 116:-0.47125 117:40 118:3.77675 119:1.36775 120:0.03675 121:0.42975 122:11.91175 123:1.97775 124:40 125:7.09175 126:-0.55025 127:13.18775 128:40 129:9.90075 130:12.03775 131:40 132:3.30475 133:6.68575 134:3.71175 135:40 136:3.80375 137:8.06375 138:9.71275 139:40 140:40 141:40 142:-0.20725 143:40 144:-0.48225 145:-4.99425 146:-9.37025 147:4.99475 148:40 149:6.95775 150:40 151:40 152:2.67475 153:6.39975 154:6.88175 155:-4.95325 156:9.99975 157:10.01675 158:-5.26225 159:10.96475 160:1.52175 161:2.14475 162:40 163:0.63975 164:15.16675 165:11.78275 166:40 167:0.50975 168:9.95575 169:1.81175 170:8.38475 171:13.47775 172:3.84075 173:40 174:3.63975 175:0.70175 176:-2.25725 177:-1.43825 178:13.96875 179:2.26775 180:7.90375 181:6.17475 182:40 183:4.82575 184:9.69175 185:7.41175 186:40 187:40 188:8.53975 189:40 190:11.25675 191:40 192:0.23375 193:1.29275 194:3.38475 195:3.36875 196:40 197:40 198:40 199:40 200:15.84575 201:8.31075 202:40 203:40 204:5.50975 205:17.15575 206:40 207:3.31975 208:12.70175 209:3.49375 210:12.24575 211:40 212:8.09875 213:40 214:40 215:40 216:40 217:40 218:-8.33225 219:12.13975 220:40 221:0.39875 222:40 223:40 224:-1.61425 225:-6.56925 226:40 227:40 228:7.03775 229:2.07775 230:13.05975 231:14.38575 232:40 233:11.14775 234:40 235:40 236:8.23875 237:11.15375 238:10.16075 239:6.84975 240:40 241:40 242:10.10875 243:5.55875 244:40 245:8.00375 246:9.15375 247:12.22575 248:40 249:40 250:5.77775 251:40 252:40 253:40 254:40 255:40 256:40 257:40 258:40 259:40 260:40 261:40 262:40 263:40 264:40 265:40 266:40 267:40 268:40 269:40 270:40 271:40 272:5.31375 273:40 274:40 275:40 276:40 277:40 278:40 279:40 280:40 281:40 282:6.29275 283:40 284:40 285:40 286:40 287:3.30875 288:0.04975 289:7.33775 290:40 291:40 292:40 293:40 294:9.39275 295:15.55375 296:40 297:40 298:40 299:13.79675 300:40 301:40 302:40 303:10.07475 304:40 305:40 306:40 307:40 308:-0.95225 309:13.78075 310:40 311:6.61875 312:40 313:40 314:40 315:-0.12025 316:40 317:3.87375 318:40 319:40 320:40 321:-1.13925 322:40 323:13.56775 324:40 325:6.19575 326:10.05475 327:5.55475 328:6.89775 329:40 330:1.48675 331:40 332:40 333:40 334:40 335:-0.59525 336:6.66375 337:40 338:40 339:40 340:2.47675 341:40 342:40 343:40 344:40 345:11.81375 346:40 347:40 348:40 349:40 350:0.78075 351:40 352:4.08175 353:40 354:40 355:9.67675 356:40 357:40 358:40 359:40 360:16.17475 361:2.57975 362:40 363:11.84375 364:40 365:40 366:40 367:40 368:13.43375 369:40 370:40 371:40 372:3.21975 373:40 374:40 375:40 376:40 377:40 378:40 379:6.47975 380:40 381:40 382:40 384:14.86775 
0.0712890625 1:40 2:7.39925 3:5.02825 4:7.49025 5:40 6:2.27725 7:8.67325 8:40 9:40 10:40 11:4.54525 12:4.32525 13:40 14:3.75625 15:-4.06475 16:-6.12175 17:4.83525 18:40 19:-0.50175 20:-5.95275 21:-2.96075 22:0.12025 23:0.39225 24:40 25:8.93825 26:40 27:-1.93175 28:-0.83875 29:-0.70275 30:1.05425 31:-0.62375 32:1.24125 33:0.71725 34:5.00025 35:4.60425 36:4.54825 37:-0.39675 38:40 39:5.27825 40:-0.18875 41:-1.14875 42:40 43:40 44:40 45:40 46:40 47:-3.47675 48:-0.93075 49:40 50:40 51:40 52:40 53:6.87025 54:40 55:1.92725 56:6.34325 57:40 58:-6.57375 59:40 60:-0.31075 61:40 62:-1.40775 63:40 64:40 65:1.40025 66:8.42225 67:-5.84475 68:40 69:40 70:8.49825 71:40 72:40 73:0.43525 74:4.14225 75:0.92025 76:-0.62475 77:9.31925 78:2.72325 79:40 80:40 81:40 82:40 83:40 84:3.46225 85:-1.41075 86:2.30925 87:-0.89975 88:40 89:-1.31375 90:3.90925 91:3.55325 92:3.23125 93:-8.65675 94:40 95:-3.68875 96:40 97:1.94225 98:5.45825 99:40 100:-3.39575 101:0.73025 102:40 103:40 104:6.97525 105:40 106:9.85925 107:40 108:40 109:40 110:0.30325 111:-3.66575 112:40 113:40 114:40 115:-9.44975 116:0.30625 117:40 118:6.59525 119:0.77025 120:12.03025 121:1.57625 122:6.04925 123:0.87525 124:40 125:40 126:0.07125 127:40 128:40 129:40 130:40 131:40 132:40 133:4.27225 134:40 135:40 136:5.91325 137:40 138:40 139:40 140:40 141:40 142:40 143:40 144:-0.51775 145:-5.91175 146:-10.24975 147:2.57225 148:40 149:40 150:40 151:40 152:6.20625 153:7.90525 154:40 155:-3.97275 156:40 157:40 158:-4.20375 159:40 160:4.06225 161:2.58825 162:40 163:0.37825 164:40 165:40 166:40 167:1.64425 168:40 169:0.99225 170:40 171:40 172:-0.62175 173:40 174:3.59125 175:0.57825 176:2.03825 177:-2.01375 178:40 179:1.80025 180:8.21125 181:40 182:6.67225 183:40 184:12.07125 185:40 186:40 187:40 188:3.35725 189:40 190:40 191:40 192:0.79325 193:1.22925 194:2.86025 195:3.48825 196:40 197:40 198:40 199:40 200:40 201:12.79425 202:40 203:40 204:40 205:40 206:5.31325 207:4.51025 208:40 209:5.32125 210:40 211:40 212:40 213:5.48025 214:40 215:40 216:40 217:40 218:-3.74375 219:6.59325 220:40 221:0.13025 222:40 223:40 224:-4.02075 225:-7.26075 226:11.55725 227:40 228:40 229:-0.04275 230:40 231:40 232:40 233:40 234:40 235:40 236:3.82825 237:3.98925 238:40 239:40 240:40 241:40 242:40 243:40 244:40 245:40 246:8.04325 247:40 248:40 249:40 250:40 251:40 252:40 253:40 254:40 255:40 256:40 257:40 258:40 259:40 260:40 261:40 262:40 263:40 264:40 265:40 266:40 267:40 268:40 269:40 270:40 271:40 272:40 273:40 274:40 275:40 276:40 277:40 278:13.50025 279:40 280:40 281:40 282:40 283:40 284:40 285:40 286:40 287:3.69725 288:4.24825 289:40 290:40 291:40 292:40 293:40 294:40 295:5.31025 296:40 297:40 298:40 299:40 300:40 301:40 302:40 303:40 304:40 305:40 306:40 307:40 308:-3.29875 309:40 310:40 311:40 312:40 313:40 314:40 315:-0.25275 316:40 317:40 318:40 319:40 320:40 321:40 322:40 323:40 324:40 325:2.87625 326:40 327:8.99725 328:40 329:40 330:5.36125 331:40 332:40 333:40 334:40 335:1.23725 336:1.85825 337:40 338:40 339:40 340:1.65025 341:40 342:40 343:40 344:40 345:6.92325 346:40 347:40 348:40 349:40 350:0.70125 351:40 352:40 353:40 354:40 355:40 356:40 357:40 358:40 359:40 360:40 361:40 362:40 363:4.42425 364:40 365:40 366:40 367:40 368:40 369:40 370:40 371:40 372:1.73725 373:40 374:40 375:40 376:40 377:40 378:40 379:40 380:40 381:40 382:40 384:40 
0.0712890625 1:40 2:6.493 3:6.419 4:8.992 5:40 6:5.435 7:8.528 8:40 9:5.655 10:40 11:9.335 12:8.958 13:14.554 14:3.856 15:-4.414 16:-4.496 17:3.21 18:14.863 19:-0.496 20:-5.945 21:-3.334 22:0.833 23:-1.28 24:4.961 25:12.906 26:40 27:-4.886 28:-2.174 29:2.282 30:2.727 31:-1.835 32:0.137 33:0.807 34:4.29 35:9.071 36:9.004 37:0.275 38:10.859 39:4.082 40:1.008 41:-0.244 42:7.553 43:9.119 44:40 45:3.106 46:40 47:-4.291 48:-2.091 49:9.633 50:40 51:40 52:14.998 53:6.705 54:8.61 55:2.595 56:9.186 57:40 58:-4.869 59:40 60:-0.988 61:40 62:-1.294 63:11.95 64:10.092 65:8.45 66:4.045 67:-3.94 68:2.012 69:40 70:3.642 71:40 72:40 73:-0.522 74:2.005 75:0.81 76:0.878 77:8.245 78:6.17 79:40 80:40 81:40 82:40 83:7.343 84:3.928 85:0.641 86:4.497 87:0.289 88:8.509 89:0.369 90:6.083 91:2.342 92:5.285 93:-5.308 94:8.604 95:-0.131 96:40 97:2.356 98:3.945 99:40 100:-2.758 101:0.206 102:40 103:13.079 104:8.619 105:15.25 106:40 107:11.009 108:40 109:4.418 110:0.647 111:0.681 112:40 113:40 114:40 115:-3.236 116:0.363 117:40 118:2.976 119:2.243 120:6.79 121:3.699 122:40 123:1.921 124:40 125:6.078 126:-1.301 127:10.591 128:18.489 129:11.12 130:13.391 131:10.15 132:5.626 133:7.043 134:40 135:40 136:4.282 137:10.239 138:10.591 139:18.761 140:40 141:40 142:4.566 143:16.129 144:-1.902 145:-2.421 146:-8.639 147:2.989 148:40 149:8.471 150:40 151:40 152:4.495 153:7.047 154:14.375 155:-2.685 156:40 157:40 158:-4.101 159:7.255 160:2.592 161:0.927 162:17.616 163:-1.149 164:11.691 165:10.172 166:40 167:1.485 168:18.27 169:1.616 170:7.415 171:11.987 172:3.206 173:14.653 174:3.54 175:6.288 176:3.168 177:2.02 178:17.061 179:1.218 180:3.942 181:8.274 182:10.827 183:15.404 184:7.192 185:40 186:40 187:15.346 188:3.922 189:40 190:40 191:40 192:4.038 193:5.416 194:2.867 195:3.028 196:11.087 197:40 198:40 199:40 200:17.644 201:3.306 202:40 203:15.538 204:4.962 205:7.692 206:10.448 207:2.791 208:11.508 209:3.205 210:10.445 211:18.632 212:4.499 213:10.465 214:12.094 215:11.947 216:40 217:40 218:-5.291 219:8.077 220:40 221:6.541 222:40 223:40 224:1.24 225:-4.914 226:11.827 227:40 228:8.277 229:2.988 230:40 231:8.023 232:10.621 233:10.061 234:40 235:40 236:6.516 237:9.237 238:6.886 239:5.03 240:40 241:40 242:40 243:40 244:40 245:40 246:8.389 247:40 248:40 249:40 250:6.604 251:40 252:40 253:40 254:40 255:40 256:40 257:40 258:40 259:40 260:40 261:40 262:40 263:14.885 264:16.334 265:40 266:40 267:40 268:40 269:40 270:40 271:40 272:18.479 273:40 274:40 275:40 276:40 277:40 278:40 279:40 280:40 281:40 282:15.382 283:40 284:40 285:40 286:40 287:5.726 288:2.053 289:4.75 290:40 291:8.113 292:40 293:40 294:15.324 295:11.781 296:40 297:40 298:40 299:14.13 300:40 301:10.21 302:40 303:40 304:40 305:40 306:40 307:11.456 308:0.906 309:7.886 310:17.082 311:8.438 312:40 313:40 314:40 315:1.254 316:8.041 317:4.495 318:40 319:40 320:40 321:13.044 322:40 323:8.87 324:15.292 325:11.551 326:10.047 327:8.215 328:7.099 329:40 330:2.112 331:40 332:14.827 333:15.18 334:10.793 335:-0.209 336:6.869 337:40 338:40 339:40 340:1.441 341:17.372 342:40 343:40 344:40 345:9.045 346:40 347:40 348:40 349:40 350:0.949 351:8.753 352:6.87 353:40 354:11.143 355:7.18 356:40 357:13.916 358:40 359:40 360:40 361:40 362:16.322 363:7.221 364:15.264 365:40 366:40 367:40 368:40 369:40 370:40 371:40 372:2.171 373:40 374:40 375:40 376:40 377:40 378:40 379:6.857 380:40 381:40 382:17.851 384:40 
-0.25 1:4.989 2:2.684 3:0.045 4:-1.717 5:40 6:0.004 7:5.827 8:40 9:7.89 10:40 11:10.374 12:10.39 13:40 14:1.629 15:-3.412 16:-6.73 17:1.481 18:12.657 19:-2.285 20:-7.342 21:-5.429 22:-2.453 23:-1.163 24:13.936 25:40 26:13.602 27:-5.827 28:-1.194 29:-3.993 30:-2.183 31:-0.848 32:0.23 33:1.53 34:3.232 35:10.172 36:9.997 37:1.272 38:10.22 39:4.204 40:0.297 41:-2.544 42:9.969 43:7.599 44:40 45:4.492 46:40 47:-2.07 48:-2.558 49:40 50:40 51:40 52:10.426 53:2.225 54:8.85 55:1.507 56:-0.381 57:40 58:-6.84 59:40 60:-1.596 61:11.655 62:-0.115 63:40 64:40 65:1.936 66:4.54 67:-6.606 68:1.507 69:40 70:4.278 71:40 72:40 73:0.096 74:2.78 75:1.029 76:0.514 77:40 78:6.805 79:12.283 80:40 81:40 82:40 83:5.312 84:2.147 85:-1.846 86:3.695 87:0.054 88:40 89:-3.684 90:3.077 91:11.434 92:0.716 93:-7.269 94:40 95:-3.794 96:40 97:1.75 98:2.664 99:40 100:-2.502 101:1.363 102:40 103:40 104:4.146 105:9.559 106:12.327 107:11.055 108:13.912 109:6.683 110:-0.171 111:-2.189 112:40 113:40 114:6.616 115:-8.072 116:-0.394 117:40 118:12.011 119:3.942 120:4.652 121:1.885 122:40 123:0.982 124:14.407 125:7.877 126:-1.187 127:6.261 128:40 129:15.225 130:3.554 131:40 132:7.936 133:6.355 134:40 135:40 136:4.798 137:40 138:14.995 139:40 140:40 141:40 142:7.267 143:40 144:0.434 145:-3.665 146:-10.141 147:3.011 148:40 149:8.017 150:40 151:40 152:2.107 153:4.346 154:7.1 155:-2.166 156:40 157:40 158:-2.473 159:13.229 160:40 161:2.249 162:40 163:0.129 164:16.447 165:40 166:40 167:2.575 168:40 169:0.591 170:40 171:40 172:3.216 173:13.89 174:0.795 175:1.824 176:-1.25 177:1.112 178:40 179:2.928 180:7.326 181:9.758 182:12.169 183:5.431 184:9.318 185:40 186:40 187:40 188:4.768 189:40 190:9.342 191:40 192:-2.414 193:-1.614 194:6.867 195:0.69 196:40 197:40 198:7.474 199:40 200:40 201:7.701 202:40 203:40 204:7.357 205:4.523 206:10.247 207:2.897 208:40 209:15.245 210:7.634 211:15.561 212:5.158 213:40 214:40 215:40 216:40 217:40 218:-5.97 219:6.506 220:40 221:-0.072 222:40 223:40 224:0.854 225:-6.377 226:10.803 227:40 228:12.17 229:1.896 230:40 231:7.633 232:40 233:15.932 234:40 235:15.825 236:3.851 237:40 238:4.228 239:4.027 240:40 241:40 242:40 243:40 244:16.756 245:40 246:7.658 247:40 248:40 249:40 250:40 251:40 252:40 253:40 254:40 255:40 256:40 257:40 258:40 259:40 260:40 261:40 262:40 263:13.727 264:15.374 265:16.133 266:40 267:13.094 268:40 269:40 270:40 271:40 272:16.501 273:12.975 274:40 275:40 276:40 277:40 278:40 279:40 280:9.696 281:13.883 282:6.775 283:40 284:40 285:40 286:40 287:4.643 288:7.476 289:2.029 290:40 291:13.475 292:40 293:40 294:15.436 295:10.495 296:40 297:40 298:40 299:40 300:40 301:40 302:40 303:14.631 304:40 305:40 306:40 307:40 308:0.506 309:8.668 310:40 311:40 312:40 313:40 314:40 315:1.199 316:7.898 317:4.326 318:40 319:40 320:40 321:9.788 322:40 323:7.327 324:12.532 325:4.516 326:40 327:12.053 328:10.875 329:40 330:1.874 331:40 332:40 333:40 334:8.638 335:0.219 336:6.214 337:40 338:40 339:14.08 340:0.197 341:13.166 342:40 343:40 344:40 345:40 346:40 347:40 348:40 349:40 350:6.796 351:16.493 352:4.378 353:40 354:40 355:11.369 356:40 357:40 358:40 359:40 360:40 361:40 362:40 363:11.612 364:40 365:40 366:40 367:40 368:40 369:40 370:40 371:40 372:2.648 373:40 374:40 375:40 376:40 377:40 378:40 379:40 380:40 381:11.65 382:40 384:40 
-0.25 1:2.382875 2:3.314875 3:1.215875 4:0.296875 5:40 6:0.514875 7:5.300875 8:7.997875 9:4.836875 10:9.863875 11:4.843875 12:4.552875 13:4.954875 14:-0.286125 15:-6.132125 16:-5.161125 17:0.875875 18:5.767875 19:-1.676125 20:-7.233125 21:-4.663125 22:-1.051125 23:-3.723125 24:0.822875 25:1.418875 26:40 27:-4.614125 28:-1.717125 29:-2.656125 30:-1.111125 31:-0.713125 32:0.382875 33:0.655875 34:2.700875 35:4.807875 36:4.735875 37:2.152875 38:6.836875 39:5.048875 40:-2.075125 41:-1.510125 42:4.538875 43:6.737875 44:40 45:3.938875 46:40 47:-3.924125 48:-2.315125 49:6.861875 50:40 51:5.123875 52:4.080875 53:2.324875 54:4.030875 55:1.811875 56:-0.783125 57:40 58:-5.099125 59:40 60:-2.211125 61:6.268875 62:0.024875 63:40 64:13.390875 65:5.358875 66:2.832875 67:-5.145125 68:2.188875 69:10.348875 70:2.985875 71:12.660875 72:40 73:-0.265125 74:0.364875 75:2.271875 76:1.918875 77:4.874875 78:3.103875 79:7.485875 80:12.601875 81:13.329875 82:40 83:6.619875 84:2.867875 85:0.618875 86:3.267875 87:-0.115125 88:6.709875 89:-1.711125 90:1.822875 91:2.132875 92:-0.373125 93:-3.827125 94:7.899875 95:-1.175125 96:40 97:1.529875 98:4.111875 99:40 100:-2.860125 101:2.064875 102:40 103:9.962875 104:2.144875 105:8.045875 106:10.323875 107:10.168875 108:6.432875 109:6.923875 110:0.822875 111:0.750875 112:40 113:40 114:9.492875 115:-4.364125 116:2.611875 117:11.043875 118:3.221875 119:3.639875 120:4.532875 121:0.234875 122:10.052875 123:-0.664125 124:40 125:3.883875 126:-2.226125 127:5.879875 128:5.855875 129:4.977875 130:3.298875 131:7.279875 132:6.559875 133:4.250875 134:12.018875 135:40 136:1.091875 137:10.019875 138:1.795875 139:40 140:9.221875 141:40 142:7.161875 143:9.430875 144:-1.678125 145:-2.796125 146:-9.296125 147:2.837875 148:40 149:3.690875 150:40 151:40 152:1.838875 153:5.832875 154:3.939875 155:-5.358125 156:40 157:40 158:-2.692125 159:3.840875 160:2.311875 161:1.711875 162:8.936875 163:-1.462125 164:7.751875 165:4.954875 166:40 167:-0.230125 168:9.435875 169:0.804875 170:4.939875 171:6.164875 172:7.089875 173:4.430875 174:2.129875 175:4.235875 176:-2.773125 177:-2.125125 178:9.268875 179:2.172875 180:4.051875 181:6.892875 182:10.515875 183:5.579875 184:12.623875 185:40 186:12.934875 187:9.821875 188:2.238875 189:40 190:40 191:12.949875 192:1.313875 193:0.121875 194:2.318875 195:2.551875 196:40 197:40 198:3.924875 199:40 200:8.336875 201:1.786875 202:40 203:7.331875 204:5.759875 205:5.074875 206:10.997875 207:2.247875 208:8.484875 209:-1.226125 210:8.604875 211:7.363875 212:3.826875 213:10.421875 214:11.875875 215:40 216:40 217:40 218:-7.456125 219:6.693875 220:40 221:2.562875 222:9.450875 223:40 224:3.110875 225:-4.687125 226:4.084875 227:40 228:2.858875 229:-1.623125 230:7.776875 231:6.121875 232:40 233:8.164875 234:40 235:40 236:4.590875 237:7.418875 238:5.128875 239:2.879875 240:10.566875 241:40 242:9.036875 243:5.429875 244:40 245:5.224875 246:6.819875 247:8.825875 248:40 249:40 250:4.975875 251:40 252:12.457875 253:40 254:14.468875 255:40 256:9.511875 257:40 258:40 259:40 260:40 261:40 262:40 263:8.213875 264:9.324875 265:40 266:40 267:40 268:40 269:40 270:40 271:40 272:8.451875 273:10.364875 274:11.169875 275:40 276:12.938875 277:40 278:40 279:40 280:40 281:40 282:5.630875 283:40 284:11.760875 285:40 286:40 287:3.660875 288:0.059875 289:4.265875 290:40 291:9.808875 292:40 293:40 294:6.182875 295:10.475875 296:40 297:40 298:15.033875 299:40 300:9.100875 301:40 302:13.303875 303:40 304:40 305:40 306:40 307:40 308:0.678875 309:7.301875 310:7.737875 311:4.908875 312:40 313:40 314:8.486875 315:1.906875 316:7.128875 317:4.092875 318:40 319:40 320:40 321:13.281875 322:40 323:5.520875 324:40 325:6.992875 326:7.362875 327:6.424875 328:6.929875 329:11.231875 330:0.457875 331:40 332:10.303875 333:8.028875 334:6.200875 335:-0.447125 336:5.415875 337:40 338:40 339:40 340:1.980875 341:40 342:40 343:40 344:40 345:5.896875 346:40 347:40 348:40 349:40 350:2.202875 351:8.568875 352:5.579875 353:40 354:40 355:5.125875 356:40 357:11.984875 358:40 359:40 360:12.422875 361:40 362:40 363:7.535875 364:40 365:40 366:40 367:40 368:8.524875 369:40 370:40 371:40 372:1.226875 373:40 374:40 375:40 376:40 377:40 378:40 379:7.007875 380:40 381:40 382:40 384:40 
-0.25 1:15.0715 2:2.8645 3:3.1415 4:6.3285 5:40 6:3.1245 7:7.9095 8:40 9:6.9495 10:40 11:11.1795 12:11.0735 13:40 14:5.1615 15:-3.8705 16:-7.1755 17:1.3535 18:13.6025 19:-3.2685 20:-7.7685 21:-6.3785 22:-2.6025 23:-1.5155 24:14.3785 25:40 26:40 27:-5.4035 28:-2.9085 29:-1.4225 30:-2.0785 31:-1.2825 32:-0.1605 33:1.4365 34:5.3985 35:10.7915 36:10.4445 37:1.2985 38:40 39:3.6335 40:1.0835 41:-0.5975 42:10.0555 43:13.2695 44:40 45:5.2085 46:40 47:-3.9105 48:-3.6755 49:40 50:40 51:40 52:14.9415 53:4.8635 54:7.4695 55:0.8505 56:4.5285 57:40 58:-7.1675 59:40 60:-1.8945 61:40 62:-2.5065 63:40 64:14.6785 65:5.1095 66:4.1415 67:-5.4415 68:0.8595 69:40 70:3.7085 71:40 72:40 73:0.7415 74:2.7955 75:0.3095 76:2.2665 77:15.3975 78:3.0215 79:14.2275 80:14.7505 81:40 82:40 83:5.9285 84:2.8715 85:-0.1775 86:2.8815 87:-0.7295 88:14.8295 89:-1.2815 90:3.8625 91:4.2415 92:3.4025 93:-7.2705 94:9.6425 95:-2.4955 96:40 97:1.0595 98:3.5125 99:40 100:-2.3835 101:1.7175 102:40 103:40 104:8.1275 105:13.8625 106:40 107:8.7165 108:10.2325 109:6.1965 110:-0.9075 111:-2.3315 112:40 113:40 114:12.9955 115:-6.3095 116:-1.4815 117:40 118:4.3035 119:2.1605 120:6.7925 121:0.8455 122:40 123:1.1715 124:40 125:7.0355 126:-0.3125 127:6.9895 128:40 129:13.5235 130:8.1735 131:11.5265 132:6.2775 133:40 134:14.4235 135:40 136:3.7955 137:11.1645 138:14.0925 139:40 140:40 141:40 142:5.5555 143:40 144:0.5235 145:-3.8785 146:-9.5985 147:4.1505 148:40 149:6.1605 150:40 151:40 152:3.1425 153:4.3335 154:11.7235 155:-3.8235 156:40 157:40 158:-2.4765 159:6.7885 160:5.3675 161:1.8855 162:40 163:0.2665 164:7.5875 165:14.0975 166:40 167:4.4945 168:40 169:1.2705 170:10.0575 171:40 172:3.8145 173:40 174:1.6575 175:4.0645 176:-2.3605 177:1.1515 178:14.7785 179:2.1815 180:3.1175 181:7.3315 182:14.3715 183:5.1595 184:6.3975 185:40 186:40 187:40 188:2.2895 189:40 190:40 191:13.2195 192:-0.1805 193:1.6535 194:4.5905 195:-0.3025 196:40 197:40 198:6.3545 199:40 200:7.8725 201:2.1175 202:40 203:9.5305 204:4.0295 205:5.4725 206:8.7195 207:2.6835 208:40 209:40 210:9.7485 211:9.0515 212:2.4925 213:15.9835 214:40 215:40 216:40 217:40 218:-7.0075 219:8.9785 220:40 221:1.2655 222:9.7625 223:13.6155 224:-0.7025 225:-6.1565 226:13.8805 227:40 228:5.6885 229:-0.0745 230:40 231:6.0875 232:40 233:9.8025 234:40 235:40 236:4.4425 237:15.3215 238:5.5045 239:3.1165 240:11.6285 241:40 242:40 243:40 244:40 245:14.4645 246:6.0575 247:40 248:40 249:40 250:11.1645 251:40 252:40 253:40 254:40 255:40 256:40 257:40 258:40 259:40 260:40 261:40 262:40 263:40 264:11.3115 265:40 266:40 267:15.4545 268:40 269:12.6885 270:40 271:40 272:40 273:11.8385 274:40 275:40 276:40 277:40 278:40 279:40 280:40 281:40 282:11.8135 283:40 284:40 285:40 286:40 287:4.1775 288:2.2385 289:1.3395 290:40 291:10.8875 292:40 293:40 294:7.5555 295:10.2295 296:40 297:40 298:40 299:40 300:15.0925 301:40 302:11.7785 303:8.3575 304:40 305:40 306:40 307:15.6535 308:0.2885 309:6.8685 310:40 311:40 312:40 313:40 314:40 315:1.1095 316:7.7165 317:3.3995 318:40 319:40 320:40 321:10.5535 322:40 323:7.5415 324:14.4095 325:6.5375 326:40 327:7.6105 328:7.5775 329:40 330:2.4225 331:40 332:9.6365 333:40 334:6.6615 335:-0.8745 336:5.2035 337:40 338:40 339:14.7765 340:1.4435 341:11.6535 342:40 343:40 344:40 345:17.7085 346:40 347:40 348:40 349:40 350:2.2055 351:9.7905 352:3.6775 353:40 354:40 355:6.2315 356:40 357:40 358:40 359:40 360:40 361:40 362:16.1275 363:8.0695 364:40 365:40 366:40 367:40 368:40 369:40 370:40 371:40 372:0.2745 373:40 374:40 375:40 376:40 377:40 378:40 379:40 380:40 381:40 382:17.2085 384:14.8115 
-0.25 1:1.326875 2:3.572875 3:-0.818125 4:-2.927125 5:12.883875 6:-0.113125 7:4.490875 8:18.205875 9:5.622875 10:40 11:10.546875 12:11.010875 13:13.103875 14:-0.567125 15:-2.302125 16:-6.430125 17:0.901875 18:11.044875 19:-2.519125 20:-6.760125 21:-5.258125 22:-1.877125 23:-1.458125 24:13.487875 25:40 26:13.687875 27:-6.090125 28:-0.736125 29:-4.148125 30:-2.134125 31:-1.245125 32:0.295875 33:0.956875 34:2.620875 35:10.920875 36:10.618875 37:1.937875 38:8.757875 39:5.283875 40:-1.709125 41:-3.344125 42:9.302875 43:7.125875 44:15.027875 45:7.573875 46:40 47:-1.806125 48:-2.479125 49:40 50:40 51:40 52:10.841875 53:2.419875 54:6.397875 55:2.287875 56:-0.709125 57:40 58:-6.476125 59:40 60:-1.065125 61:8.025875 62:-1.352125 63:40 64:14.661875 65:2.020875 66:3.727875 67:-6.490125 68:-0.039125 69:40 70:2.849875 71:40 72:40 73:-0.056125 74:2.477875 75:-0.038125 76:-0.790125 77:5.720875 78:2.299875 79:9.077875 80:12.149875 81:17.906875 82:40 83:7.163875 84:2.035875 85:-2.074125 86:4.767875 87:-0.594125 88:15.634875 89:-3.996125 90:2.925875 91:3.704875 92:-0.348125 93:-6.940125 94:13.252875 95:-3.145125 96:40 97:1.957875 98:3.166875 99:40 100:-2.065125 101:1.859875 102:40 103:40 104:4.281875 105:10.310875 106:11.541875 107:13.506875 108:13.236875 109:6.433875 110:0.269875 111:-1.768125 112:40 113:40 114:8.094875 115:-7.926125 116:0.077875 117:40 118:6.388875 119:2.710875 120:4.912875 121:2.014875 122:11.777875 123:1.046875 124:11.527875 125:5.431875 126:-1.369125 127:5.507875 128:40 129:14.667875 130:3.918875 131:40 132:2.892875 133:9.304875 134:40 135:40 136:6.325875 137:12.871875 138:11.008875 139:40 140:40 141:40 142:10.707875 143:40 144:-0.303125 145:-4.040125 146:-9.905125 147:2.345875 148:40 149:9.115875 150:40 151:40 152:2.208875 153:3.275875 154:14.714875 155:-1.628125 156:40 157:40 158:-1.006125 159:7.592875 160:6.988875 161:2.271875 162:40 163:-0.284125 164:7.692875 165:11.751875 166:40 167:2.161875 168:15.739875 169:0.132875 170:11.927875 171:9.183875 172:2.942875 173:7.582875 174:1.254875 175:2.748875 176:-0.992125 177:1.536875 178:18.358875 179:2.966875 180:3.136875 181:7.834875 182:9.443875 183:8.715875 184:7.194875 185:40 186:40 187:15.265875 188:1.474875 189:40 190:40 191:40 192:-2.505125 193:-2.003125 194:5.140875 195:-0.373125 196:14.631875 197:40 198:2.880875 199:40 200:10.655875 201:5.647875 202:40 203:9.281875 204:4.092875 205:2.778875 206:8.047875 207:3.272875 208:18.460875 209:18.218875 210:9.454875 211:5.401875 212:2.977875 213:13.650875 214:40 215:40 216:40 217:40 218:-4.033125 219:5.922875 220:40 221:0.672875 222:13.944875 223:14.948875 224:1.098875 225:-6.216125 226:7.032875 227:40 228:11.639875 229:3.842875 230:40 231:4.337875 232:40 233:40 234:40 235:40 236:3.545875 237:10.991875 238:3.236875 239:0.639875 240:9.872875 241:40 242:40 243:40 244:40 245:40 246:9.091875 247:40 248:40 249:40 250:11.056875 251:40 252:40 253:40 254:40 255:40 256:14.492875 257:40 258:40 259:40 260:40 261:40 262:40 263:40 264:10.629875 265:40 266:40 267:14.936875 268:40 269:17.928875 270:40 271:40 272:40 273:10.788875 274:40 275:40 276:40 277:40 278:40 279:40 280:40 281:40 282:11.889875 283:40 284:40 285:40 286:40 287:3.354875 288:3.962875 289:0.164875 290:40 291:16.072875 292:40 293:40 294:8.072875 295:9.435875 296:40 297:40 298:40 299:40 300:15.386875 301:11.979875 302:14.872875 303:8.452875 304:40 305:40 306:40 307:40 308:-0.001125 309:7.627875 310:40 311:40 312:40 313:40 314:13.818875 315:1.479875 316:8.012875 317:3.057875 318:40 319:40 320:9.810875 321:12.406875 322:40 323:6.922875 324:14.985875 325:5.189875 326:40 327:10.759875 328:10.345875 329:40 330:2.012875 331:40 332:9.228875 333:10.973875 334:7.295875 335:1.156875 336:3.810875 337:40 338:40 339:15.210875 340:-0.031125 341:5.910875 342:40 343:40 344:40 345:40 346:40 347:40 348:40 349:40 350:2.044875 351:13.928875 352:4.602875 353:40 354:40 355:5.804875 356:40 357:40 358:40 359:40 360:40 361:40 362:12.708875 363:7.829875 364:40 365:40 366:40 367:40 368:40 369:40 370:40 371:40 372:0.905875 373:40 374:40 375:40 376:40 377:40 378:40 379:13.275875 380:40 381:40 382:16.136875 384:40 
