svm_type c_svc
kernel_type rbf
gamma 0.001953
nr_class 2
total_sv 12
rho -0.571994
label 4 3
nr_sv 8 4
SV
0.1861530126536649 86:3.031625 126:-1.399375 139:40 155:-3.800375 174:1.997625 186:40 229:0.264625 340:1.434625 368:40 382:8.774625 
0.290604246127909 86:5.197875 126:-1.817125 139:9.975875 155:-2.090125 174:1.773875 186:40 229:4.302875 340:-0.693125 368:40 382:40 
0.2844504904419714 86:2.90725 126:-1.20375 139:11.77525 155:-5.85675 174:2.26525 186:40 229:-0.86075 340:1.59325 368:6.84925 382:12.51125 
0.3013435844509255 86:0.803875 126:0.012875 139:5.928875 155:-5.143125 174:5.262875 186:40 229:0.181875 340:1.523875 368:40 382:10.827875 
0.6219732991318807 86:3.69475 126:-0.89125 139:9.57975 155:-6.96325 174:3.85975 186:8.20375 229:-0.48125 340:2.26575 368:7.70875 382:40 
13.20536099902973 86:1.78575 126:-0.55025 139:40 155:-4.95325 174:3.63975 186:40 229:2.07775 340:2.47675 368:13.43375 382:40 
0.4065262597962174 86:4.01175 126:-0.40225 139:40 155:-3.12125 174:2.21475 186:40 229:-0.14225 340:0.45075 368:14.84675 382:14.77775 
0.1042606073770112 86:0.25675 126:-0.20525 139:9.48075 155:-5.18525 174:5.20875 186:40 229:-2.96225 340:2.45075 368:10.27775 382:40 
-8.657783164573159 86:4.047625 126:-1.002375 139:40 155:-0.719375 174:3.549625 186:40 229:2.753625 340:-1.606375 368:11.601625 382:40 
-1.490702518853344 86:4.014375 126:-0.954625 139:40 155:-3.803625 174:1.865375 186:11.388375 229:2.871375 340:0.300375 368:9.844375 382:40 
-0.0379729589085024 86:4.5235 126:-2.3735 139:40 155:-3.1555 174:0.2315 186:9.2295 229:3.6505 340:0.3065 368:9.2425 382:40 
-5.214213856674307 86:5.754875 126:-1.458125 139:40 155:-3.139125 174:2.786875 186:40 229:6.803875 340:0.589875 368:11.093875 382:40 
