svm_type c_svc
kernel_type rbf
gamma 0.001953
nr_class 2
total_sv 12
rho 0.148772
label 4 6
nr_sv 8 4
SV
2.036387831916285 11:4.54775 29:-0.90725 37:2.19175 89:-2.02725 92:2.49575 114:9.99475 160:0.16475 174:5.20875 192:0.29275 339:40 
1.013381674593734 11:6.19575 29:-0.14625 37:-0.19125 89:-2.01925 92:0.05075 114:12.11475 160:2.39175 174:3.85975 192:4.26575 339:40 
1.089106921545776 11:4.55425 29:-1.87875 37:1.24725 89:-1.81475 92:1.45825 114:13.34025 160:2.07725 174:2.26525 192:1.80025 339:40 
0.2474581154868397 11:7.308 29:4.719 37:-0.55 89:1.541 92:6.375 114:40 160:1.295 174:4.928 192:4.14 339:40 
0.6423937198775878 11:8.361875 29:-2.347125 37:0.486875 89:-2.819125 92:1.936875 114:15.723875 160:3.353875 174:1.773875 192:-0.582125 339:40 
0.3591158091643356 11:1.419875 29:-0.458125 37:0.361875 89:-0.924125 92:3.130875 114:40 160:2.087875 174:4.053875 192:2.318875 339:40 
4 11:8.36975 29:-1.38925 37:0.99575 89:-1.34925 92:2.95275 114:9.30875 160:5.08875 174:2.21475 192:0.25975 339:18.22475 
0.2630609862912197 11:9.335 29:2.282 37:0.275 89:0.369 92:5.285 114:40 160:2.592 174:3.54 192:4.038 339:40 
-0.7313590612035853 11:10.374 29:-3.993 37:1.272 89:-3.684 92:0.716 114:6.616 160:40 174:0.795 192:-2.414 339:14.08 
-4 11:4.843875 29:-2.656125 37:2.152875 89:-1.711125 92:-0.373125 114:9.492875 160:2.311875 174:2.129875 192:1.313875 339:40 
-3.781776494242275 11:11.1795 29:-1.4225 37:1.2985 89:-1.2815 92:3.4025 114:12.9955 160:5.3675 174:1.6575 192:-0.1805 339:14.7765 
-1.137769503429918 11:10.546875 29:-4.148125 37:1.937875 89:-3.996125 92:-0.348125 114:8.094875 160:6.988875 174:1.254875 192:-2.505125 339:15.210875 
