svm_type c_svc
kernel_type rbf
gamma 0.001953
nr_class 2
total_sv 31
rho -0.290844
label 5 1
nr_sv 15 16
SV
0.25 14:0.152375 24:0.764375 38:7.223375 80:13.110375 110:0.142375 133:4.443375 154:2.450375 210:9.511375 309:6.506375 316:8.605375 
0.25 14:2.77525 24:40 38:40 80:40 110:-0.78075 133:40 154:40 210:40 309:40 316:40 
0.25 14:2.762125 24:6.468125 38:12.560125 80:40 110:-0.325875 133:8.044125 154:16.029125 210:10.420125 309:7.668125 316:9.664125 
0.25 14:3.600875 24:6.283875 38:40 80:14.443875 110:-0.637125 133:7.182875 154:40 210:7.847875 309:6.274875 316:12.307875 
0.25 14:5.004 24:4.719 38:11.289 80:40 110:-1.036 133:8.815 154:5.941 210:40 309:5.85 316:8.315 
0.25 14:2.283625 24:4.383625 38:9.581625 80:40 110:-0.236375 133:11.161625 154:8.693625 210:8.961625 309:7.713625 316:7.891625 
0.25 14:7.885875 24:40 38:40 80:40 110:-0.732125 133:40 154:12.095875 210:40 309:40 316:40 
0.25 14:3.1695 24:4.2465 38:40 80:11.7425 110:-0.7285 133:10.3915 154:40 210:40 309:5.8845 316:7.3655 
0.25 14:0.02525 24:-0.15375 38:7.62825 80:40 110:0.60525 133:5.61625 154:13.47025 210:9.33825 309:6.02625 316:8.90325 
0.25 14:2.82925 24:40 38:40 80:40 110:-0.25575 133:40 154:40 210:40 309:40 316:40 
0.1240320528267404 14:4.806 24:40 38:40 80:40 110:-0.786 133:40 154:40 210:40 309:40 316:40 
0.25 14:10.77925 24:40 38:40 80:40 110:0.18325 133:40 154:40 210:8.97725 309:40 316:40 
0.25 14:1.154 24:-0.879 38:6.286 80:9.641 110:0.085 133:5.02 154:13.543 210:10.862 309:6.585 316:8.187 
0.25 14:8.45225 24:40 38:12.66025 80:40 110:-1.23375 133:9.58325 154:5.09725 210:40 309:6.80425 316:11.89825 
0.25 14:4.55875 24:13.78275 38:40 80:40 110:-0.25025 133:8.51475 154:40 210:40 309:16.79575 316:7.54975 
-0.25 14:-0.5335 24:2.5335 38:6.5005 80:7.6985 110:-1.3835 133:5.2825 154:15.8505 210:9.1495 309:5.5735 316:5.8205 
-0.1176226408974399 14:3.614875 24:8.313875 38:7.091875 80:5.615875 110:-0.066125 133:8.890875 154:8.150875 210:7.227875 309:6.667875 316:8.196875 
-0.25 14:0.30725 24:0.65125 38:7.27825 80:11.31625 110:0.20425 133:7.01925 154:0.62725 210:9.31325 309:7.51425 316:8.55325 
-0.1249516680992938 14:-0.381125 24:1.074875 38:14.978875 80:8.785875 110:-0.227125 133:5.181875 154:9.763875 210:9.934875 309:6.164875 316:5.751875 
-0.25 14:2.0315 24:6.5655 38:13.1135 80:7.4595 110:0.0025 133:5.1765 154:15.1125 210:7.0105 309:7.1365 316:11.7135 
-0.25 14:2.36125 24:10.19525 38:7.67125 80:7.97225 110:-0.88575 133:4.65425 154:40 210:12.73925 309:15.57925 316:7.33325 
-0.25 14:4.02075 24:6.25775 38:8.27975 80:40 110:-0.42825 133:6.57675 154:11.84775 210:9.96775 309:6.22875 316:8.18475 
-0.25 14:1.02275 24:4.03075 38:10.70775 80:40 110:0.75275 133:9.84075 154:11.11975 210:16.69275 309:6.59275 316:7.98175 
-0.1314577438300067 14:0.753125 24:2.658125 38:10.189125 80:12.086125 110:1.545125 133:5.612125 154:15.224125 210:8.498125 309:7.188125 316:9.443125 
-0.25 14:1.263875 24:0.563875 38:9.133875 80:15.405875 110:0.186875 133:6.489875 154:1.741875 210:10.946875 309:7.506875 316:9.673875 
-0.25 14:1.995125 24:8.397125 38:8.164125 80:40 110:0.863125 133:12.889125 154:16.769125 210:40 309:6.955125 316:9.895125 
-0.25 14:1.944875 24:1.389875 38:7.321875 80:40 110:0.637875 133:4.549875 154:7.910875 210:10.803875 309:5.990875 316:7.330875 
-0.25 14:1.21075 24:1.65375 38:40 80:7.44875 110:0.92775 133:8.68375 154:7.95675 210:11.65775 309:4.81675 316:10.00075 
-0.25 14:3.856625 24:10.086625 38:6.833625 80:17.652625 110:0.896625 133:5.831625 154:11.827625 210:9.302625 309:5.700625 316:6.509625 
-0.25 14:-0.019875 24:0.558125 38:6.916125 80:11.417125 110:-0.038875 133:5.004125 154:0.839125 210:9.972125 309:7.189125 316:8.127125 
-0.25 14:3.157 24:0.487 38:5.185 80:5.808 110:0.748 133:9.694 154:6.895 210:8.514 309:5.105 316:7.351 
