svm_type c_svc
kernel_type rbf
gamma 0.03125
nr_class 2
total_sv 19
rho 0.933333
label 6 5
nr_sv 4 15
SV
0.25 1:1.326875 2:3.572875 3:-0.818125 4:-2.927125 5:12.883875 6:-0.113125 7:4.490875 8:18.205875 9:5.622875 10:40 11:10.546875 12:11.010875 13:13.103875 14:-0.567125 15:-2.302125 16:-6.430125 17:0.901875 18:11.044875 19:-2.519125 20:-6.760125 21:-5.258125 22:-1.877125 23:-1.458125 24:13.487875 25:40 26:13.687875 27:-6.090125 28:-0.736125 29:-4.148125 30:-2.134125 31:-1.245125 32:0.295875 33:0.956875 34:2.620875 35:10.920875 36:10.618875 37:1.937875 38:8.757875 39:5.283875 40:-1.709125 41:-3.344125 42:9.302875 43:7.125875 44:15.027875 45:7.573875 46:40 47:-1.806125 48:-2.479125 49:40 50:40 51:40 52:10.841875 53:2.419875 54:6.397875 55:2.287875 56:-0.709125 57:40 58:-6.476125 59:40 60:-1.065125 61:8.025875 62:-1.352125 63:40 64:14.661875 65:2.020875 66:3.727875 67:-6.490125 68:-0.039125 69:40 70:2.849875 71:40 72:40 73:-0.056125 74:2.477875 75:-0.038125 76:-0.790125 77:5.720875 78:2.299875 79:9.077875 80:12.149875 81:17.906875 82:40 83:7.163875 84:2.035875 85:-2.074125 86:4.767875 87:-0.594125 88:15.634875 89:-3.996125 90:2.925875 91:3.704875 92:-0.348125 93:-6.940125 94:13.252875 95:-3.145125 96:40 97:1.957875 98:3.166875 99:40 100:-2.065125 101:1.859875 102:40 103:40 104:4.281875 105:10.310875 106:11.541875 107:13.506875 108:13.236875 109:6.433875 110:0.269875 111:-1.768125 112:40 113:40 114:8.094875 115:-7.926125 116:0.077875 117:40 118:6.388875 119:2.710875 120:4.912875 121:2.014875 122:11.777875 123:1.046875 124:11.527875 125:5.431875 126:-1.369125 127:5.507875 128:40 129:14.667875 130:3.918875 131:40 132:2.892875 133:9.304875 134:40 135:40 136:6.325875 137:12.871875 138:11.008875 139:40 140:40 141:40 142:10.707875 143:40 144:-0.303125 145:-4.040125 146:-9.905125 147:2.345875 148:40 149:9.115875 150:40 151:40 152:2.208875 153:3.275875 154:14.714875 155:-1.628125 156:40 157:40 158:-1.006125 159:7.592875 160:6.988875 161:2.271875 162:40 163:-0.284125 164:7.692875 165:11.751875 166:40 167:2.161875 168:15.739875 169:0.132875 170:11.927875 171:9.183875 172:2.942875 173:7.582875 174:1.254875 175:2.748875 176:-0.992125 177:1.536875 178:18.358875 179:2.966875 180:3.136875 181:7.834875 182:9.443875 183:8.715875 184:7.194875 185:40 186:40 187:15.265875 188:1.474875 189:40 190:40 191:40 192:-2.505125 193:-2.003125 194:5.140875 195:-0.373125 196:14.631875 197:40 198:2.880875 199:40 200:10.655875 201:5.647875 202:40 203:9.281875 204:4.092875 205:2.778875 206:8.047875 207:3.272875 208:18.460875 209:18.218875 210:9.454875 211:5.401875 212:2.977875 213:13.650875 214:40 215:40 216:40 217:40 218:-4.033125 219:5.922875 220:40 221:0.672875 222:13.944875 223:14.948875 224:1.098875 225:-6.216125 226:7.032875 227:40 228:11.639875 229:3.842875 230:40 231:4.337875 232:40 233:40 234:40 235:40 236:3.545875 237:10.991875 238:3.236875 239:0.639875 240:9.872875 241:40 242:40 243:40 244:40 245:40 246:9.091875 247:40 248:40 249:40 250:11.056875 251:40 252:40 253:40 254:40 255:40 256:14.492875 257:40 258:40 259:40 260:40 261:40 262:40 263:40 264:10.629875 265:40 266:40 267:14.936875 268:40 269:17.928875 270:40 271:40 272:40 273:10.788875 274:40 275:40 276:40 277:40 278:40 279:40 280:40 281:40 282:11.889875 283:40 284:40 285:40 286:40 287:3.354875 288:3.962875 289:0.164875 290:40 291:16.072875 292:40 293:40 294:8.072875 295:9.435875 296:40 297:40 298:40 299:40 300:15.386875 301:11.979875 302:14.872875 303:8.452875 304:40 305:40 306:40 307:40 308:-0.001125 309:7.627875 310:40 311:40 312:40 313:40 314:13.818875 315:1.479875 316:8.012875 317:3.057875 318:40 319:40 320:9.810875 321:12.406875 322:40 323:6.922875 324:14.985875 325:5.189875 326:40 327:10.759875 328:10.345875 329:40 330:2.012875 331:40 332:9.228875 333:10.973875 334:7.295875 335:1.156875 336:3.810875 337:40 338:40 339:15.210875 340:-0.031125 341:5.910875 342:40 343:40 344:40 345:40 346:40 347:40 348:40 349:40 350:2.044875 351:13.928875 352:4.602875 353:40 354:40 355:5.804875 356:40 357:40 358:40 359:40 360:40 361:40 362:12.708875 363:7.829875 364:40 365:40 366:40 367:40 368:40 369:40 370:40 371:40 372:0.905875 373:40 374:40 375:40 376:40 377:40 378:40 379:13.275875 380:40 381:40 382:16.136875 384:40 
0.25 1:4.989 2:2.684 3:0.045 4:-1.717 5:40 6:0.004 7:5.827 8:40 9:7.89 10:40 11:10.374 12:10.39 13:40 14:1.629 15:-3.412 16:-6.73 17:1.481 18:12.657 19:-2.285 20:-7.342 21:-5.429 22:-2.453 23:-1.163 24:13.936 25:40 26:13.602 27:-5.827 28:-1.194 29:-3.993 30:-2.183 31:-0.848 32:0.23 33:1.53 34:3.232 35:10.172 36:9.997 37:1.272 38:10.22 39:4.204 40:0.297 41:-2.544 42:9.969 43:7.599 44:40 45:4.492 46:40 47:-2.07 48:-2.558 49:40 50:40 51:40 52:10.426 53:2.225 54:8.85 55:1.507 56:-0.381 57:40 58:-6.84 59:40 60:-1.596 61:11.655 62:-0.115 63:40 64:40 65:1.936 66:4.54 67:-6.606 68:1.507 69:40 70:4.278 71:40 72:40 73:0.096 74:2.78 75:1.029 76:0.514 77:40 78:6.805 79:12.283 80:40 81:40 82:40 83:5.312 84:2.147 85:-1.846 86:3.695 87:0.054 88:40 89:-3.684 90:3.077 91:11.434 92:0.716 93:-7.269 94:40 95:-3.794 96:40 97:1.75 98:2.664 99:40 100:-2.502 101:1.363 102:40 103:40 104:4.146 105:9.559 106:12.327 107:11.055 108:13.912 109:6.683 110:-0.171 111:-2.189 112:40 113:40 114:6.616 115:-8.072 116:-0.394 117:40 118:12.011 119:3.942 120:4.652 121:1.885 122:40 123:0.982 124:14.407 125:7.877 126:-1.187 127:6.261 128:40 129:15.225 130:3.554 131:40 132:7.936 133:6.355 134:40 135:40 136:4.798 137:40 138:14.995 139:40 140:40 141:40 142:7.267 143:40 144:0.434 145:-3.665 146:-10.141 147:3.011 148:40 149:8.017 150:40 151:40 152:2.107 153:4.346 154:7.1 155:-2.166 156:40 157:40 158:-2.473 159:13.229 160:40 161:2.249 162:40 163:0.129 164:16.447 165:40 166:40 167:2.575 168:40 169:0.591 170:40 171:40 172:3.216 173:13.89 174:0.795 175:1.824 176:-1.25 177:1.112 178:40 179:2.928 180:7.326 181:9.758 182:12.169 183:5.431 184:9.318 185:40 186:40 187:40 188:4.768 189:40 190:9.342 191:40 192:-2.414 193:-1.614 194:6.867 195:0.69 196:40 197:40 198:7.474 199:40 200:40 201:7.701 202:40 203:40 204:7.357 205:4.523 206:10.247 207:2.897 208:40 209:15.245 210:7.634 211:15.561 212:5.158 213:40 214:40 215:40 216:40 217:40 218:-5.97 219:6.506 220:40 221:-0.072 222:40 223:40 224:0.854 225:-6.377 226:10.803 227:40 228:12.17 229:1.896 230:40 231:7.633 232:40 233:15.932 234:40 235:15.825 236:3.851 237:40 238:4.228 239:4.027 240:40 241:40 242:40 243:40 244:16.756 245:40 246:7.658 247:40 248:40 249:40 250:40 251:40 252:40 253:40 254:40 255:40 256:40 257:40 258:40 259:40 260:40 261:40 262:40 263:13.727 264:15.374 265:16.133 266:40 267:13.094 268:40 269:40 270:40 271:40 272:16.501 273:12.975 274:40 275:40 276:40 277:40 278:40 279:40 280:9.696 281:13.883 282:6.775 283:40 284:40 285:40 286:40 287:4.643 288:7.476 289:2.029 290:40 291:13.475 292:40 293:40 294:15.436 295:10.495 296:40 297:40 298:40 299:40 300:40 301:40 302:40 303:14.631 304:40 305:40 306:40 307:40 308:0.506 309:8.668 310:40 311:40 312:40 313:40 314:40 315:1.199 316:7.898 317:4.326 318:40 319:40 320:40 321:9.788 322:40 323:7.327 324:12.532 325:4.516 326:40 327:12.053 328:10.875 329:40 330:1.874 331:40 332:40 333:40 334:8.638 335:0.219 336:6.214 337:40 338:40 339:14.08 340:0.197 341:13.166 342:40 343:40 344:40 345:40 346:40 347:40 348:40 349:40 350:6.796 351:16.493 352:4.378 353:40 354:40 355:11.369 356:40 357:40 358:40 359:40 360:40 361:40 362:40 363:11.612 364:40 365:40 366:40 367:40 368:40 369:40 370:40 371:40 372:2.648 373:40 374:40 375:40 376:40 377:40 378:40 379:40 380:40 381:11.65 382:40 384:40 
0.25 1:2.382875 2:3.314875 3:1.215875 4:0.296875 5:40 6:0.514875 7:5.300875 8:7.997875 9:4.836875 10:9.863875 11:4.843875 12:4.552875 13:4.954875 14:-0.286125 15:-6.132125 16:-5.161125 17:0.875875 18:5.767875 19:-1.676125 20:-7.233125 21:-4.663125 22:-1.051125 23:-3.723125 24:0.822875 25:1.418875 26:40 27:-4.614125 28:-1.717125 29:-2.656125 30:-1.111125 31:-0.713125 32:0.382875 33:0.655875 34:2.700875 35:4.807875 36:4.735875 37:2.152875 38:6.836875 39:5.048875 40:-2.075125 41:-1.510125 42:4.538875 43:6.737875 44:40 45:3.938875 46:40 47:-3.924125 48:-2.315125 49:6.861875 50:40 51:5.123875 52:4.080875 53:2.324875 54:4.030875 55:1.811875 56:-0.783125 57:40 58:-5.099125 59:40 60:-2.211125 61:6.268875 62:0.024875 63:40 64:13.390875 65:5.358875 66:2.832875 67:-5.145125 68:2.188875 69:10.348875 70:2.985875 71:12.660875 72:40 73:-0.265125 74:0.364875 75:2.271875 76:1.918875 77:4.874875 78:3.103875 79:7.485875 80:12.601875 81:13.329875 82:40 83:6.619875 84:2.867875 85:0.618875 86:3.267875 87:-0.115125 88:6.709875 89:-1.711125 90:1.822875 91:2.132875 92:-0.373125 93:-3.827125 94:7.899875 95:-1.175125 96:40 97:1.529875 98:4.111875 99:40 100:-2.860125 101:2.064875 102:40 103:9.962875 104:2.144875 105:8.045875 106:10.323875 107:10.168875 108:6.432875 109:6.923875 110:0.822875 111:0.750875 112:40 113:40 114:9.492875 115:-4.364125 116:2.611875 117:11.043875 118:3.221875 119:3.639875 120:4.532875 121:0.234875 122:10.052875 123:-0.664125 124:40 125:3.883875 126:-2.226125 127:5.879875 128:5.855875 129:4.977875 130:3.298875 131:7.279875 132:6.559875 133:4.250875 134:12.018875 135:40 136:1.091875 137:10.019875 138:1.795875 139:40 140:9.221875 141:40 142:7.161875 143:9.430875 144:-1.678125 145:-2.796125 146:-9.296125 147:2.837875 148:40 149:3.690875 150:40 151:40 152:1.838875 153:5.832875 154:3.939875 155:-5.358125 156:40 157:40 158:-2.692125 159:3.840875 160:2.311875 161:1.711875 162:8.936875 163:-1.462125 164:7.751875 165:4.954875 166:40 167:-0.230125 168:9.435875 169:0.804875 170:4.939875 171:6.164875 172:7.089875 173:4.430875 174:2.129875 175:4.235875 176:-2.773125 177:-2.125125 178:9.268875 179:2.172875 180:4.051875 181:6.892875 182:10.515875 183:5.579875 184:12.623875 185:40 186:12.934875 187:9.821875 188:2.238875 189:40 190:40 191:12.949875 192:1.313875 193:0.121875 194:2.318875 195:2.551875 196:40 197:40 198:3.924875 199:40 200:8.336875 201:1.786875 202:40 203:7.331875 204:5.759875 205:5.074875 206:10.997875 207:2.247875 208:8.484875 209:-1.226125 210:8.604875 211:7.363875 212:3.826875 213:10.421875 214:11.875875 215:40 216:40 217:40 218:-7.456125 219:6.693875 220:40 221:2.562875 222:9.450875 223:40 224:3.110875 225:-4.687125 226:4.084875 227:40 228:2.858875 229:-1.623125 230:7.776875 231:6.121875 232:40 233:8.164875 234:40 235:40 236:4.590875 237:7.418875 238:5.128875 239:2.879875 240:10.566875 241:40 242:9.036875 243:5.429875 244:40 245:5.224875 246:6.819875 247:8.825875 248:40 249:40 250:4.975875 251:40 252:12.457875 253:40 254:14.468875 255:40 256:9.511875 257:40 258:40 259:40 260:40 261:40 262:40 263:8.213875 264:9.324875 265:40 266:40 267:40 268:40 269:40 270:40 271:40 272:8.451875 273:10.364875 274:11.169875 275:40 276:12.938875 277:40 278:40 279:40 280:40 281:40 282:5.630875 283:40 284:11.760875 285:40 286:40 287:3.660875 288:0.059875 289:4.265875 290:40 291:9.808875 292:40 293:40 294:6.182875 295:10.475875 296:40 297:40 298:15.033875 299:40 300:9.100875 301:40 302:13.303875 303:40 304:40 305:40 306:40 307:40 308:0.678875 309:7.301875 310:7.737875 311:4.908875 312:40 313:40 314:8.486875 315:1.906875 316:7.128875 317:4.092875 318:40 319:40 320:40 321:13.281875 322:40 323:5.520875 324:40 325:6.992875 326:7.362875 327:6.424875 328:6.929875 329:11.231875 330:0.457875 331:40 332:10.303875 333:8.028875 334:6.200875 335:-0.447125 336:5.415875 337:40 338:40 339:40 340:1.980875 341:40 342:40 343:40 344:40 345:5.896875 346:40 347:40 348:40 349:40 350:2.202875 351:8.568875 352:5.579875 353:40 354:40 355:5.125875 356:40 357:11.984875 358:40 359:40 360:12.422875 361:40 362:40 363:7.535875 364:40 365:40 366:40 367:40 368:8.524875 369:40 370:40 371:40 372:1.226875 373:40 374:40 375:40 376:40 377:40 378:40 379:7.007875 380:40 381:40 382:40 384:40 
0.25 1:15.0715 2:2.8645 3:3.1415 4:6.3285 5:40 6:3.1245 7:7.9095 8:40 9:6.9495 10:40 11:11.1795 12:11.0735 13:40 14:5.1615 15:-3.8705 16:-7.1755 17:1.3535 18:13.6025 19:-3.2685 20:-7.7685 21:-6.3785 22:-2.6025 23:-1.5155 24:14.3785 25:40 26:40 27:-5.4035 28:-2.9085 29:-1.4225 30:-2.0785 31:-1.2825 32:-0.1605 33:1.4365 34:5.3985 35:10.7915 36:10.4445 37:1.2985 38:40 39:3.6335 40:1.0835 41:-0.5975 42:10.0555 43:13.2695 44:40 45:5.2085 46:40 47:-3.9105 48:-3.6755 49:40 50:40 51:40 52:14.9415 53:4.8635 54:7.4695 55:0.8505 56:4.5285 57:40 58:-7.1675 59:40 60:-1.8945 61:40 62:-2.5065 63:40 64:14.6785 65:5.1095 66:4.1415 67:-5.4415 68:0.8595 69:40 70:3.7085 71:40 72:40 73:0.7415 74:2.7955 75:0.3095 76:2.2665 77:15.3975 78:3.0215 79:14.2275 80:14.7505 81:40 82:40 83:5.9285 84:2.8715 85:-0.1775 86:2.8815 87:-0.7295 88:14.8295 89:-1.2815 90:3.8625 91:4.2415 92:3.4025 93:-7.2705 94:9.6425 95:-2.4955 96:40 97:1.0595 98:3.5125 99:40 100:-2.3835 101:1.7175 102:40 103:40 104:8.1275 105:13.8625 106:40 107:8.7165 108:10.2325 109:6.1965 110:-0.9075 111:-2.3315 112:40 113:40 114:12.9955 115:-6.3095 116:-1.4815 117:40 118:4.3035 119:2.1605 120:6.7925 121:0.8455 122:40 123:1.1715 124:40 125:7.0355 126:-0.3125 127:6.9895 128:40 129:13.5235 130:8.1735 131:11.5265 132:6.2775 133:40 134:14.4235 135:40 136:3.7955 137:11.1645 138:14.0925 139:40 140:40 141:40 142:5.5555 143:40 144:0.5235 145:-3.8785 146:-9.5985 147:4.1505 148:40 149:6.1605 150:40 151:40 152:3.1425 153:4.3335 154:11.7235 155:-3.8235 156:40 157:40 158:-2.4765 159:6.7885 160:5.3675 161:1.8855 162:40 163:0.2665 164:7.5875 165:14.0975 166:40 167:4.4945 168:40 169:1.2705 170:10.0575 171:40 172:3.8145 173:40 174:1.6575 175:4.0645 176:-2.3605 177:1.1515 178:14.7785 179:2.1815 180:3.1175 181:7.3315 182:14.3715 183:5.1595 184:6.3975 185:40 186:40 187:40 188:2.2895 189:40 190:40 191:13.2195 192:-0.1805 193:1.6535 194:4.5905 195:-0.3025 196:40 197:40 198:6.3545 199:40 200:7.8725 201:2.1175 202:40 203:9.5305 204:4.0295 205:5.4725 206:8.7195 207:2.6835 208:40 209:40 210:9.7485 211:9.0515 212:2.4925 213:15.9835 214:40 215:40 216:40 217:40 218:-7.0075 219:8.9785 220:40 221:1.2655 222:9.7625 223:13.6155 224:-0.7025 225:-6.1565 226:13.8805 227:40 228:5.6885 229:-0.0745 230:40 231:6.0875 232:40 233:9.8025 234:40 235:40 236:4.4425 237:15.3215 238:5.5045 239:3.1165 240:11.6285 241:40 242:40 243:40 244:40 245:14.4645 246:6.0575 247:40 248:40 249:40 250:11.1645 251:40 252:40 253:40 254:40 255:40 256:40 257:40 258:40 259:40 260:40 261:40 262:40 263:40 264:11.3115 265:40 266:40 267:15.4545 268:40 269:12.6885 270:40 271:40 272:40 273:11.8385 274:40 275:40 276:40 277:40 278:40 279:40 280:40 281:40 282:11.8135 283:40 284:40 285:40 286:40 287:4.1775 288:2.2385 289:1.3395 290:40 291:10.8875 292:40 293:40 294:7.5555 295:10.2295 296:40 297:40 298:40 299:40 300:15.0925 301:40 302:11.7785 303:8.3575 304:40 305:40 306:40 307:15.6535 308:0.2885 309:6.8685 310:40 311:40 312:40 313:40 314:40 315:1.1095 316:7.7165 317:3.3995 318:40 319:40 320:40 321:10.5535 322:40 323:7.5415 324:14.4095 325:6.5375 326:40 327:7.6105 328:7.5775 329:40 330:2.4225 331:40 332:9.6365 333:40 334:6.6615 335:-0.8745 336:5.2035 337:40 338:40 339:14.7765 340:1.4435 341:11.6535 342:40 343:40 344:40 345:17.7085 346:40 347:40 348:40 349:40 350:2.2055 351:9.7905 352:3.6775 353:40 354:40 355:6.2315 356:40 357:40 358:40 359:40 360:40 361:40 362:16.1275 363:8.0695 364:40 365:40 366:40 367:40 368:40 369:40 370:40 371:40 372:0.2745 373:40 374:40 375:40 376:40 377:40 378:40 379:40 380:40 381:40 382:17.2085 384:14.8115 
-0.06640625 1:16.686875 2:3.622875 3:5.063875 4:10.201875 5:40 6:5.367875 7:5.160875 8:40 9:8.474875 10:17.705875 11:9.165875 12:8.660875 13:40 14:3.600875 15:-2.998125 16:-6.687125 17:1.499875 18:9.837875 19:-2.761125 20:-7.455125 21:-6.257125 22:-1.799125 23:-1.608125 24:6.283875 25:12.216875 26:40 27:-5.788125 28:-2.366125 29:0.301875 30:-0.434125 31:-1.433125 32:0.257875 33:1.202875 34:5.732875 35:8.819875 36:8.638875 37:0.967875 38:40 39:3.373875 40:1.067875 41:-0.151125 42:12.150875 43:7.383875 44:40 45:3.288875 46:40 47:-3.751125 48:-3.006125 49:10.287875 50:40 51:40 52:10.459875 53:6.726875 54:6.509875 55:1.982875 56:8.145875 57:40 58:-6.684125 59:40 60:-0.963125 61:40 62:-2.316125 63:40 64:7.795875 65:6.427875 66:3.659875 67:-5.439125 68:0.891875 69:40 70:3.206875 71:40 72:40 73:0.211875 74:2.722875 75:-0.583125 76:-0.593125 77:5.324875 78:1.647875 79:10.517875 80:14.443875 81:15.516875 82:40 83:7.786875 84:2.497875 85:0.065875 86:4.010875 87:-0.874125 88:12.159875 89:-0.324125 90:3.744875 91:2.109875 92:3.549875 93:-7.465125 94:10.247875 95:-1.876125 96:40 97:1.199875 98:2.959875 99:40 100:-2.764125 101:1.436875 102:40 103:40 104:7.638875 105:14.328875 106:14.325875 107:10.308875 108:13.785875 109:5.673875 110:-0.637125 111:-1.773125 112:40 113:40 114:9.815875 115:-5.543125 116:-0.790125 117:40 118:2.021875 119:2.220875 120:7.421875 121:1.914875 122:8.817875 123:0.876875 124:40 125:6.586875 126:-0.685125 127:7.260875 128:40 129:9.439875 130:8.106875 131:14.751875 132:3.914875 133:7.182875 134:7.835875 135:40 136:3.820875 137:6.848875 138:40 139:40 140:10.628875 141:40 142:5.004875 143:10.677875 144:-0.792125 145:-4.342125 146:-9.637125 147:2.363875 148:40 149:5.613875 150:40 151:40 152:4.452875 153:6.360875 154:40 155:-4.135125 156:40 157:40 158:-1.562125 159:5.822875 160:5.215875 161:1.881875 162:40 163:0.515875 164:9.516875 165:10.206875 166:40 167:5.035875 168:40 169:0.078875 170:6.690875 171:8.829875 172:3.003875 173:40 174:1.972875 175:4.127875 176:-0.556125 177:1.390875 178:14.276875 179:1.755875 180:1.918875 181:5.795875 182:40 183:6.214875 184:6.954875 185:40 186:11.290875 187:14.601875 188:2.895875 189:40 190:40 191:40 192:1.457875 193:3.432875 194:3.202875 195:-1.089125 196:40 197:40 198:5.959875 199:40 200:9.287875 201:2.800875 202:9.897875 203:9.691875 204:3.300875 205:6.276875 206:8.753875 207:3.238875 208:13.392875 209:15.709875 210:7.847875 211:8.442875 212:2.936875 213:10.280875 214:15.287875 215:10.413875 216:40 217:40 218:-5.841125 219:6.367875 220:40 221:2.802875 222:40 223:40 224:-0.808125 225:-5.245125 226:12.723875 227:40 228:5.863875 229:0.744875 230:40 231:5.905875 232:40 233:9.901875 234:40 235:40 236:5.312875 237:7.591875 238:5.031875 239:1.976875 240:8.912875 241:40 242:40 243:40 244:8.553875 245:40 246:5.863875 247:40 248:40 249:40 250:8.102875 251:40 252:40 253:40 254:40 255:40 256:10.980875 257:40 258:40 259:40 260:40 261:40 262:40 263:12.900875 264:10.325875 265:40 266:40 267:12.246875 268:40 269:12.804875 270:40 271:40 272:40 273:12.066875 274:40 275:40 276:40 277:40 278:40 279:40 280:40 281:11.924875 282:17.388875 283:40 284:40 285:40 286:40 287:3.912875 288:0.917875 289:1.849875 290:40 291:40 292:40 293:40 294:8.345875 295:9.240875 296:40 297:40 298:40 299:40 300:40 301:40 302:13.598875 303:40 304:40 305:40 306:40 307:11.357875 308:-0.649125 309:6.274875 310:17.659875 311:9.061875 312:40 313:40 314:40 315:1.169875 316:12.307875 317:3.493875 318:40 319:40 320:8.166875 321:12.035875 322:40 323:7.875875 324:11.516875 325:6.963875 326:8.027875 327:8.858875 328:6.399875 329:40 330:2.605875 331:40 332:8.069875 333:14.629875 334:7.117875 335:-0.556125 336:5.303875 337:40 338:40 339:14.313875 340:1.971875 341:40 342:40 343:40 344:40 345:10.513875 346:40 347:40 348:40 349:40 350:1.742875 351:10.601875 352:3.272875 353:40 354:40 355:5.825875 356:40 357:40 358:40 359:40 360:40 361:40 362:12.459875 363:5.496875 364:40 365:40 366:40 367:40 368:12.200875 369:40 370:40 371:40 372:-0.115125 373:40 374:40 375:40 376:40 377:40 378:40 379:6.749875 380:14.415875 381:40 382:16.067875 384:40 
-0.06640625 1:40 2:40 3:5.04325 4:3.83925 5:40 6:2.80425 7:8.91925 8:40 9:40 10:40 11:3.66525 12:4.12725 13:40 14:2.82925 15:-5.77475 16:-6.78975 17:3.57925 18:12.12525 19:-0.33675 20:-6.41875 21:-1.37575 22:-0.30475 23:-0.31675 24:40 25:7.04025 26:40 27:-7.31375 28:-0.32775 29:-0.92475 30:1.02325 31:-0.84775 32:4.13425 33:0.16225 34:4.02725 35:4.00325 36:3.85625 37:-1.16175 38:40 39:4.85925 40:0.46225 41:-0.66075 42:40 43:40 44:40 45:9.32625 46:40 47:-3.39675 48:-1.74675 49:40 50:40 51:40 52:40 53:5.92625 54:40 55:3.75825 56:4.55025 57:40 58:-6.99675 59:40 60:-1.23275 61:40 62:-0.48175 63:40 64:40 65:1.76425 66:40 67:-7.30675 68:40 69:40 70:40 71:40 72:40 73:1.85125 74:2.26425 75:-0.27875 76:-1.73575 77:40 78:0.52725 79:40 80:40 81:40 82:40 83:40 84:1.17025 85:-1.62175 86:0.88925 87:-0.23975 88:7.16025 89:0.33225 90:4.13325 91:40 92:3.80025 93:-8.39875 94:40 95:-5.01175 96:40 97:2.18425 98:3.62425 99:40 100:-4.06575 101:5.56625 102:40 103:40 104:5.37625 105:40 106:40 107:40 108:40 109:40 110:-0.25575 111:-4.23875 112:40 113:40 114:40 115:-9.87475 116:-0.30575 117:40 118:40 119:1.18425 120:3.12525 121:0.71225 122:7.16925 123:0.90925 124:5.02925 125:40 126:-1.19675 127:40 128:40 129:11.00525 130:3.41625 131:40 132:40 133:40 134:40 135:40 136:5.73825 137:8.68825 138:40 139:40 140:40 141:40 142:40 143:40 144:1.06125 145:-5.37975 146:-10.04075 147:9.51425 148:40 149:40 150:40 151:40 152:3.59125 153:40 154:40 155:-2.35275 156:40 157:40 158:-4.83375 159:7.49025 160:1.63625 161:40 162:40 163:3.54525 164:40 165:8.35425 166:40 167:0.66725 168:6.07925 169:2.77625 170:40 171:40 172:-1.56775 173:40 174:1.80125 175:-1.40375 176:0.53525 177:-2.61075 178:40 179:-0.70075 180:40 181:40 182:40 183:40 184:40 185:40 186:40 187:40 188:3.19225 189:40 190:40 191:40 192:0.48825 193:-0.22175 194:40 195:-0.59375 196:40 197:40 198:40 199:40 200:40 201:3.68425 202:40 203:40 204:3.69225 205:2.45625 206:40 207:2.07225 208:40 209:3.67325 210:40 211:3.48025 212:3.43025 213:40 214:40 215:40 216:40 217:40 218:-4.32875 219:40 220:40 221:-0.93175 222:40 223:40 224:-4.24375 225:-7.36675 226:40 227:40 228:5.99025 229:-1.00975 230:40 231:3.85025 232:40 233:5.24125 234:40 235:40 236:7.20425 237:4.75925 238:4.96925 239:40 240:40 241:40 242:40 243:40 244:5.28625 245:40 246:40 247:40 248:40 249:40 250:40 251:40 252:40 253:40 254:40 255:40 256:40 257:40 258:40 259:40 260:40 261:40 262:40 263:40 264:40 265:40 266:40 267:40 268:40 269:10.05025 270:40 271:40 272:40 273:40 274:40 275:40 276:40 277:40 278:40 279:40 280:40 281:40 282:40 283:40 284:40 285:40 286:40 287:1.94925 288:1.01125 289:40 290:40 291:40 292:40 293:40 294:9.03025 295:7.08225 296:40 297:40 298:40 299:40 300:40 301:40 302:40 303:40 304:40 305:40 306:40 307:40 308:-4.76875 309:40 310:40 311:40 312:40 313:40 314:40 315:-0.31075 316:40 317:2.82625 318:40 319:40 320:6.95925 321:12.58425 322:40 323:5.73525 324:40 325:3.47225 326:40 327:5.95325 328:40 329:40 330:0.53025 331:40 332:40 333:40 334:7.44425 335:0.76825 336:40 337:40 338:40 339:40 340:-0.14875 341:40 342:40 343:40 344:40 345:40 346:40 347:40 348:40 349:40 350:1.49325 351:40 352:2.35225 353:40 354:40 355:40 356:40 357:40 358:40 359:40 360:40 361:40 362:40 363:2.15825 364:40 365:40 366:40 367:40 368:40 369:40 370:40 371:40 372:-0.96975 373:40 374:40 375:40 376:40 377:40 378:40 379:7.16625 380:40 381:40 382:40 384:40 
-0.06640625 1:40 2:40 3:3.893875 4:8.869875 5:40 6:9.872875 7:40 8:40 9:40 10:40 11:5.061875 12:5.126875 13:40 14:7.885875 15:-4.242125 16:-5.119125 17:2.198875 18:12.866875 19:1.215875 20:-5.856125 21:0.333875 22:-1.136125 23:3.028875 24:40 25:40 26:40 27:-5.137125 28:0.402875 29:3.275875 30:5.242875 31:1.153875 32:40 33:-0.657125 34:40 35:5.060875 36:5.062875 37:-0.831125 38:40 39:5.335875 40:3.223875 41:0.795875 42:40 43:40 44:40 45:40 46:40 47:-1.414125 48:-0.502125 49:40 50:40 51:40 52:40 53:40 54:40 55:40 56:1.040875 57:40 58:-5.404125 59:40 60:0.060875 61:40 62:4.921875 63:40 64:40 65:1.134875 66:40 67:-5.667125 68:40 69:40 70:6.214875 71:40 72:40 73:5.115875 74:40 75:7.172875 76:1.146875 77:40 78:0.289875 79:40 80:40 81:40 82:40 83:40 84:0.118875 85:-0.458125 86:2.056875 87:0.570875 88:40 89:0.050875 90:40 91:3.133875 92:8.762875 93:-6.975125 94:40 95:-2.986125 96:40 97:40 98:40 99:40 100:-5.546125 101:40 102:40 103:40 104:7.885875 105:40 106:40 107:3.163875 108:40 109:40 110:-0.732125 111:-2.184125 112:40 113:40 114:40 115:-8.488125 116:1.581875 117:40 118:7.675875 119:1.941875 120:9.778875 121:2.520875 122:40 123:0.476875 124:40 125:40 126:0.490875 127:40 128:7.027875 129:40 130:40 131:40 132:40 133:40 134:40 135:40 136:2.241875 137:9.410875 138:5.765875 139:40 140:40 141:40 142:9.922875 143:40 144:0.158875 145:-6.340125 146:-6.413125 147:40 148:40 149:40 150:40 151:40 152:8.723875 153:40 154:12.095875 155:-1.421125 156:40 157:10.728875 158:-6.115125 159:11.260875 160:1.288875 161:40 162:40 163:1.423875 164:40 165:5.861875 166:40 167:-0.645125 168:40 169:2.923875 170:40 171:40 172:-0.874125 173:40 174:2.247875 175:1.896875 176:3.142875 177:-3.176125 178:40 179:-0.452125 180:40 181:40 182:40 183:40 184:40 185:40 186:40 187:7.062875 188:1.823875 189:40 190:40 191:40 192:2.896875 193:1.539875 194:40 195:2.562875 196:40 197:40 198:40 199:40 200:40 201:8.421875 202:40 203:40 204:9.130875 205:4.654875 206:40 207:40 208:40 209:-0.597125 210:40 211:13.352875 212:0.304875 213:40 214:40 215:40 216:40 217:40 218:-1.997125 219:40 220:40 221:1.754875 222:40 223:40 224:-3.278125 225:-8.686125 226:40 227:40 228:40 229:0.472875 230:40 231:40 232:40 233:40 234:40 235:40 236:2.168875 237:5.547875 238:40 239:40 240:40 241:40 242:40 243:40 244:40 245:40 246:40 247:40 248:40 249:40 250:40 251:40 252:40 253:40 254:40 255:40 256:40 257:40 258:40 259:40 260:40 261:40 262:40 263:40 264:40 265:40 266:40 267:40 268:40 269:40 270:40 271:40 272:6.512875 273:40 274:40 275:40 276:40 277:40 278:40 279:40 280:40 281:40 282:6.329875 283:40 284:40 285:40 286:40 287:40 288:5.998875 289:-0.771125 290:40 291:40 292:40 293:40 294:40 295:5.125875 296:40 297:40 298:40 299:40 300:40 301:40 302:40 303:40 304:40 305:40 306:40 307:40 308:-1.760125 309:40 310:40 311:40 312:40 313:40 314:40 315:3.580875 316:40 317:40 318:40 319:40 320:40 321:7.908875 322:40 323:40 324:5.857875 325:4.828875 326:40 327:6.167875 328:40 329:40 330:2.858875 331:40 332:40 333:40 334:40 335:0.192875 336:40 337:40 338:40 339:40 340:-0.377125 341:40 342:40 343:40 344:40 345:40 346:40 347:40 348:40 349:40 350:11.114875 351:4.676875 352:6.536875 353:40 354:40 355:40 356:40 357:40 358:40 359:40 360:40 361:40 362:6.195875 363:7.265875 364:40 365:40 366:40 367:40 368:10.747875 369:40 370:40 371:40 372:1.006875 373:40 374:40 375:40 376:40 377:40 378:40 379:40 380:40 381:40 382:40 384:40 
-0.06640625 1:12.866 2:5.558 3:5.903 4:9.244 5:40 6:3.607 7:11.775 8:40 9:4.371 10:40 11:5.91 12:5.588 13:40 14:5.004 15:-8.07 16:-6.575 17:2.949 18:16.603 19:-1.948 20:-7.919 21:-6.379 22:-2.52 23:-1.99 24:4.719 25:14.595 26:40 27:-4.654 28:-4.661 29:1.73 30:0.097 31:-1.291 32:0.351 33:1.917 34:4.093 35:6.205 36:5.351 37:0.56 38:11.289 39:4.287 40:0.454 41:-0.476 42:8.946 43:15.18 44:40 45:-1.29 46:40 47:-6.138 48:-4.141 49:7.151 50:40 51:40 52:9.016 53:4.537 54:4.717 55:0.365 56:12.557 57:40 58:-6.983 59:40 60:-3.223 61:40 62:-2.937 63:6.703 64:40 65:6.146 66:1.667 67:-5.051 68:2.811 69:40 70:3.778 71:40 72:40 73:0.029 74:2.695 75:0.661 76:-1.96 77:5.485 78:10.16 79:11.924 80:40 81:40 82:40 83:6.736 84:6.415 85:-0.079 86:2.401 87:0.232 88:10.09 89:-0.802 90:6.434 91:2.968 92:7.357 93:-4.621 94:40 95:-1.359 96:40 97:1.544 98:4.313 99:10.986 100:-4.597 101:0.23 102:40 103:40 104:7.673 105:40 106:13.521 107:4.788 108:13.661 109:-1.767 110:-1.036 111:-1.543 112:40 113:40 114:40 115:-4.061 116:-0.527 117:15.34 118:2.949 119:1.365 120:-0.016 121:1.125 122:40 123:3.109 124:40 125:6.378 126:-0.091 127:14.791 128:14.395 129:10.189 130:11.504 131:11.297 132:2.741 133:8.815 134:3.025 135:40 136:2.995 137:7.4 138:7.9 139:40 140:40 141:40 142:3.954 143:7.095 144:-1.098 145:-4.067 146:-8.532 147:2.85 148:40 149:7.054 150:40 151:40 152:4.014 153:8.722 154:5.941 155:-5.614 156:7.406 157:8.319 158:-5.378 159:9.043 160:1.146 161:1.5 162:40 163:0.215 164:40 165:14.067 166:40 167:1.121 168:40 169:3.384 170:40 171:40 172:4.094 173:13.206 174:4.564 175:2.712 176:-0.762 177:-0.211 178:14.571 179:1.417 180:10.58 181:9.342 182:40 183:5.345 184:7.825 185:6.188 186:40 187:40 188:7.33 189:40 190:8.668 191:16.166 192:2.332 193:3.836 194:1.223 195:4.193 196:40 197:40 198:40 199:40 200:13.939 201:8.586 202:40 203:10.612 204:6.907 205:7.917 206:13.444 207:3.37 208:40 209:4.813 210:40 211:40 212:9.204 213:40 214:40 215:40 216:40 217:40 218:-8.63 219:9.17 220:40 221:2.688 222:40 223:10.769 224:-3.404 225:-6.175 226:40 227:40 228:5.832 229:1.952 230:40 231:10.295 232:40 233:11.798 234:40 235:40 236:8.105 237:15.233 238:10.721 239:7.52 240:40 241:40 242:12.049 243:7.028 244:40 245:13.576 246:7.922 247:12.455 248:40 249:40 250:5.747 251:40 252:40 253:40 254:40 255:40 256:40 257:40 258:40 259:40 260:40 261:40 262:40 263:40 264:40 265:40 266:40 267:10.379 268:40 269:40 270:40 271:40 272:3.478 273:40 274:15.929 275:40 276:40 277:40 278:40 279:40 280:40 281:40 282:6.487 283:40 284:40 285:40 286:40 287:4.264 288:-0.276 289:7.529 290:40 291:40 292:40 293:40 294:7.452 295:12.859 296:40 297:40 298:40 299:16.291 300:40 301:40 302:40 303:10.678 304:40 305:40 306:40 307:40 308:0.536 309:5.85 310:40 311:7.458 312:40 313:40 314:40 315:-0.151 316:8.315 317:5.528 318:40 319:40 320:40 321:-2.589 322:40 323:9.515 324:40 325:9.57 326:6.883 327:12.721 328:40 329:40 330:2.795 331:40 332:40 333:40 334:40 335:-1.718 336:5.903 337:40 338:40 339:40 340:2.532 341:40 342:40 343:40 344:40 345:40 346:40 347:40 348:40 349:40 350:-1.081 351:11.44 352:6.109 353:40 354:40 355:7.738 356:40 357:40 358:40 359:40 360:16.586 361:3.858 362:14.572 363:9.947 364:14.559 365:40 366:40 367:40 368:11.901 369:40 370:40 371:40 372:3.784 373:40 374:40 375:40 376:40 377:40 378:40 379:4.533 380:40 381:40 382:40 384:11.561 
-0.06640625 1:40 2:5.18975 3:5.82575 4:12.57675 5:40 6:6.07375 7:40 8:40 9:4.98475 10:40 11:7.16675 12:7.07275 13:13.30675 14:4.55875 15:-6.02125 16:-5.92925 17:3.59375 18:16.22975 19:-1.28825 20:-6.86725 21:-3.86625 22:-0.90925 23:-0.72725 24:13.78275 25:10.25875 26:40 27:-5.07125 28:-2.29725 29:2.11575 30:1.28675 31:-0.85025 32:1.45875 33:0.89275 34:5.59975 35:7.15775 36:7.24475 37:-0.37525 38:40 39:4.00775 40:1.62175 41:0.22975 42:5.83875 43:8.31375 44:14.13875 45:6.66175 46:40 47:-4.14425 48:-2.65625 49:11.22475 50:40 51:40 52:14.88675 53:6.64475 54:8.03575 55:2.06575 56:11.00975 57:40 58:-6.12025 59:40 60:-1.23725 61:40 62:1.18475 63:40 64:40 65:7.71175 66:3.59075 67:-4.72225 68:1.54275 69:40 70:4.51575 71:40 72:40 73:0.28075 74:3.58675 75:1.30875 76:1.78175 77:9.58275 78:3.30175 79:8.71775 80:40 81:15.03575 82:40 83:7.97075 84:5.62175 85:0.02875 86:2.66275 87:0.25175 88:8.17175 89:1.26775 90:5.19475 91:1.82775 92:6.23775 93:-5.72725 94:40 95:-0.86025 96:40 97:1.78975 98:3.34775 99:40 100:-3.46825 101:0.63475 102:40 103:40 104:9.52875 105:40 106:11.01375 107:7.81175 108:12.76975 109:4.09075 110:-0.25025 111:-1.45625 112:40 113:40 114:40 115:-4.61025 116:0.47375 117:40 118:4.40775 119:2.77075 120:6.70375 121:1.88575 122:40 123:2.46575 124:40 125:6.43975 126:-0.26925 127:10.26975 128:17.85075 129:9.54475 130:8.01275 131:10.16275 132:3.88775 133:8.51475 134:7.21675 135:40 136:4.71075 137:5.55675 138:17.25075 139:9.16075 140:40 141:40 142:5.48675 143:40 144:-0.31125 145:-4.14325 146:-8.80525 147:4.93575 148:40 149:8.25575 150:40 151:40 152:4.72475 153:7.79475 154:40 155:-4.46425 156:40 157:40 158:-5.27625 159:4.35575 160:2.31075 161:2.44475 162:40 163:-0.01225 164:9.57175 165:10.12875 166:40 167:2.04075 168:40 169:1.78575 170:6.62175 171:10.83775 172:2.36075 173:40 174:3.69875 175:3.34675 176:0.64075 177:-0.71825 178:40 179:0.99875 180:4.17875 181:7.09075 182:40 183:5.14575 184:8.90275 185:40 186:10.11875 187:40 188:4.09975 189:40 190:40 191:40 192:4.33575 193:5.66075 194:2.68875 195:0.55475 196:40 197:40 198:7.11875 199:40 200:7.79575 201:2.16975 202:40 203:14.22375 204:2.92375 205:6.15975 206:6.53875 207:2.98875 208:40 209:2.54475 210:40 211:12.21375 212:2.68775 213:40 214:40 215:40 216:40 217:40 218:-5.62825 219:10.17575 220:40 221:4.00975 222:40 223:40 224:1.34075 225:-5.73125 226:7.87875 227:40 228:9.54675 229:1.37575 230:15.46975 231:5.75375 232:40 233:8.93975 234:40 235:40 236:8.29575 237:6.72575 238:7.07875 239:3.75775 240:40 241:40 242:13.32075 243:12.08575 244:40 245:40 246:7.01175 247:16.51575 248:40 249:40 250:40 251:40 252:40 253:40 254:40 255:40 256:14.74075 257:40 258:40 259:40 260:40 261:40 262:40 263:14.59475 264:40 265:40 266:40 267:40 268:40 269:40 270:40 271:40 272:40 273:40 274:40 275:40 276:40 277:40 278:40 279:40 280:40 281:40 282:15.49275 283:40 284:40 285:40 286:40 287:5.60775 288:2.61975 289:1.70675 290:40 291:40 292:40 293:40 294:9.98075 295:8.07075 296:40 297:40 298:40 299:16.46075 300:40 301:40 302:40 303:40 304:40 305:40 306:40 307:40 308:0.28375 309:16.79575 310:40 311:6.80575 312:40 313:40 314:40 315:0.92375 316:7.54975 317:4.21875 318:40 319:40 320:40 321:13.62875 322:40 323:8.74975 324:40 325:9.63375 326:15.13975 327:7.74175 328:8.16875 329:40 330:3.57175 331:40 332:8.26575 333:13.26675 334:11.12275 335:-0.26625 336:6.64575 337:40 338:40 339:40 340:2.53375 341:40 342:40 343:40 344:40 345:9.99175 346:40 347:40 348:40 349:40 350:3.56875 351:7.92975 352:4.06175 353:40 354:40 355:5.53875 356:40 357:40 358:40 359:40 360:40 361:40 362:8.87875 363:5.88875 364:40 365:40 366:40 367:40 368:40 369:40 370:40 371:40 372:0.03375 373:40 374:40 375:40 376:40 377:40 378:40 379:6.15075 380:40 381:40 382:40 384:40 
-0.06640625 1:40 2:5.00625 3:7.91325 4:9.40325 5:40 6:4.87225 7:8.59625 8:40 9:40 10:40 11:6.28025 12:6.13825 13:40 14:10.77925 15:-5.63175 16:-6.61175 17:5.00625 18:40 19:-1.94575 20:-6.80375 21:-3.74175 22:-1.06975 23:-0.81475 24:40 25:40 26:40 27:-6.65575 28:-1.01775 29:0.02825 30:0.45225 31:-0.84975 32:0.23425 33:0.78325 34:6.50225 35:6.31225 36:6.15225 37:-0.22875 38:40 39:3.65425 40:3.21425 41:1.42525 42:8.23725 43:40 44:40 45:40 46:40 47:-3.31575 48:-1.63075 49:40 50:40 51:40 52:40 53:7.15625 54:40 55:1.95325 56:8.90825 57:40 58:-6.74475 59:40 60:-0.78475 61:40 62:0.84825 63:40 64:40 65:2.51725 66:40 67:-5.81775 68:2.21025 69:40 70:5.24525 71:40 72:40 73:1.70425 74:4.32425 75:-0.60875 76:-0.82075 77:40 78:0.61725 79:40 80:40 81:13.20225 82:40 83:8.85925 84:2.29025 85:-0.95975 86:1.40625 87:-1.02275 88:40 89:0.64725 90:4.76525 91:5.36725 92:6.55225 93:-8.39975 94:40 95:-3.79575 96:40 97:2.78325 98:3.63825 99:40 100:-3.56975 101:1.37425 102:40 103:40 104:10.17925 105:40 106:40 107:40 108:40 109:3.77225 110:0.18325 111:-4.12475 112:40 113:40 114:40 115:-8.40175 116:-0.17475 117:40 118:7.49325 119:3.11825 120:12.02225 121:0.05025 122:10.95225 123:-0.17475 124:40 125:40 126:-1.27975 127:40 128:11.06325 129:40 130:4.95525 131:40 132:3.86025 133:40 134:40 135:40 136:2.60425 137:11.20525 138:13.62125 139:40 140:40 141:40 142:10.45825 143:40 144:-0.60875 145:-5.94675 146:-10.36675 147:5.59025 148:40 149:9.03125 150:40 151:40 152:40 153:7.93225 154:40 155:-2.88475 156:40 157:40 158:-4.94175 159:9.72025 160:2.58525 161:2.05425 162:40 163:1.01925 164:12.91025 165:13.77725 166:40 167:2.47625 168:11.62825 169:0.49325 170:8.58625 171:40 172:-0.96875 173:40 174:2.01025 175:-0.17475 176:0.23825 177:-3.31375 178:10.28025 179:-0.19175 180:40 181:40 182:40 183:14.54625 184:40 185:40 186:40 187:40 188:2.35425 189:40 190:40 191:40 192:1.79325 193:3.32325 194:3.85625 195:-0.35075 196:40 197:40 198:40 199:40 200:40 201:6.10225 202:40 203:40 204:4.19325 205:8.82125 206:9.10325 207:3.95025 208:40 209:2.84725 210:8.97725 211:13.30825 212:2.91825 213:40 214:40 215:40 216:40 217:40 218:-4.40375 219:4.44525 220:40 221:0.84625 222:40 223:40 224:-2.86375 225:-7.11375 226:9.39625 227:40 228:12.04525 229:-0.93575 230:40 231:4.56025 232:40 233:40 234:40 235:40 236:8.11325 237:40 238:40 239:8.62225 240:40 241:40 242:40 243:40 244:40 245:40 246:6.48025 247:40 248:40 249:40 250:40 251:40 252:40 253:40 254:40 255:40 256:13.91725 257:40 258:40 259:40 260:40 261:40 262:40 263:40 264:40 265:40 266:40 267:40 268:40 269:40 270:40 271:40 272:40 273:40 274:40 275:40 276:40 277:40 278:40 279:40 280:40 281:40 282:40 283:40 284:40 285:40 286:40 287:3.69425 288:8.24025 289:1.98025 290:40 291:40 292:40 293:40 294:8.69125 295:8.99625 296:40 297:40 298:40 299:40 300:40 301:40 302:40 303:13.50425 304:40 305:40 306:40 307:40 308:-4.11275 309:40 310:40 311:40 312:40 313:40 314:40 315:-0.50275 316:40 317:5.71525 318:40 319:40 320:40 321:13.11025 322:40 323:6.72225 324:13.27425 325:3.36225 326:40 327:13.75725 328:40 329:40 330:1.33425 331:40 332:5.78225 333:40 334:10.04625 335:1.50525 336:9.70625 337:40 338:40 339:40 340:1.22525 341:40 342:40 343:40 344:40 345:6.05225 346:40 347:40 348:40 349:40 350:5.53325 351:40 352:2.39525 353:40 354:40 355:5.90725 356:40 357:7.68425 358:40 359:40 360:40 361:40 362:7.97625 363:11.16125 364:40 365:40 366:40 367:40 368:40 369:40 370:40 371:40 372:0.51025 373:40 374:40 375:40 376:40 377:40 378:40 379:40 380:40 381:40 382:40 384:40 
-0.06640625 1:40 2:9.877125 3:5.362125 4:11.040125 5:40 6:3.015125 7:9.923125 8:40 9:6.600125 10:40 11:9.040125 12:8.999125 13:10.604125 14:2.762125 15:-4.082875 16:-5.499875 17:3.110125 18:13.355125 19:-0.387875 20:-6.352875 21:-2.587875 22:0.411125 23:-0.672875 24:6.468125 25:10.885125 26:40 27:-5.542875 28:-1.388875 29:0.813125 30:2.202125 31:-0.639875 32:0.755125 33:-0.578875 34:4.320125 35:8.884125 36:8.712125 37:-0.294875 38:12.560125 39:5.061125 40:1.729125 41:1.026125 42:8.494125 43:12.618125 44:40 45:16.498125 46:40 47:-3.562875 48:-2.006875 49:40 50:40 51:40 52:40 53:5.780125 54:8.735125 55:2.880125 56:3.915125 57:40 58:-5.681875 59:40 60:-1.193875 61:40 62:0.033125 63:40 64:40 65:3.882125 66:5.440125 67:-4.918875 68:1.215125 69:40 70:4.091125 71:40 72:40 73:0.300125 74:2.700125 75:1.003125 76:0.006125 77:7.638125 78:1.979125 79:40 80:40 81:40 82:40 83:9.261125 84:5.044125 85:1.382125 86:3.675125 87:-0.246875 88:40 89:0.433125 90:4.184125 91:2.483125 92:4.343125 93:-7.026875 94:40 95:-2.274875 96:40 97:2.797125 98:4.268125 99:40 100:-2.262875 101:0.995125 102:40 103:40 104:6.786125 105:14.774125 106:40 107:8.539125 108:40 109:4.616125 110:-0.325875 111:-1.627875 112:40 113:40 114:16.642125 115:-5.869875 116:1.204125 117:40 118:6.169125 119:2.484125 120:7.420125 121:4.165125 122:40 123:1.176125 124:40 125:5.478125 126:-0.826875 127:8.860125 128:40 129:15.788125 130:8.522125 131:12.537125 132:6.044125 133:8.044125 134:8.699125 135:40 136:3.778125 137:9.780125 138:9.919125 139:40 140:40 141:40 142:7.677125 143:40 144:-1.494875 145:-4.696875 146:-9.430875 147:2.993125 148:40 149:9.425125 150:40 151:40 152:3.330125 153:6.619125 154:16.029125 155:-3.418875 156:40 157:40 158:-4.370875 159:5.911125 160:1.897125 161:1.611125 162:40 163:0.221125 164:7.255125 165:9.542125 166:40 167:0.199125 168:16.956125 169:2.676125 170:5.649125 171:10.104125 172:1.284125 173:40 174:3.099125 175:3.483125 176:1.499125 177:-0.482875 178:17.184125 179:0.930125 180:5.399125 181:7.033125 182:8.773125 183:9.591125 184:9.860125 185:40 186:40 187:13.836125 188:2.376125 189:15.929125 190:40 191:40 192:2.473125 193:3.765125 194:4.393125 195:0.660125 196:17.186125 197:40 198:6.651125 199:40 200:40 201:2.363125 202:40 203:10.135125 204:4.528125 205:5.222125 206:10.279125 207:3.004125 208:40 209:1.724125 210:10.420125 211:7.596125 212:2.572125 213:10.834125 214:40 215:40 216:40 217:40 218:-4.858875 219:6.845125 220:40 221:3.401125 222:40 223:40 224:0.377125 225:-6.908875 226:6.997125 227:15.878125 228:10.249125 229:1.852125 230:8.934125 231:6.557125 232:40 233:13.417125 234:40 235:40 236:4.226125 237:6.281125 238:4.749125 239:3.484125 240:40 241:40 242:40 243:40 244:40 245:12.541125 246:8.320125 247:40 248:40 249:40 250:15.519125 251:40 252:40 253:40 254:40 255:40 256:40 257:40 258:40 259:40 260:40 261:40 262:40 263:40 264:40 265:13.063125 266:40 267:40 268:40 269:40 270:40 271:40 272:40 273:40 274:40 275:40 276:40 277:40 278:40 279:40 280:40 281:40 282:13.885125 283:40 284:14.890125 285:40 286:40 287:5.389125 288:2.602125 289:1.888125 290:40 291:40 292:12.457125 293:40 294:7.251125 295:13.455125 296:40 297:40 298:40 299:40 300:40 301:40 302:40 303:10.879125 304:40 305:40 306:40 307:40 308:-1.046875 309:7.668125 310:40 311:8.198125 312:40 313:40 314:40 315:1.348125 316:9.664125 317:4.659125 318:40 319:40 320:40 321:10.635125 322:40 323:10.227125 324:40 325:5.523125 326:12.895125 327:9.337125 328:40 329:40 330:1.530125 331:40 332:9.167125 333:10.296125 334:10.003125 335:0.670125 336:4.648125 337:40 338:40 339:40 340:0.282125 341:11.831125 342:40 343:40 344:40 345:9.619125 346:40 347:40 348:40 349:40 350:2.317125 351:40 352:4.958125 353:40 354:40 355:7.565125 356:40 357:40 358:40 359:40 360:40 361:40 362:15.681125 363:14.123125 364:40 365:40 366:40 367:40 368:40 369:40 370:40 371:40 372:0.947125 373:40 374:40 375:40 376:40 377:40 378:40 379:7.558125 380:40 381:16.985125 382:40 384:13.860125 
-0.06640625 1:1.443 2:3.975 3:3.259 4:1.515 5:40 6:2.548 7:13.787 8:7.585 9:3.952 10:6.297 11:4.002 12:4.184 13:3.36 14:1.154 15:-5.385 16:-4.655 17:2.793 18:4.41 19:-0.937 20:-6.306 21:-4.272 22:0.458 23:-3.673 24:-0.879 25:2.186 26:40 27:-4.83 28:-2.518 29:-0.144 30:2.221 31:-1.055 32:0.003 33:0.407 34:2.251 35:4.113 36:4.132 37:0.127 38:6.286 39:4.797 40:-1.938 41:-2.205 42:4.391 43:8.915 44:40 45:3.651 46:40 47:-5.128 48:-1.916 49:5.792 50:40 51:40 52:5.758 53:-0.023 54:4.207 55:2.664 56:-0.044 57:40 58:-4.889 59:40 60:-1.723 61:5.275 62:-4.012 63:7.719 64:10.028 65:4.78 66:0.425 67:-4.914 68:0.178 69:10.064 70:3.298 71:10.677 72:40 73:-0.631 74:0.822 75:2.026 76:2.909 77:7.506 78:3.075 79:6.162 80:9.641 81:11.898 82:4.007 83:9.013 84:2.26 85:0.215 86:2.909 87:1.163 88:6.181 89:-2.805 90:3.282 91:3.208 92:1.224 93:-4.779 94:7.341 95:-1.1 96:40 97:0.694 98:3.983 99:40 100:-4.282 101:1.536 102:40 103:7.217 104:1.704 105:7.12 106:12.876 107:6.949 108:8.167 109:5.737 110:0.085 111:1.516 112:40 113:40 114:10.688 115:-4.821 116:-0.012 117:11.433 118:1.859 119:-0.868 120:4.285 121:5.292 122:7.508 123:-1.306 124:40 125:4.546 126:-0.636 127:8.056 128:3.866 129:6.006 130:3.9 131:9.172 132:4.96 133:5.02 134:4.948 135:40 136:-0.585 137:4.666 138:1.851 139:40 140:40 141:40 142:5.176 143:11.205 144:-1.458 145:-1.716 146:-8.575 147:4.198 148:40 149:4.871 150:40 151:40 152:2.828 153:7.507 154:13.543 155:-5.971 156:16.375 157:4.986 158:-3.423 159:4.634 160:2.361 161:0.943 162:11.053 163:-2.012 164:8.159 165:4.471 166:11.265 167:-0.51 168:9.402 169:3.564 170:4.973 171:7.823 172:3.845 173:3.12 174:5.192 175:3.486 176:-1.68 177:-2.485 178:6.566 179:1.95 180:4.758 181:8.666 182:8.116 183:4.901 184:4.029 185:1.269 186:15.513 187:11.254 188:0.864 189:40 190:5.952 191:7.303 192:3.112 193:3.014 194:0.468 195:2.26 196:40 197:9.901 198:5.151 199:40 200:9.303 201:1.084 202:8.137 203:8.281 204:4.938 205:6.119 206:9.912 207:1.779 208:10.229 209:-1.693 210:10.862 211:9.163 212:4.81 213:12.933 214:40 215:11.231 216:40 217:40 218:-7.133 219:9.63 220:40 221:6.424 222:7.475 223:8.756 224:0.652 225:-5.394 226:4.725 227:40 228:5.575 229:0.079 230:9.106 231:6.732 232:40 233:9.06 234:40 235:40 236:6.443 237:7.993 238:7.097 239:3.996 240:11.907 241:40 242:8.843 243:10.208 244:7.765 245:7.182 246:8.259 247:40 248:40 249:40 250:4.098 251:40 252:40 253:40 254:40 255:40 256:40 257:40 258:40 259:40 260:40 261:40 262:40 263:40 264:11.137 265:40 266:40 267:10.236 268:40 269:40 270:40 271:40 272:0.173 273:10.453 274:40 275:10.116 276:14.115 277:40 278:40 279:40 280:16.426 281:40 282:13.776 283:40 284:15.056 285:40 286:40 287:3.268 288:1.125 289:4.8 290:40 291:11.221 292:40 293:9.436 294:7.68 295:12.673 296:40 297:40 298:40 299:40 300:11.512 301:40 302:9.406 303:6.501 304:40 305:40 306:40 307:12.504 308:-0.196 309:6.585 310:6.948 311:5.923 312:40 313:40 314:12.123 315:3.479 316:8.187 317:5.094 318:40 319:40 320:8.401 321:-4.371 322:40 323:8.001 324:40 325:13.048 326:5.019 327:7.623 328:6.135 329:12.052 330:1.122 331:14.677 332:10.671 333:6.783 334:11.867 335:0.651 336:5.874 337:40 338:40 339:9.372 340:1.8 341:8.342 342:40 343:40 344:13.637 345:4.298 346:40 347:40 348:40 349:40 350:-1.915 351:5.105 352:5.139 353:40 354:40 355:6.551 356:40 357:10.915 358:40 359:40 360:12.686 361:-1.771 362:8.09 363:8.004 364:40 365:40 366:40 367:40 368:6.664 369:40 370:40 371:40 372:1.429 373:40 374:40 375:40 376:40 377:40 378:40 379:5.22 380:40 381:13.624 382:9.526 384:8.085 
-0.0673828125 1:40 2:40 3:6.314 4:9.763 5:40 6:3.29 7:40 8:40 9:40 10:40 11:4.609 12:4.269 13:40 14:4.806 15:-6.4 16:-5.006 17:1.909 18:12.017 19:-0.963 20:-7.11 21:0.182 22:-1.181 23:1.52 24:40 25:40 26:40 27:-5.924 28:1.608 29:2.547 30:1.353 31:0.975 32:40 33:-0.749 34:2.559 35:4.337 36:4.305 37:-0.601 38:40 39:5.612 40:0.765 41:0.126 42:40 43:40 44:40 45:40 46:40 47:-2.378 48:-1.919 49:40 50:40 51:40 52:40 53:40 54:40 55:40 56:2.001 57:40 58:-5.263 59:40 60:-1.285 61:40 62:0.226 63:40 64:40 65:0.783 66:40 67:-6.65 68:40 69:40 70:11.47 71:40 72:40 73:40 74:5.985 75:40 76:0.152 77:40 78:2.359 79:40 80:40 81:12.889 82:40 83:40 84:2.125 85:-0.145 86:0.335 87:0.768 88:40 89:0.945 90:3.418 91:40 92:6.643 93:-7.205 94:40 95:-3.511 96:40 97:3.884 98:40 99:40 100:-5.275 101:40 102:40 103:40 104:40 105:40 106:40 107:4.708 108:40 109:2.881 110:-0.786 111:-2.572 112:40 113:40 114:40 115:-8.313 116:0.329 117:40 118:40 119:-0.189 120:9.548 121:2.25 122:40 123:-0.552 124:40 125:40 126:-0.088 127:40 128:7.121 129:40 130:3.506 131:40 132:40 133:40 134:40 135:40 136:4.282 137:9.566 138:40 139:40 140:40 141:40 142:40 143:40 144:4.092 145:-7.677 146:-6.404 147:40 148:40 149:10.358 150:40 151:40 152:40 153:40 154:40 155:-2.207 156:40 157:40 158:-6.046 159:11.879 160:0.261 161:40 162:40 163:1.463 164:40 165:11.34 166:40 167:-0.025 168:40 169:2.362 170:40 171:40 172:0.242 173:40 174:8.954 175:1.058 176:5.451 177:-2.866 178:40 179:0.325 180:40 181:40 182:40 183:40 184:40 185:40 186:40 187:40 188:3.489 189:40 190:40 191:40 192:1.863 193:1.571 194:2.903 195:1.153 196:40 197:40 198:40 199:40 200:40 201:40 202:40 203:40 204:3.179 205:40 206:40 207:3.272 208:40 209:-0.202 210:40 211:40 212:1.844 213:40 214:40 215:40 216:40 217:40 218:-3.375 219:2.923 220:40 221:-0.629 222:40 223:40 224:-3.733 225:-8.353 226:40 227:40 228:8.872 229:-0.787 230:40 231:40 232:40 233:7.598 234:40 235:40 236:3.412 237:40 238:40 239:40 240:40 241:40 242:40 243:40 244:40 245:40 246:40 247:40 248:40 249:40 250:40 251:40 252:40 253:40 254:40 255:40 256:40 257:40 258:40 259:40 260:40 261:40 262:40 263:40 264:40 265:40 266:40 267:40 268:40 269:40 270:40 271:40 272:8.858 273:40 274:40 275:40 276:40 277:40 278:40 279:40 280:40 281:40 282:7.419 283:40 284:40 285:40 286:40 287:2.075 288:3.664 289:1.081 290:40 291:40 292:40 293:40 294:2.098 295:6.231 296:40 297:40 298:40 299:40 300:40 301:40 302:40 303:40 304:40 305:40 306:40 307:40 308:-2.436 309:40 310:40 311:40 312:40 313:40 314:40 315:2.965 316:40 317:40 318:40 319:40 320:40 321:9.156 322:40 323:40 324:40 325:6.021 326:40 327:6.807 328:40 329:40 330:2.737 331:40 332:40 333:40 334:40 335:0.138 336:40 337:40 338:40 339:40 340:-0.212 341:40 342:40 343:40 344:40 345:40 346:40 347:40 348:40 349:40 350:1.675 351:40 352:3.136 353:40 354:40 355:40 356:40 357:40 358:40 359:40 360:40 361:40 362:12.363 363:40 364:40 365:40 366:40 367:40 368:40 369:40 370:40 371:40 372:1.938 373:40 374:40 375:40 376:40 377:40 378:40 379:3.1 380:40 381:40 382:9.829 384:40 
-0.0673828125 1:10.843625 2:5.418625 3:4.794625 4:6.617625 5:40 6:5.226625 7:12.958625 8:40 9:3.812625 10:11.197625 11:7.681625 12:7.567625 13:12.054625 14:2.283625 15:-5.790375 16:-5.768375 17:3.102625 18:40 19:-1.204375 20:-7.020375 21:-5.282375 22:-1.213375 23:-1.636375 24:4.383625 25:14.064625 26:40 27:-5.462375 28:-3.391375 29:1.433625 30:2.625625 31:-3.078375 32:-0.775375 33:1.092625 34:3.820625 35:7.698625 36:7.821625 37:0.133625 38:9.581625 39:4.304625 40:-0.661375 41:-1.021375 42:9.902625 43:40 44:40 45:0.027625 46:40 47:-5.457375 48:-3.024375 49:9.962625 50:40 51:40 52:10.917625 53:4.582625 54:6.198625 55:2.389625 56:12.087625 57:40 58:-5.966375 59:40 60:-2.132375 61:40 62:-1.020375 63:40 64:40 65:9.841625 66:2.650625 67:-5.088375 68:0.922625 69:40 70:3.726625 71:40 72:40 73:-1.624375 74:1.140625 75:0.451625 76:2.574625 77:12.864625 78:5.346625 79:11.180625 80:40 81:40 82:40 83:7.462625 84:6.547625 85:-0.304375 86:4.359625 87:1.485625 88:40 89:-1.419375 90:4.751625 91:2.271625 92:6.482625 93:-5.755375 94:13.921625 95:-0.966375 96:40 97:1.148625 98:2.874625 99:40 100:-3.833375 101:-0.476375 102:40 103:40 104:7.068625 105:40 106:40 107:8.490625 108:40 109:3.429625 110:-0.236375 111:-0.254375 112:40 113:40 114:40 115:-3.759375 116:1.706625 117:15.639625 118:3.384625 119:2.385625 120:1.981625 121:2.912625 122:16.430625 123:2.913625 124:40 125:9.274625 126:-1.440375 127:15.934625 128:40 129:40 130:40 131:13.592625 132:4.611625 133:11.161625 134:9.616625 135:40 136:4.227625 137:7.320625 138:12.466625 139:40 140:40 141:40 142:5.626625 143:40 144:-2.456375 145:-3.386375 146:-9.674375 147:1.556625 148:40 149:8.756625 150:40 151:40 152:4.892625 153:6.197625 154:8.693625 155:-5.792375 156:12.890625 157:9.989625 158:-4.857375 159:5.821625 160:2.379625 161:0.961625 162:40 163:-1.328375 164:12.719625 165:11.827625 166:40 167:1.805625 168:40 169:1.296625 170:8.993625 171:40 172:3.426625 173:13.327625 174:2.491625 175:3.703625 176:0.411625 177:0.028625 178:40 179:1.320625 180:4.378625 181:8.081625 182:15.543625 183:8.461625 184:9.231625 185:8.254625 186:40 187:40 188:5.210625 189:40 190:10.314625 191:40 192:3.019625 193:5.937625 194:3.241625 195:1.178625 196:40 197:40 198:11.144625 199:40 200:40 201:2.162625 202:40 203:40 204:2.871625 205:8.446625 206:8.315625 207:3.013625 208:40 209:6.804625 210:8.961625 211:16.724625 212:4.791625 213:40 214:40 215:40 216:40 217:40 218:-6.506375 219:12.453625 220:40 221:6.968625 222:40 223:12.704625 224:-1.237375 225:-5.157375 226:14.569625 227:40 228:10.166625 229:4.684625 230:40 231:10.358625 232:40 233:40 234:40 235:40 236:7.727625 237:40 238:10.378625 239:6.735625 240:40 241:40 242:40 243:40 244:40 245:40 246:9.484625 247:40 248:40 249:40 250:6.377625 251:40 252:40 253:40 254:40 255:40 256:40 257:40 258:40 259:40 260:40 261:40 262:40 263:40 264:16.777625 265:40 266:40 267:40 268:40 269:40 270:40 271:40 272:40 273:40 274:40 275:40 276:40 277:40 278:40 279:40 280:40 281:40 282:9.434625 283:40 284:40 285:40 286:40 287:5.261625 288:0.599625 289:4.621625 290:40 291:40 292:40 293:40 294:11.758625 295:40 296:40 297:40 298:40 299:15.200625 300:11.283625 301:40 302:9.839625 303:10.469625 304:40 305:40 306:40 307:40 308:1.323625 309:7.713625 310:11.939625 311:8.742625 312:40 313:40 314:40 315:0.335625 316:7.891625 317:4.288625 318:40 319:40 320:8.560625 321:3.761625 322:40 323:11.156625 324:40 325:15.315625 326:7.484625 327:12.474625 328:5.637625 329:40 330:1.941625 331:40 332:40 333:12.556625 334:40 335:0.597625 336:6.290625 337:40 338:40 339:40 340:1.969625 341:40 342:40 343:40 344:40 345:12.984625 346:40 347:40 348:40 349:40 350:1.380625 351:40 352:10.524625 353:40 354:40 355:6.424625 356:40 357:40 358:40 359:40 360:40 361:7.562625 362:40 363:10.364625 364:40 365:40 366:40 367:40 368:9.640625 369:40 370:40 371:40 372:1.196625 373:40 374:40 375:40 376:40 377:40 378:40 379:7.193625 380:40 381:40 382:40 384:14.342625 
-0.0673828125 1:14.77625 2:1.76925 3:2.18725 4:4.31425 5:40 6:0.56825 7:7.29125 8:40 9:9.61425 10:40 11:8.31625 12:8.04325 13:40 14:8.45225 15:-4.81775 16:-7.90975 17:0.03325 18:11.57325 19:-3.96075 20:-8.88475 21:-7.46575 22:-3.79775 23:-1.86675 24:40 25:40 26:40 27:-4.94675 28:-3.62075 29:-2.97375 30:-3.30775 31:-0.73775 32:0.86225 33:3.50725 34:4.56925 35:7.97425 36:7.83425 37:1.03625 38:12.66025 39:3.90925 40:0.90025 41:-1.94975 42:14.01825 43:6.97625 44:40 45:5.74225 46:40 47:-4.19475 48:-4.44975 49:40 50:40 51:40 52:15.46725 53:5.58725 54:7.54725 55:-0.19475 56:1.46025 57:40 58:-7.95475 59:40 60:-3.06175 61:40 62:-1.77075 63:40 64:40 65:5.63025 66:2.75225 67:-5.48575 68:1.69525 69:40 70:4.64725 71:40 72:40 73:2.57025 74:3.46125 75:0.44325 76:2.88025 77:40 78:6.35725 79:13.07525 80:40 81:40 82:40 83:5.26425 84:3.56325 85:-0.76175 86:2.45225 87:-0.46275 88:40 89:-2.65475 90:3.44125 91:6.73525 92:1.30625 93:-6.34675 94:40 95:-2.85675 96:40 97:0.55325 98:3.10225 99:40 100:-4.00575 101:1.98925 102:40 103:40 104:9.85125 105:40 106:40 107:40 108:15.47625 109:3.87425 110:-1.23375 111:-2.32275 112:40 113:40 114:8.35425 115:-6.97375 116:-2.32875 117:40 118:9.66525 119:2.54125 120:3.22225 121:-0.69775 122:40 123:2.34625 124:15.46225 125:40 126:-0.54975 127:14.04225 128:40 129:40 130:6.79725 131:12.47925 132:7.03825 133:9.58325 134:40 135:40 136:3.82325 137:12.97325 138:11.94025 139:40 140:40 141:40 142:7.57425 143:40 144:1.83425 145:-3.74975 146:-8.74575 147:6.96925 148:40 149:4.53725 150:40 151:40 152:1.80625 153:4.15525 154:5.09725 155:-4.55675 156:40 157:40 158:-2.44275 159:9.79225 160:12.30525 161:1.93925 162:40 163:0.23825 164:8.09325 165:40 166:40 167:3.88825 168:40 169:0.43725 170:40 171:40 172:4.12325 173:40 174:1.49625 175:4.24825 176:-3.63775 177:1.25225 178:40 179:2.78625 180:10.46525 181:6.95825 182:13.44725 183:4.26025 184:5.63525 185:12.62325 186:40 187:40 188:10.15625 189:40 190:40 191:14.99525 192:-2.04575 193:0.55925 194:9.38725 195:0.29225 196:40 197:40 198:40 199:40 200:13.72225 201:9.12125 202:40 203:40 204:5.21925 205:6.41825 206:6.83425 207:3.15825 208:40 209:40 210:40 211:40 212:5.25425 213:40 214:40 215:40 216:40 217:40 218:-8.52275 219:10.91625 220:40 221:-0.94975 222:40 223:40 224:0.52925 225:-6.78075 226:11.00125 227:40 228:7.32525 229:0.58025 230:40 231:8.86825 232:40 233:14.88825 234:40 235:40 236:4.42625 237:40 238:3.82125 239:3.22725 240:40 241:40 242:40 243:40 244:40 245:15.22825 246:6.67225 247:40 248:40 249:40 250:40 251:40 252:40 253:40 254:40 255:40 256:40 257:40 258:40 259:40 260:40 261:40 262:40 263:16.36425 264:10.05425 265:14.64025 266:40 267:12.27225 268:40 269:40 270:40 271:40 272:12.14025 273:15.39125 274:40 275:40 276:40 277:40 278:40 279:40 280:10.85425 281:15.46325 282:5.76725 283:40 284:40 285:16.43625 286:40 287:3.43725 288:5.01725 289:4.01425 290:40 291:8.45825 292:40 293:40 294:40 295:13.95225 296:40 297:40 298:40 299:40 300:40 301:12.81725 302:40 303:11.07125 304:40 305:40 306:40 307:40 308:0.75325 309:6.80425 310:40 311:40 312:40 313:40 314:40 315:1.04025 316:11.89825 317:4.26025 318:16.70225 319:40 320:40 321:6.93825 322:40 323:7.24025 324:12.26125 325:6.31525 326:40 327:8.27225 328:7.61325 329:40 330:1.80625 331:40 332:40 333:40 334:6.32025 335:-1.77375 336:12.83325 337:40 338:40 339:12.39325 340:1.41925 341:40 342:40 343:40 344:40 345:40 346:40 347:40 348:40 349:40 350:5.29125 351:10.56325 352:2.95225 353:40 354:40 355:13.28525 356:40 357:40 358:40 359:40 360:40 361:40 362:40 363:15.63725 364:40 365:14.23125 366:40 367:40 368:40 369:40 370:40 371:40 372:6.18925 373:40 374:40 375:40 376:40 377:40 378:40 379:40 380:40 381:8.82825 382:40 384:40 
-0.06640625 1:3.15125 2:3.73125 3:3.57125 4:0.26625 5:40 6:2.17425 7:5.13825 8:10.66625 9:5.71725 10:14.45925 11:6.56025 12:6.22925 13:4.03925 14:0.02525 15:-4.42975 16:-4.09375 17:2.60425 18:4.54325 19:-0.86375 20:-6.35375 21:-3.71375 22:1.68025 23:-4.18075 24:-0.15375 25:2.76525 26:40 27:-5.64475 28:-1.20175 29:-0.56875 30:1.51725 31:-2.12275 32:-0.41575 33:0.42125 34:2.37325 35:6.08225 36:6.16225 37:0.47725 38:7.62825 39:4.93925 40:-1.66375 41:-1.94275 42:5.77425 43:8.51625 44:8.46625 45:3.63925 46:40 47:-3.97875 48:-1.28775 49:7.94625 50:40 51:7.79425 52:6.08925 53:1.86025 54:4.89025 55:2.93125 56:-0.11075 57:40 58:-4.48675 59:40 60:-1.54375 61:7.84025 62:-2.54875 63:10.92425 64:10.77725 65:6.56125 66:-0.49975 67:-5.18675 68:0.29425 69:40 70:2.81425 71:40 72:40 73:-1.59875 74:0.21325 75:2.32925 76:-0.69375 77:3.61225 78:2.57725 79:5.89325 80:40 81:11.40725 82:40 83:8.46025 84:1.61125 85:0.02025 86:3.95225 87:1.40525 88:6.90225 89:-2.07275 90:2.78625 91:1.05525 92:2.21325 93:-5.39775 94:8.56225 95:-1.46975 96:40 97:0.85425 98:2.95225 99:40 100:-2.02675 101:0.88525 102:40 103:6.21425 104:1.69225 105:8.06625 106:14.47525 107:8.38625 108:10.96625 109:5.84925 110:0.60525 111:1.70025 112:9.70525 113:40 114:14.05125 115:-5.10175 116:2.00725 117:12.88625 118:3.07025 119:1.64825 120:4.83725 121:5.82625 122:9.77225 123:-1.19175 124:40 125:4.10025 126:-2.73775 127:7.69025 128:5.52025 129:6.00725 130:4.86725 131:10.73425 132:6.10825 133:5.61625 134:9.20325 135:40 136:0.94025 137:2.37625 138:3.04025 139:40 140:10.78825 141:40 142:3.66825 143:12.25025 144:-3.07075 145:-1.63175 146:-9.64375 147:1.25825 148:40 149:6.17025 150:40 151:40 152:2.95225 153:7.01425 154:13.47025 155:-5.76475 156:6.59525 157:8.06025 158:-2.46875 159:3.64725 160:2.96625 161:-0.18475 162:12.62925 163:-1.94575 164:5.89525 165:4.37025 166:40 167:0.01125 168:9.04425 169:0.82125 170:4.78825 171:8.19625 172:3.48025 173:4.01625 174:2.84125 175:5.74925 176:-0.89375 177:-0.11975 178:8.86725 179:2.36125 180:4.43325 181:8.28825 182:9.85325 183:6.56725 184:4.59925 185:1.86025 186:13.44425 187:11.58525 188:0.77125 189:40 190:4.72725 191:8.04125 192:2.56025 193:2.60125 194:2.36625 195:0.77325 196:8.18525 197:40 198:4.89825 199:8.41325 200:9.78725 201:-0.15675 202:7.23725 203:8.19925 204:3.09425 205:5.87325 206:10.24025 207:1.61325 208:10.43325 209:-1.13975 210:9.33825 211:7.48625 212:4.77025 213:12.36925 214:8.90725 215:11.43025 216:40 217:10.08925 218:-4.77475 219:6.11325 220:40 221:7.77125 222:6.80925 223:9.58725 224:3.90725 225:-5.18475 226:4.45625 227:5.65325 228:6.69825 229:3.58125 230:9.81425 231:5.55625 232:40 233:10.07425 234:40 235:9.38325 236:7.12725 237:7.75825 238:5.96725 239:2.59325 240:11.10325 241:40 242:40 243:6.62925 244:6.61025 245:7.97225 246:8.35925 247:40 248:11.70625 249:8.70825 250:4.97425 251:40 252:40 253:40 254:13.80425 255:40 256:40 257:40 258:14.99925 259:40 260:40 261:40 262:40 263:13.76225 264:15.83225 265:40 266:40 267:40 268:40 269:8.23225 270:40 271:40 272:15.25225 273:16.01025 274:40 275:40 276:40 277:40 278:40 279:40 280:40 281:40 282:6.30225 283:40 284:40 285:40 286:40 287:4.39325 288:1.76225 289:3.78425 290:40 291:14.61425 292:40 293:12.67525 294:7.53925 295:8.91925 296:40 297:40 298:40 299:11.77325 300:9.46125 301:10.35525 302:10.56125 303:7.65425 304:12.29825 305:40 306:40 307:40 308:0.15225 309:6.02625 310:12.21325 311:6.46225 312:40 313:40 314:12.47225 315:2.26425 316:8.90325 317:3.53525 318:40 319:40 320:8.07625 321:1.15625 322:40 323:5.35825 324:15.91625 325:11.32125 326:6.16825 327:9.68525 328:7.80025 329:40 330:0.67625 331:40 332:9.72825 333:4.14125 334:7.82525 335:1.75425 336:6.59525 337:40 338:40 339:11.17525 340:1.52925 341:8.89125 342:40 343:40 344:40 345:4.90725 346:40 347:40 348:40 349:40 350:0.27525 351:7.02025 352:7.43825 353:40 354:40 355:4.78125 356:40 357:12.73825 358:40 359:40 360:10.29225 361:-1.25375 362:10.51825 363:8.56925 364:40 365:40 366:13.48125 367:40 368:6.97125 369:40 370:40 371:40 372:-0.12575 373:40 374:40 375:40 376:40 377:40 378:40 379:6.82725 380:14.51025 381:14.45425 382:40 384:5.06225 
-0.06640625 1:0.729375 2:2.742375 3:2.724375 4:-0.112625 5:4.287375 6:1.248375 7:6.951375 8:8.465375 9:4.330375 10:7.776375 11:3.526375 12:3.216375 13:3.625375 14:0.152375 15:-6.284625 16:-4.747625 17:2.646375 18:3.881375 19:-1.240625 20:-6.804625 21:-4.669625 22:-0.014625 23:-3.307625 24:0.764375 25:3.609375 26:40 27:-5.075625 28:-2.510625 29:-1.541625 30:0.436375 31:-1.354625 32:-0.342625 33:1.429375 34:2.020375 35:2.902375 36:3.058375 37:0.564375 38:7.223375 39:5.732375 40:-2.816625 41:-2.945625 42:5.424375 43:5.907375 44:40 45:3.716375 46:7.090375 47:-5.183625 48:-2.019625 49:8.580375 50:40 51:40 52:6.270375 53:0.508375 54:4.713375 55:2.350375 56:-0.751625 57:40 58:-5.074625 59:40 60:-2.374625 61:4.976375 62:-0.839625 63:7.653375 64:14.234375 65:5.527375 66:-0.355625 67:-5.378625 68:3.637375 69:40 70:3.878375 71:40 72:40 73:0.965375 74:1.440375 75:2.871375 76:1.743375 77:5.808375 78:6.770375 79:7.028375 80:13.110375 81:13.589375 82:40 83:6.623375 84:1.620375 85:-0.812625 86:3.164375 87:1.742375 88:6.551375 89:-2.733625 90:3.619375 91:0.844375 92:0.682375 93:-4.389625 94:9.040375 95:-0.989625 96:40 97:2.318375 98:3.902375 99:4.778375 100:-4.203625 101:2.053375 102:40 103:40 104:1.561375 105:5.712375 106:14.369375 107:6.794375 108:8.910375 109:5.517375 110:0.142375 111:1.701375 112:11.050375 113:40 114:13.015375 115:-4.827625 116:2.353375 117:13.809375 118:3.657375 119:0.580375 120:4.940375 121:4.391375 122:9.899375 123:-0.756625 124:40 125:4.915375 126:-1.386625 127:7.686375 128:3.300375 129:6.166375 130:3.089375 131:9.878375 132:4.622375 133:4.443375 134:4.728375 135:40 136:0.576375 137:3.612375 138:4.445375 139:7.942375 140:12.352375 141:40 142:3.228375 143:40 144:-1.922625 145:-1.110625 146:-9.400625 147:3.042375 148:40 149:3.951375 150:40 151:40 152:2.174375 153:6.133375 154:2.450375 155:-6.647625 156:4.465375 157:5.621375 158:-3.051625 159:6.837375 160:2.931375 161:0.472375 162:13.388375 163:-1.749625 164:11.178375 165:3.636375 166:40 167:-0.502625 168:8.206375 169:1.721375 170:8.046375 171:11.168375 172:4.271375 173:3.160375 174:3.758375 175:5.165375 176:-1.568625 177:-1.120625 178:5.512375 179:2.663375 180:5.139375 181:8.001375 182:9.824375 183:2.819375 184:4.197375 185:1.466375 186:40 187:14.351375 188:3.644375 189:40 190:5.333375 191:9.280375 192:1.350375 193:1.536375 194:3.079375 195:4.720375 196:7.027375 197:40 198:7.824375 199:40 200:10.407375 201:3.871375 202:13.354375 203:12.475375 204:7.274375 205:7.702375 206:9.148375 207:2.589375 208:11.272375 209:-1.793625 210:9.511375 211:12.568375 212:7.465375 213:14.646375 214:40 215:10.224375 216:40 217:40 218:-7.467625 219:7.905375 220:40 221:6.171375 222:10.988375 223:11.162375 224:3.691375 225:-4.704625 226:8.026375 227:40 228:5.692375 229:0.450375 230:40 231:8.020375 232:40 233:10.732375 234:40 235:40 236:7.723375 237:13.848375 238:8.943375 239:5.597375 240:40 241:40 242:40 243:7.392375 244:9.373375 245:5.494375 246:6.951375 247:9.458375 248:40 249:40 250:4.317375 251:40 252:40 253:40 254:9.078375 255:40 256:11.941375 257:40 258:40 259:40 260:40 261:40 262:40 263:8.838375 264:11.693375 265:40 266:40 267:40 268:40 269:40 270:40 271:40 272:0.836375 273:9.798375 274:10.786375 275:40 276:40 277:40 278:10.279375 279:40 280:40 281:40 282:4.138375 283:40 284:40 285:40 286:40 287:3.618375 288:1.172375 289:8.567375 290:40 291:9.600375 292:40 293:8.031375 294:8.693375 295:12.875375 296:40 297:40 298:40 299:12.626375 300:15.877375 301:40 302:11.162375 303:7.672375 304:40 305:40 306:40 307:11.066375 308:0.498375 309:6.506375 310:6.974375 311:6.132375 312:40 313:40 314:40 315:3.140375 316:8.605375 317:5.168375 318:40 319:40 320:5.471375 321:-3.721625 322:40 323:7.919375 324:40 325:11.445375 326:7.032375 327:6.507375 328:7.485375 329:40 330:1.321375 331:40 332:14.047375 333:40 334:13.138375 335:0.070375 336:6.804375 337:40 338:40 339:40 340:1.947375 341:11.321375 342:40 343:40 344:40 345:4.665375 346:40 347:40 348:40 349:40 350:0.185375 351:5.528375 352:5.704375 353:40 354:40 355:7.088375 356:40 357:40 358:40 359:40 360:14.395375 361:-2.159625 362:10.963375 363:8.521375 364:11.789375 365:40 366:40 367:40 368:7.524375 369:40 370:40 371:40 372:3.749375 373:40 374:40 375:40 376:40 377:40 378:40 379:5.712375 380:40 381:40 382:9.649375 384:9.456375 
-0.06640625 1:15.4885 2:5.9615 3:4.2545 4:4.3145 5:40 6:3.2245 7:6.9275 8:40 9:6.3615 10:40 11:5.4275 12:5.2275 13:12.4905 14:3.1695 15:-3.4295 16:-6.0955 17:1.7415 18:10.1085 19:-2.0555 20:-6.7135 21:-5.5655 22:-1.4515 23:-2.2465 24:4.2465 25:11.9145 26:40 27:-5.0705 28:-2.1335 29:-0.6615 30:0.7375 31:-0.6845 32:0.3775 33:1.3055 34:3.6075 35:5.3635 36:5.3095 37:0.2055 38:40 39:3.7375 40:0.8875 41:-0.1075 42:8.1985 43:8.8915 44:40 45:1.6285 46:40 47:-3.9645 48:-3.3275 49:9.3695 50:40 51:40 52:11.2455 53:5.6105 54:6.1935 55:2.3215 56:4.6235 57:40 58:-6.3775 59:40 60:-1.2395 61:40 62:-2.8795 63:40 64:40 65:5.8985 66:4.3475 67:-5.4765 68:1.6615 69:40 70:2.6445 71:9.8415 72:40 73:0.0415 74:1.0925 75:0.2385 76:2.0035 77:10.0115 78:4.5155 79:10.6035 80:11.7425 81:40 82:40 83:6.1085 84:2.5925 85:-0.3705 86:3.9055 87:-0.0975 88:9.7905 89:-1.6965 90:4.2595 91:2.4355 92:2.9165 93:-7.5385 94:6.2265 95:-1.6935 96:40 97:2.1895 98:3.5995 99:40 100:-1.4975 101:0.2535 102:40 103:40 104:4.8995 105:11.3905 106:40 107:40 108:15.5025 109:40 110:-0.7285 111:-3.0945 112:40 113:40 114:40 115:-5.9275 116:-0.6535 117:11.8265 118:0.9975 119:1.4255 120:5.3035 121:1.3145 122:9.5245 123:0.3005 124:40 125:13.1505 126:0.0735 127:40 128:15.7545 129:9.9525 130:9.8205 131:40 132:5.7475 133:10.3915 134:40 135:40 136:3.2245 137:10.6475 138:14.6705 139:40 140:40 141:40 142:4.4195 143:40 144:-2.6405 145:-3.9055 146:-9.1185 147:0.3625 148:40 149:6.4325 150:40 151:40 152:3.2565 153:9.3255 154:40 155:-5.6965 156:40 157:40 158:-3.0765 159:11.6975 160:2.5925 161:1.0035 162:40 163:-0.7045 164:11.4535 165:8.4715 166:40 167:2.2045 168:40 169:0.8795 170:7.7665 171:10.5495 172:0.9665 173:40 174:2.2455 175:2.5325 176:-0.1355 177:-0.1585 178:14.1535 179:0.9115 180:2.5225 181:6.4985 182:8.8765 183:7.6925 184:8.1175 185:40 186:40 187:40 188:7.2905 189:40 190:40 191:40 192:1.8995 193:3.3255 194:2.1975 195:2.5305 196:40 197:40 198:40 199:40 200:40 201:8.5295 202:40 203:40 204:7.9065 205:40 206:5.7695 207:2.9135 208:6.0465 209:4.1935 210:40 211:40 212:4.2395 213:40 214:40 215:8.2765 216:40 217:40 218:-4.6015 219:11.2605 220:40 221:4.4255 222:40 223:7.4645 224:-2.1425 225:-6.1105 226:9.9815 227:40 228:13.4995 229:2.2155 230:40 231:8.3905 232:40 233:10.6795 234:40 235:40 236:3.6405 237:40 238:8.0635 239:6.0895 240:40 241:40 242:40 243:11.6235 244:15.5835 245:7.6965 246:6.9995 247:40 248:40 249:40 250:5.7055 251:40 252:40 253:40 254:40 255:40 256:40 257:40 258:40 259:40 260:40 261:40 262:40 263:40 264:40 265:40 266:40 267:40 268:40 269:15.4455 270:40 271:8.9345 272:8.7425 273:11.5115 274:40 275:40 276:40 277:40 278:40 279:40 280:40 281:40 282:11.6895 283:40 284:40 285:40 286:40 287:4.6845 288:1.2075 289:7.8625 290:40 291:40 292:40 293:40 294:5.0615 295:11.5185 296:40 297:40 298:40 299:40 300:40 301:40 302:40 303:40 304:40 305:40 306:40 307:40 308:-0.9775 309:5.8845 310:40 311:6.2815 312:40 313:40 314:40 315:-0.0285 316:7.3655 317:3.1945 318:40 319:40 320:13.6915 321:11.8775 322:40 323:4.9415 324:40 325:6.9075 326:9.3775 327:7.7865 328:7.4655 329:40 330:0.8295 331:40 332:40 333:40 334:11.7915 335:0.3165 336:4.6085 337:40 338:40 339:40 340:0.4225 341:8.9005 342:40 343:40 344:40 345:7.7335 346:40 347:40 348:40 349:40 350:2.6675 351:9.2565 352:3.7405 353:40 354:40 355:8.6855 356:40 357:40 358:40 359:40 360:40 361:40 362:6.8855 363:6.1205 364:40 365:40 366:40 367:40 368:15.6035 369:40 370:40 371:40 372:2.0625 373:40 374:40 375:40 376:40 377:40 378:40 379:7.7835 380:40 381:40 382:40 384:40 
-0.0673828125 1:40 2:4.98325 3:4.82025 4:9.52725 5:40 6:3.70825 7:9.61825 8:40 9:5.76925 10:40 11:5.84625 12:5.83725 13:12.85825 14:2.77525 15:-5.52775 16:-6.22175 17:2.74025 18:14.55825 19:-0.30175 20:-6.41175 21:-4.46175 22:-1.52375 23:-0.76975 24:40 25:12.24325 26:40 27:-4.28275 28:-2.01675 29:1.65025 30:1.33225 31:-0.21675 32:1.85925 33:-0.25275 34:3.81025 35:5.90625 36:5.78125 37:0.09125 38:40 39:5.28925 40:0.96525 41:0.59825 42:10.34125 43:14.82925 44:40 45:3.98625 46:40 47:-3.99775 48:-2.78275 49:6.53925 50:40 51:40 52:15.87625 53:5.58625 54:7.07325 55:3.18125 56:4.35725 57:40 58:-6.41875 59:40 60:-1.49975 61:40 62:-3.59275 63:11.75125 64:40 65:4.58925 66:2.65025 67:-5.17075 68:2.03025 69:40 70:5.31925 71:40 72:40 73:1.22725 74:3.65725 75:5.04025 76:0.61725 77:11.61925 78:3.79725 79:40 80:40 81:14.60625 82:40 83:10.11425 84:4.74325 85:0.47525 86:3.05225 87:0.20325 88:6.23225 89:-0.44875 90:4.11725 91:2.51525 92:3.92225 93:-5.51375 94:40 95:-1.30475 96:40 97:2.17325 98:5.40025 99:40 100:-4.02475 101:2.15525 102:40 103:40 104:8.40125 105:16.36925 106:40 107:7.54825 108:10.66325 109:3.01025 110:-0.78075 111:-0.97275 112:40 113:40 114:40 115:-5.20475 116:-0.51575 117:14.92225 118:1.32025 119:-0.70375 120:4.68025 121:2.42625 122:12.46625 123:2.15125 124:40 125:40 126:0.09225 127:40 128:40 129:9.74925 130:5.44725 131:40 132:3.04525 133:40 134:6.57525 135:40 136:3.22325 137:6.91025 138:13.82225 139:40 140:8.44625 141:40 142:5.25725 143:40 144:-0.65775 145:-4.51875 146:-8.62975 147:7.50825 148:40 149:8.02225 150:40 151:40 152:3.64025 153:40 154:40 155:-6.01775 156:40 157:40 158:-4.96375 159:8.59425 160:1.59325 161:2.81025 162:40 163:-0.09775 164:40 165:12.97725 166:40 167:0.51325 168:40 169:3.96125 170:40 171:40 172:3.14925 173:40 174:4.80125 175:2.61925 176:-0.51075 177:-1.45075 178:40 179:1.33025 180:6.11625 181:5.72725 182:7.18525 183:5.29825 184:5.06325 185:40 186:40 187:10.81525 188:4.81625 189:40 190:7.10725 191:40 192:2.82725 193:3.41525 194:2.48225 195:2.47325 196:40 197:40 198:40 199:40 200:40 201:7.87025 202:40 203:8.16325 204:5.57725 205:8.31225 206:8.09925 207:2.51925 208:40 209:1.61725 210:40 211:40 212:4.80525 213:40 214:40 215:40 216:40 217:40 218:-5.90375 219:7.51825 220:40 221:2.82025 222:40 223:40 224:-2.07175 225:-6.54475 226:7.95525 227:40 228:12.03625 229:2.53325 230:40 231:6.47425 232:40 233:40 234:40 235:40 236:4.00925 237:9.81925 238:12.86625 239:6.21525 240:40 241:40 242:40 243:40 244:40 245:40 246:4.64125 247:10.07025 248:40 249:40 250:8.45925 251:40 252:40 253:40 254:40 255:40 256:40 257:40 258:40 259:40 260:40 261:40 262:40 263:40 264:40 265:40 266:40 267:40 268:40 269:40 270:40 271:40 272:40 273:40 274:40 275:40 276:40 277:40 278:40 279:40 280:40 281:40 282:13.73225 283:40 284:9.82525 285:40 286:40 287:3.47925 288:2.00125 289:6.57625 290:40 291:40 292:40 293:40 294:40 295:8.22325 296:40 297:40 298:40 299:40 300:40 301:40 302:40 303:40 304:40 305:40 306:40 307:40 308:-0.74375 309:40 310:40 311:6.10825 312:40 313:40 314:40 315:1.89525 316:40 317:7.86225 318:40 319:40 320:40 321:11.29225 322:40 323:9.07025 324:40 325:11.92525 326:13.69825 327:9.36225 328:40 329:40 330:2.83025 331:40 332:40 333:14.72525 334:14.01025 335:0.26925 336:5.28225 337:40 338:40 339:40 340:1.00725 341:40 342:40 343:40 344:40 345:9.94625 346:40 347:40 348:40 349:40 350:0.16125 351:40 352:6.13725 353:40 354:40 355:13.79825 356:40 357:40 358:40 359:40 360:40 361:40 362:40 363:5.91325 364:40 365:40 366:40 367:40 368:14.21925 369:40 370:40 371:40 372:1.66925 373:40 374:40 375:40 376:40 377:40 378:40 379:5.86825 380:40 381:40 382:40 384:40 
